tree
version=v4
num_class=1
num_tree_per_iteration=1
label_index=0
max_feature_idx=13
objective=regression
feature_names=current VLL VLN frequency power_factor hour day_of_week is_weekend month power_lag_1 power_lag_5 power_lag_10 rolling_mean_5 rolling_std_5
feature_infos=[1.97:42.460000000000001] [386.52999999999997:448.89001000000002] [223.16999999999999:259.17000999999999] [49.539999999999999:50.539999999999999] [0.83699999999999997:1.9990000000000001] [0:23] [0:6] [0:1] none [1.1699999999999999:29.050000000000001] [1.1699999999999999:29.050000000000001] [1.1699999999999999:29.050000000000001] [1.1779999999999999:28.314] [0:6.2478700370606672]
tree_sizes=2206 2205 2378 2375 2457 2538 2293 2550 2532 2638 2440 2566 2436 2530 2538 2551 2550 2467 2562 2542 2742 2645 2647 2649 2749 2637 2650 2727 2625 2713 2749 2762 2626 2635 2818 2653 2825 2741 2844 2642 2651 2715 2826 2650 2738 2749 2734 2646 2830 2643 2831 2749 2762 2666 2573 2485 2502 2488 2653 2590 2754 2746 2654 2753 2768 2480 2646 2512 2565 2420 2707 2571 2243 2560 2399 2317 2358 2256 2647 2257 2267 2550 2604 2335 2497 2162 2162 2749 2508 2421 2175 1982 1986 1579 2250 1898 1985 1908 2422 1897 1817 1630 2181 1633 2245 2706 2000 1645 1794 1793 2324 1379 1354 2078 1726 1998 1348 1825 1643 1902 1890 1282 2212 2265 2104 1897 2073 2082 1436 2252 2368 1579 1531 1445 1253 1784 2087 2093 1883 1707 1886 1798 1341 1530 1538 2435 1886 1757 1956 2238 2075 1450 2001 2282 2429 2157 1775 1436 1586 1493 1355 1726

Tree=0
num_leaves=25
num_cat=0
split_feature=12 12 12 12 12 12 12 12 12 12 12 12 12 12 12 12 12 12 12 4 5 12 12 12
split_gain=512434 49219.4 30910.6 8733.81 8639.42 6813.6 1295.6 1043.55 1033.27 1005.11 709.204 675.819 564.052 188.806 116.248 97.2307 96.9822 96.6291 93.6048 74.7797 54.3198 25.1273 16.3181 12.2314
threshold=9.5450000000000035 17.185000000000006 3.3070000000000004 21.856000000000005 6.0610000000000008 13.362 2.0790000000000006 11.691000000000003 14.933000000000002 4.7310000000000008 7.9880000000000004 19.543000000000003 24.560000000000006 2.547000000000001 10.792000000000003 6.9090000000000016 4.1750000000000016 5.2950000000000008 1.5930000000000006 0.99850000000000005 8.5000000000000018 1.9030000000000002 3.1010000000000009 12.285000000000002
decision_type=2 2 2 2 2 2 2 2 2 2 2 2 2 2 2 2 2 2 2 2 2 2 2 2
left_child=2 5 6 11 9 7 18 14 -7 16 15 -3 -5 -8 -2 -6 -4 -11 -1 -10 -12 -20 -15 -9
right_child=1 3 4 12 10 8 13 23 19 17 20 -13 -14 22 -16 -17 -18 -19 21 -21 -22 -23 -24 -25
leaf_value=5.5785567220840715 6.0181789770904457 6.4161850507370985 5.703333004838969 6.6462211147810955 5.8342721793157155 6.2098813339293537 5.6208847309126835 6.1085216797735304 6.3763973059683074 5.7550360659975732 5.9622379973321245 6.5201355324444741 6.8055548668006036 5.6463341154628051 6.069773321760267 5.877788371195269 5.7224558615437324 5.7862740645857658 5.5917808192232323 6.2912827655323467 5.9202086760855179 5.6073570385649143 5.6676131972690049 6.1472471341290209
leaf_weight=1810 321 508 1958 189 261 646 1467 193 91 664 230 379 248 756 256 261 1071 396 4248 554 162 580 201 453
leaf_count=1810 321 508 1958 189 261 646 1467 193 91 664 230 379 248 756 256 261 1071 396 4248 554 162 580 201 453
internal_value=5.79575 6.30772 5.65601 6.55448 5.75578 6.17739 5.60094 6.0921 6.25774 5.72472 5.89464 6.46175 6.73979 5.63252 6.04172 5.8562 5.71005 5.76668 5.58944 6.30461 5.94541 5.59359 5.6506 6.13643
internal_weight=17903 3838 14065 1324 5003 2514 9062 1223 1291 4089 914 887 437 2424 577 522 3029 1060 6638 645 392 4828 957 646
internal_count=17903 3838 14065 1324 5003 2514 9062 1223 1291 4089 914 887 437 2424 577 522 3029 1060 6638 645 392 4828 957 646
is_linear=0
shrinkage=1


Tree=1
num_leaves=24
num_cat=0
split_feature=9 9 12 12 12 12 12 12 12 12 9 9 12 12 9 12 12 9 12 12 12 12 12
split_gain=462720 45464.6 27119.4 8990.21 7176.16 5531.88 1169.61 1067.9 1060.64 908.786 711.462 578.886 508.306 160.96 159.411 99.522 89.9471 85.2737 76.2337 60.6305 24.4562 14.756 6.11748
threshold=9.2750000000000004 16.845000000000002 3.3070000000000004 21.856000000000005 6.0610000000000008 13.362 2.1010000000000004 11.691000000000003 18.603000000000005 4.6850000000000014 15.085000000000003 7.7250000000000005 24.560000000000006 2.547000000000001 10.875000000000002 5.2950000000000008 1.6240000000000006 4.1750000000000007 8.697000000000001 6.9090000000000016 1.9030000000000002 2.9030000000000009 12.285000000000002
decision_type=2 2 2 2 2 2 2 2 2 2 2 2 2 2 2 2 2 2 2 2 2 2 2
left_child=2 5 6 8 9 7 16 14 -3 17 -7 19 -5 -8 -2 -11 -1 -4 -13 -6 -18 -15 -9
right_child=1 3 4 12 11 10 13 22 -10 15 -12 18 -14 21 -16 -17 20 -19 -20 -21 -22 -23 -24
leaf_value=-0.20470133082230235 0.20740209928050582 0.55651918828824154 -0.089091856775989464 0.80828194405463116 0.035466003319299388 0.39424934670425649 -0.1656678914725887 0.29774088246481761 0.67054279732262267 -0.040150712913088887 0.4792633598343482 0.11492368594843841 0.9596176938685721 -0.14480542067711935 0.26454909872856874 -0.0090043430833977728 -0.19311699582531694 -0.071382725173133391 0.16226074365533402 0.071789138046790185 -0.17865028858551896 -0.12811445512123762 0.33341060774328957
leaf_weight=2308 384 441 1774 189 255 693 1399 191 565 732 480 244 248 550 234 396 3750 1187 159 217 648 407 452
leaf_count=2308 384 441 1774 189 255 693 1399 191 565 732 480 244 248 550 234 396 3750 1187 159 217 648 407 452
internal_value=2.09001e-05 0.4834 -0.13363 0.705798 -0.039676 0.351198 -0.185081 0.277839 0.621461 -0.0674858 0.429605 0.0901763 0.897155 -0.154491 0.229628 -0.0292428 -0.195791 -0.0820324 0.134133 0.0523399 -0.191047 -0.137919 0.323533
internal_weight=17903 3877 14026 1443 4964 2434 9062 1261 1006 4089 1173 875 437 2356 618 1128 6706 2961 403 472 4398 957 643
internal_count=17903 3877 14026 1443 4964 2434 9062 1261 1006 4089 1173 875 437 2356 618 1128 6706 2961 403 472 4398 957 643
is_linear=0
shrinkage=0.05


Tree=2
num_leaves=26
num_cat=0
split_feature=9 9 9 9 9 9 9 9 9 9 9 9 9 13 9 9 9 6 9 9 9 13 5 4 13
split_gain=417761 42273.9 22808.4 7863.93 5746.62 5101.61 1249.07 1158.85 911.413 869.145 641.318 566.535 416.849 274.234 133.379 109.892 107.587 83.657 72.9179 64.0845 58.5662 47.2417 40.346 35.9327 2.51306
threshold=8.9950000000000028 16.845000000000002 3.1950000000000007 21.785000000000004 6.0750000000000011 13.405000000000003 11.445000000000002 2.0650000000000004 18.935000000000006 4.745000000000001 15.085000000000003 24.235000000000003 7.7250000000000005 0.65572477918043159 10.105000000000002 2.6350000000000002 4.1750000000000007 2.5000000000000004 1.5750000000000004 5.4850000000000012 6.7350000000000012 0.64487981512424686 7.5000000000000009 1.9895000000000003 0.57037268476064973
decision_type=2 2 2 2 2 2 2 2 2 2 2 2 2 2 2 2 2 2 2 2 2 2 2 2 2
left_child=2 5 7 8 9 6 14 18 -3 16 -7 -5 20 15 -2 -9 -4 -8 24 -11 -6 -20 -14 -15 -1
right_child=1 3 4 11 12 10 17 13 -10 19 -12 -13 22 23 -16 -17 -18 -19 21 -21 -22 -23 -24 -25 -26
leaf_value=-0.19630561540149455 0.17920178015754648 0.53383519708051452 -0.086966530202359699 0.75271970452664672 0.028823089363039844 0.37322742792638491 0.32377316857340976 -0.15779194101124139 0.64004938096010378 -0.033481862494560852 0.45497232777241692 0.90336392597598936 0.13980037672891163 -0.1237740088833703 0.23103228840982193 -0.13142561095003055 -0.067271327801882802 0.27908613131596494 -0.1828469681991246 -0.0045618588391799697 0.065084852877181465 -0.12487652502437629 0.10246545999095991 -0.077314929836969762 -0.14388086542170098
leaf_weight=1735 254 477 1780 182 204 644 472 1667 514 848 485 270 176 66 354 604 1200 278 4787 248 255 49 174 158 22
leaf_count=1735 254 477 1780 182 204 644 472 1667 514 848 485 270 176 66 354 604 1200 278 4787 248 255 49 174 158 22
internal_value=3.7162e-05 0.455364 -0.128062 0.670663 -0.0409135 0.330115 0.264236 -0.174891 0.589809 -0.0650738 0.408901 0.845397 0.080709 -0.14562 0.209874 -0.150871 -0.0790734 0.307799 -0.185933 -0.0269531 0.0491149 -0.182298 0.121756 -0.091736 -0.195772
internal_weight=17903 3930 13973 1443 4885 2487 1358 9088 991 4076 1129 452 809 2495 608 2271 2980 750 6593 1096 459 4836 350 224 1757
internal_count=17903 3930 13973 1443 4885 2487 1358 9088 991 4076 1129 452 809 2495 608 2271 2980 750 6593 1096 459 4836 350 224 1757
is_linear=0
shrinkage=0.05


Tree=3
num_leaves=26
num_cat=0
split_feature=0 0 12 0 0 0 0 0 0 0 0 0 0 0 0 0 0 0 0 0 0 12 0 12 0
split_gain=379780 37450.1 22735.9 6260.64 6042.18 5432.82 1127.06 955.347 917.814 860.436 451.847 451.649 178.318 160.418 96.2395 93.0949 81.7419 80.6558 68.4565 51.0916 34.9399 32.1449 29.2628 16.6219 7.97056
threshold=13.565000000000003 26.075000000000003 3.3070000000000004 8.9150000000000009 20.035000000000004 33.035000000000004 16.930000000000003 3.1250000000000004 6.7150000000000007 22.215000000000003 11.195000000000002 29.615000000000006 35.960000000000008 4.1050000000000013 15.575000000000001 7.6450000000000005 18.595000000000002 2.4950000000000006 5.9050000000000011 9.8950000000000014 24.085000000000004 1.9030000000000002 12.230000000000002 2.4190000000000009 5.6450000000000005
decision_type=2 2 2 2 2 2 2 2 2 2 2 2 2 2 2 2 2 2 2 2 2 2 2 2 2
left_child=2 4 7 8 6 11 14 17 18 -6 19 -3 -7 23 -2 -10 -8 -1 -4 -5 -11 -19 -12 -9 -15
right_child=1 5 3 10 9 12 16 13 15 20 22 -13 -14 24 -16 -17 -18 21 -20 -21 -22 -23 -24 -25 -26
leaf_value=-0.18651227463888703 0.19020080320920663 0.55738039897261438 -0.082151302141029933 0.034799024692338053 0.36869206654633713 0.74876587575533582 0.28298430487954407 -0.15135150502650482 -0.031913583272046846 0.43187125744431781 0.11066802912880179 0.64903482083462372 0.87528291747310571 -0.11729064103527742 0.23622490275377608 -0.0017573142011980459 0.32326807998394769 -0.17493221659921551 -0.066633719817841455 0.0700708869525834 0.48106830183978816 -0.16057655859966669 0.14083591700304768 -0.13730283755004244 -0.077545670068488934
leaf_weight=1846 319 461 1493 210 531 147 421 1181 835 312 213 345 242 566 264 369 420 4188 1485 211 353 709 210 547 25
leaf_count=1846 319 461 1493 210 531 147 421 1181 835 312 213 345 242 566 264 369 420 4188 1485 211 353 709 210 547 25
internal_value=5.0707e-05 0.442488 -0.119795 -0.0344899 0.336355 0.674469 0.266219 -0.167093 -0.0595609 0.419423 0.0896217 0.597745 0.830533 -0.139152 0.211595 -0.022685 0.303642 -0.17667 -0.0744508 0.0526629 0.45901 -0.172904 0.12609 -0.147027 -0.11581
internal_weight=17903 3815 14088 5026 2620 1195 1424 9062 4182 1196 844 806 389 2319 583 1204 841 6743 2978 421 665 4897 423 1728 591
internal_count=17903 3815 14088 5026 2620 1195 1424 9062 4182 1196 844 806 389 2319 583 1204 841 6743 2978 421 665 4897 423 1728 591
is_linear=0
shrinkage=0.05


Tree=4
num_leaves=27
num_cat=0
split_feature=0 0 0 0 0 0 0 0 0 0 0 0 13 0 0 0 0 0 0 0 0 0 0 0 10 13
split_gain=342887 33822.2 20142.4 5455.01 5321.99 4912.3 1356.53 1017.13 777.538 732.517 422.877 408.228 208.052 185.101 159.675 102.556 86.9559 81.5861 73.8005 52.324 48.1729 38.9576 31.47 26.4308 21.5453 4.7557
threshold=13.565000000000003 26.075000000000003 5.3950000000000005 20.035000000000004 8.9150000000000009 33.035000000000004 3.2450000000000006 16.930000000000003 22.215000000000003 6.7150000000000007 11.195000000000002 29.615000000000006 0.81974379379138873 4.1550000000000011 35.960000000000008 2.7850000000000006 15.575000000000001 7.6450000000000005 18.595000000000002 9.8950000000000014 2.3450000000000002 5.9050000000000011 24.085000000000004 12.230000000000002 5.285000000000001 0.80608311987823378
decision_type=2 2 2 2 2 2 2 2 2 2 2 2 2 2 2 2 2 2 2 2 2 2 2 2 2 2
left_child=2 3 6 7 9 11 15 16 -5 21 19 -3 13 -8 -7 20 -2 -11 -9 -6 -1 -4 -10 -12 -14 -17
right_child=1 5 4 8 10 14 12 18 22 17 23 -13 24 -15 -16 25 -18 -19 -20 -21 -22 -23 -24 -25 -26 -27
leaf_value=-0.18081517144115297 0.18073527169487966 0.52960176114133883 -0.076138820246102246 0.35030939182765053 0.031110375107967214 0.71170574591216018 -0.13747930523262405 0.26888532347933075 0.41038101164347823 -0.030346544926845038 0.10517332351783895 0.61672357542690259 -0.080365438008308421 -0.1049950258212338 0.83178838684818346 -0.15293188752818276 0.22448039102015521 -0.0021503306896310469 0.30716219830767544 0.066592073882327366 -0.16724837253176617 -0.063351225525834984 0.45711666498601189 0.1338440634750587 -0.026799057370850018 -0.1166494709171661
leaf_weight=1089 319 461 1115 531 213 147 1544 421 312 837 213 345 186 657 242 1076 264 370 420 211 4816 1493 353 210 23 35
leaf_count=1089 319 461 1115 531 213 147 1544 421 312 837 213 345 186 657 242 1076 264 370 420 211 4816 1493 353 210 23 35
internal_value=6.62382e-05 0.420465 -0.113809 0.319603 -0.0287853 0.640923 -0.15585 0.252963 0.398532 -0.0539583 0.0844923 0.56797 -0.1233 -0.127861 0.789318 -0.167002 0.20107 -0.0217165 0.288514 0.04894 -0.169796 -0.0688589 0.436162 0.11983 -0.0747035 -0.151948
internal_weight=17903 3815 14088 2620 4662 1195 9426 1424 1196 3815 847 806 2410 2201 389 7016 583 1207 841 424 5905 2608 665 423 209 1111
internal_count=17903 3815 14088 2620 4662 1195 9426 1424 1196 3815 847 806 2410 2201 389 7016 583 1207 841 424 5905 2608 665 423 209 1111
is_linear=0
shrinkage=0.05


Tree=5
num_leaves=28
num_cat=0
split_feature=0 0 12 0 0 0 0 0 0 0 0 0 0 0 0 0 0 9 0 0 0 12 9 0 0 0 0
split_gain=309578 30555.1 18549.4 5101.96 4768.96 4580.13 853.517 773.997 745.521 719.384 465.998 368.028 152.639 133.069 75.9798 73.5883 64.7189 60.262 41.4106 35.9421 23.8728 23.8195 18.601 8.15584 5.66148 5.57709 2.35329
threshold=13.565000000000003 25.805000000000003 3.3070000000000004 8.9150000000000009 33.035000000000004 19.555000000000003 22.215000000000003 3.1050000000000004 6.7150000000000007 16.470000000000002 28.125000000000004 11.195000000000002 36.930000000000007 4.1050000000000013 7.6450000000000005 17.825000000000003 2.4350000000000005 4.1750000000000007 9.8950000000000014 14.625000000000002 12.230000000000002 1.8310000000000006 2.4350000000000005 30.420000000000005 5.6450000000000005 21.135000000000002 24.085000000000004
decision_type=2 2 2 2 2 2 2 2 2 2 2 2 2 2 2 2 2 2 2 2 2 2 2 2 2 2 2
left_child=2 5 7 8 10 9 25 16 17 19 -3 18 -6 22 -10 -11 -1 -4 -5 -2 -13 -18 -9 -12 -15 -7 -8
right_child=1 4 3 11 12 6 26 13 14 15 23 20 -14 24 -16 -17 21 -19 -20 -21 -22 -23 -24 -25 -26 -27 -28
leaf_value=-0.16989346356822466 0.15818405674996777 0.47630261897270443 -0.073178186779243579 0.031526927314324403 0.69214259220911212 0.31309462972468005 0.38996012845868322 -0.13708677220510818 -0.028806158771668269 0.2384740862591862 0.53731272083589399 0.099951430441407904 0.80383872382092536 -0.10618418982572493 -0.0015627229633090587 0.27727302550264604 -0.15863249394966705 -0.058416778289161142 0.063285972720998174 0.19434601900730045 0.12719932184433544 -0.14723260320236878 -0.12305974584297846 0.59780322691406862 -0.071408894770550277 0.34567111279331364 0.43092516423057292
leaf_weight=1477 159 308 1750 210 197 423 312 1289 835 317 303 213 192 566 369 473 4290 1228 211 319 210 895 520 246 25 264 302
leaf_count=1477 159 308 1750 210 197 423 312 1289 835 317 303 213 192 566 369 473 4290 1228 211 319 210 895 520 246 25 264 302
internal_value=8.00431e-05 0.399538 -0.108123 -0.0310715 0.602739 0.300688 0.366774 -0.150846 -0.0537039 0.23253 0.534634 0.080968 0.750149 -0.12627 -0.020469 0.262186 -0.159669 -0.0671237 0.0476123 0.18285 0.11388 -0.156708 -0.13316 0.565973 -0.104898 0.326339 0.41111
internal_weight=17903 3815 14088 5026 1246 2569 1301 9062 4182 1268 857 844 389 2400 1204 790 6662 2978 421 478 423 5185 1809 549 591 687 614
internal_count=17903 3815 14088 5026 1246 2569 1301 9062 4182 1268 857 844 389 2400 1204 790 6662 2978 421 478 423 5185 1809 549 591 687 614
is_linear=0
shrinkage=0.05


Tree=6
num_leaves=25
num_cat=0
split_feature=0 0 12 0 0 0 0 12 0 0 0 0 0 0 0 0 9 0 0 0 0 0 0 0
split_gain=279523 27604.5 16743.7 4609.72 4456.51 4027.89 896.474 700.583 609.075 547.032 473.302 395.261 122.922 81.9153 72.3855 60.7529 54.3827 52.5351 52.2452 24.697 24.3154 21.5625 8.86959 8.09305
threshold=13.565000000000003 26.075000000000003 3.3070000000000004 8.7250000000000032 20.255000000000006 34.080000000000005 16.930000000000003 2.1010000000000004 6.7150000000000007 22.215000000000003 29.615000000000006 11.195000000000002 4.0150000000000006 18.795000000000005 15.575000000000001 2.4750000000000005 4.1750000000000007 9.8950000000000014 7.495000000000001 24.085000000000004 2.8150000000000004 12.230000000000002 4.4000000000000012 3.7250000000000005
decision_type=2 2 2 2 2 2 2 2 2 2 2 2 2 2 2 2 2 2 2 2 2 2 2 2
left_child=2 4 7 8 6 10 14 15 16 -6 -3 17 23 -8 -2 -1 -4 -5 -10 -11 -17 -13 -14 -9
right_child=1 5 3 11 9 -7 13 12 18 19 -12 21 22 -15 -16 20 -18 -19 -20 -21 -22 -23 -24 -25
leaf_value=-0.16064682520200996 0.1629659765782111 0.47812414274988946 -0.069522411707491474 0.026431233375482893 0.3188307365859015 0.72687785531207372 0.24459725417800007 -0.1298681876625373 -0.029063530096637452 0.37055542031733801 0.56438283887132534 0.09498880613065544 -0.10870008490263897 0.28172250102281854 0.20278479157194582 -0.15030850722682249 -0.055499501435798931 0.06014401097398471 -0.0069785869422325135 0.41257604126869707 -0.13833153764894876 0.12088446173845542 -0.094084618233361297 -0.11732161359998035
leaf_weight=1689 319 461 1750 263 478 340 474 1295 725 312 394 213 342 420 264 4245 1228 211 426 353 772 210 359 360
leaf_count=1689 319 461 1750 263 478 340 474 1295 725 312 394 213 342 420 264 4245 1228 211 426 353 772 210 359 360
internal_value=9.57371e-05 0.379668 -0.102721 -0.0295155 0.288548 0.578834 0.230722 -0.143311 -0.0518347 0.362872 0.518793 0.0731373 -0.119636 0.262481 0.181471 -0.1516 -0.0637708 0.0415808 -0.0209093 0.393739 -0.148507 0.108227 -0.101432 -0.127248
internal_weight=17903 3815 14088 5026 2620 1195 1477 9062 4129 1143 855 897 2356 894 583 6706 2978 474 1151 665 5017 423 701 1655
internal_count=17903 3815 14088 5026 2620 1195 1477 9062 4129 1143 855 897 2356 894 583 6706 2978 474 1151 665 5017 423 701 1655
is_linear=0
shrinkage=0.05


Tree=7
num_leaves=28
num_cat=0
split_feature=0 0 12 0 0 0 0 12 0 0 0 0 0 0 12 0 12 0 0 0 0 0 0 0 0 0 0
split_gain=252355 24926.9 15113.9 4163.28 3909.75 3740.5 760.257 633.307 606.401 531.788 463.865 299.312 215.265 95.9512 65.8393 65.2094 50.867 45.1477 34.7351 31.155 25.2601 19.4757 18.5218 10.7049 9.16885 5.56969 4.85197
threshold=13.565000000000003 25.805000000000003 3.3070000000000004 8.9150000000000009 31.710000000000004 19.355000000000004 22.215000000000003 2.1650000000000005 6.7150000000000007 16.470000000000002 35.960000000000008 11.195000000000002 28.125000000000004 4.1050000000000013 1.7340000000000004 8.1450000000000014 4.3370000000000006 17.825000000000003 10.160000000000002 14.625000000000002 2.3450000000000002 12.230000000000002 20.425000000000004 3.7250000000000005 2.8950000000000005 23.515000000000004 5.6450000000000005
decision_type=2 2 2 2 2 2 2 2 2 2 2 2 2 2 2 2 2 2 2 2 2 2 2 2 2 2 2
left_child=2 5 7 8 12 9 22 14 16 19 -6 18 -3 23 20 -10 -4 -11 -5 -2 -1 -13 -7 -9 -16 -8 -15
right_child=1 4 3 11 10 6 25 13 15 17 -12 21 -14 26 24 -17 -18 -19 -20 -21 -22 -23 -24 -25 -26 -27 -28
leaf_value=-0.15562577757480606 0.14227662563695342 0.42935263844799726 -0.064155642010246539 0.031591235258681898 0.59417691680529061 0.27461641536258941 0.34390100004564894 -0.12232985407481622 -0.023819699395351102 0.21512348825927807 0.71553758811167389 0.090272579349073789 0.49817294534398704 -0.095274674769816797 -0.13947089746901428 0.0069138563734030259 -0.048194742600111549 0.24794373969781669 0.06156496410359661 0.17557632881282087 -0.14479387724691417 0.11488310488614631 0.30555885580535785 -0.1103251957706132 -0.12978646968014687 0.38377943571359835 -0.063602596830646951
leaf_weight=1067 159 308 2307 262 245 318 208 1093 996 317 242 213 451 553 1576 208 671 418 159 319 3450 210 424 476 822 406 25
leaf_count=1067 159 308 2307 262 245 318 208 1093 996 317 242 213 451 553 1576 208 671 418 159 319 3450 210 424 476 822 406 25
internal_value=0.00010354 0.360759 -0.0975891 -0.0280376 0.544293 0.271476 0.328687 -0.136153 -0.0484824 0.207194 0.656495 0.0731717 0.471148 -0.112211 -0.143561 -0.0185083 -0.0605854 0.234256 0.0430899 0.164979 -0.147403 0.102853 0.292879 -0.118797 -0.136234 0.371141 -0.094073
internal_weight=17903 3815 14088 5026 1246 2569 1356 9062 4182 1213 487 844 759 2147 6915 1204 2978 735 421 478 4517 423 742 1569 2398 614 578
internal_count=17903 3815 14088 5026 1246 2569 1356 9062 4182 1213 487 844 759 2147 6915 1204 2978 735 421 478 4517 423 742 1569 2398 614 578
is_linear=0
shrinkage=0.05


Tree=8
num_leaves=28
num_cat=0
split_feature=0 0 12 0 0 0 0 12 0 0 0 0 0 0 12 0 0 12 0 0 0 0 12 0 1 0 0
split_gain=227844 22516.8 13650.8 3646.42 3635 3307.41 788.093 720.618 499.884 394.542 374.898 265.184 129.385 85.8239 60.4108 60.261 50.9521 47.2406 42.1159 21.8728 21.7659 20.7233 16.2545 8.80911 7.38296 6.41307 4.8752
threshold=13.565000000000003 26.075000000000003 3.5970000000000009 8.9150000000000009 20.425000000000004 34.080000000000005 16.930000000000003 2.1650000000000005 6.8350000000000009 30.010000000000002 22.215000000000003 11.435 4.1550000000000011 19.005000000000006 1.6600000000000006 15.575000000000001 8.1450000000000014 4.3370000000000006 10.160000000000002 2.8550000000000004 24.085000000000004 5.6950000000000012 2.4590000000000005 2.2750000000000004 418.2149950000001 12.230000000000002 36.930000000000007
decision_type=2 2 2 2 2 2 2 2 2 2 2 2 2 2 2 2 2 2 2 2 2 2 2 2 2 2 2
left_child=2 4 7 8 6 9 15 14 17 -3 24 18 22 -8 23 -2 -10 -4 -5 -16 -12 -14 -9 -1 -6 -13 -7
right_child=1 5 3 11 10 26 13 12 16 -11 20 25 21 -15 19 -17 -18 -19 -20 -21 -22 -23 -24 -25 -26 -27 -28
leaf_value=-0.14858899485667762 0.14694408142529489 0.43532886291131745 -0.059285689509023569 0.031055292897425008 0.29502192853504033 0.60417147017641615 0.22252407364370699 -0.11636097313810211 -0.02088617845335991 0.51514472721627069 0.33434205975448877 0.090683136240794104 -0.088419062541701454 0.25825906134833976 -0.13440593431135214 0.18319161021327793 0.0065706386915485877 -0.044564080494960835 0.061448428291608306 -0.12361468802225611 0.37259892953299673 -0.056334237252120625 -0.10399661614566345 -0.13940853462862718 0.23003734620412192 0.10917968895841153 0.69239664854005323
leaf_weight=914 319 511 2118 260 388 148 526 1037 885 344 312 161 627 422 3174 264 208 771 211 887 353 66 619 1940 36 210 192
leaf_count=914 319 511 2118 260 388 148 526 1037 885 344 312 161 627 422 3174 264 208 771 211 887 353 66 619 1940 36 210 192
internal_value=0.000113166 0.342806 -0.0927139 -0.0244979 0.26051 0.522684 0.210432 -0.128226 -0.0444887 0.468288 0.330527 0.0699541 -0.104125 0.238814 -0.136389 0.163786 -0.0156592 -0.055382 0.0448228 -0.132095 0.355443 -0.0854916 -0.111838 -0.142425 0.290335 0.10155 0.656815
internal_weight=17903 3815 14088 4824 2620 1195 1531 9264 3982 855 1089 842 2349 948 6915 583 1093 2889 471 4061 665 693 1656 2854 424 371 340
internal_count=17903 3815 14088 4824 2620 1195 1531 9264 3982 855 1089 842 2349 948 6915 583 1093 2889 471 4061 665 693 1656 2854 424 371 340
is_linear=0
shrinkage=0.05


Tree=9
num_leaves=29
num_cat=0
split_feature=0 0 0 0 0 0 0 0 0 0 0 0 9 0 9 0 9 0 0 0 0 0 0 0 0 0 0 0
split_gain=205717 20335.3 12142.7 3224.04 3181.4 3054.04 805.211 561.849 480.554 431.905 330.937 254.896 173.658 123.467 63.6033 51.8985 45.4056 43.2561 36.3759 35.3344 32.3471 27.0012 17.0055 15.6716 12.4053 10.3956 6.40242 5.96065
threshold=13.565000000000003 25.805000000000003 5.3950000000000005 33.035000000000004 8.9150000000000009 19.555000000000003 3.2450000000000006 22.215000000000003 16.470000000000002 6.8350000000000009 28.125000000000004 11.195000000000002 3.1950000000000007 36.930000000000007 1.7150000000000001 17.825000000000003 4.4150000000000009 8.1450000000000014 4.0150000000000006 6.285000000000001 9.8950000000000014 14.625000000000002 2.3450000000000002 12.230000000000002 2.8150000000000004 21.135000000000002 30.815000000000001 23.515000000000004
decision_type=2 2 2 2 2 2 2 2 2 2 2 2 2 2 2 2 2 2 2 2 2 2 2 2 2 2 2 2
left_child=2 5 6 10 9 8 14 25 21 19 -3 20 18 -5 22 -10 -14 -11 -8 -4 -6 -2 -1 -13 -16 -7 -12 -9
right_child=1 3 4 13 11 7 12 27 15 17 26 23 16 -15 24 -17 -18 -19 -20 -21 -22 -23 -24 -25 -26 -27 -28 -29
leaf_value=-0.1404951343471364 0.12795074203304044 0.38684492573406853 -0.055605601283925388 0.56383903651153411 0.023902350377578003 0.25472854947313683 -0.10704907579698741 0.31023165035930628 0.19399250364939871 -0.019820119704787892 0.44203020631002404 0.081642425116281836 -0.078065104127463217 0.65804520959385915 -0.12629753786279641 0.22623422841754426 -0.043104256279633039 0.0054271155838067084 -0.090820332680651678 -0.042270575863861078 0.051789390340776134 0.15862666141363835 -0.13112239662574329 0.10375942117655673 -0.11728991425276621 0.28316597705058011 0.49336162466246175 0.34658791269992761
leaf_weight=1062 159 308 2021 197 213 423 1364 208 317 887 352 213 334 192 1885 473 138 209 574 698 211 319 3049 210 1020 264 197 406
leaf_count=1062 159 308 2021 197 213 423 1364 208 317 887 352 213 334 192 1885 473 138 209 574 698 211 319 3049 210 1020 264 197 406
internal_value=0.000122391 0.32575 -0.0880821 0.491521 -0.0220668 0.245109 -0.120724 0.299072 0.189453 -0.0415298 0.435549 0.0655153 -0.0956444 0.612686 -0.129316 0.213689 -0.0680124 -0.0150048 -0.102316 -0.0522075 0.0379137 0.148855 -0.133594 0.0929503 -0.123197 0.26625 0.461744 0.335058
internal_weight=17903 3815 14088 1246 4662 2569 9426 1301 1268 3815 857 847 2410 389 7016 790 472 1096 1938 2719 424 478 4111 423 2905 687 549 614
internal_count=17903 3815 14088 1246 4662 2569 9426 1301 1268 3815 857 847 2410 389 7016 790 472 1096 1938 2719 424 478 4111 423 2905 687 549 614
is_linear=0
shrinkage=0.05


Tree=10
num_leaves=27
num_cat=0
split_feature=0 0 12 0 0 0 12 0 0 0 0 0 0 0 10 0 12 0 12 12 0 0 0 5 9 0
split_gain=185746 18376.6 11136.3 2972.99 2969.16 2714.16 588.13 551.599 412.54 408.414 326.211 217.378 93.094 67.1357 61.061 50.1749 49.8794 34.2658 29.722 28.8127 19.1301 13.5112 12.3589 6.9095 5.86613 5.17547
threshold=13.565000000000003 26.075000000000003 3.5970000000000009 8.9150000000000009 20.035000000000004 34.080000000000005 2.2890000000000006 16.930000000000003 22.215000000000003 6.7150000000000007 29.615000000000006 11.435 2.8150000000000004 4.2650000000000006 13.525 15.575000000000001 5.2950000000000008 10.160000000000002 4.3370000000000006 1.5370000000000006 24.085000000000004 5.6950000000000012 38.005000000000003 10.500000000000002 3.8250000000000006 12.495000000000003
decision_type=2 2 2 2 2 2 2 2 2 2 2 2 2 2 2 2 2 2 2 2 2 2 2 2 2 2
left_child=2 4 6 9 7 10 12 15 23 18 -3 17 19 24 -9 -2 -11 -5 -4 -1 -10 -15 -7 -6 -8 -13
right_child=1 5 3 11 8 22 13 14 20 16 -12 25 -14 21 -16 -17 -18 -19 -20 -21 -22 -23 -24 -25 -26 -27
leaf_value=-0.13233459113539955 0.13249796690265309 0.38918727788409674 -0.053601432121086451 0.028045901917562205 0.26160636382760843 0.55635810713224776 -0.097094728250594897 0.19977322754657389 0.30166453995773096 -0.024084116930431099 0.4604667058061484 0.084369284267215336 -0.11038631205082722 -0.077983026050809603 0.23344824911149079 0.16549793185627618 -0.0033072516661310949 0.055461242596454491 -0.041223294582273334 -0.12270160729385726 0.33650216659470572 -0.051353099558640418 0.63789792978476834 0.20366788546244308 -0.060274413435958157 0.10109054775268123
leaf_weight=1320 319 461 2110 260 495 196 1199 540 312 717 394 214 1526 501 301 264 484 211 671 4632 353 66 144 36 20 157
leaf_count=1320 319 461 2110 260 495 196 1199 540 312 717 394 214 1526 501 301 264 484 211 671 4632 353 66 144 36 20 157
internal_value=0.000132023 0.30955 -0.0836816 -0.0220678 0.235204 0.472051 -0.115757 0.18604 0.293434 -0.0401185 0.422783 0.0632175 -0.121938 -0.0897963 0.21222 0.147828 -0.0157257 0.0404646 -0.0506387 -0.124871 0.320873 -0.0750269 0.593543 0.258263 -0.0965654 0.091824
internal_weight=17903 3815 14088 4824 2620 1195 9264 1424 1196 3982 855 842 7478 1786 841 583 1201 471 2781 5952 665 567 340 531 1219 371
internal_count=17903 3815 14088 4824 2620 1195 9264 1424 1196 3982 855 842 7478 1786 841 583 1201 471 2781 5952 665 567 340 531 1219 371
is_linear=0
shrinkage=0.05


Tree=11
num_leaves=28
num_cat=0
split_feature=12 12 12 12 12 12 12 12 12 9 12 12 9 12 12 12 12 4 5 5 12 5 12 12 12 12 6
split_gain=166650 16209.5 10049.1 2725.8 2724.61 2487.57 531.595 417.142 308.724 293.223 221.329 214.103 190.534 84.5234 46.4211 41.0607 37.6691 37.5567 32.5806 28.1002 26.2652 23.6071 10.5498 9.81871 9.03134 8.41515 2.1769
threshold=9.5450000000000035 17.442000000000004 3.5970000000000009 6.0610000000000008 21.856000000000005 13.663000000000002 2.1650000000000005 11.691000000000003 4.7310000000000008 15.085000000000003 24.560000000000006 7.9880000000000004 19.505000000000006 2.7530000000000006 1.6810000000000003 10.272000000000002 5.2950000000000008 1.9845000000000004 10.500000000000002 10.500000000000002 4.3370000000000006 8.5000000000000018 3.1830000000000007 1.9030000000000002 1.3990000000000002 2.4590000000000005 2.5000000000000004
decision_type=2 2 2 2 2 2 2 2 2 2 2 2 2 2 2 2 2 2 2 2 2 2 2 2 2 2 2
left_child=2 5 6 8 12 7 14 15 20 26 -6 18 -3 25 24 -2 -10 -11 -5 -9 -4 -13 -15 -16 -1 -8 -7
right_child=1 4 3 11 10 9 13 19 16 17 -12 21 -14 22 23 -17 -18 -19 -20 -21 -22 -23 -24 -25 -26 -27 -28
leaf_value=-0.12850126972244305 0.11818049928938697 0.35609152205836869 -0.050473175298039588 0.050251161061185469 0.48521967229880691 0.24514803544085884 -0.099429565334150982 0.19986213429534899 -0.023329486017022529 0.33395908699985366 0.58102408812375728 0.095538693193354313 0.41432764125583388 -0.081204941504444753 -0.11461963155770949 0.15016551928891095 -0.0038365975168018172 0.2862531970144957 0.02475268961742428 0.14332022721276563 -0.038883280410272086 0.068561651810593566 -0.06791523608050283 -0.10646772314173299 -0.11961280424984373 -0.089153532694680918 0.1830924768073886
leaf_weight=727 192 440 2153 221 189 540 1056 733 664 119 248 230 383 476 2783 385 396 544 301 41 674 162 337 857 2548 480 24
leaf_count=727 192 440 2153 221 189 540 1056 733 664 119 248 230 383 476 2783 385 396 544 301 41 674 162 337 857 2548 480 24
internal_value=0.000139551 0.292103 -0.0795529 -0.0208361 0.439099 0.220045 -0.109974 0.172863 -0.0391053 0.271721 0.541391 0.0567948 0.383897 -0.0892741 -0.116985 0.139856 -0.0160629 0.29555 0.0356611 0.19715 -0.0477321 0.0846939 -0.0758314 -0.112745 -0.121644 -0.0963084 0.243
internal_weight=17903 3838 14065 4801 1260 2578 9264 1351 3887 1227 437 914 823 2349 6915 577 1060 663 522 774 2827 392 813 3640 3275 1536 564
internal_count=17903 3838 14065 4801 1260 2578 9264 1351 3887 1227 437 914 823 2349 6915 577 1060 663 522 774 2827 392 813 3640 3275 1536 564
is_linear=0
shrinkage=0.05


Tree=12
num_leaves=27
num_cat=0
split_feature=0 0 12 0 0 10 12 0 0 0 0 0 0 0 0 0 0 10 0 0 9 12 0 9 0 0
split_gain=151534 14651.8 9411.23 2689.64 2473.3 2080.58 480.049 450.645 332.591 293.003 210.451 148.463 92.355 68.6083 61.0461 59.7582 45.1117 39.2094 28.0116 27.3991 21.4909 21.0175 12.0158 10.268 9.63114 1.94022
threshold=13.915000000000001 26.435000000000006 3.5970000000000009 8.9150000000000009 20.425000000000004 22.23 2.2510000000000008 17.625000000000004 6.6650000000000009 23.515000000000004 11.435 29.615000000000006 35.960000000000008 4.2650000000000006 2.7250000000000005 16.205000000000002 7.495000000000001 13.525 10.160000000000002 21.735000000000003 4.0750000000000011 1.5130000000000003 5.6650000000000009 2.4650000000000003 12.940000000000001 3.0050000000000003
decision_type=2 2 2 2 2 2 2 2 2 2 2 2 2 2 2 2 2 2 2 2 2 2 2 2 2 2
left_child=2 4 6 8 7 11 14 15 20 19 18 -3 -7 23 21 -2 -10 -9 -5 -6 -4 -1 -15 -8 -12 -16
right_child=1 5 3 10 9 12 13 17 16 -11 24 -13 -14 22 25 -17 -18 -19 -20 -21 -22 -23 -24 -25 -26 -27
leaf_value=-0.12011704341225003 0.1281509873498396 0.35501347432047536 -0.051333212380144461 0.025180001287804794 0.23116566191194218 0.47629713315171557 -0.093307490730761861 0.18695404167909671 -0.022380210292133298 0.3020829453903513 0.077881173713191712 0.41073134413727247 0.55963718099863058 -0.070387371184837608 -0.10565738410558641 0.16052370691902973 -0.002863741958476666 0.21541335430486847 0.049964062221786558 0.26292649207122781 -0.042102650868101894 -0.11127920171115931 -0.046259298559021333 -0.083087704687494435 0.09659660545527371 -0.098678869803545149
leaf_weight=1160 372 407 1164 260 320 155 762 445 776 508 267 353 229 498 724 317 479 344 211 312 1563 4390 71 674 157 985
leaf_count=1160 372 407 1164 260 320 155 762 445 776 508 267 353 229 498 724 317 479 344 211 312 1563 4390 71 674 157 985
internal_value=0.000144354 0.282108 -0.0748898 -0.0186638 0.216663 0.431396 -0.104482 0.173634 -0.0362684 0.272149 0.0595913 0.381651 0.527982 -0.0826705 -0.110488 0.143362 -0.0149436 0.199747 0.0364062 0.24743 -0.0460687 -0.113158 -0.0675062 -0.0886024 0.0851273 -0.101725
internal_weight=17903 3762 14141 4877 2618 1144 9264 1478 3982 1140 895 760 384 2005 7259 689 1255 789 471 632 2727 5550 569 1436 424 1709
internal_count=17903 3762 14141 4877 2618 1144 9264 1478 3982 1140 895 760 384 2005 7259 689 1255 789 471 632 2727 5550 569 1436 424 1709
is_linear=0
shrinkage=0.05


Tree=13
num_leaves=28
num_cat=0
split_feature=0 0 12 0 0 10 0 0 0 0 0 0 0 0 12 10 0 12 2 0 0 0 9 0 0 0 9
split_gain=136815 13233.1 8495.28 2428.63 2233.1 1886.87 443.694 433.813 300.829 228.414 206.678 190.087 73.3221 54.9541 46.3104 38.9264 33.395 29.1767 26.7844 25.4585 25.3029 16.3819 12.0294 11.7045 9.72056 8.72311 4.07302
threshold=13.915000000000001 26.435000000000006 3.5970000000000009 8.9150000000000009 20.695000000000004 22.970000000000002 17.625000000000004 3.2850000000000006 6.8350000000000009 23.515000000000004 30.815000000000001 11.435 4.205000000000001 15.575000000000001 1.7570000000000003 13.525 8.1450000000000014 4.3370000000000006 241.43499500000004 38.005000000000003 10.160000000000002 2.3450000000000002 2.4650000000000003 5.6950000000000012 28.125000000000004 12.940000000000001 3.1950000000000007
decision_type=2 2 2 2 2 2 2 2 2 2 2 2 2 2 2 2 2 2 2 2 2 2 2 2 2 2 2
left_child=2 4 7 8 6 10 13 14 17 18 24 20 22 -2 21 -8 -10 -4 -6 -7 -5 -1 -9 -14 -3 -13 -16
right_child=1 5 3 11 9 19 15 12 16 -11 -12 25 23 -15 26 -17 -18 -19 -20 -21 -22 -23 -24 -25 -26 -27 -28
leaf_value=-0.11467703065417 0.11646806409147299 0.31972682053784296 -0.045974267654008437 0.023928222862779239 0.24082620937887858 0.47751850710588073 0.17871704787015916 -0.089580746523708649 -0.01632452620695268 0.28702326700661673 0.40990228439995396 0.074008870523707387 -0.067406594775956674 0.14819335225263108 -0.099032466173982189 0.20565103817017169 0.0059010951753283702 -0.034410834029967925 0.17518707052866619 0.55092781525197387 0.047483493636636176 -0.10631374331600776 -0.079037076183692184 -0.043126774880069274 0.35925219211227449 0.09181248389877826 -0.064896744489669797
leaf_weight=1067 266 206 2118 260 542 204 461 966 885 508 249 267 569 423 2132 382 208 771 36 140 211 3848 596 66 345 157 20
leaf_count=1067 266 206 2118 260 542 204 461 966 885 508 249 267 569 423 2132 382 208 771 36 140 211 3848 596 66 345 157 20
internal_value=0.00014841 0.268068 -0.0711485 -0.0177286 0.205873 0.409944 0.166669 -0.0992638 -0.0344572 0.260871 0.366194 0.0566326 -0.0797182 0.136225 -0.105322 0.191266 -0.0120927 -0.0429077 0.237202 0.509657 0.0345978 -0.108164 -0.0856374 -0.0649906 0.345383 0.0809017 -0.0987606
internal_weight=17903 3762 14141 4877 2618 1144 1532 9264 3982 1086 800 895 2197 689 7067 843 1093 2889 578 344 471 4915 1562 635 551 424 2152
internal_count=17903 3762 14141 4877 2618 1144 1532 9264 3982 1086 800 895 2197 689 7067 843 1093 2889 578 344 471 4915 1562 635 551 424 2152
is_linear=0
shrinkage=0.05


Tree=14
num_leaves=28
num_cat=0
split_feature=0 0 0 0 0 0 0 0 0 0 0 0 0 9 0 0 0 0 0 4 0 9 0 11 9 0 0
split_gain=123531 11960.5 7590.63 2060.32 2016.73 1734.83 543.396 371.706 242.214 241.3 211.862 182.771 111.229 90.7623 66.7556 50.6448 28.2819 28.0122 26.1682 22.5944 21.9355 19.8356 19.7246 10.1299 9.53627 7.94469 7.47283
threshold=13.915000000000001 25.805000000000003 5.5050000000000008 8.9150000000000009 31.710000000000004 19.355000000000004 3.4450000000000007 21.735000000000003 35.07500000000001 6.8350000000000009 16.470000000000002 11.435 28.125000000000004 4.3550000000000013 2.7850000000000006 4.4000000000000012 9.8950000000000014 8.1450000000000014 23.515000000000004 1.9855000000000003 17.825000000000003 1.4950000000000003 6.3350000000000009 4.745000000000001 3.9150000000000005 12.495000000000003 14.625000000000002
decision_type=2 2 2 2 2 2 2 2 2 2 2 2 2 2 2 2 2 2 2 2 2 2 2 2 2 2 2
left_child=2 5 6 9 12 10 14 19 -6 22 26 16 -3 15 21 -8 -5 -11 -9 -7 -12 -1 -4 -15 -16 -13 -2
right_child=1 4 3 11 8 7 13 18 -10 17 20 25 -14 23 24 -17 -18 -19 -20 -21 -22 -23 -24 -25 -26 -27 -28
leaf_value=-0.10855029146364772 0.10050952291246072 0.29926274851181206 -0.041945471904052539 0.01788219257913495 0.40766835594479045 0.12815119111260703 -0.078806920112425918 0.23804780887454702 0.49622885076408718 -0.015469457453271253 0.14974850472325993 0.068494127317182629 0.34819609701468801 -0.041020968298067402 -0.090283628901161261 -0.060917315145755824 0.042571427150574888 0.004845261528110243 0.26840802611017522 0.20320188211182419 0.17261316191107567 -0.10013544053765817 -0.031185839405877103 -0.012721402188394182 -0.05383162650195035 0.08489091792286993 0.12260702225886716
leaf_weight=1138 106 308 2022 213 196 20 1291 312 291 887 317 214 451 98 1561 622 263 209 406 618 418 4767 571 49 26 210 319
leaf_count=1138 106 308 2022 213 196 20 1291 312 291 887 317 214 451 98 1561 622 263 209 406 618 418 4767 571 49 26 210 319
internal_value=0.000153353 0.254734 -0.0675938 -0.0147357 0.381436 0.191797 -0.0929818 0.230308 0.461948 -0.0312844 0.14654 0.0530347 0.328969 -0.0701256 -0.099251 -0.0730425 0.0316144 -0.0115942 0.255739 0.201155 0.163077 -0.101784 -0.0395955 -0.0318116 -0.0897378 0.0768858 0.117469
internal_weight=17903 3762 14141 4589 1246 2516 9552 1356 487 3689 1160 900 759 2060 7492 1913 476 1096 718 638 735 5905 2593 147 1587 424 425
internal_count=17903 3762 14141 4589 1246 2516 9552 1356 487 3689 1160 900 759 2060 7492 1913 476 1096 718 638 735 5905 2593 147 1587 424 425
is_linear=0
shrinkage=0.05


Tree=15
num_leaves=28
num_cat=0
split_feature=0 0 12 0 0 0 12 0 0 0 0 0 0 12 0 0 0 0 0 0 0 0 5 0 0 0 12
split_gain=111531 10803.9 6926.52 1980.88 1698.6 1686.97 356.38 328.918 246.24 218.307 181.003 154.662 69.5066 56.1552 45.6575 39.7438 35.2911 22.4192 20.906 17.8976 15.2525 12.4504 11.1127 7.84447 7.39892 6.68246 5.93081
threshold=13.915000000000001 26.075000000000003 3.5970000000000009 8.9150000000000009 20.425000000000004 31.710000000000004 2.2890000000000006 17.625000000000004 6.6650000000000009 35.07500000000001 22.215000000000003 11.435 28.125000000000004 1.7770000000000004 16.205000000000002 4.4000000000000012 7.495000000000001 19.005000000000006 10.160000000000002 5.8350000000000009 2.3750000000000004 24.575000000000003 10.500000000000002 5.6950000000000012 12.940000000000001 3.0050000000000003 2.7530000000000006
decision_type=2 2 2 2 2 2 2 2 2 2 2 2 2 2 2 2 2 2 2 2 2 2 2 2 2 2 2
left_child=2 4 6 8 7 12 13 14 19 -7 22 18 -3 20 -2 26 -10 -9 -5 -4 -1 -12 -6 -17 -13 -15 -8
right_child=1 5 3 11 10 9 15 17 16 -11 21 24 -14 25 -16 23 -18 -19 -20 -21 -22 -23 -24 -25 -26 -27 -28
leaf_value=-0.10320901369396716 0.10972680410287945 0.28655685327039238 -0.044495513093507931 0.02160421756219055 0.20739725603983861 0.38743975076117093 -0.076849495003813606 0.15879005387809578 -0.019317133248157776 0.47154466583688032 0.23773640420032321 0.066761695126026477 0.33084400629799671 -0.091115081338641879 0.13793421196319994 -0.059754365646663359 -0.002057013570339941 0.18130712773752045 0.043012531716157411 -0.036047173461038362 -0.095625815878718379 0.26581807960378062 0.15617427730560304 -0.039326915909294734 0.083060927219007305 -0.083983077322097477 -0.067361213657151073
leaf_weight=1169 372 257 1114 260 388 196 913 367 776 291 414 267 451 1049 317 452 479 422 211 1613 4091 251 36 66 157 1169 355
leaf_count=1169 372 257 1114 260 388 196 913 367 776 291 414 267 451 1049 317 452 479 422 211 1613 4091 251 36 66 157 1169 355
internal_value=0.000156235 0.242056 -0.0642163 -0.0159803 0.184056 0.366258 -0.0896033 0.148843 -0.0310883 0.438989 0.231578 0.0511772 0.315408 -0.0944145 0.122976 -0.0693965 -0.0127397 0.171155 0.0313009 -0.0395209 -0.0973401 0.24891 0.203614 -0.0572727 0.0730686 -0.0874154 -0.0742758
internal_weight=17903 3762 14141 4877 2567 1195 9264 1478 3982 487 1089 895 708 7478 689 1786 1255 789 471 2727 5260 665 424 518 424 2218 1268
internal_count=17903 3762 14141 4877 2567 1195 9264 1478 3982 487 1089 895 708 7478 689 1786 1255 789 471 2727 5260 665 424 518 424 2218 1268
is_linear=0
shrinkage=0.05


Tree=16
num_leaves=28
num_cat=0
split_feature=0 0 12 0 0 0 0 0 0 0 0 0 0 0 0 9 0 0 0 4 0 11 0 9 0 0 0
split_gain=100702 10338.6 5800.42 1873.66 1487.63 1450.9 279.743 255.067 199.161 198.179 178.086 156.095 142.03 44.8809 26.6651 26.183 23.3155 18.6917 17.2487 15.9084 15.7904 8.32582 5.03581 4.01379 2.83551 2.53542 1.70414
threshold=13.290000000000001 25.175000000000004 3.3070000000000004 31.710000000000004 8.3250000000000011 19.005000000000006 21.735000000000003 3.1050000000000004 16.470000000000002 36.930000000000007 6.6650000000000009 10.445000000000002 28.125000000000004 3.9850000000000008 5.745000000000001 1.6250000000000002 14.625000000000002 11.435 7.2350000000000012 1.9855000000000003 9.6150000000000002 11.445000000000002 4.4000000000000012 1.8450000000000004 3.6850000000000005 2.2050000000000005 23.515000000000004
decision_type=2 2 2 2 2 2 2 2 2 2 2 2 2 2 2 2 2 2 2 2 2 2 2 2 2 2 2
left_child=2 5 7 12 10 8 19 15 16 -5 14 20 -3 24 -4 25 -2 -13 -12 -7 -6 -10 -15 -17 -9 -1 -8
right_child=1 3 4 9 11 6 26 13 21 -11 18 17 -14 22 -16 23 -18 -19 -20 -21 -22 -23 -24 -25 -26 -27 -28
leaf_value=-0.10005993457117707 0.086794444798546685 0.26695275490100567 -0.045166653725981831 0.38416927321916083 0.010555430190016334 0.11753193166520862 0.21502270656719544 -0.078340110333407265 0.1275250455973172 0.46450690984417919 -0.021640282945962701 0.042844221129269722 0.31435664481220987 -0.065946390422919915 -0.034922222174388097 -0.089518189055022998 0.11081147187603013 0.064880114150859786 -0.0090493082970667989 0.1810343423846684 0.030006188039053878 0.14873062853677285 -0.056252108351359513 -0.083963729845314916 -0.071040075008190581 -0.09363794688373217 0.23790780300047343
leaf_weight=678 211 408 992 295 314 21 312 1230 150 192 502 158 451 416 1932 3398 319 319 600 721 157 481 362 888 392 1698 306
leaf_count=678 211 408 992 295 314 21 312 1230 150 192 502 158 451 416 1932 3398 319 319 600 721 157 481 362 888 392 1698 306
internal_value=0.000158588 0.226031 -0.0620881 0.337923 -0.0186957 0.166125 0.201255 -0.0858986 0.124767 0.417171 -0.0319638 0.0376134 0.292346 -0.0717928 -0.0384191 -0.0909629 0.101522 0.0577382 -0.0148066 0.179478 0.0171137 0.144004 -0.0615526 -0.0883972 -0.0766431 -0.0955325 0.226903
internal_weight=17903 3867 14036 1346 4974 2521 1360 9062 1161 487 4026 948 859 2400 2924 6662 530 477 1102 742 471 631 778 4286 1622 2376 618
internal_count=17903 3867 14036 1346 4974 2521 1360 9062 1161 487 4026 948 859 2400 2924 6662 530 477 1102 742 471 631 778 4286 1622 2376 618
is_linear=0
shrinkage=0.05


Tree=17
num_leaves=27
num_cat=0
split_feature=0 0 12 0 0 10 0 12 0 0 0 0 10 0 0 0 0 12 0 9 12 0 2 0 9 0
split_gain=90921.5 8824.82 5647.54 1615.71 1507.88 1315.89 339.703 290.754 179.927 147.829 116.837 96.3885 52.4058 50.2096 46.003 38.0856 31.5278 23.4413 16.8059 15.5183 12.8631 11.8965 7.78425 7.1565 4.75683 2.87554
threshold=13.915000000000001 26.435000000000006 3.5970000000000009 8.7250000000000032 21.135000000000002 21.785000000000004 17.625000000000004 2.2890000000000006 6.6650000000000009 11.195000000000002 35.07500000000001 23.515000000000004 13.525 29.195000000000004 2.7150000000000003 15.575000000000001 4.2650000000000006 5.2950000000000008 9.6150000000000002 4.1750000000000007 1.4170000000000005 12.230000000000002 239.29499500000003 5.6650000000000009 3.8250000000000006 3.0050000000000003
decision_type=2 2 2 2 2 2 2 2 2 2 2 2 2 2 2 2 2 2 2 2 2 2 2 2 2 2
left_child=2 4 7 8 6 13 15 14 19 18 -7 22 -8 -3 20 -2 24 -10 -5 -4 -1 -11 -6 -18 -9 -16
right_child=1 5 3 9 11 10 12 16 17 21 -12 -13 -14 -15 25 -17 23 -19 -20 -21 -22 -23 -24 -25 -26 -27
leaf_value=-0.094518824962055825 0.094529930916484275 0.27191178748797173 -0.038946175436878255 0.01346329381222662 0.20182601516009774 0.35632867675048474 0.14480611950907876 -0.067718390595890895 -0.017656636486410436 0.053970823640932954 0.42956710667223547 0.23380060041500614 0.17142459032493587 0.30947143140789513 -0.081865719469938258 0.12084424251381164 -0.054734267857365654 -0.0031190369161443825 0.032591998392789999 -0.031135676537607487 -0.086513651762950797 0.071361653325420812 0.15906057018982739 -0.036082126189922466 -0.037984987963424172 -0.07605551495745376
leaf_weight=797 266 357 1568 209 426 155 496 1199 767 213 276 508 453 356 815 423 496 435 263 1159 4665 263 46 71 20 1201
leaf_count=797 266 357 1568 209 426 155 496 1199 767 213 276 508 453 356 815 423 496 435 263 1159 4665 263 46 71 20 1201
internal_value=0.000159263 0.218569 -0.0579623 -0.0144067 0.167779 0.334428 0.138175 -0.0808859 -0.0285433 0.0441353 0.404556 0.216971 0.157763 0.291276 -0.0852315 0.110913 -0.0626343 -0.012406 0.0241914 -0.0356456 -0.0877074 0.0637736 0.198175 -0.0525 -0.0672778 -0.0784635
internal_weight=17903 3762 14141 4877 2618 1144 1638 9264 3929 948 431 980 949 713 7478 689 1786 1202 472 2727 5462 476 472 567 1219 2016
internal_count=17903 3762 14141 4877 2618 1144 1638 9264 3929 948 431 980 949 713 7478 689 1786 1202 472 2727 5462 476 472 567 1219 2016
is_linear=0
shrinkage=0.05


Tree=18
num_leaves=28
num_cat=0
split_feature=9 12 12 12 12 12 12 12 12 12 12 9 12 12 12 4 12 4 1 12 12 6 12 13 12 12 12
split_gain=81518.1 8360.33 4596.78 1496.79 1282.12 1155.14 212.965 207.727 192.703 149.97 148.692 85.0411 83.755 31.9561 23.4946 22.2467 22.0538 21.1344 19.7955 18.548 18.128 11.6484 10.2136 9.92511 5.01821 3.4626 1.95694
threshold=8.9950000000000028 17.185000000000006 3.3070000000000004 21.182000000000006 13.362 5.8790000000000004 11.282000000000002 2.0790000000000006 24.560000000000006 4.620000000000001 14.933000000000002 7.2400000000000011 18.603000000000005 2.4590000000000005 10.042000000000003 0.99850000000000005 1.6600000000000006 1.9765000000000004 418.04500000000002 8.4970000000000017 5.2950000000000008 2.5000000000000004 6.5130000000000008 1.7363006582442035 3.1010000000000009 1.3990000000000002 1.8200000000000003
decision_type=2 2 2 2 2 2 2 2 2 2 2 2 2 2 2 2 2 2 2 2 2 2 2 2 2 2 2
left_child=2 4 7 12 6 9 14 16 -5 17 21 22 -3 -9 -2 -12 25 -4 -8 -13 -11 -6 -7 -14 -15 -1 -18
right_child=1 3 5 8 10 11 18 13 -10 20 15 19 23 24 -16 -17 26 -19 -20 -21 -22 -23 -24 -25 -26 -27 -28
leaf_value=-0.090168035410820177 0.076303234222982491 0.23612581136836736 -0.051563588225813098 0.33480365922935384 0.16885103338981566 0.0097163035517345026 0.13380436065755605 -0.070243855845636763 0.40885029770583214 -0.017445783072446028 0.23499644872304556 0.040668107145764965 0.2790565213390781 -0.060098108182094115 0.099301964335029969 0.19658350734481075 -0.080472073744506489 -0.033730548471830928 0.096790353847401478 0.062130680537480769 -0.0035153733629775339 0.12801628207767404 0.025189873565933087 0.20474182277355554 -0.049761684691464463 -0.08414721745461233 -0.075944750165366781
leaf_weight=727 233 317 182 252 601 195 715 1333 248 799 91 271 482 890 310 554 2859 2712 58 179 331 44 242 25 201 2127 925
leaf_count=727 233 317 182 252 601 195 715 1333 248 799 91 271 482 890 310 554 2859 2712 58 179 331 44 242 25 201 2127 925
internal_value=0.000159839 0.201294 -0.0564261 0.303611 0.149167 -0.0174625 0.114198 -0.0775355 0.372644 -0.0288471 0.184667 0.034147 0.261121 -0.0648916 0.0896707 0.202536 -0.0821369 -0.0348782 0.13122 0.0493835 -0.0133754 0.166369 0.018342 0.276007 -0.0582647 -0.0857275 -0.0793959
internal_weight=17903 3930 13973 1324 2606 4911 1316 9062 500 4024 1290 887 824 2424 543 645 6638 2894 773 450 1130 645 437 507 1091 2854 3784
internal_count=17903 3930 13973 1324 2606 4911 1316 9062 500 4024 1290 887 824 2424 543 645 6638 2894 773 450 1130 645 437 507 1091 2854 3784
is_linear=0
shrinkage=0.05


Tree=19
num_leaves=28
num_cat=0
split_feature=0 0 12 0 0 10 0 0 0 0 0 0 0 10 0 0 0 9 0 0 9 10 0 0 0 12 10
split_gain=74167.5 7229.45 4597.41 1347.38 1312.66 1001.9 279.344 237.205 164.986 102.493 92.5658 90.5836 42.2331 42.2227 41.4632 30.8979 25.5105 25.4938 14.7271 13.8566 9.12107 7.50991 6.48114 4.9765 4.83316 4.34933 1.70689
threshold=13.915000000000001 26.975000000000005 3.5970000000000009 21.135000000000002 8.9150000000000009 22.970000000000002 17.625000000000004 3.2150000000000003 7.0250000000000012 11.435 23.515000000000004 30.815000000000001 4.205000000000001 13.525 38.895000000000003 16.470000000000002 6.3150000000000004 1.6850000000000003 8.1450000000000014 10.160000000000002 2.4650000000000003 14.375000000000002 5.6950000000000012 13.290000000000001 2.2250000000000005 2.0270000000000006 16.985000000000003
decision_type=2 2 2 2 2 2 2 2 2 2 2 2 2 2 2 2 2 2 2 2 2 2 2 2 2 2 2
left_child=2 3 7 6 8 11 15 17 16 19 21 -3 20 -8 -7 -2 -4 24 -10 -6 -9 -5 -14 -11 -1 -19 -12
right_child=1 5 4 10 9 14 13 12 18 23 26 -13 22 -15 -16 -17 -18 25 -20 -21 -22 -23 -24 -25 -26 -27 -28
leaf_value=-0.085570009686077197 0.090490416731742185 0.25649252058742766 -0.033640064652694507 0.16234823126311695 0.017559584097542318 0.35739460643418064 0.13064477777885433 -0.066285980231460484 -0.010220409555378798 0.055531846428531199 0.20211846814063439 0.30143746392217707 -0.049583087727022634 0.15456299776860952 0.42483146845367908 0.11422179027578028 -0.023084341400047823 -0.075436410136077117 0.0048574961874709608 0.034988128455684463 -0.05764820755738688 0.18731560039171058 -0.031553582344894054 0.070422621316193409 -0.079509385823215761 -0.069194312187668069 0.22486760317689122
leaf_weight=762 425 499 2269 162 260 249 496 1086 718 319 309 249 569 453 95 264 787 2878 208 211 597 310 66 105 2714 592 251
leaf_count=762 425 499 2269 162 260 249 496 1086 718 319 309 249 569 453 95 264 787 2878 208 211 597 310 66 105 2714 592 251
internal_value=0.000160723 0.197423 -0.0523334 0.152946 -0.0130353 0.305815 0.124529 -0.0730162 -0.0253339 0.0416339 0.197803 0.272027 -0.0590668 0.142288 0.377782 0.0998118 -0.0309343 -0.0776576 -0.0068312 0.0254536 -0.063276 0.179288 -0.0477879 0.0594547 -0.0808743 -0.0744018 0.212888
internal_weight=17903 3762 14141 2670 4877 1092 1638 9264 3982 895 1032 748 2318 949 344 689 3056 6946 926 471 1683 472 635 424 3476 3470 560
internal_count=17903 3762 14141 2670 4877 1092 1638 9264 3982 895 1032 748 2318 949 344 689 3056 6946 926 471 1683 472 635 424 3476 3470 560
is_linear=0
shrinkage=0.05


Tree=20
num_leaves=30
num_cat=0
split_feature=12 12 12 12 12 12 12 12 9 12 9 9 10 13 5 12 5 12 12 12 12 12 10 12 12 10 12 12 12
split_gain=66461 6719.32 3821.46 1151.07 1092.29 1000.88 199.438 169.264 167.7 123.363 111.581 73.8632 38.4697 31.9655 27.7815 26.4105 22.6804 22.0074 20.606 17.3652 15.173 11.8617 9.51741 6.82707 5.20254 4.37636 2.97034 2.16254 0.28804
threshold=9.2650000000000023 17.442000000000004 3.3070000000000004 23.444000000000006 13.663000000000002 5.8790000000000004 11.691000000000003 2.1650000000000005 19.505000000000006 4.620000000000001 14.915000000000001 7.4850000000000012 21.785000000000004 1.7363006582442035 8.5000000000000018 10.272000000000002 10.500000000000002 1.7020000000000004 2.5890000000000009 3.8830000000000009 5.2950000000000008 6.5130000000000008 13.295000000000002 16.727000000000007 1.3990000000000002 24.970000000000002 3.1010000000000009 1.9730000000000001 2.3150000000000008
decision_type=2 2 2 2 2 2 2 2 2 2 2 2 2 2 2 2 2 2 2 2 2 2 2 2 2 2 2 2 2
left_child=2 4 7 8 6 9 15 17 13 19 22 21 -10 -3 -13 -2 -8 24 28 -4 -11 -7 -6 -12 -1 -5 -20 -19 -9
right_child=1 3 5 25 10 11 16 18 12 20 23 14 -14 -15 -16 -17 -18 27 26 -21 -22 -23 -24 -25 -26 -27 -28 -29 -30
leaf_value=-0.081436660883765402 0.072397023283766598 0.22762722132610402 -0.038619510904435633 0.32220106644508167 0.12890770192604056 0.0088142804448976177 0.12645796240796192 -0.06378691265055815 0.25858219163408636 -0.015731928646604113 0.1791288974881888 0.058764626358773331 0.30570787396205307 0.14244996494717069 0.032760608966525336 0.094705008319970641 0.08188537399120191 -0.071547673669876674 -0.05332561624766563 -0.029318667055482889 -0.0029887516704156882 0.024842116260170834 0.15702453411496842 0.20134177536637299 -0.075350180391631161 0.37765802505660551 -0.044793917177285265 -0.066723190277689901 -0.059220398560316329
leaf_weight=727 257 420 676 96 88 196 733 713 388 799 519 232 120 21 198 385 41 2419 688 2218 331 288 432 188 3055 215 201 714 545
leaf_count=727 257 420 676 96 88 196 733 713 388 799 519 232 120 21 198 385 41 2419 688 2218 331 288 432 188 3055 215 201 714 545
internal_value=0.000161938 0.182576 -0.0507067 0.277597 0.137145 -0.0153122 0.107006 -0.0699878 0.249354 -0.0260402 0.171753 0.0318841 0.270581 0.224068 0.0469462 0.0859644 0.12426 -0.0738171 -0.0576116 -0.0315101 -0.0120081 0.0183988 0.152651 0.185449 -0.076552 0.362168 -0.0514753 -0.0704806 -0.0618815
internal_weight=17903 3903 14000 1260 2643 4938 1416 9062 949 4024 1227 914 508 441 430 642 774 6915 2147 2894 1130 484 520 707 3782 311 889 3133 1258
internal_count=17903 3903 14000 1260 2643 4938 1416 9062 949 4024 1227 914 508 441 430 642 774 6915 2147 2894 1130 484 520 707 3782 311 889 3133 1258
is_linear=0
shrinkage=0.05


Tree=21
num_leaves=29
num_cat=0
split_feature=0 0 12 0 0 0 0 0 0 0 0 0 0 0 12 12 4 10 0 10 10 0 0 0 10 12 0 10
split_gain=60513.7 5930.77 3740.1 1156.87 1065.79 772.736 194.476 142.67 136.745 134.877 102.51 87.8317 83.5492 36.7611 21.5527 19.7699 14.7781 12.5512 11.7888 8.97726 8.28328 7.99602 7.45147 6.86923 6.19256 5.56948 4.2395 0.849062
threshold=13.915000000000001 25.175000000000004 3.5970000000000009 31.710000000000004 8.9150000000000009 19.355000000000004 3.5350000000000006 21.735000000000003 38.005000000000003 7.0250000000000012 16.470000000000002 27.610000000000003 11.195000000000002 2.6750000000000003 4.3370000000000006 2.7950000000000004 1.9855000000000003 12.045000000000002 8.1450000000000014 5.8250000000000011 10.285000000000002 12.230000000000002 2.4150000000000005 5.6950000000000012 14.375000000000002 2.0270000000000006 4.2650000000000006 21.785000000000004
decision_type=2 2 2 2 2 2 2 2 2 2 2 2 2 2 2 2 2 2 2 2 2 2 2 2 2 2 2 2
left_child=2 5 6 11 9 10 13 16 27 14 20 -3 19 22 -4 26 -7 -12 -11 -6 -2 -14 -1 -17 -9 -15 -8 -5
right_child=1 3 4 8 12 7 15 24 -10 18 17 -13 21 25 -16 23 -18 -19 -20 -21 -22 -23 -24 -25 -26 -27 -28 -29
leaf_value=-0.075553580508432153 0.070560546591877937 0.2042939878906665 -0.030751799329748166 0.26963274601178294 0.0017667886236075892 0.085913426654283392 -0.05619240341192118 0.15570689093919449 0.372849404484136 -0.0091932450939724488 0.10099674782099394 0.24192372313677499 0.04375155271944918 -0.066885130615174676 -0.021538945351217004 -0.044954349937444314 0.14256866291658452 0.11867337811181514 0.0042970910272415149 0.023831087151656348 0.087910871762055809 0.057985680101752736 -0.070421186166879035 -0.026599616041222147 0.18090335301760291 -0.061428771001133115 -0.042712350574296877 0.31421987216477426
leaf_weight=1393 165 357 2124 96 53 20 825 120 144 718 238 502 213 1446 932 626 618 497 208 366 260 263 3551 64 498 1268 91 247
leaf_count=1393 165 357 2124 96 53 20 825 120 144 718 238 502 213 1446 932 626 618 497 208 366 260 263 3551 64 498 1268 91 247
internal_value=0.00016305 0.178345 -0.0472536 0.262464 -0.0118085 0.131347 -0.0659086 0.158607 0.324713 -0.0228904 0.101665 0.226668 0.0374525 -0.0692383 -0.0279541 -0.0499814 0.140998 0.113167 -0.00616097 0.0210564 0.0814467 0.0517737 -0.0718897 -0.0433133 0.1764 -0.0643712 -0.0549252 0.302969
internal_weight=17903 3762 14141 1346 4877 2416 9264 1256 487 3982 1160 859 895 7658 3056 1606 638 735 926 419 425 476 4944 690 618 2714 916 343
internal_count=17903 3762 14141 1346 4877 2416 9264 1256 487 3982 1160 859 895 7658 3056 1606 638 735 926 419 425 476 4944 690 618 2714 916 343
is_linear=0
shrinkage=0.05


Tree=22
num_leaves=29
num_cat=0
split_feature=0 0 12 0 0 0 0 0 0 0 0 0 0 0 4 0 0 10 0 0 0 10 13 10 12 0 0 10
split_gain=54638.5 5686.93 3128.49 1166.79 799.42 712.793 139.794 123.712 110.624 108.921 104.377 96.2284 88.983 23.2036 19.1591 18.7868 14.1164 14.0276 10.7078 10.6783 9.81643 5.60716 5.52125 5.51794 3.53355 2.34004 1.95564 0.455785
threshold=13.290000000000001 24.575000000000003 3.3070000000000004 31.710000000000004 8.1450000000000014 19.005000000000006 3.1750000000000003 38.005000000000003 21.735000000000003 27.610000000000003 16.470000000000002 10.445000000000002 6.5550000000000006 4.0150000000000006 1.9765000000000004 2.5950000000000002 14.625000000000002 13.295000000000002 7.2350000000000012 9.6150000000000002 11.435 12.045000000000002 1.0360863860200811 14.375000000000002 1.3310000000000006 4.4000000000000012 3.7650000000000001 21.785000000000004
decision_type=2 2 2 2 2 2 2 2 2 2 2 2 2 2 2 2 2 2 2 2 2 2 2 2 2 2 2 2
left_child=2 5 6 9 12 10 15 27 17 -3 16 19 14 26 -4 24 -2 -7 -14 -6 -13 -12 -17 -10 -1 -15 -8 -5
right_child=1 3 4 7 11 8 13 -9 23 -11 21 20 18 25 -16 22 -18 -19 -20 -21 -22 -23 -24 -25 -26 -27 -28 -29
leaf_value=-0.075231475787157248 0.062924438108416178 0.19223517994909278 -0.045239306638951385 0.25635851676647481 0.0065221195897268817 0.1192622991713259 -0.057108699726930029 0.35439912285591735 0.14324296605615802 0.22986357444092675 0.095443926526287012 0.031515122745711603 -0.016752426326743911 -0.047861787640529244 -0.027627142723577466 -0.064155083061075688 0.081382315030521984 0.13854415530904962 -0.0071280087339687581 0.022103474272579568 0.047502068154420853 0.10992190854132543 -0.037597976036761939 0.16878597946090257 -0.068682287506578885 -0.040903673407543542 -0.051020942654075301 0.29860371192935969
leaf_weight=429 211 457 167 96 366 245 1133 144 102 502 225 158 619 363 2640 3504 319 497 548 157 319 406 27 416 2912 362 332 247
leaf_count=429 211 457 167 96 366 245 1133 144 102 502 225 158 619 363 2640 3504 319 497 548 157 319 406 27 416 2912 362 332 247
internal_value=0.000163156 0.16654 -0.0456876 0.245001 -0.0138198 0.119555 -0.0631742 0.308624 0.145665 0.21226 0.0910673 0.0261122 -0.0238741 -0.0520737 -0.0286986 -0.0666997 0.0742323 0.132431 -0.0122479 0.0112493 0.042322 0.104998 -0.0639681 0.164184 -0.0695566 -0.0444792 -0.0557827 0.287948
internal_weight=17903 3867 14036 1446 4974 2421 9062 487 1260 959 1161 1000 3974 2190 2807 6872 530 742 1167 523 477 631 3531 518 3341 725 1465 343
internal_count=17903 3867 14036 1446 4974 2421 9062 487 1260 959 1161 1000 3974 2190 2807 6872 530 742 1167 523 477 631 3531 518 3341 725 1465 343
is_linear=0
shrinkage=0.05


Tree=23
num_leaves=29
num_cat=0
split_feature=9 9 12 10 12 12 12 12 12 10 9 12 12 10 10 2 12 5 4 12 12 5 11 9 6 9 12 12
split_gain=48928.1 5027.16 2755.21 1034.08 700.488 696.214 125.45 125.123 107.479 79.0284 71.0708 70.696 68.4932 28.8072 27.5535 20.6427 19.2566 17.7744 14.8844 14.4564 12.8962 12.8333 6.90562 5.13176 4.14273 4.10244 2.12909 2.02274
threshold=8.9950000000000028 16.985000000000003 3.3070000000000004 21.785000000000004 13.362 5.5500000000000016 11.691000000000003 2.0790000000000006 18.603000000000005 14.375000000000002 7.2400000000000011 4.5330000000000004 25.552000000000003 20.455000000000002 10.285000000000002 251.07000000000002 2.4590000000000005 8.5000000000000018 1.9765000000000004 1.6490000000000002 6.2830000000000013 10.500000000000002 18.375000000000004 20.215000000000003 3.5000000000000004 1.9750000000000003 1.3310000000000006 1.7770000000000004
decision_type=2 2 2 2 2 2 2 2 2 2 2 2 2 2 2 2 2 2 2 2 2 2 2 2 2 2 2 2
left_child=2 4 7 8 6 11 14 19 22 24 20 18 23 -11 -2 -13 -9 -12 -4 26 -7 -8 -3 -5 -6 -18 -1 -21
right_child=1 3 5 12 9 10 21 16 -10 13 17 15 -14 -15 -16 -17 25 -19 -20 27 -22 -23 -24 -25 -26 -27 -28 -29
leaf_value=-0.071483010628220642 0.061742823395684113 0.17215003719177155 -0.041476313280552297 0.19867780208587649 0.12512248592685496 0.0032266142578784834 0.10628281448563698 -0.054360545248996354 0.21757444363551845 0.15314126246554299 0.047690821231498398 -0.01127512127334878 0.32591566893259682 0.087505832314491272 0.08310819720299982 -0.048151486695897361 -0.025076743960380555 0.027384449294838176 -0.026440558960819802 -0.06269728081246341 0.018370185626643637 0.069730196032044181 0.20268942840763782 0.27801081065958011 0.094509925935175515 -0.04561202296691285 -0.065710772533546041 -0.059255023023580114
leaf_weight=429 325 303 180 20 400 259 607 1333 564 759 235 1093 186 24 346 38 31 215 2583 2638 308 37 90 232 37 1060 2193 1378
leaf_count=429 325 303 180 20 400 259 607 1333 564 759 235 1093 186 24 346 38 31 215 2583 2638 308 37 90 232 37 1060 2193 1378
internal_value=0.000162619 0.155988 -0.0436764 0.232224 0.113924 -0.0135109 0.0884139 -0.0600192 0.202404 0.141278 0.0233026 -0.0231308 0.296465 0.151301 0.0729206 -0.0125763 -0.0502067 0.0381121 -0.0274421 -0.0635903 0.0114795 0.10435 0.179888 0.272927 0.122863 -0.0450638 -0.0666955 -0.0615387
internal_weight=17903 3930 13973 1395 2535 4911 1315 9062 957 1220 1017 3894 438 783 671 1131 2424 450 2763 6638 567 644 393 252 437 1091 2622 4016
internal_count=17903 3930 13973 1395 2535 4911 1315 9062 957 1220 1017 3894 438 783 671 1131 2424 450 2763 6638 567 644 393 252 437 1091 2622 4016
is_linear=0
shrinkage=0.05


Tree=24
num_leaves=30
num_cat=0
split_feature=12 9 12 10 12 12 9 10 12 12 12 12 12 10 5 9 12 12 1 10 12 5 9 10 12 9 12 12 12
split_gain=44178.4 4634.21 2415.65 935.193 665.721 591.797 111.095 100.485 96.2513 86.2734 68.7715 61.7227 52.948 23.2184 21.9219 16.9031 15.9334 15.8169 15.4886 11.7411 10.3874 8.60112 5.08841 4.55476 3.9209 3.87397 1.45618 0.582863 0.493916
threshold=8.9490000000000034 16.985000000000003 3.1830000000000007 21.785000000000004 12.906000000000002 5.5500000000000016 14.915000000000001 18.935000000000006 1.9870000000000003 10.792000000000003 4.4950000000000019 25.552000000000003 6.737000000000001 13.635000000000003 10.500000000000002 8.1450000000000014 2.4590000000000005 3.8830000000000009 434.85500000000008 14.375000000000002 1.6240000000000006 10.500000000000002 18.935000000000006 2.4050000000000007 6.2830000000000013 20.215000000000003 1.3310000000000006 2.2890000000000006 1.7530000000000003
decision_type=2 2 2 2 2 2 2 2 2 2 2 2 2 2 2 2 2 2 2 2 2 2 2 2 2 2 2 2 2
left_child=2 4 8 7 9 10 13 22 20 21 17 25 24 -6 -11 -14 27 -4 -12 -8 26 -2 -3 -18 -7 -5 -1 -10 -22
right_child=1 3 5 11 6 12 19 -9 16 14 18 -13 15 -15 -16 -17 23 -19 -20 -21 28 -23 -24 -25 -26 -27 -28 -29 -30
leaf_value=-0.067921313314626169 0.065440900895336704 0.16624626244887464 -0.032629191076841493 0.18943697907203852 0.10531474678793709 0.0030322038426320382 0.12593164783577587 0.20973414344745769 -0.053397837864850806 0.092910573246540201 -0.011232958783493131 0.30975024770100912 0.02354676372095587 0.125394920097671 0.057859814856514459 0.041245535611817222 -0.034825494369323737 -0.024259099677444395 -0.041713805359670487 0.15257663417065181 -0.059952830243655587 0.046533177175361262 0.19033525648347119 -0.045459104758480806 0.013625060277200252 0.26419956713468157 -0.062654137105439073 -0.049420528999587224 -0.057283326855117125
leaf_weight=429 357 333 811 20 308 260 106 483 1210 649 1155 186 363 532 58 224 148 2021 42 469 2558 95 141 808 131 232 1879 493 1402
leaf_count=429 357 333 811 20 308 260 106 483 1210 649 1155 186 363 532 58 224 148 2021 42 469 2558 95 141 808 131 232 1879 493 1402
internal_value=0.000161866 0.147296 -0.0417597 0.220687 0.107416 -0.013956 0.130475 0.19233 -0.0573493 0.0791314 -0.0224242 0.281779 0.0209106 0.118233 0.0901637 0.0303886 -0.0492898 -0.026672 -0.0123533 0.148005 -0.0607557 0.061634 0.17399 -0.04387 0.00661972 0.259422 -0.0636767 -0.052291 -0.0590298
internal_weight=17903 3969 13934 1395 2574 5007 1415 957 8927 1159 4029 438 978 840 707 587 2659 2832 1197 575 6268 452 474 956 391 252 2308 1703 3960
internal_count=17903 3969 13934 1395 2574 5007 1415 957 8927 1159 4029 438 978 840 707 587 2659 2832 1197 575 6268 452 474 956 391 252 2308 1703 3960
is_linear=0
shrinkage=0.05


Tree=25
num_leaves=29
num_cat=0
split_feature=0 0 0 0 0 0 0 0 0 0 0 0 0 9 0 0 0 0 10 4 10 0 10 10 12 12 0 10
split_gain=40288.9 4001.94 2479.29 868.961 653.89 457.293 174.519 98.1303 87.3339 84.9677 80.4525 53.0159 49.3984 43.9742 19.1836 15.9475 14.5974 11.9055 11.2856 9.28888 8.15337 7.05822 5.72467 5.62496 3.69797 3.68811 2.84931 1.84246
threshold=13.915000000000001 24.575000000000003 5.5050000000000008 31.710000000000004 9.1900000000000013 19.005000000000006 3.3750000000000004 38.895000000000003 7.0950000000000006 21.735000000000003 28.125000000000004 16.470000000000002 11.435 4.3550000000000013 2.6250000000000004 4.1550000000000011 35.07500000000001 6.3350000000000009 5.205000000000001 1.9855000000000003 5.205000000000001 8.1450000000000014 10.285000000000002 16.145000000000003 1.3990000000000002 1.9410000000000001 12.495000000000003 14.375000000000002
decision_type=2 2 2 2 2 2 2 2 2 2 2 2 2 2 2 2 2 2 2 2 2 2 2 2 2 2 2 2
left_child=2 5 6 10 8 11 14 16 17 19 -3 22 18 15 24 -8 -5 -4 -6 -7 -15 -10 -2 -13 -1 -16 -14 -11
right_child=1 3 4 7 12 9 13 -9 21 27 -12 23 26 20 25 -17 -18 -19 -20 -21 -22 -23 -24 -25 -26 -27 -28 -29
leaf_value=-0.063255471793976892 0.056999808509048226 0.16706079126460666 -0.023730975553799653 0.2324214786819265 -0.015742698527044723 0.070486104488372808 -0.046159199194681082 0.31860288399916431 -0.0067157959732043115 0.12455096898447489 0.1994266329681017 0.090642082274423871 0.03843928832898949 -0.019684993094662845 -0.055318682716295302 -0.036906835680080345 0.26889905868899128 -0.01642297518963556 0.020993032044346781 0.1146263011083471 0.010642763132398779 0.0029571898464757183 0.071304841050397375 0.056696740046460581 -0.058320911796932974 -0.051083156350377523 0.048086800540513397 0.14493609821635808
leaf_weight=727 165 508 2022 196 21 21 1311 96 665 102 451 609 214 122 2125 800 195 793 402 721 26 262 260 22 3269 1172 210 416
leaf_count=727 165 508 2022 196 21 21 1311 96 665 102 451 609 214 122 2125 800 195 793 402 721 26 262 260 22 3269 1172 210 416
internal_value=0.000160652 0.145549 -0.0385292 0.210821 -0.00832023 0.104687 -0.0530386 0.265723 -0.0173005 0.125093 0.18257 0.0801948 0.0313147 -0.0408331 -0.0568101 -0.0426816 0.251572 -0.0216821 0.0191201 0.113522 -0.0143038 -0.00398154 0.0659711 0.0895958 -0.0592421 -0.053837 0.0433702 0.141293
internal_weight=17903 3762 14141 1446 4589 2316 9552 487 3742 1260 959 1056 847 2259 7293 2111 391 2815 423 742 148 927 425 631 3996 3297 424 518
internal_count=17903 3762 14141 1446 4589 2316 9552 487 3742 1260 959 1056 847 2259 7293 2111 391 2815 423 742 148 927 425 631 3996 3297 424 518
is_linear=0
shrinkage=0.05


Tree=26
num_leaves=29
num_cat=0
split_feature=0 0 0 0 0 0 12 0 0 0 0 0 0 9 12 1 1 0 10 12 5 1 0 10 0 0 13 10
split_gain=36377.2 3614.46 2237.9 786.214 590.365 412.851 157.957 89.6213 78.826 76.8101 72.6523 47.8218 44.8455 35.1489 22.531 13.2873 12.6198 9.18721 9.0689 6.97484 6.5441 6.49234 5.28462 5.15905 4.74576 3.90353 1.60682 0.427553
threshold=13.915000000000001 24.575000000000003 5.5050000000000008 31.710000000000004 9.1900000000000013 19.005000000000006 2.3150000000000008 38.005000000000003 7.0950000000000006 21.735000000000003 28.125000000000004 16.470000000000002 11.195000000000002 4.4750000000000005 1.7530000000000003 395.94500500000009 438.48500000000007 4.6750000000000007 5.205000000000001 4.8410000000000002 4.5000000000000009 397.78000000000003 2.3450000000000002 10.285000000000002 12.230000000000002 3.0050000000000003 0.25050907832385644 18.215000000000003
decision_type=2 2 2 2 2 2 2 2 2 2 2 2 2 2 2 2 2 2 2 2 2 2 2 2 2 2 2 2
left_child=2 5 6 10 8 11 14 -5 16 15 27 23 18 17 22 -7 -4 -8 -6 -15 -10 -13 -1 -2 -14 -16 -11 -3
right_child=1 3 4 7 12 9 13 -9 20 26 -12 21 24 19 25 -17 -18 -19 -20 -21 -22 -23 -24 -25 -26 -27 -28 -29
leaf_value=-0.059335894575869866 0.054175493919903096 0.15204982287477445 -0.019722472600264728 0.23519620080471731 -0.015253798767577771 0.072805557201934767 -0.041693265308922117 0.29107770862448257 0.0082809888516826129 0.11438784709213475 0.18948835536261291 0.069219591841101644 0.033727206278479464 -0.017244340026257857 -0.051962395116196138 0.10959791904915993 -0.033782313104486768 -0.033419550399863385 0.018498512071999887 0.013511715730031333 -0.0052375368865353782 0.087650166375254121 -0.054706961601906905 0.067760050293756202 0.044694163740941789 -0.047540933155157172 0.13693145897227044 0.17046529800995536
leaf_weight=1067 165 337 2643 343 20 38 1277 144 99 69 451 92 213 108 1441 704 172 518 351 21 828 539 3799 260 263 1321 449 171
leaf_count=1067 165 337 2643 343 20 38 1277 144 99 69 451 92 213 108 1441 704 172 518 351 21 828 539 3799 260 263 1321 449 171
internal_value=0.000159508 0.13831 -0.0366041 0.200342 -0.00790344 0.099476 -0.0503892 0.252563 -0.0164364 0.118866 0.17347 0.0762047 0.0297571 -0.037523 -0.0536264 0.107864 -0.0205991 -0.0393355 0.0166249 -0.0121398 -0.00378277 0.0851335 -0.05574 0.0626951 0.039908 -0.0498747 0.134267 0.158732
internal_weight=17903 3762 14141 1446 4589 2316 9552 487 3742 1260 959 1056 847 1924 7628 742 2815 1795 371 129 927 631 4866 425 476 2762 518 508
internal_count=17903 3762 14141 1446 4589 2316 9552 487 3742 1260 959 1056 847 1924 7628 742 2815 1795 371 129 927 631 4866 425 476 2762 518 508
is_linear=0
shrinkage=0.05


Tree=27
num_leaves=30
num_cat=0
split_feature=0 0 0 10 0 0 0 0 0 0 0 0 9 0 0 0 2 2 13 10 11 12 12 9 2 0 2 0 2
split_gain=32844.8 3265.09 2019.99 570.393 534.423 506.293 143.506 101.931 87.9883 63.9872 44.3044 43.7599 30.5939 24.237 20.6209 13.6942 12.8943 11.4138 11.3436 11.1153 10.8747 9.27737 6.43903 5.96542 4.74681 4.52645 2.87087 2.04113 0.56673
threshold=13.915000000000001 25.805000000000003 5.5050000000000008 21.785000000000004 9.6150000000000002 20.425000000000004 3.5050000000000003 17.625000000000004 7.0950000000000006 38.895000000000003 23.155000000000005 29.615000000000006 4.4750000000000005 11.435 2.6750000000000003 15.575000000000001 229.44500000000002 253.15499500000001 0.10074720840776584 5.5750000000000011 18.375000000000004 2.6650000000000009 4.8410000000000002 3.9150000000000005 242.49500500000002 2.5150000000000001 247.22500000000002 30.815000000000001 230.61500000000004
decision_type=2 2 2 2 2 2 2 2 2 2 2 2 2 2 2 2 2 2 2 2 2 2 2 2 2 2 2 2 2
left_child=2 5 6 11 8 7 14 15 17 27 18 20 21 24 25 -2 -9 -4 -7 -10 -3 -8 -14 -16 -6 -1 -15 -5 -12
right_child=1 3 4 9 13 10 12 16 19 -11 28 -13 22 26 23 -17 -18 -19 -20 -21 -22 -23 -24 -25 -26 -27 -28 -29 -30
leaf_value=-0.055075043728624144 0.055426840150084734 0.14931323513720593 -0.018736908301234503 0.17682190244848078 0.02759355233557392 0.080622945126000933 -0.041569282362778501 0.072822253683278729 -0.0065327755451758457 0.28875445479556067 0.12327921887684297 0.18956140930702692 -0.016718819226614785 0.037897798528819582 -0.047556678371103736 0.071156697332457552 0.094807372000775936 -0.032107801027314191 0.11722867799199317 0.0041528503510835082 0.17208180392830119 -0.03400757647828502 0.012881169319152834 -0.024058801475078315 0.014998173440355417 -0.051464439049886762 0.058151717968665223 0.23477000600836251 0.14208099665133567
leaf_weight=1993 266 251 2643 26 141 37 775 106 645 95 110 308 106 401 2649 423 683 172 543 389 256 1025 21 32 175 2951 23 310 348
leaf_count=1993 266 251 2643 26 141 37 775 106 645 95 110 308 106 401 2649 423 683 172 543 389 256 1025 21 32 175 2951 23 310 348
internal_value=0.000157772 0.131429 -0.0347753 0.197627 -0.00750776 0.098548 -0.0478721 0.0795923 -0.0149908 0.244759 0.125385 0.172299 -0.0356208 0.0313659 -0.0509606 0.0652175 0.0919975 -0.0195706 0.115107 -0.00251256 0.161283 -0.0372952 -0.0117311 -0.0472898 0.0207221 -0.0529362 0.0391976 0.231092 0.137982
internal_weight=17903 3762 14141 1246 4589 2516 9552 1478 3849 431 1038 815 1927 740 7625 689 789 2815 580 1034 507 1800 127 2681 316 4944 424 336 458
internal_count=17903 3762 14141 1246 4589 2516 9552 1478 3849 431 1038 815 1927 740 7625 689 789 2815 580 1034 507 1800 127 2681 316 4944 424 336 458
is_linear=0
shrinkage=0.05


Tree=28
num_leaves=29
num_cat=0
split_feature=0 0 0 0 0 0 0 0 0 0 0 0 10 0 10 2 2 1 0 5 3 13 5 0 2 5 0 10
split_gain=29660.8 2795.25 1976.1 567.894 545.135 398.157 155.253 86.6059 72.4653 45.3025 43.3169 29.3918 25.0492 18.6561 18.3253 16.578 12.384 11.6077 11.0815 10.9211 9.56464 8.1442 7.4837 4.82746 4.69975 3.72937 2.02857 0.450558
threshold=14.625000000000002 27.315000000000001 5.6450000000000005 9.6150000000000002 21.135000000000002 35.07500000000001 3.5050000000000003 17.825000000000003 7.2350000000000012 30.420000000000005 24.085000000000004 11.755000000000001 5.285000000000001 2.6950000000000007 13.525 256.80000500000006 252.90999500000001 434.85500000000008 38.895000000000003 5.5000000000000009 50.140000000000008 0.19809088662776617 5.5000000000000009 2.2750000000000004 231.00499500000004 5.5000000000000009 3.0650000000000004 18.375000000000004
decision_type=2 2 2 2 2 2 2 2 2 2 2 2 2 2 2 2 2 2 2 2 2 2 2 2 2 2 2 2
left_child=2 4 6 8 7 9 13 19 16 27 21 22 15 23 -9 -8 -4 -10 -7 -2 -13 -6 -5 -1 -12 -11 -15 -3
right_child=1 5 3 11 10 18 12 14 17 25 24 20 -14 26 -16 -17 -18 -19 -20 -21 -22 -23 -24 -25 -26 -27 -28 -29
leaf_value=-0.053832998552521077 0.055364338309648202 0.14631607390464621 -0.016744060415010024 0.03427506742443432 0.093749236783076978 0.23171633248414097 -0.034365673073198572 0.082154369029161817 -0.00052426532332634616 0.17163459398340453 0.12270254804065872 0.037408454943548289 0.012492858362002451 -0.046307151672968928 0.098222344549913909 -0.0021754402711110957 -0.030541778418913031 -0.037701847428066093 0.27442310033700407 0.070720726777027926 0.061333501523414859 0.11903540066278817 0.017120710761695909 -0.04930016982425553 0.14307943953399435 0.20058535357957244 -0.042610205912799959 0.16835684049970723
leaf_weight=936 215 116 2549 84 71 195 2065 450 897 113 129 427 29 1234 446 41 175 20 96 421 50 505 285 4331 379 231 1124 289
leaf_count=936 215 116 2549 84 71 195 2065 450 897 113 129 427 29 1234 446 41 175 20 96 421 50 505 285 4331 379 231 1124 289
internal_value=0.000157409 0.127172 -0.0324465 -0.00498033 0.0995055 0.196521 -0.0450709 0.080152 -0.0135561 0.1764 0.126709 0.0318865 -0.0331047 -0.0484143 0.0903033 -0.033741 -0.0176468 -0.00139536 0.24714 0.065672 0.0401007 0.11617 0.0211487 -0.0501208 0.138281 0.191862 -0.0445731 0.162607
internal_weight=17903 3656 14247 4487 2616 1040 9760 1532 3641 749 1084 846 2135 7625 896 2106 2724 917 291 636 477 576 369 5267 508 344 2358 405
internal_count=17903 3656 14247 4487 2616 1040 9760 1532 3641 749 1084 846 2135 7625 896 2106 2724 917 291 636 477 576 369 5267 508 344 2358 405
is_linear=0
shrinkage=0.05


Tree=29
num_leaves=30
num_cat=0
split_feature=0 0 0 0 0 0 0 0 0 0 0 0 0 11 10 0 4 0 10 2 1 0 11 3 0 1 0 1 0
split_gain=26789.4 2831.85 1521.12 582.789 361.188 356.526 104.127 72.2282 62.4248 53.1626 45.2607 44.0344 38.1729 25.3546 10.9725 10.4724 10.4276 10.2245 9.42696 8.72395 8.58563 7.10894 6.97363 6.69365 6.66959 3.36893 2.2263 2.14596 1.24938
threshold=13.290000000000001 24.575000000000003 5.3950000000000005 31.710000000000004 18.795000000000005 8.5850000000000026 3.2150000000000003 35.07500000000001 21.735000000000003 27.610000000000003 6.5550000000000006 16.470000000000002 10.445000000000002 4.3550000000000013 4.705000000000001 2.5950000000000002 1.9855000000000003 38.895000000000003 5.285000000000001 257.19999500000006 444.34499000000005 14.625000000000002 11.775 50.175000000000004 7.2350000000000012 410.0550100000001 2.1550000000000007 398.41999500000003 2.8550000000000004
decision_type=2 2 2 2 2 2 2 2 2 2 2 2 2 2 2 2 2 2 2 2 2 2 2 2 2 2 2 2 2
left_child=2 4 6 9 11 10 15 -5 16 27 19 21 14 20 -7 26 -6 -9 -15 -4 -8 -2 -13 -14 -12 -10 -1 -3 -17
right_child=1 3 5 7 8 12 13 17 25 -11 24 22 23 18 -16 28 -18 -19 -20 -21 -22 -23 -24 -25 -26 -27 -28 -29 -30
leaf_value=-0.05255766355849828 0.043594317234997806 0.10807509160217117 -0.018690697869580809 0.18877411603927613 0.052640855677273814 -0.023764621413179809 -0.036427359050947142 0.22021895616715798 0.11104715980644511 0.16119675754968082 -0.011306922233973941 0.062180705225160775 0.027936480125889791 -0.021365209523494549 0.010775224143273289 -0.04533492125110828 0.093025487122038522 0.26091303978210839 0.012550914572908523 -0.036063623780862496 -0.0040023858762449687 0.056641785428218565 0.076320835297528963 0.055265628005944048 -0.0040562690812896637 0.12879344093335141 -0.047997263852764233 0.13713206218388266 -0.042318948227514773
leaf_weight=518 211 41 2362 196 23 23 2238 195 404 502 621 183 453 187 400 2728 771 96 22 75 21 319 396 24 652 114 2823 416 889
leaf_count=518 211 41 2362 196 23 23 2238 195 404 502 621 183 453 187 400 2728 771 96 22 75 21 319 396 24 652 114 2823 416 889
internal_value=0.00015719 0.116657 -0.0319482 0.172023 0.0835024 -0.00840795 -0.043458 0.21698 0.1013 0.14889 -0.0152563 0.0623389 0.0198008 -0.0345825 0.00881983 -0.046598 0.0919571 0.234913 -0.0177311 -0.0192472 -0.0361288 0.0515851 0.0720239 0.0294805 -0.00760246 0.115313 -0.0487276 0.134887 -0.0446115
internal_weight=17903 3867 14036 1446 2421 4610 9426 487 1312 959 3710 1109 900 2468 423 6958 794 291 209 2437 2259 530 579 477 1273 518 3341 457 3617
internal_count=17903 3867 14036 1446 2421 4610 9426 487 1312 959 3710 1109 900 2468 423 6958 794 291 209 2437 2259 530 579 477 1273 518 3341 457 3617
is_linear=0
shrinkage=0.05


Tree=30
num_leaves=30
num_cat=0
split_feature=9 12 12 12 12 12 12 12 12 12 10 5 10 10 4 10 6 2 9 5 12 5 12 12 10 9 12 9 12
split_gain=23941.4 2519.42 1305.26 469.156 399.211 319.804 84.4298 78.0984 51.6018 38.7675 32.2182 26.1021 22.5985 18.3498 14.0394 12.453 12.3973 12.2612 11.5845 11.305 9.66888 9.45204 8.933 6.22396 5.9647 4.50772 1.20119 0.497185 0.266924
threshold=8.8050000000000015 17.185000000000006 3.1830000000000007 23.444000000000006 13.663000000000002 5.5500000000000016 11.691000000000003 19.543000000000003 1.9730000000000001 4.4310000000000018 14.745000000000003 8.5000000000000018 10.285000000000002 24.970000000000002 1.9765000000000004 5.6850000000000014 2.5000000000000004 251.07000000000002 19.195000000000004 10.500000000000002 2.4590000000000005 4.5000000000000009 6.5130000000000008 1.6240000000000006 18.615000000000006 1.9750000000000003 1.3310000000000006 1.6050000000000002 1.7340000000000004
decision_type=2 2 2 2 2 2 2 2 2 2 2 2 2 2 2 2 2 2 2 2 2 2 2 2 2 2 2 2 2
left_child=2 4 8 7 6 9 12 16 23 14 21 15 -2 -5 -4 -7 -3 -11 -9 -8 27 -6 -13 26 -12 -22 -1 -10 -25
right_child=1 3 5 13 10 11 19 18 20 17 24 22 -14 -15 -16 -17 -18 -19 -20 -21 25 -23 -24 28 -26 -27 -28 -29 -30
leaf_value=-0.050410183788029507 0.041275560082424258 0.12507944845138658 -0.032216064482285027 0.18905962956257358 0.12195396453574084 0.0030160397282141507 0.075949959559903413 0.10806167483329775 -0.026794967126595428 -0.0084553676930991094 0.11063761677607686 0.0019215238226205481 0.059529089102773637 0.23085289587875435 -0.018855065188693051 0.030017849443919532 0.14804281703770733 -0.031541777490857077 0.16447423752991963 0.045440554892621846 -0.012292173664484707 0.088401812707001703 0.014220226056729283 -0.044218237075623522 0.072575670750217244 -0.032806095627514333 -0.0461652159983056 -0.038803397937474601 -0.042307170180731504
leaf_weight=429 366 353 216 96 33 50 733 21 23 1277 664 250 355 215 2477 306 155 59 484 40 30 443 361 2209 22 926 1879 1747 1684
leaf_count=429 366 353 216 96 33 50 733 21 23 1277 664 250 355 215 2477 306 155 59 484 40 30 443 361 2209 22 926 1879 1747 1684
internal_value=0.00015546 0.108277 -0.0307603 0.164622 0.0801124 -0.0102919 0.0628966 0.147652 -0.0422117 -0.0164887 0.102137 0.0155126 0.050368 0.218921 -0.0199441 0.026254 0.132501 -0.00950913 0.162455 0.0744623 -0.036414 0.0911037 0.00920505 -0.0447511 0.109578 -0.0321826 -0.0469865 -0.0386702 -0.0434082
internal_weight=17903 3980 13923 1324 2656 4996 1494 1013 8927 4029 1162 967 721 311 2693 356 508 1336 505 773 2726 476 611 6201 686 956 2308 1770 3893
internal_count=17903 3980 13923 1324 2656 4996 1494 1013 8927 4029 1162 967 721 311 2693 356 508 1336 505 773 2726 476 611 6201 686 956 2308 1770 3893
is_linear=0
shrinkage=0.05


Tree=31
num_leaves=30
num_cat=0
split_feature=12 12 12 12 12 12 12 12 12 12 12 12 4 10 1 5 4 4 5 5 5 13 12 12 4 10 12 12 12
split_gain=21616.6 2263.65 1187.93 424.186 353.488 296.321 70.4779 61.2827 46.7511 40.1196 35.1651 24.148 17.8509 16.396 14.6241 13.3916 11.8976 11.5941 10.9967 9.61104 9.34862 8.62206 7.2637 6.37822 4.43602 3.76491 1.52308 0.685375 0.328341
threshold=8.9490000000000034 17.185000000000006 3.1830000000000007 23.444000000000006 12.906000000000002 5.5500000000000016 19.543000000000003 14.360000000000001 2.0790000000000006 10.792000000000003 4.5330000000000004 6.9090000000000016 0.99850000000000005 24.970000000000002 434.85500000000008 10.500000000000002 1.9765000000000004 0.95150000000000012 5.5000000000000009 10.500000000000002 5.5000000000000009 0.43985792716713906 1.6600000000000006 2.547000000000001 1.9935000000000003 2.4050000000000007 1.3310000000000006 1.7770000000000004 2.2890000000000006
decision_type=2 2 2 2 2 2 2 2 2 2 2 2 2 2 2 2 2 2 2 2 2 2 2 2 2 2 2 2 2
left_child=2 4 8 6 9 10 17 19 22 21 16 24 -9 -5 -12 -11 -4 -3 -8 -6 -13 -2 26 28 -7 -25 -1 -24 -10
right_child=1 3 5 13 7 11 18 12 23 15 14 20 -14 -15 -16 -17 -18 -19 -20 -21 -22 -23 27 25 -26 -27 -28 -29 -30
leaf_value=-0.047898457545038575 0.031449560218875905 0.080294099875858851 -0.029726791473308825 0.1797520783620003 0.081836059820254978 0.010293276378525848 0.14055605789454437 0.1255138794795887 -0.037077552866507754 0.065131998870414945 -0.0070820549509137895 0.032388374938701212 0.098497424537863948 0.21939021899573521 -0.038091762189435052 0.038445897551238048 -0.017639485515787878 0.12782564369726157 0.16321853086825008 0.049273505262029706 0.017727384602193367 0.047871102472314964 -0.04147641002984867 -0.021394620963790044 6.6081465347424758e-05 -0.031591610662048707 -0.043602961139215551 -0.039288872307326465 -0.034310140190446009
leaf_weight=429 123 23 223 96 614 289 207 91 840 649 1093 161 748 215 38 59 2675 485 298 32 361 329 2406 120 167 702 2425 1378 627
leaf_count=429 123 23 223 96 614 289 207 91 840 649 1093 161 748 215 38 59 2675 485 298 32 361 329 2406 120 167 702 2425 1378 627
internal_value=0.000152905 0.103074 -0.0291713 0.156445 0.0762841 -0.00967377 0.14031 0.0924686 -0.0401036 0.0554724 -0.015666 0.0149981 0.101646 0.208076 -0.00817301 0.0629941 -0.0185845 0.125916 0.154373 0.0803409 0.0223291 0.0435212 -0.0422436 -0.0338742 0.00656029 -0.0301447 -0.0442735 -0.0406957 -0.035931
internal_weight=17903 3969 13934 1324 2645 5007 1013 1485 8927 1160 4029 978 839 311 1131 708 2898 508 505 646 522 452 6638 2289 456 822 2854 3784 1467
internal_count=17903 3969 13934 1324 2645 5007 1013 1485 8927 1160 4029 978 839 311 1131 708 2898 508 505 646 522 452 6638 2289 456 822 2854 3784 1467
is_linear=0
shrinkage=0.05


Tree=32
num_leaves=29
num_cat=0
split_feature=0 0 0 0 0 0 0 0 0 0 2 0 0 12 1 1 0 0 2 1 5 2 1 1 13 0 0 4
split_gain=19762.3 1889.3 1315.13 372.358 352.492 290.617 103.001 58.0854 47.2895 41.2832 24.4489 24.4357 19.8359 16.594 13.691 13.1017 12.512 11.5817 9.80148 8.8252 8.75855 6.98494 5.62027 4.97164 4.75357 2.952 2.24359 0.238011
threshold=14.625000000000002 26.975000000000005 5.6450000000000005 9.6150000000000002 21.135000000000002 35.07500000000001 3.5050000000000003 17.825000000000003 7.2350000000000012 30.420000000000005 227.35000000000005 23.515000000000004 11.435 4.6850000000000014 397.78000000000003 440.33501000000007 2.6250000000000004 38.895000000000003 252.90999500000001 434.85500000000008 5.5000000000000009 247.95500500000003 410.0550100000001 420.02499500000005 0.19809088662776617 3.0650000000000004 2.1550000000000007 0.96550000000000014
decision_type=2 2 2 2 2 2 2 2 2 2 2 2 2 2 2 2 2 2 2 2 2 2 2 2 2 2 2 2
left_child=2 4 6 8 7 9 16 20 18 27 -11 24 23 15 -9 -8 26 -7 -4 -10 -2 -14 -13 -5 -6 -18 -1 -3
right_child=1 5 3 12 11 17 13 14 19 10 -12 22 21 -15 -16 -17 25 -19 -20 -21 -22 -23 -24 -25 -26 -27 -28 -29
leaf_value=-0.045166134804978442 0.0440393861748846 0.11882354681062515 -0.013503994954370139 0.02269442927592048 0.074986329447222125 0.18908971664863083 -0.028307032405200955 0.05619147738861472 -0.00041745203854106076 0.11591197724389557 0.1635904693042759 0.10517672769371958 0.030404159956873886 0.0068655290424007257 0.075909843480509845 -0.0058489772826165179 -0.038341037948569773 0.22627812012647974 -0.025763564862880763 -0.032834126089894493 0.057546205323564227 0.060723571371027213 0.12140366398105938 0.0099612459668929777 0.09599643790905657 -0.0348505450812353 -0.040909839578332628 0.13561704594851084
leaf_weight=518 215 129 2549 142 64 195 2032 125 897 49 295 380 510 35 771 68 2505 96 175 20 421 20 180 174 408 1124 3478 328
leaf_count=518 215 129 2549 142 64 195 2032 125 897 49 295 380 510 35 771 68 2505 96 175 20 421 20 180 174 408 1124 3478 328
internal_value=0.000149953 0.103827 -0.0264633 -0.00405661 0.0802877 0.158911 -0.0367622 0.0649471 -0.0110007 0.142742 0.157332 0.102934 0.025796 -0.0270153 0.0732575 -0.0275845 -0.0394854 0.202456 -0.0143053 -0.00117693 0.0530946 0.0317164 0.110703 0.0157633 0.0933942 -0.0372748 -0.0414783 0.131281
internal_weight=17903 3656 14247 4487 2564 1092 9760 1532 3641 801 344 1032 846 2135 896 2100 7625 291 2724 917 636 530 560 316 472 3629 3996 457
internal_count=17903 3656 14247 4487 2564 1092 9760 1532 3641 801 344 1032 846 2135 896 2100 7625 291 2724 917 636 530 560 316 472 3629 3996 457
is_linear=0
shrinkage=0.05


Tree=33
num_leaves=29
num_cat=0
split_feature=0 0 0 0 0 0 12 0 12 0 0 2 0 10 0 2 1 0 10 10 2 1 10 10 1 0 0 0
split_gain=17845.1 1707.23 1188.05 318.433 317.834 262.821 116.573 52.4567 39.0026 37.3243 22.0606 21.8501 17.914 15.4158 15.2444 13.1907 12.6013 10.6159 10.516 10.2086 6.40239 5.11326 5.08666 4.83596 4.49258 3.89532 3.76375 3.70013
threshold=14.625000000000002 26.975000000000005 5.745000000000001 21.135000000000002 9.6150000000000002 35.07500000000001 2.4590000000000005 18.595000000000002 5.2950000000000008 30.420000000000005 23.515000000000004 227.35000000000005 11.435 5.285000000000001 2.7250000000000005 252.90999500000001 444.34499000000005 38.895000000000003 18.615000000000006 12.205000000000002 247.95500500000003 410.0550100000001 18.375000000000004 15.590000000000002 420.02499500000005 8.3250000000000011 2.5150000000000001 4.205000000000001
decision_type=2 2 2 2 2 2 2 2 2 2 2 2 2 2 2 2 2 2 2 2 2 2 2 2 2 2 2 2
left_child=2 3 6 7 8 9 14 19 15 22 23 -11 24 16 26 -4 -8 -7 -9 -2 -14 -12 -3 -5 -6 -10 -1 -16
right_child=1 5 4 10 12 17 13 18 25 11 21 -13 20 -15 27 -17 -18 -19 -20 -21 -22 -23 -24 -25 -26 -27 -28 -29
leaf_value=-0.040637627605989796 0.047582374055765271 0.11166756243454262 -0.011424823110712782 0.082896940776954531 0.021571568918709712 0.17970740379571309 -0.025003465141038822 0.073223887523287942 -0.0022625182631569045 0.11028852533585956 0.099938568284064971 0.15545232628690453 0.028888409894990998 0.010687388926744461 -0.034017953737772437 -0.025497483333941126 0.0014221299817099384 0.21513826935719221 0.032778143120366469 0.059467688942476338 0.057899218936299172 0.11538364813552744 0.1305195138315777 0.097485454171157088 0.0094674406419282629 0.0055178306994792432 -0.037619021085264132 -0.012754080322932224
leaf_weight=1992 457 149 2543 292 142 195 1987 667 349 49 380 295 510 31 2387 178 46 96 20 388 20 180 308 180 174 296 3569 23
leaf_count=1992 457 149 2543 292 142 195 1987 667 349 49 380 295 510 31 2387 178 46 96 20 388 20 180 308 180 174 296 3569 23
internal_value=0.000148509 0.098668 -0.0251408 0.0762918 -0.00285283 0.15103 -0.034494 0.0617112 -0.00973978 0.135655 0.0978157 0.149526 0.0245172 -0.0238705 -0.0372398 -0.012359 -0.0244049 0.192439 0.0721204 0.0531355 0.0301435 0.105198 0.124758 0.0887516 0.0149829 0.00131252 -0.038711 -0.0338231
internal_weight=17903 3656 14247 2564 4212 1092 10035 1532 3366 801 1032 344 846 2064 7971 2721 2033 291 687 845 530 560 457 472 316 645 5561 2410
internal_count=17903 3656 14247 2564 4212 1092 10035 1532 3366 801 1032 344 846 2064 7971 2721 2033 291 687 845 530 560 457 472 316 645 5561 2410
is_linear=0
shrinkage=0.05


Tree=34
num_leaves=31
num_cat=0
split_feature=0 0 12 0 0 0 0 0 0 0 0 0 0 1 10 5 1 10 0 5 0 5 0 1 1 4 13 9 0 11
split_gain=16117.7 1733.69 916.282 357.286 237.118 223.726 46.1441 35.7424 34.5781 33.2649 31.7323 29.921 27.3842 13.8186 12.0707 11.6686 11.1759 8.34821 8.19999 6.99341 6.77046 5.99802 5.29506 5.07832 4.2278 3.96388 2.29644 2.06386 0.92874 0.167877
threshold=13.290000000000001 24.575000000000003 3.1830000000000007 31.710000000000004 8.1450000000000014 19.005000000000006 38.895000000000003 21.735000000000003 3.0650000000000004 6.0850000000000009 28.125000000000004 16.470000000000002 10.160000000000002 438.48500000000007 5.3650000000000011 5.5000000000000009 395.94500500000009 16.145000000000003 3.7650000000000001 4.5000000000000009 35.07500000000001 10.500000000000002 2.5250000000000004 410.0550100000001 428.7149950000001 0.95450000000000002 1.0360863860200811 1.9450000000000001 2.1150000000000007 1.5450000000000002
decision_type=2 2 2 2 2 2 2 2 2 2 2 2 2 2 2 2 2 2 2 2 2 2 2 2 2 2 2 2 2 2
left_child=2 5 8 10 9 11 20 16 22 14 25 21 19 -11 -4 -12 -7 -13 29 -6 -5 -2 28 -9 -14 -3 -24 -20 -1 -10
right_child=1 3 4 6 12 7 -8 23 18 13 15 17 24 -15 -16 -17 -18 -19 27 -21 -22 -23 26 -25 -26 -27 -28 -29 -30 -31
leaf_value=-0.041834218112108787 0.041918344385093322 0.090764948580509583 -0.018030196073349453 0.1471674115672896 0.016845125549319964 0.042334275475785707 0.20454684303357051 0.085743360134110352 -0.038292014904050944 -0.0073491010918926699 0.11744935983927594 0.057189957352918035 0.020727525242897463 -0.022246006539615851 0.016848337182811663 0.13971604894900666 0.073200488443143835 0.023570856451988222 -0.013397272639436486 0.0019655859665519359 0.1707906231322058 0.026069468358085931 -0.035375463389090527 0.10232755765883308 0.044104969544812689 0.10916188948876715 -0.019779465028217862 -0.025976895275221207 -0.037867848948882628 -0.031398535853808009
leaf_weight=345 450 96 2059 196 99 38 96 404 40 1857 280 609 510 169 24 171 704 22 39 371 195 80 4366 114 20 412 30 893 1747 1467
leaf_count=345 450 96 2059 196 99 38 96 404 40 1857 280 609 510 169 24 171 704 22 39 371 195 80 4366 114 20 412 30 893 1747 1467
internal_value=0.00014719 0.0905111 -0.0247556 0.133831 -0.00786564 0.0645705 0.169026 0.0791937 -0.034419 -0.0131791 0.115722 0.0486186 0.0139546 -0.00860727 -0.0176165 0.126327 0.0717083 0.0560765 -0.0292878 0.00514341 0.159556 0.0396064 -0.0363407 0.0896781 0.0217317 0.105963 -0.0352758 -0.0254729 -0.0385515 -0.0316194
internal_weight=17903 3867 14036 1446 5109 2421 487 1260 8927 4109 959 1161 1000 2026 2083 451 742 631 2439 470 391 530 6488 518 530 508 4396 932 2092 1507
internal_count=17903 3867 14036 1446 5109 2421 487 1260 8927 4109 959 1161 1000 2026 2083 451 742 631 2439 470 391 530 6488 518 530 508 4396 932 2092 1507
is_linear=0
shrinkage=0.05


Tree=35
num_leaves=29
num_cat=0
split_feature=0 0 0 0 0 10 0 0 0 0 10 0 0 10 2 0 2 0 5 5 2 2 5 13 13 11 13 0
split_gain=14554.6 1395.02 970.808 279.971 273.051 202.002 75.548 43.6857 36.0427 20.9852 18.3864 18.1716 16.8536 15.5273 14.9989 14.8849 10.7438 9.43672 9.04727 7.88219 7.33358 6.54014 6.14905 4.81288 3.67875 2.77812 2.34115 1.86658
threshold=14.625000000000002 27.315000000000001 5.6450000000000005 21.135000000000002 9.6150000000000002 22.970000000000002 3.5050000000000003 17.825000000000003 7.0950000000000006 23.515000000000004 18.615000000000006 30.815000000000001 39.795000000000009 5.285000000000001 227.35000000000005 12.230000000000002 256.80000500000006 2.6250000000000004 4.5000000000000009 5.5000000000000009 257.19999500000006 230.61500000000004 10.500000000000002 0.25050907832385644 0.46581648719511531 18.215000000000003 1.0360863860200811 2.1150000000000007
decision_type=2 2 2 2 2 2 2 2 2 2 2 2 2 2 2 2 2 2 2 2 2 2 2 2 2 2 2 2
left_child=2 3 6 7 8 11 17 19 20 23 -9 25 -7 16 -13 22 -8 27 -10 -2 -4 -11 -6 -5 -17 -3 -19 -1
right_child=1 5 4 9 15 12 13 10 18 21 -12 14 -14 -15 -16 24 -18 26 -20 -21 -22 -23 -24 -25 -26 -27 -28 -29
leaf_value=-0.039751561490928393 0.036985828564663613 0.10077983746182027 -0.012037709475560278 0.064988006475549309 0.021431355871195566 0.16291625640973326 -0.024199529523860015 0.064183834889329425 0.010933844040325527 0.081731347995902245 0.020819891401027382 0.09853945213205674 0.20775424205895626 0.012607206953842133 0.14130910889274467 0.022412534602126985 0.0015919283207725078 -0.032083204669710909 -0.0032415735072377303 0.049604873747603431 -0.027465331665477401 0.099026328182665824 0.0099314331031370648 0.082981559832631155 0.033513759274525656 0.11845070508489992 -0.017383393666882446 -0.035196228574204125
leaf_weight=345 215 112 2528 79 258 296 2065 869 127 125 27 41 48 29 208 131 41 3596 907 421 79 487 219 393 238 335 33 3651
leaf_count=345 215 112 2528 79 258 296 2065 869 127 125 27 41 48 29 208 131 41 3596 907 421 79 487 219 393 238 335 33 3651
internal_value=0.000145029 0.089119 -0.022694 0.0695748 -0.00344275 0.138109 -0.0315426 0.0557097 -0.00938924 0.089066 0.0629141 0.121992 0.170048 -0.023195 0.134899 0.022121 -0.0236966 -0.0338749 -0.00148718 0.0454361 -0.0125207 0.0957023 0.0161992 0.0801853 0.0296794 0.114375 -0.0319568 -0.0356043
internal_weight=17903 3656 14247 2616 4487 1040 9760 1532 3641 1084 896 696 344 2135 249 846 2106 7625 1034 636 2607 612 477 472 369 447 3629 3996
internal_count=17903 3656 14247 2616 4487 1040 9760 1532 3641 1084 896 696 344 2135 249 846 2106 7625 1034 636 2607 612 477 472 369 447 3629 3996
is_linear=0
shrinkage=0.05


Tree=36
num_leaves=31
num_cat=0
split_feature=0 0 0 10 12 0 0 0 0 0 0 10 0 13 13 9 2 11 1 9 0 0 9 5 5 11 10 10 12 0
split_gain=13143.3 1417.79 751.051 294.191 189.028 183.78 36.0959 31.6646 31.56 30.8389 30.2465 23.9384 17.6583 15.2764 14.3407 12.8078 12.7836 10.093 8.42587 6.85807 6.40688 5.7191 5.49977 5.40812 5.07753 4.53389 3.35639 2.98125 2.84321 1.4849
threshold=13.290000000000001 24.575000000000003 4.6750000000000007 21.785000000000004 5.2950000000000008 19.355000000000004 9.6150000000000002 3.1750000000000003 28.125000000000004 38.895000000000003 16.470000000000002 14.375000000000002 6.0850000000000009 1.5862088390082405 1.7363006582442035 4.4150000000000009 252.90999500000001 12.825000000000001 397.78000000000003 5.205000000000001 30.815000000000001 11.195000000000002 1.6850000000000003 10.500000000000002 14.500000000000002 18.375000000000004 4.1150000000000011 8.8050000000000015 3.7370000000000001 2.1550000000000007
decision_type=2 2 2 2 2 2 2 2 2 2 2 2 2 2 2 2 2 2 2 2 2 2 2 2 2 2 2 2 2 2
left_child=2 5 7 8 12 10 27 22 25 20 23 17 19 -10 -13 28 -14 -7 -12 -4 -5 -8 29 -2 -17 -3 -24 -6 -9 -1
right_child=1 3 4 9 6 11 21 15 13 -11 18 14 16 -15 -16 24 -18 -19 -20 -21 -22 -23 26 -25 -26 -27 -28 -29 -30 -31
leaf_value=-0.037161687875611263 0.037876165159725292 0.091342118307897568 -0.016078582166160239 0.10735350655297103 0.0020266258075948211 0.074112281744816794 0.012393551845584185 -0.02614944901919853 0.11198054684162109 0.18543527113186883 0.037587282432404834 0.080823289713444296 -0.0074360498579852776 0.15238158919594505 0.043134651144049067 -0.027037606594914738 -0.021648543206684651 0.057417620011840025 0.053979821420662169 0.010299579419341743 0.14960671179175952 0.022183622953500723 -0.03098742409563577 0.022928336176712732 -0.0020868037398790291 0.10705294594221693 -0.052453337757046838 -0.016500156240330802 -0.039413702315405801 -0.033592761339316768
leaf_weight=499 450 367 1976 28 627 174 262 1957 470 95 108 640 1582 37 32 26 175 310 627 24 310 371 3393 80 80 139 20 21 46 2977
leaf_count=499 450 367 1976 28 627 174 262 1957 470 95 108 640 1582 37 32 26 175 310 627 24 310 371 3393 80 80 139 20 21 46 2977
internal_value=0.000143018 0.0817442 -0.0223449 0.120919 -0.00688503 0.0582858 0.00969324 -0.0309983 0.105831 0.155728 0.0450153 0.0727304 -0.0125392 0.11537 0.0791287 -0.0255861 -0.0088689 0.0636299 0.0516526 -0.0157546 0.146596 0.0181704 -0.0326493 0.035691 -0.00849869 0.0959616 -0.0311362 0.0013895 -0.0264833 -0.0341209
internal_weight=17903 3867 14036 1446 5038 2421 1281 8998 1013 433 1265 1156 3757 507 672 2109 1757 484 735 2000 338 633 6889 530 106 506 3413 648 2003 3476
internal_count=17903 3867 14036 1446 5038 2421 1281 8998 1013 433 1265 1156 3757 507 672 2109 1757 484 735 2000 338 633 6889 530 106 506 3413 648 2003 3476
is_linear=0
shrinkage=0.05


Tree=37
num_leaves=30
num_cat=0
split_feature=0 0 0 0 0 0 0 0 0 0 10 1 0 5 0 0 0 3 1 5 3 0 5 11 1 4 10 13 0
split_gain=11870.9 1140.17 793.093 214.279 208.954 180.303 76.6534 35.5948 25.8347 25.1749 16.1058 15.0781 14.4684 12.8702 12.3855 9.45923 8.13893 7.75996 7.49714 7.31544 7.29743 7.21274 6.99546 6.22855 5.49386 5.20378 4.69755 2.39524 2.10087
threshold=14.625000000000002 26.975000000000005 5.745000000000001 21.135000000000002 9.6150000000000002 35.07500000000001 3.5350000000000006 17.825000000000003 7.2350000000000012 30.010000000000002 18.615000000000006 396.98500000000007 23.515000000000004 12.500000000000002 11.755000000000001 39.795000000000009 2.6750000000000003 50.140000000000008 434.85500000000008 3.5000000000000004 49.905000000000008 4.6750000000000007 5.5000000000000009 18.215000000000003 410.0550100000001 1.9765000000000004 15.590000000000002 1.0360863860200811 2.4150000000000005
decision_type=2 2 2 2 2 2 2 2 2 2 2 2 2 2 2 2 2 2 2 2 2 2 2 2 2 2 2 2 2
left_child=2 3 6 7 8 9 16 22 19 23 -9 -11 26 21 20 -7 28 -16 -10 -4 -6 -8 -2 -3 -14 -15 -5 -18 -1
right_child=1 5 4 12 14 15 13 10 18 11 -12 -13 24 25 17 -17 27 -19 -20 -21 -22 -23 -24 -25 -26 -27 -28 -29 -30
leaf_value=-0.033650012599192786 0.033063062355266432 0.087529763344236206 0.0026696412576353318 0.067228427704493485 0.040689705618553694 0.15029212970111391 -0.025669548669904469 0.057937729675578878 -2.5453419439104876e-07 0.10032446546369492 0.017517311485451565 0.12771332208944866 0.08104820224916659 -0.024849581648694708 0.022909584606273913 0.18869050054839165 -0.02845005268555495 0.043950050128895107 -0.029877597578736238 -0.01110261854467492 0.011111322346240689 -0.018517804501896312 0.044883554815232048 0.10604698061943055 0.095237182529217285 -0.013322714865476646 0.080450287112355565 -0.013924966428590858 -0.031050324961444775
leaf_weight=1393 215 130 100 292 21 243 936 869 897 108 27 285 380 116 427 48 2711 50 20 2349 348 604 421 278 180 691 180 33 3551
leaf_count=1393 215 130 100 292 21 243 936 869 897 108 27 285 380 116 427 48 2711 50 20 2349 348 604 421 278 180 691 180 33 3551
internal_value=0.000140263 0.0804939 -0.020486 0.0622078 -0.00227583 0.123285 -0.0281279 0.0502481 -0.00785994 0.110562 0.056751 0.120597 0.0798633 -0.0201931 0.0199164 0.157561 -0.0305459 0.0252459 -0.000699616 -0.010539 0.0129526 -0.0228853 0.0409748 0.100489 0.0858512 -0.0150226 0.0725095 -0.0282831 -0.0317928
internal_weight=17903 3656 14247 2564 4212 1092 10035 1532 3366 801 896 393 1032 2347 846 291 7688 477 917 2449 369 1540 636 408 560 807 472 2744 4944
internal_count=17903 3656 14247 2564 4212 1092 10035 1532 3366 801 896 393 1032 2347 846 291 7688 477 917 2449 369 1540 636 408 560 807 472 2744 4944
is_linear=0
shrinkage=0.05


Tree=38
num_leaves=31
num_cat=0
split_feature=0 0 12 10 0 0 0 0 0 0 0 0 10 13 10 4 2 4 13 1 0 0 4 13 10 9 13 10 0 0
split_gain=10719.5 1158.83 611.612 242.658 161.163 151.257 26.7206 25.846 25.009 23.8577 21.719 17.9624 17.6476 14.7818 12.7202 10.7452 10.3735 8.74754 6.33383 6.08026 5.44027 5.24696 4.93697 4.39458 3.59762 3.24296 2.60651 1.20655 0.852416 0.397363
