tree
version=v4
num_class=1
num_tree_per_iteration=1
label_index=0
max_feature_idx=26
objective=regression
feature_names=power_factor VLN kVAR volt_ratio specific_pwr hour dow month week is_biz_hour hour_sin hour_cos kw_lag_1 kw_lag_5 kw_lag_10 kw_lag_30 kw_lag_60 kw_roll_mean_5 kw_roll_mean_30 kw_roll_std_10 kw_roll_max_10 kw_delta kw_delta2 volt_sag volt_swell pf_poor vll_stability
feature_infos=[0.2900005847271091:2.1700426050636152] [227.74341181083406:252.70036606443813] [0:6.3388368816212504] [0.99988325528060895:1.0000336524284135] [0.67882259812357626:0.73254255701643034] [0:23] [0:6] [2:3] [9:11] [0:1] [-1:1] [-1:1] [0:50.780000000000001] [0:50.780000000000001] [0:50.780000000000001] [0:50.780000000000001] [0:50.780000000000001] [0:49.432000000000002] [0.06348370927318274:45.892000000000003] [0:14.167744370772567] [0:50.780000000000001] [-19.699999999999996:17.460000000000001] [-19.349999999999994:22.049999999999997] [0:1] [0:1] [0:1] [0:8.3349454034539541]
tree_sizes=3255 3367 3361 3370 3369 3390 3391 3372 3380 3367 3364 3379 3392 3382 3381 3399 3364 3394 3392 3383 3391 3390 3387 3419 3389 3390 3405 3393 3412 3405 3411 3390 3394 3410 3381 3410 3402 3401 3426 3424 3422 3409 3430 3449 3433 3424 3428 3444 3422 3428 3407 3442 3436 3448 3426 3439 3443 3451 3432 3425 3437 3453 3426 3448 3455 3427 3455 3438 3456 3456 3453 3450 3442 3462 3457 3456 3439 3460 3433 3470 3462 3462 3444 3462 3435 3429 3438 3450 3463 3474 3450 3482 3451 3474 3445 3469 3467 3452 3443 3480 3449 3455 3449 3454 3361 3479 3473 3470 3465 3461 3479 3477 3444 3458 3492 3461 3470 3473 3470 3473 3487 3153 3448 3483 3470 3490 3469 3476 3465 3368 3463 3484 3477 3496 3250 3492 3072 3471 3484 3475 3061 3062 3483 3492 3253 2414 3487 3458 3474 3496 3375 3498 3504 3463 3059 3509 3364 3484 2931 3174 3167 1979 3498 2865 3277 1993 3469 3479 1453 1545 3482 3505 1979 3496 3490 3475 1230 3275 3369 3274 3498 1660 3493 3384 2006 3484 1335 2211 2839 3403 1641 1665 2743 3514 3503 1649 2310 2062 2180 1869 2199 2328 3504 2942 3529 2292 3509 1770 3500 2292 2082 3384 2208 3521 3497 1660 3508 3521 1448 1545 2635 1661 2847 3497 3484 3501 1991 3151 2309 2421 2753 3493 3509 3293 3485 1993 2213 3058 2421 2978 2105 3488 3490 2206 2635 1878 3504 1770 2757 1318 2634 3405 2947 1541 2956 1880 3170 3511 3079 1446 1766 1661 2228 1440 3517 3383 1559 1783 3503 1556 2503 3497 2099 3519 2966 3501 3487 2531 2515 1347 2620 1549 2985 1221 2430 2640 1544 3290 3515 2437 3513 3475 1559 3286 1778 2639 1663 2983 3503 1235 3529 3287 3522 1663 1887 3491 2425 1675 1234 2322 2196 3074 2335 1458 2546 1324 3489 2439 1668 2530 2533 2313 1665 2623 3426 2848 1539 2213 3501 1557 2437 3192 2324 1667 3518 1336 2969 3415 2859 3265 3101 1438 3516 2639 2098 3549 3516 3414 2740 3182 2208 3282 904 3292 907 2631 2419 2208 2551 3526 2100 3517 1888 1981 3501 2316 2541 2419 3184 2990 2346 1230 2887 3083 1327 2537 2451 3075 2222 2765 1326 2413 1997 3175 2105 2330 1875 3427 3098 2524 3398 3395 3074 2990 3067 2859 2445 2535 2540 1239 3546 2317 2431 3515 2194 2205 1236 908 1895 2212 2096 1991 3510 2427 1773 1894 3539 3539 2343 3071 2878 1563 2884 3519 2332 2979 2751 2363 2849 2320 1451 3085 2227 2798 3552 3503 2673 2541 3528 2569 3306 2237 1558 2546 3402 1889 2755 3521 2005 2321 3307 2757 2332 3070 1337 1438 1336 2439 2445 2440 2464 3316 2416 2428 1231 3195 2220 3528 3549 3537 2544 3412 2668 3521 2450 1666 2988 3425 3309 3538 1433 2326 1334 3088 2871 1543 2225 2420 3537 2321 2554 1665 2229 1447 3330 3116 3576 2758 3521 3524

Tree=0
num_leaves=31
num_cat=0
split_feature=17 17 17 17 17 17 0 18 17 0 20 20 15 21 21 21 0 21 17 20 22 17 21 17 17 20 17 13 17 17
split_gain=164888 65173.5 21053.4 12073.1 10720.8 3847.53 3695.56 3642.7 3101.52 2688 2463.26 2044.39 1592.79 1223.74 1138.61 1055.75 1024.78 891.931 887.056 693.455 653.433 624.721 605.726 436.678 391.277 388.648 351.313 332.299 308.249 282.8
threshold=29.231909090909095 21.857000000000003 36.308000000000014 24.809195888652411 15.515201923076924 19.377176282051284 0.98707894736842117 11.080190681029498 40.957500000000003 0.99002631578947387 34.400000000000006 33.466129032258074 25.958564997804132 6.4250000000000034 -4.5599999999999996 -6.2349999999999985 0.99597582851930688 3.2850000000000006 23.558300979232406 39.720000000000006 10.811666666666671 27.343666666666671 2.0550000000000002 31.666000000000004 17.333666666666669 39.720000000000006 43.926000000000009 18.962500000000002 31.666000000000004 20.792944444444448
decision_type=2 2 2 2 2 2 2 2 2 2 2 2 2 2 2 2 2 2 2 2 2 2 2 2 2 2 2 2 2 2
left_child=1 4 6 13 7 22 10 -1 16 11 28 -5 15 18 -8 -11 25 29 27 -12 23 -14 24 -16 -6 -4 -10 -3 -2 -7
right_child=2 3 8 9 5 17 14 -9 26 12 19 -13 21 -15 20 -17 -18 -19 -20 -21 -22 -23 -24 -25 -26 -27 -28 -29 -30 -31
leaf_value=24.39033382176898 25.7467739365953 25.629938290388647 26.086585499167573 25.634871063200386 25.050597254762128 25.226162926173465 25.409466550051022 24.913158880580294 26.333956565261737 25.068984330388123 25.966360444498036 26.024394339922612 25.544214198888231 25.900155293467357 25.715526259275975 25.487336102061949 25.776253460799445 25.680560267974851 25.430967884089132 26.209158521698232 25.440751573350838 25.622968905391719 25.413154919246782 25.834413178809015 25.128248097705232 26.18921383064481 26.491297312165337 25.362137256799169 25.856957055003598 25.285170159731958
leaf_weight=41.081475451588631 170.20647048950195 11.679180257022379 165.78979876637459 158.54262074828148 215.35569513589144 376.25243975222111 29.071988761425018 176.24674209952354 108.67582041025162 15.286065995693205 312.48111456632614 42.772804111242294 1784.9769321680069 11.70921018719673 298.69675847142935 1121.4920720532537 19.991037487983704 12.682244613766668 768.0927145332098 32.463362216949463 18.296101748943329 293.16752752661705 16.692314706742764 104.17702478170395 657.63394597172737 207.9661730825901 52.672403037548065 1415.730059556663 101.22783201932907 441.10310905426741
leaf_count=84 215 18 257 198 271 552 43 217 182 18 473 65 4852 18 526 4396 36 18 2477 56 27 500 23 182 825 345 91 5724 138 645
internal_value=25.4935 25.3953 25.951 25.4815 25.1452 25.187 25.821 24.8143 26.2007 25.5404 25.9005 25.7176 25.5293 25.3904 25.7121 25.4817 26.125 25.2645 25.3876 25.9892 25.733 25.5553 25.1148 25.7463 25.1091 26.1437 26.3853 25.3643 25.7879 25.258
internal_weight=9182.21 7560.5 1621.72 5623.45 1937.05 1719.72 1066.62 217.328 555.095 3416.24 616.379 201.315 3214.92 2207.21 450.242 1136.78 393.747 830.038 2195.5 344.944 421.17 2078.14 889.682 402.874 872.99 373.756 161.348 1427.41 271.434 817.356
internal_count=23472 20901 2571 18266 2635 2334 1660 301 911 10029 882 263 9766 8237 778 4414 638 1215 8219 529 735 5352 1119 708 1096 602 273 5742 353 1197
is_linear=0
shrinkage=1


Tree=1
num_leaves=31
num_cat=0
split_feature=17 17 17 17 17 17 2 18 17 2 20 20 15 2 2 21 21 21 17 22 20 21 17 17 20 20 17 17 22 17
split_gain=148812 58859.2 19000.7 10187.6 9935.83 4039.1 3894.58 3287.54 2799.12 2496.58 1844.49 1773.42 1446.05 1207.08 1141.22 1073.76 962.831 826.312 687.196 610.498 582.232 546.668 516.601 466.196 399.091 396.596 359.233 342.085 323.78 317.06
threshold=29.231909090909095 22.100158730158736 36.308000000000014 15.515201923076924 24.809195888652411 19.377176282051284 6.3376856999038882 11.080190681029498 40.957500000000003 3.5349776894446006 33.466129032258074 34.400000000000006 26.055565436978483 4.2888451066835591 4.2888451066835591 -4.5599999999999996 -6.2349999999999985 3.6316666666666646 24.011333333333337 8.2449999999999992 39.720000000000006 2.0550000000000002 26.842187341643864 31.317000000000004 39.720000000000006 29.783333333333335 17.765500000000007 20.792944444444448 10.811666666666671 43.926000000000009
decision_type=2 2 2 2 2 2 2 2 2 2 2 2 2 2 2 2 2 2 2 2 2 2 2 2 2 2 2 2 2 2
left_child=1 3 6 7 13 21 15 -1 14 12 -11 -8 16 18 -4 -2 -6 27 28 23 -13 26 -14 -17 -16 -15 -5 -7 -3 -10
right_child=2 4 8 5 9 17 11 -9 29 10 -12 20 22 25 24 19 -18 -19 -20 -21 -22 -23 -24 -25 -26 -27 -28 -29 -30 -31
leaf_value=-1.0479862251358676 -0.079810132162054057 -0.11455199783669286 0.25751301573834201 -0.40249037742870319 -0.40326823575781995 -0.25384914126816754 0.29146594983558066 -0.55130240811106968 0.79845538895149104 0.13584538045587763 0.50061779869519418 0.4568140162073272 0.038225378537879245 0.0055065087144829453 0.56345287990028126 0.21130594170450304 -0.0039668492416347727 0.18090587870417699 -0.049934981758278062 -0.032236710587803155 0.67989722623645898 -0.07630617524788956 0.090130435566236788 0.31756092175972023 0.6677786740497732 0.34282695091691351 -0.33760357514552242 -0.19221970072577263 -0.48837535870540139 0.94792909749061371
leaf_weight=41.081475451588631 29.071988761425018 1514.9750330299139 22.91058948636055 370.81771842390299 15.286065995693205 376.7844063192606 205.1712886095047 176.24674209952354 108.67582041025162 172.02849170565605 43.398066610097885 295.33816009759903 1136.1233232915401 15.469826072454451 165.78979876637459 334.39832013100386 1220.1200203672051 13.230418756604193 531.4838525056839 20.847227782011032 32.463362216949463 16.692314706742764 829.28205463290215 149.33030545711517 205.04662108421326 19.952213764190674 502.17192268371582 559.53860191255808 5.8146055936813346 52.672403037548065
leaf_count=84 43 5978 41 456 18 553 263 217 182 219 66 447 3167 24 257 570 4745 19 2015 31 56 23 1814 250 340 27 640 829 7 91
internal_value=1.39805e-09 -0.0932239 0.434613 -0.321451 -0.00794603 -0.283197 0.311147 -0.64519 0.671854 0.0445704 0.209329 0.40675 0.0334815 -0.0938822 0.59998 0.215666 -0.00890753 -0.211475 -0.0988771 0.23269 0.478907 -0.359746 0.0601262 0.244108 0.621138 0.195509 -0.365165 -0.21702 -0.115981 0.847251
internal_weight=9182.21 7560.5 1621.72 2056.56 5503.93 1839.24 1066.62 217.328 555.095 3416.24 215.427 532.973 3200.81 2087.7 393.747 533.648 1235.41 949.553 2052.27 504.576 327.802 889.682 1965.41 483.729 370.836 35.422 872.99 936.323 1520.79 161.348
internal_count=23472 20901 2571 2821 18080 2520 1660 301 911 10029 285 766 9744 8051 638 894 4763 1401 8000 851 503 1119 4981 820 597 51 1096 1382 5985 273
is_linear=0
shrinkage=0.05


Tree=2
num_leaves=31
num_cat=0
split_feature=17 17 17 17 17 2 18 17 17 2 20 20 2 21 2 17 17 21 21 22 20 20 21 17 17 17 20 4 17 22
split_gain=134303 53120.4 17148.1 9215.81 8983.4 3514.86 3298.42 3143.83 2526.21 1954.28 1608.75 1545.09 1380.61 1091.45 1029.95 1025.03 994.033 969.068 727.48 551.674 468.628 428.602 425.707 401.613 397.238 361.5 360.179 314.622 305.679 291.915
threshold=29.231909090909095 22.100158730158736 36.308000000000014 16.485288461538467 25.141235853518463 6.3376856999038882 11.080190681029498 19.714000000000002 40.957500000000003 3.8769369943825689 35.185000000000009 33.466129032258074 3.5349776894446006 -6.2349999999999985 4.2888451066835591 24.011333333333337 26.414075690010474 -4.5599999999999996 3.6316666666666646 10.811666666666671 42.285000000000004 29.552698412698415 2.0550000000000002 32.165000000000006 31.317000000000004 14.639000000000001 39.720000000000006 0.70889567416494781 18.265000000000004 10.811666666666671
decision_type=2 2 2 2 2 2 2 2 2 2 2 2 2 2 2 2 2 2 2 2 2 2 2 2 2 2 2 10 2 2
left_child=1 3 5 6 12 17 27 22 14 13 23 -11 15 -6 -4 29 -15 -2 -9 24 -12 -14 28 -7 -19 -8 -16 -1 -5 -3
right_child=2 4 8 7 9 10 25 18 -10 11 20 -13 21 16 26 -17 -18 19 -20 -21 -22 -23 -24 -25 -26 -27 -28 -29 -30 -31
leaf_value=-1.1671173928132521 -0.075819625036264965 -0.10900316540457428 0.2446373644798813 -0.35775607391012754 -0.38310483574575327 0.23803708083222253 -0.5727385104208671 -0.20169374953722638 0.80488875534805848 0.12931585467598872 0.45815500741960746 0.4759455420774879 -0.0011979262570301528 0.010640458103696564 0.53528019303977226 -0.0410881123823362 0.06916152376533613 0.2007406419662485 0.17186058873910651 -0.048477521965236831 0.77101538715229345 0.29567474041223391 -0.076473825601977574 0.3611318191117876 0.29825174423055617 -0.44917949613629704 0.63438973005692034 -0.87828870635048573 -0.29649596023831692 -0.46395660594138805
leaf_weight=14.428512454032896 29.071988761425018 1511.9794655591249 22.91058948636055 532.4261904284358 15.286065995693205 133.61895734071732 97.242353394627571 874.65991944074631 161.34822344779968 151.74560886621475 255.34649255871773 40.790406614542007 20.186792761087418 1421.9538663029671 165.78979876637459 823.80219643563032 1481.8072070926428 334.39832013100386 13.230418756604193 18.296101748943329 12.557891041040419 30.567338347434998 16.309723488986492 131.44946998357773 151.88143149018288 151.30496499687433 205.04662108421326 27.208803609013557 329.75271378457546 5.8146055936813346
leaf_count=26 43 5972 41 643 18 167 124 1289 273 189 395 63 34 4910 257 3287 3560 570 19 27 21 40 23 183 254 185 340 59 453 7
internal_value=-1.37613e-09 -0.0885627 0.412883 -0.305379 -0.00754873 0.29559 -0.566517 -0.262478 0.638261 0.0484625 0.386413 0.202752 -0.0803992 0.0382858 0.569981 -0.0859912 0.0405041 0.204882 -0.196127 0.221056 0.47282 0.177598 -0.329539 0.299081 0.231197 -0.497521 0.590081 -0.978376 -0.334326 -0.110363
internal_weight=9182.21 7560.5 1621.72 2056.56 5503.93 1066.62 290.185 1766.38 555.095 3111.58 532.973 192.536 2392.35 2919.05 393.747 2341.6 2903.76 533.648 887.89 504.576 267.904 50.7541 878.489 265.068 486.28 248.547 370.836 41.6373 862.179 1517.79
internal_count=23472 20901 2571 2821 18080 1660 394 2427 911 8740 766 252 9340 8488 638 9266 8470 894 1308 851 416 74 1119 350 824 309 597 85 1096 5979
is_linear=0
shrinkage=0.05


Tree=3
num_leaves=31
num_cat=0
split_feature=12 12 12 12 17 18 21 12 12 21 21 17 21 12 12 21 21 21 12 12 12 21 12 12 21 3 21 12 21 21
split_gain=125082 50185.8 13256.6 8910.22 8345.08 3167.73 3070.07 2835.66 2812.99 1941.39 1884.05 1879.42 1835.72 1597.17 1197.26 1124.59 1029.54 841.504 507.954 424.802 388.442 385.172 346.607 341.656 240.549 233.924 233.162 225.249 224.09 192.335
threshold=29.830952380952386 22.002301587301591 35.815000000000005 25.306251393534005 16.485288461538467 11.080190681029498 5.0758333333333363 40.485000000000007 19.55741379310345 5.0758333333333363 -6.2349999999999985 27.584000000000007 -6.2349999999999985 33.151000000000003 23.902500000000003 5.7175000000000002 -4.5599999999999996 -4.5599999999999996 26.367803537042672 38.463333333333345 45.015000000000008 2.151666666666666 18.145000000000003 14.490000000000002 1.4225000000000014 0.9999731488258371 -1.0349999999999999 20.842500000000005 -1.0349999999999999 -1.1249999999999971
decision_type=2 2 2 2 2 2 2 2 2 2 2 2 2 2 2 2 2 2 2 2 2 2 2 2 2 10 2 2 2 2
left_child=1 4 12 9 5 25 8 10 22 14 -4 17 -2 21 -3 26 -9 -5 -19 24 -18 28 -6 -7 -12 -1 -13 -10 -14 -16
right_child=2 3 7 11 6 23 -8 16 27 -11 19 15 13 -15 29 -17 20 18 -20 -21 -22 -23 -24 -25 -26 -27 -28 -29 -30 -31
leaf_value=-1.1087614980559157 -0.2247365098665636 -0.10413585559605981 -0.010317300245695358 -0.3508912936795936 -0.34669846394539594 -0.54495020842690789 0.25556991465244355 0.35409281121585678 -0.22504908288284553 0.4312495562267385 0.48169092807653202 0.012201938402350525 0.15067435243821112 0.38999728574940828 -0.13704397187893519 0.62580785483662127 0.72864563190256371 0.015213366259090692 0.060181281743285957 0.5995231692307782 0.89282916484352759 0.48500852393892818 -0.28204665756822778 -0.42511697721817737 0.64579114693174278 -0.8588149278739664 0.13907365345380493 -0.17414584097842872 0.24999976830298765 -0.028993854718244533
leaf_weight=14.428512454032896 17.209995478391647 1530.6233170703053 16.466828107833862 13.957342743873594 549.18578198552132 98.578379206359386 29.458245344460011 16.205119848251343 382.77594903856516 18.975948870182037 246.29836961627007 39.223403304815292 65.026877254247665 296.14569810032845 43.049297705292702 11.666770190000532 147.01791289448738 1216.8051247522235 1297.7967499345541 159.01930564641953 47.718015044927597 16.203485637903214 333.01471591740847 149.96893918514252 24.558647871017456 26.652962997555733 471.8738109767437 502.79628799855709 448.08247289061546 951.42877169698477
leaf_count=26 23 5987 26 19 662 124 43 28 559 29 396 62 102 443 67 20 244 4118 3294 258 83 28 459 185 39 58 772 751 685 3882
internal_value=-7.12169e-10 -0.0815433 0.417638 -0.00349794 -0.290803 -0.539872 -0.250665 0.585944 -0.259101 -0.0725979 0.514549 0.054115 0.286359 0.297015 -0.0763843 0.140417 0.737012 0.0362725 0.0384215 0.534654 0.768877 0.244992 -0.322294 -0.472645 0.49657 -0.9466 0.129337 -0.196148 0.237412 -0.0336712
internal_weight=9182.21 7682.26 1499.95 5595.4 2086.86 289.629 1797.23 657.284 1767.77 2544.08 446.343 3051.32 842.669 825.459 2525.1 522.764 210.941 2528.56 2514.6 429.876 194.736 529.313 882.2 248.547 270.857 41.0815 511.097 885.572 513.109 994.478
internal_count=23472 21117 2355 18250 2867 393 2474 1074 2431 9965 719 8285 1281 1258 9936 854 355 7431 7412 693 327 815 1121 309 435 84 834 1310 787 3949
is_linear=0
shrinkage=0.05


Tree=4
num_leaves=31
num_cat=0
split_feature=12 12 12 12 17 18 17 17 17 0 17 2 17 2 12 12 22 22 13 11 17 12 12 17 12 3 2 22 12 12
split_gain=112887 45292.7 11964.1 8041.48 7531.43 2858.88 2568.27 2463.43 1696.17 1691.84 1430.23 1373.6 1226.19 1093.76 557.122 492.149 474.024 459.097 918.664 409.281 403.684 317.014 308.344 269.82 265.077 211.117 198.148 193.401 188.366 155.236
threshold=29.830952380952386 22.002301587301591 35.815000000000005 25.306251393534005 16.485288461538467 11.080190681029498 40.957500000000003 19.714000000000002 27.584000000000007 1.9602500000000003 33.12883333333334 3.0955273505513001 24.011333333333337 5.9723712057692646 38.463333333333345 18.145000000000003 10.811666666666671 -9.9233333333333302 29.552698412698415 0.1294095225512602 26.297779551366514 32.085000000000008 14.490000000000002 18.265000000000004 45.015000000000008 0.9999731488258371 6.1260226344167377 -3.5700000000000016 23.004763796658917 33.878609022556397
decision_type=2 2 2 2 2 2 2 2 2 2 2 2 2 2 2 2 2 2 2 2 2 2 2 2 2 10 2 2 2 2
left_child=1 4 10 12 5 25 9 23 20 14 17 15 28 -14 -4 -9 -10 18 -2 -13 -5 -19 -7 -6 -8 -1 -16 -22 -3 -12
right_child=2 3 6 8 7 22 24 11 16 -11 29 19 13 -15 26 -17 -18 21 -20 -21 27 -23 -24 -25 -26 -27 -28 -29 -30 -31
leaf_value=-1.0533234601671655 0.28740156533151984 -0.11824586156193649 0.46988244746884755 0.012857641315044127 -0.319990199726984 -0.51770268430588262 0.68834284963878267 -0.38181741755955262 0.12504283224826987 -0.005942014572859435 0.30143394633545839 -0.033367313971563554 -0.032850942259169902 0.39800241409932252 0.38962908466908219 -0.18465809872639805 0.40477366688689281 0.21515623773710241 -0.23312021510384515 0.34492728650870286 -0.21121106179039378 0.303467849890316 -0.40386114374640081 -0.26297053741674081 0.82830636553482151 -0.81587416873322471 0.59081391196683697 0.054278903109223654 -0.082567701911533564 0.38715487944359467
leaf_weight=14.428512454032896 18.487445965409279 632.11650111526251 270.62108641862869 1165.7200269922614 540.21145062148571 98.578379206359386 111.68860945105553 32.863453760743141 507.15313556790352 15.959102272987364 71.045377165079117 13.986606538295748 1005.0412456765771 14.949064403772352 13.047619998455046 858.69839853793383 15.610848903656004 394.81129388511181 15.653900563716887 14.627454638481138 6.8945301771163932 136.84301397204399 149.96893918514252 336.84361618757248 48.526265472173691 26.652962997555733 197.44151541590691 1355.9446602612734 891.9705241471529 205.82749781012535
leaf_count=26 26 2469 435 3898 653 124 186 40 828 24 121 23 3954 23 19 1275 26 606 20 20 10 206 185 463 85 58 325 3523 3519 302
internal_value=1.10289e-09 -0.0774661 0.396756 -0.00332305 -0.276263 -0.512878 0.556646 -0.238131 0.0514092 0.500534 0.272041 -0.180981 -0.068968 -0.0265363 0.517335 -0.191925 0.133396 0.226473 0.0487409 0.160016 0.0344589 0.237887 -0.449013 -0.298091 0.730735 -0.89927 0.578343 0.0529358 -0.0973653 0.365159
internal_weight=9182.21 7682.26 1499.95 5595.4 2086.86 289.629 657.284 1797.23 3051.32 497.069 842.669 920.176 2544.08 1019.99 481.11 891.562 522.764 565.796 34.1413 28.6141 2528.56 531.654 248.547 877.055 160.215 41.0815 210.489 1362.84 1524.09 276.873
internal_count=23472 21117 2355 18250 2867 393 1074 2474 8285 803 1281 1358 9965 3977 779 1315 854 858 46 43 7431 812 309 1116 271 84 344 3533 5988 423
is_linear=0
shrinkage=0.05


Tree=5
num_leaves=31
num_cat=0
split_feature=12 12 12 17 17 12 21 12 21 21 12 21 18 12 21 12 12 21 12 21 21 12 21 12 21 17 21 21 12 4
split_gain=102025 38066.5 14984.4 7259.6 6122.88 2698.8 2474.11 2255.77 2118.57 1834.65 1737.56 1678.84 1518.49 1136.51 879.611 657.736 562.067 552.636 450.586 375.475 332.526 280.706 260.997 245.728 240.077 236.624 215.333 193.731 191.864 190.533
threshold=28.525238095238098 21.450793650793656 35.395000000000003 24.719370038174386 14.639000000000001 39.780000000000008 4.3599999999999985 18.713333333333338 6.4250000000000034 -6.2349999999999985 32.085000000000008 -6.2349999999999985 11.080190681029498 26.036337539272324 -4.5599999999999996 23.209234207389752 42.995000000000012 3.0516666666666699 16.745000000000001 -4.0049999999999981 0.63000000000000089 30.614444444444448 2.3349999999999995 37.785000000000004 -0.53833333333333566 20.202000000000002 1.0000000180025095e-35 0.59250000000000125 23.359521469765447 0.70889567416494781
decision_type=2 2 2 2 2 2 2 2 2 2 2 2 2 2 2 2 2 2 2 2 2 2 2 2 2 2 2 2 2 10
left_child=1 4 9 15 12 11 7 18 13 -2 17 -4 29 28 -7 22 27 21 -6 -15 23 -11 -3 -13 -12 -9 -17 -16 -5 -1
right_child=2 3 5 8 6 14 -8 25 -10 10 24 20 -14 19 16 26 -18 -19 -20 -21 -22 -23 -24 -25 -26 -27 -28 -29 -30 -31
leaf_value=-1.0006572554324824 -0.25403130254486594 -0.11720073873172357 -0.032036506328630941 -0.12640790947336111 -0.37983647720035707 0.30355913428094095 0.19671165561420623 -0.2349123222745737 0.49767162246635516 0.1541306646215953 0.23672218116782839 0.41155416497651215 -0.49175214048364319 -0.24727073998997465 0.57958822203689997 -0.076011604882850234 0.76157102716694758 0.51995346080656035 -0.29718080507479855 0.052864683172379683 0.55897165730524445 0.22169628885057815 0.12675439948821252 0.49833259200762647 0.34034750334662944 -0.18065030090040657 -0.030337329893345658 0.7215826353179442 -0.0051328440309832014 -0.77508046097305128
leaf_weight=14.428512454032896 19.977146178483963 1070.3027074486017 17.959741234779358 33.415708512067795 226.30237058550119 17.886546313762665 29.983192928135395 342.81838438659906 24.020582348108292 442.698292337358 69.622050225734711 235.28574919700623 97.242353394627571 10.477331221103666 123.52800220251083 750.91025031358004 95.804699569940567 11.995674669742582 607.502654902637 1919.9090278595686 72.552530556917191 235.49841160327196 11.077114969491957 124.87361845374107 283.44753238558769 485.36471699923277 393.1634072214365 29.820159733295441 1357.6916065588593 26.652962997555733
leaf_count=26 26 3827 28 53 278 31 43 483 37 716 103 370 124 15 201 2603 164 21 750 4917 116 356 18 206 428 723 1581 49 5121 58
internal_value=-6.20982e-10 -0.0817566 0.339764 -0.0167611 -0.279587 0.516288 -0.253439 -0.26156 0.029791 0.220606 0.229694 0.441654 -0.599429 0.0264073 0.642245 -0.0867426 0.666559 0.183543 -0.319614 0.0512357 0.461314 0.177592 -0.114702 0.441642 0.319914 -0.203112 -0.0603155 0.607201 -0.00804599 -0.854307
internal_weight=9182.21 7401.26 1780.95 5570.97 1830.3 717.711 1691.97 1661.99 3345.51 1063.24 1043.26 450.672 138.324 3321.49 267.039 2225.45 249.153 690.192 833.805 1930.39 432.712 678.197 1081.38 360.159 353.07 828.183 1144.07 153.348 1391.11 41.0815
internal_count=23472 20657 2815 18172 2485 1165 2277 2234 10143 1650 1624 720 208 10106 445 8029 414 1093 1028 4932 692 1072 3845 576 531 1206 4184 250 5174 84
is_linear=0
shrinkage=0.05


Tree=6
num_leaves=31
num_cat=0
split_feature=12 12 12 17 17 12 21 12 21 21 21 12 5 12 21 21 12 12 12 21 16 21 17 12 12 21 12 21 21 21
split_gain=92077.7 34372.6 13523.4 5947.67 5799.92 2443.46 2426.86 2482.99 1875.78 1665.57 1624.18 1558.72 1353.23 1015.24 797.888 487.463 483.211 421.315 407.123 350.635 311.124 297.266 295.706 292.982 237.717 232.772 214.93 185.65 181.979 162.881
threshold=28.525238095238098 21.74468253968254 35.395000000000003 24.719370038174386 14.639000000000001 40.485000000000007 7.6225000000000049 18.713333333333338 7.6225000000000049 -3.2000000000000006 -6.2349999999999985 32.085000000000008 9.5000000000000018 25.940027279483804 -4.5599999999999996 3.0516666666666699 23.902500000000003 37.785000000000004 16.745000000000001 -4.0049999999999981 16.435000000000006 -6.2349999999999985 20.202000000000002 45.015000000000008 30.614444444444448 1.3349999999999975 22.700077473182365 0.80749999999999755 0.8683333333333324 -0.41833333333333295
decision_type=2 2 2 2 2 2 2 2 2 2 2 2 2 2 2 2 2 2 2 2 2 2 2 2 2 2 2 2 2 2
left_child=1 4 9 16 12 10 7 18 13 21 -4 15 -1 29 -7 24 25 27 -6 -15 -14 -2 -9 -16 -11 26 -3 -12 -13 -5
right_child=2 3 5 8 6 14 -8 22 -10 11 17 28 20 19 23 -17 -18 -19 -20 -21 -22 -23 -24 -25 -26 -27 -28 -29 -30 -31
leaf_value=-0.44806631478516312 -0.24132973237899785 -0.12493197545846553 -0.027715306020111286 -0.097772400287787484 -0.36072335919021087 0.29637061091818956 0.25804464422225709 -0.2226153232945679 0.51194215345087868 0.15048009053447131 0.39129581243577949 0.29497355870409386 -0.87367973618503003 -0.23154482939890433 0.62658135414347005 0.49395578647433269 -0.034999934274648141 0.50159006237482029 -0.28217532075822349 0.048946113550199878 -0.62537021763962652 0.028441152724733389 -0.16479551057150782 0.76917072470966763 0.21316087562710165 0.017513572271475743 -0.083771015509964603 0.50916014618261995 0.40515129738407857 -0.0057887790411464525
leaf_weight=86.317262560129166 19.977146178483963 440.54898178577423 18.592771768569946 50.085449188947678 226.40418383479118 16.205119848251343 24.758047923445702 345.20849636942148 19.937219232320786 433.27613257616758 238.00046291947365 301.91708397865295 30.487505316734314 11.203375697135924 147.01791289448738 11.995674669742582 482.12784760445356 211.31139197945595 607.91481264680624 2029.2850217074156 21.519060969352722 20.889823943376541 615.22080817818642 47.718015044927597 232.39405036717653 47.093235731124878 1132.2745313718915 38.865372806787491 42.789195686578751 1230.8770449832082
leaf_count=114 26 1162 29 80 279 28 33 487 31 700 375 448 55 16 244 21 1729 345 751 5284 39 34 918 83 351 71 4882 61 70 4726
internal_value=3.75932e-10 -0.0776688 0.322776 -0.0130477 -0.257337 0.490474 -0.233609 -0.240391 0.0284062 0.209575 0.430952 0.222087 -0.569458 0.0255037 0.633469 0.178055 -0.0789422 0.448421 -0.30349 0.0474061 -0.770935 -0.103432 -0.185578 0.661521 0.172363 -0.0920206 -0.0953002 0.407841 0.30865 -0.00938533
internal_weight=9182.21 7401.26 1780.95 5443.43 1957.83 717.711 1819.51 1794.75 3341.39 1063.24 506.77 1022.37 138.324 3321.45 210.941 677.666 2102.04 488.177 834.319 2040.49 52.0066 40.867 960.429 194.736 665.67 1619.92 1572.82 276.866 344.706 1280.96
internal_count=23472 20657 2815 17981 2676 1165 2468 2435 10137 1650 810 1590 208 10106 355 1072 7844 781 1030 5300 94 60 1405 327 1051 6115 6044 436 518 4806
is_linear=0
shrinkage=0.05


Tree=7
num_leaves=31
num_cat=0
split_feature=17 17 17 17 20 17 2 17 2 20 20 15 2 16 21 2 21 21 17 17 17 17 22 20 20 17 17 20 17 21
split_gain=80619.4 31907.9 10307.4 6439.86 5031.06 2344.3 2169.29 1545.25 1455.95 996.493 921.629 814.936 764.31 742.452 671.104 666.347 604.63 563.542 534.434 517.95 404.008 377.182 365.791 339.712 310.576 269.68 234.64 219.139 201.433 152.577
threshold=29.231909090909095 21.562000000000001 36.308000000000014 24.786046856525122 12.760112781954888 18.265000000000004 6.3376856999038882 40.957500000000003 2.6414834326113827 35.185000000000009 34.076382978723409 25.723525472112431 4.2888451066835591 17.238557692307698 4.8150000000000004 4.2888451066835591 -3.2000000000000006 -6.2349999999999985 23.313190175474691 16.485288461538467 26.771015421776294 20.202000000000002 8.2449999999999992 42.285000000000004 28.36214285714286 32.673000000000009 32.165000000000006 39.720000000000006 43.926000000000009 1.0000000180025095e-35
decision_type=2 2 2 2 2 2 2 2 2 2 2 2 2 2 2 2 2 2 2 2 2 2 2 2 2 2 2 2 2 2
left_child=1 4 6 12 13 19 16 15 11 26 -10 17 18 -1 21 -4 -2 -5 -3 -6 -13 -7 25 -11 -14 -18 -8 -17 -9 -20
right_child=2 3 7 8 5 14 9 28 10 23 -12 20 24 -15 -16 27 22 -19 29 -21 -22 -23 -24 -25 -26 -27 -28 -29 -30 -31
leaf_value=-0.84162482550205553 -0.030038124743920886 -0.10226363331273691 0.17953605856119559 -0.31754942632219829 -0.36565149746021303 -0.22146138510953681 0.18491481132376059 0.5860535916135009 0.10303965586612029 0.35582640062512155 0.35080471634176258 0.022030769033755764 -0.046563499353250007 -0.51702577091397783 0.16426818782788671 0.41464684880372027 0.1677198322187273 -0.011393476940201637 -0.069974409671137147 -0.27450659850808973 0.064962071386316864 -0.15888746764663128 -0.032190152437306351 0.62220055484773573 0.24597669043279674 0.28291210960407265 0.27900340079809632 0.49195328709949016 0.70519404640293137 -0.031870460158238134
leaf_weight=32.188557840883732 39.698307156562805 1198.9242683127522 22.91058948636055 15.286065995693205 219.08373054862022 459.48764183372259 133.61895734071732 108.67582041025162 200.75642290711403 255.34649255871773 46.163999646902084 1357.7008670568466 14.063078910112379 38.912346065044403 13.659824356436728 165.78979876637459 415.20862229913473 899.92539360374212 614.93535926192999 540.21145062148571 918.8888601064682 506.06429428607225 20.847227782011032 12.557891041040419 25.567241430282593 57.893684893846512 131.44946998357773 205.04662108421326 52.672403037548065 458.67775113880634
leaf_count=63 61 4439 41 18 278 645 167 182 269 395 72 4084 23 53 18 257 698 3616 1992 653 2062 737 31 21 34 104 183 340 91 1845
internal_value=-6.02675e-10 -0.0686165 0.319892 -0.0109971 -0.251729 -0.234869 0.228956 0.494627 0.0323891 0.300307 0.149362 0.02334 -0.0755223 -0.663977 -0.183742 0.441225 0.157696 -0.016507 -0.0793185 -0.300805 0.0393589 -0.188665 0.172784 0.368313 0.142167 0.181816 0.231574 0.457392 0.624947 -0.0536953
internal_weight=9182.21 7560.5 1621.72 5750.89 1809.61 1738.51 1066.62 555.095 3438.72 532.973 246.92 3191.8 2312.17 71.1009 979.212 393.747 533.648 915.211 2272.54 759.295 2276.59 965.552 493.95 267.904 39.6303 473.102 265.068 370.836 161.348 1073.61
internal_count=23472 20901 2571 18454 2447 2331 1660 911 10121 766 341 9780 8333 116 1400 638 894 3634 8276 931 6146 1382 833 416 57 802 350 597 273 3837
is_linear=0
shrinkage=0.05


Tree=8
num_leaves=31
num_cat=0
split_feature=12 12 12 12 17 12 21 12 21 21 21 18 21 12 21 12 12 21 12 21 12 21 12 12 21 21 21 21 21 21
split_gain=75179.1 28123.4 11032.6 4872.2 4745.85 2297.31 2035.06 2011.74 1377.87 1291.45 1283.03 1111.7 999.621 950.612 691.748 624.624 470.636 453.695 433.401 379.429 336.942 307.099 241.619 238.049 216.645 210.879 191.305 184.264 181.596 171.161
threshold=28.525238095238098 21.74468253968254 34.890000000000008 24.922267406506538 14.639000000000001 39.780000000000008 5.0758333333333363 18.713333333333338 -6.2349999999999985 3.2850000000000006 -6.2349999999999985 11.080190681029498 4.5699999999999994 31.280789473684216 -6.2349999999999985 26.463943025573464 23.281069725864128 3.0516666666666699 42.995000000000012 -4.5599999999999996 16.745000000000001 0.80749999999999755 37.785000000000004 20.437413793103449 -0.86999999999999911 -0.97000000000000053 9.5625000000000036 -0.91000000000000181 0.75249999999999961 -0.97000000000000053
decision_type=2 2 2 2 2 2 2 2 2 2 2 2 2 2 2 2 2 2 2 2 2 2 2 2 2 2 2 2 2 2
left_child=1 4 10 9 11 8 7 20 -4 16 -2 -1 15 17 -7 27 -3 24 28 -17 -6 22 -10 -9 -12 -15 -11 -5 -16 -18
right_child=2 3 5 12 6 14 -8 23 21 26 13 -13 -14 25 18 19 29 -19 -20 -21 -22 -23 -24 -25 -26 -27 -28 -29 -30 -31
leaf_value=-0.73311674864753762 -0.23867320017843408 -0.094502143305399078 -0.03439403007575554 -0.08746734634690892 -0.32674354355970681 0.15486872400038784 0.20905020946721231 -0.19475416927612643 0.34527182394858258 0.14593065117218848 0.056138728994307441 -0.42290300005030679 0.42221499955315089 0.15632117353203376 0.49170246750451513 -0.27221942942013277 -0.13496424733330131 0.45798502474462588 0.65001845698435878 0.053776392419840738 -0.25526736148719364 0.48180669435922269 0.42743749204066833 -0.14481575395979876 0.15253554992164048 0.26069555679558643 0.40391218356558584 0.0095232967432821898 0.63265228869199008 -0.044909658951037795
leaf_weight=41.081475451588631 17.792533725500107 1097.9979650527239 20.144353687763214 50.4578727632761 226.30237058550119 10.538616597652434 28.353677935898304 452.7879688963294 286.60670506954193 15.511429429054262 66.17662125825882 97.242353394627571 16.077679127454758 55.825588256120682 129.52142062783241 8.9833626449108106 55.339289098978043 11.52568197250366 99.232274830341339 1392.6645450145006 607.502654902637 73.448514878749847 130.08111673593521 504.55967663228512 488.81447285413742 363.49515840411186 13.388644069433211 1659.4566232934594 27.747095763683319 1133.5552968084812
leaf_count=84 23 4152 31 79 278 18 41 651 448 25 106 124 26 87 211 12 87 20 170 3285 750 117 214 748 790 534 20 5895 46 4400
internal_value=1.58436e-10 -0.0701807 0.291657 -0.0117284 -0.232698 0.433064 -0.211234 -0.217887 0.370882 -0.0667021 0.182136 -0.515035 0.0289756 0.189731 0.551886 0.0269437 -0.0708995 0.147489 0.568197 0.051687 -0.274667 0.387539 0.370922 -0.168435 0.141041 0.2468 0.265447 0.0066612 0.51657 -0.0491014
internal_weight=9182.21 7401.26 1780.95 5443.43 1957.83 777.32 1819.51 1791.15 510.281 2315.79 1003.63 138.324 3127.64 985.838 267.039 3111.56 2286.89 566.517 256.501 1401.65 833.805 490.136 416.688 957.348 554.991 419.321 28.9001 1709.91 157.269 1188.89
internal_count=23472 20657 2815 17981 2676 1255 2468 2427 810 8684 1560 208 9297 1537 445 9271 8639 916 427 3297 1028 779 662 1399 896 621 45 5974 257 4487
is_linear=0
shrinkage=0.05


Tree=9
num_leaves=31
num_cat=0
split_feature=12 12 12 17 17 12 18 12 0 12 12 12 0 0 22 15 0 22 22 22 0 12 22 12 12 12 12 12 3 12
split_gain=67931.2 27331 7215.38 4760.8 4496.89 1722.59 1711.15 1328.59 1297.91 1130.87 864.28 728.738 693.756 430.946 423.95 423.523 418.208 383.743 299.085 294.615 208.733 204.551 198.536 195.457 185.921 166.36 165.01 155.461 154.395 117.49
threshold=29.830952380952386 22.284545454545459 36.685000000000009 16.485288461538467 25.497669419952029 19.55741379310345 11.080190681029498 33.151000000000003 0.99499589540893896 41.720000000000006 27.191080917874398 23.902500000000003 0.99705315852205023 1.4677283488524535 13.400000000000002 21.842539682539684 0.98707894736842117 -4.5199999999999969 8.2449999999999992 -9.9233333333333302 1.938136363636364 17.505000000000006 6.4649999999999972 39.158809523809531 26.533967011249622 45.015000000000008 20.842500000000005 27.630238095238099 0.9999731488258371 31.280789473684216
decision_type=2 2 2 2 2 2 2 2 2 2 2 2 2 2 2 2 2 2 2 2 2 2 2 2 2 2 2 2 10 2
left_child=1 3 7 6 11 12 28 19 9 23 14 22 15 -9 24 -5 -7 -12 -19 -2 -8 -14 -3 -4 -6 -11 -18 -13 -1 -21
right_child=2 4 8 5 10 16 20 13 -10 25 17 27 21 -15 -16 -17 26 18 -20 29 -22 -23 -24 -25 -26 -27 -28 -29 -30 -31
leaf_value=-0.82820329485318467 -0.027239617349826356 -0.073476721201151798 0.39038101956751098 0.19203782320331436 0.014842584129244968 0.098889562391751895 -0.40307153116432659 0.30478721241220907 0.08665831539070383 0.54725645044363957 -0.16499633880169648 -0.021486238863935941 -0.27923323282498219 0.08668797482586639 0.30889176039446548 -0.20744973733480623 -0.16584171783808055 0.097212814627601923 0.3492145054807626 0.15834143855536562 -0.30991239862171988 -0.22391601272444409 0.22690474146311562 0.46349887378775972 0.043947255537864133 0.65905383766659842 -0.12400883046055067 0.12997324516255027 -0.62514246854620514 0.2060792107683275
leaf_weight=14.428512454032896 17.786503925919533 1389.6737523600459 213.43948495388031 15.320558562874796 1289.4449674487114 18.676386803388596 101.93154291063547 388.59794351458549 23.243996530771255 102.33463653922081 13.735187917947767 1199.9443294480443 225.26502804458141 24.051111280918121 13.439553081989287 11.702115803956984 380.2996136918664 577.71924370527267 12.019058853387831 288.11935739219189 146.61577548086643 647.40837310254574 5.5227467417716971 159.85112428665161 955.17878613620996 49.30932828783989 620.09703290462494 17.184782922267914 26.652962997555733 233.21924167871475
leaf_count=26 23 5769 338 19 4088 30 143 598 38 170 20 4708 281 36 20 22 555 938 20 458 166 823 9 261 2468 86 931 23 58 347
internal_value=-6.57415e-10 -0.0600932 0.307777 -0.208571 -0.000190729 -0.180049 -0.397527 0.224552 0.452277 0.468467 0.0431098 -0.047622 -0.230469 0.292075 0.0289042 0.0190405 -0.135535 0.0962639 0.102349 0.17287 -0.348118 -0.238195 -0.0722877 0.421692 0.0272278 0.583609 -0.139912 -0.0193478 -0.696461 0.179697
internal_weight=9182.21 7682.26 1499.95 2208.4 5473.86 1918.77 289.629 951.774 548.179 524.935 2861.54 2612.33 899.696 412.649 2258.06 27.0227 1019.07 603.473 589.738 539.125 248.547 872.673 1395.2 373.291 2244.62 151.644 1000.4 1217.13 41.0815 521.339
internal_count=23472 21117 2355 3054 18063 2661 393 1462 893 855 7554 10509 1145 634 6576 41 1516 978 958 828 309 1104 5778 599 6556 256 1486 4731 84 805
is_linear=0
shrinkage=0.05


Tree=10
num_leaves=31
num_cat=0
split_feature=17 17 17 17 17 2 17 6 17 21 21 20 2 21 17 2 21 20 21 20 22 21 22 13 17 17 21 21 17 21
split_gain=59318.1 23516.2 7618.08 4123.44 3966.03 1618.24 1599.98 1156.49 1146.48 948.692 815.579 749.368 619.698 523.37 514.721 500.713 491.361 445.771 405.638 304.784 287.262 236.604 231.05 217.489 209.689 197.749 165.084 160.308 170.641 146.885
threshold=29.231909090909095 22.100158730158736 36.308000000000014 15.515201923076924 25.427894463024902 6.3376856999038882 19.067735632183915 3.5000000000000004 40.957500000000003 3.6316666666666646 3.2850000000000006 34.400000000000006 1.8289599325468215 -6.2349999999999985 27.584000000000007 4.2888451066835591 -3.2000000000000006 12.760112781954888 4.5699999999999994 39.720000000000006 8.2449999999999992 1.9450000000000023 10.811666666666671 20.437413793103449 30.932500000000005 20.792944444444448 2.5849999999999995 -2.364999999999998 43.926000000000009 9.5625000000000036
decision_type=2 2 2 2 2 2 2 2 2 2 2 2 2 2 2 2 2 2 2 2 2 2 2 2 2 2 2 2 2 2
left_child=1 3 5 7 10 16 21 17 15 13 12 -7 22 -6 -15 -4 -2 -1 25 -13 24 -5 -3 -14 -18 -8 -17 -10 -29 -12
right_child=2 4 8 6 9 11 18 -9 27 -11 29 19 23 14 -16 26 20 -19 -20 -21 -22 -23 -24 -25 -26 -27 -28 28 -30 -31
leaf_value=-0.66933687982945811 -0.034567724874687303 -0.066379884016071325 0.15177236867265839 -0.23440020004272896 -0.28423832358184714 0.18290402794939617 -0.16536639744883297 -0.33808795927123431 0.39662892597526028 0.34719041146650526 0.10289011039549761 0.28876423363531178 0.12757622911664954 0.026466803385533214 0.088662262647723936 0.38552933690234226 0.12990373812680775 -0.34032727968079546 0.14282521592540745 0.45016843361629938 -0.033371954732380894 -0.040111896005471756 -0.32871468326062797 -0.01961795694116833 0.19829184325611571 -0.12067471646495365 0.54932400158054273 0.51799900883436834 0.6359860564574662 0.31930042370371514
leaf_weight=46.487584114074707 39.698307156562805 1835.3281097114086 22.91058948636055 806.58170088380575 12.893046200275419 205.1712886095047 443.05839645862579 157.61689810454845 18.092614501714706 24.325865715742111 16.726522922515873 295.33816009759903 25.938927114009857 2407.7557777836919 385.9830875992775 354.75600796937943 290.66105841845274 13.223735332489012 12.803268507122992 32.463362216949463 20.847227782011032 15.980463199317454 8.4319013953208906 771.79062809050083 182.4412487745285 560.81155375391245 16.08041188120842 98.840159386396408 44.415449559688568 14.759687036275862
leaf_count=84 61 6388 41 1005 15 263 645 193 31 38 28 447 34 6964 619 570 496 24 18 56 31 21 10 3962 306 831 27 165 77 22
internal_value=3.13609e-11 -0.0588576 0.274396 -0.203117 -0.0049546 0.196218 -0.17878 -0.40908 0.424616 0.0362876 -0.0486344 0.257844 -0.0516498 0.0335929 0.0350597 0.378617 0.13467 -0.596474 -0.136833 0.304749 0.148272 -0.230626 -0.0675796 -0.0148318 0.156276 -0.140399 0.392632 0.536868 0.55458 0.204336
internal_weight=9182.21 7560.5 1621.72 2056.56 5503.93 1066.62 1839.24 217.328 555.095 2830.96 2672.98 532.973 2641.49 2806.63 2793.74 393.747 533.648 59.7113 1016.67 327.802 493.95 822.562 1843.76 797.73 473.102 1003.87 370.836 161.348 143.256 31.4862
internal_count=23472 20901 2571 2821 18080 1660 2520 301 911 7636 10444 766 10394 7598 7583 638 894 108 1494 503 833 1026 6398 3996 802 1476 597 273 242 50
is_linear=0
shrinkage=0.05


Tree=11
num_leaves=31
num_cat=0
split_feature=12 12 12 17 12 21 12 18 21 12 21 12 21 21 12 21 12 21 21 21 12 21 21 12 21 21 12 21 21 21
split_gain=55527.3 22375 5918.14 3886.72 3690.35 1659.15 1413.98 1392.8 1187.08 1088.87 1035.68 980.155 908.55 651.301 647.752 566.539 658.406 490.389 260.919 240.836 206.501 199.145 182.561 180.168 172.769 168.428 166.745 146.926 146.199 139.609
threshold=29.830952380952386 22.284545454545459 36.685000000000009 16.485288461538467 25.614758707476103 4.3599999999999985 19.55741379310345 11.080190681029498 -6.2349999999999985 33.151000000000003 1.9049999999999996 40.485000000000007 3.2850000000000006 -4.0049999999999981 24.120476190476193 -2.7200000000000002 27.630238095238099 -2.7200000000000002 0.77999999999999947 5.7175000000000002 45.015000000000008 1.6016666666666686 -0.25027272727272448 17.692500000000006 1.6500000000000006 -0.63000000000000067 14.490000000000002 -0.91000000000000181 -1.2374999999999987 7.6225000000000049
decision_type=2 2 2 2 2 2 2 2 2 2 2 2 2 2 2 2 2 2 2 2 2 2 2 2 2 2 2 2 2 2
left_child=1 3 9 7 12 6 23 -1 -4 17 15 21 14 -11 -3 -6 -17 -2 -19 -12 25 28 -8 -5 -15 -13 -9 -16 -10 -14
right_child=2 4 8 5 10 -7 22 26 11 13 19 20 29 24 27 16 -18 18 -20 -21 -22 -23 -24 -25 -26 -27 -28 -29 -30 -31
leaf_value=-0.62910140528141278 -0.083768926173449748 -0.06656726452577115 0.058928288616972649 -0.24645715903698556 -0.1780110991339123 0.16807959192787839 -0.18002496032993651 -0.3653405246914983 0.27645033569184047 -0.033897198627311345 0.20597603791622179 0.39942311730799418 0.13523158469380867 0.26862983310408645 -0.096135389019356032 0.028071553370816682 0.09340059840552685 0.15365057193255013 0.27100043115353561 0.46276846279601797 0.60155981507499767 0.50855243769277736 -0.11985619837394171 -0.19904269641078703 0.40389448455633548 0.51587790690794222 -0.28162445517235307 -0.013875105866645296 0.37428116953906909 0.36108434408205253
leaf_weight=41.081475451588631 20.497218161821365 1462.4670973271132 23.175225347280502 308.01407507061958 30.252793371677399 37.130403436720371 147.94762019068003 98.578379206359386 44.921603292226791 17.564865797758102 30.013388335704803 43.335375010967255 14.015358984470369 369.86801382899284 56.858361080288887 2187.3635059073567 468.23330161720514 465.89953100681305 52.728353828191757 13.122697263956068 48.193473905324936 24.261873334646225 852.47137174010277 573.20563847571611 25.21617516875267 109.50661280751228 149.96893918514252 1198.1667070016265 254.78440690040588 13.369197726249693
leaf_count=84 31 5889 37 379 45 55 224 124 71 27 47 72 21 565 88 6210 764 714 83 22 84 40 1262 741 42 182 185 4956 407 21
internal_value=3.00766e-10 -0.0543305 0.278263 -0.188673 -0.000130632 -0.162902 -0.169434 -0.359405 0.40913 0.202889 0.0410429 0.424589 -0.0410658 0.264018 -0.0439535 0.0371393 0.0395903 0.156101 0.165581 0.284096 0.511315 0.370771 -0.128754 -0.215616 0.277263 0.482859 -0.314828 -0.0176019 0.359618 0.245493
internal_weight=9182.21 7682.26 1499.95 2208.4 5473.86 1918.77 1881.64 289.629 548.179 951.774 2728.99 525.003 2744.88 412.649 2717.49 2685.85 2655.6 539.125 518.628 43.1361 201.035 323.968 1000.42 881.22 395.084 152.842 248.547 1255.03 299.706 27.3846
internal_count=23472 21117 2355 3054 18063 2661 2606 393 893 1462 7088 856 10975 634 10933 7019 6974 828 797 69 338 518 1486 1120 607 254 309 5044 478 42
is_linear=0
shrinkage=0.05


Tree=12
num_leaves=31
num_cat=0
split_feature=12 12 12 12 12 21 12 21 12 21 21 12 21 12 15 12 12 21 21 21 21 21 12 21 12 21 21 21 21 21
split_gain=50149.5 18813.6 7395.19 3765.09 3047.88 1375.46 1360.13 1336.59 1321.13 998.05 952.322 867.641 835.207 573.717 412.815 361.266 346.557 335.835 309.568 250.66 236.387 214.804 209.327 187.142 186.367 152.677 148.363 137.98 131.98 125.984
threshold=28.525238095238098 21.291901311249141 35.395000000000003 24.620935911914177 12.569887218045114 -6.2349999999999985 40.485000000000007 7.6225000000000049 18.145000000000003 -6.2349999999999985 4.3599999999999985 32.085000000000008 2.151666666666666 26.132764011350968 11.748840731636784 22.858364123957099 16.215000000000003 3.0516666666666699 -4.0049999999999981 1.6100000000000014 0.77999999999999947 -0.80000000000000238 37.785000000000004 5.7175000000000002 45.015000000000008 0.040000000000004483 -0.52166666666666994 -0.86999999999999911 -0.58083333333333609 -0.97000000000000053
decision_type=2 2 2 2 2 2 2 2 2 2 2 2 2 2 2 2 2 2 2 2 2 2 2 2 2 2 2 2 2 2
left_child=1 4 9 10 14 -4 19 8 16 -2 15 17 13 27 -1 28 -6 21 -15 22 -10 -11 -7 -14 25 -8 -13 -5 -3 -17
right_child=2 3 5 12 7 6 24 -9 20 11 -12 26 23 18 -16 29 -18 -19 -20 -21 -22 -23 -24 -25 -26 -27 -28 -29 -30 -31
leaf_value=-0.64967534805084437 -0.19557646913994933 -0.16209221743462165 0.021821639246026397 -0.0816333549357008 -0.29236465046700461 0.29183870439713039 0.41652103870459806 0.19500971040101253 -0.15986522823667415 0.049959934703482603 0.23491255267492184 0.16191210530045361 0.17313429230660959 -0.21597686747010397 -0.40737492481590021 -0.12710345245870824 -0.21828623941900638 0.39083768983005435 0.038509182632467602 0.45979616685813768 -0.08050020800916001 0.13465190181208053 0.36053269963743456 0.41359699817608392 0.57148182759871036 0.51790078156116803 0.24161808622046321 -0.0016219072878260858 -0.087550681692460552 -0.04843624530251317
leaf_weight=33.296871639788151 19.977146178483963 64.51984429359436 28.498357832431793 55.887463226914406 222.0798552185297 259.1422107219696 89.227405905723572 22.672684326767921 798.44056762754917 85.696964055299759 26.439098119735718 73.815016031265259 20.794752657413483 12.029385745525358 37.238187074661255 52.918283939361572 546.15784669667482 11.995674669742582 1810.5115309506655 35.174187242984772 106.31499570608139 592.4997398853302 193.86082974076271 13.244849532842634 48.193473905324936 63.614581912755966 279.25456658005714 1502.355955556035 745.66122930496931 1330.6994834840298
leaf_count=65 26 100 46 86 275 407 147 30 1144 137 42 110 32 17 54 84 662 21 4553 57 157 935 317 22 84 107 421 5783 2136 5415
internal_value=2.84021e-10 -0.0573195 0.238208 -0.0126898 -0.199711 0.362219 0.376294 -0.186314 -0.191482 0.154498 -0.0633764 0.161202 0.0202653 0.0177841 -0.521756 -0.0669713 -0.239701 0.128589 0.0368295 0.33122 -0.150539 0.12395 0.321236 0.266699 0.485749 0.458716 0.224954 -0.00449157 -0.0934869 -0.051445
internal_weight=9182.21 7401.26 1780.95 5635.06 1766.2 717.711 689.213 1695.67 1672.99 1063.24 2220.24 1043.26 3414.82 3380.78 70.5351 2193.8 768.238 690.192 1822.54 488.177 904.756 678.197 453.003 34.0396 201.035 152.842 353.07 1558.24 810.181 1383.62
internal_count=23472 20657 2815 18270 2387 1165 1119 2268 2238 1650 7777 1624 10493 10439 119 7735 937 1093 4570 781 1301 1072 724 54 338 254 531 5869 2236 5499
is_linear=0
shrinkage=0.05


Tree=13
num_leaves=31
num_cat=0
split_feature=12 12 12 17 12 21 18 21 12 12 21 21 21 12 12 12 21 21 21 21 21 21 21 17 0 21 3 21 21 21
split_gain=45342.5 18512.6 4516.5 3178.21 3150.66 1311.31 1271.01 1144.79 1181.27 1045.44 839.634 739.917 670.934 572.704 529.14 497.886 392.958 237.051 227.957 226.321 209.649 202.153 193.346 182.782 140.373 132.244 131.186 130.381 121.517 119.002
threshold=30.124841269841273 22.284545454545459 37.785000000000004 16.975500000000004 25.614758707476103 7.6225000000000049 11.080190681029498 -6.2349999999999985 33.878609022556397 19.55741379310345 1.6700000000000002 3.2850000000000006 -4.0049999999999981 42.995000000000012 24.120476190476193 27.630238095238099 -4.0049999999999981 0.73583333333333389 -1.3549999999999984 5.7175000000000002 0.95000000000000118 1.8000000000000027 1.0549999999999982 14.639000000000001 0.99002631578947387 0.59250000000000125 0.9999731488258371 -1.0349999999999999 7.6225000000000049 -1.3549999999999984
decision_type=2 2 2 2 2 2 2 2 2 2 2 2 2 2 2 2 2 2 2 2 2 2 2 2 2 2 10 2 2 2
left_child=1 3 7 6 11 9 26 -2 17 25 15 14 24 21 -3 18 -17 27 -6 -12 -11 -14 -10 -8 -4 -5 -1 -9 -13 -16
right_child=2 4 12 5 10 -7 23 8 22 20 19 28 13 -15 29 16 -18 -19 -20 -21 -22 -23 -24 -25 -26 -27 -28 -29 -30 -31
leaf_value=-0.68938746257440053 -0.12578064562742342 -0.060175238906554643 0.27600694890833988 -0.198620509326324 -0.087383173338695885 0.20668589618607569 -0.32966278535642779 0.081837624439645026 0.25600965072807108 -0.12223828370370166 0.17772582443690205 0.11860203066100919 0.36581843861712487 0.52017580195540469 -0.094437242206007285 -0.17396837189430248 0.084969301116495533 0.25134743576998819 0.026391533935900213 0.41919551118115567 -0.044198907439621515 0.51414111406898211 0.36057708419830353 -0.24746788777381729 0.06737137731445457 -0.13730015032197104 -0.50221016120957085 0.15657788097778474 0.32931234252473091 -0.012900353044456928
leaf_weight=14.428512454032896 26.310786873102188 1462.4670973271132 16.471925258636475 713.74629254639149 44.944443836808205 26.2978805154562 97.242353394627571 68.245893388986588 406.85667425394058 912.56917851418257 37.245368599891663 14.015358984470369 280.11977285146713 92.211333453655243 46.469932079315186 15.074092060327528 523.23357325047255 59.899811536073685 2152.3608411177993 13.122697263956068 95.021996840834618 25.024597495794296 49.594583094120026 222.16203571110964 15.790847420692442 100.27668978273869 26.652962997555733 402.43117313086987 13.369197726249693 1208.5551360026002
leaf_count=26 37 5889 29 898 71 36 124 107 622 1351 60 21 458 158 71 21 853 95 6154 22 148 41 78 278 26 135 58 611 21 4973
internal_value=-6.4075e-12 -0.0479763 0.257319 -0.170357 0.000888621 -0.143864 -0.306163 0.199721 0.208398 -0.148925 0.0383468 -0.0371305 0.393176 0.41098 -0.0397365 0.0346223 0.0777183 0.157663 0.0240643 0.240637 -0.114879 0.377982 0.267371 -0.272492 0.173891 -0.191067 -0.56795 0.145741 0.221471 -0.0159194
internal_weight=9182.21 7739.26 1442.96 2208.4 5530.86 1847.91 360.486 1013.34 987.028 1821.61 2785.98 2744.88 429.618 397.356 2717.49 2735.61 538.308 530.577 2197.31 50.3681 1007.59 305.144 456.451 319.404 32.2628 814.023 41.0815 470.677 27.3846 1255.03
internal_count=23472 21210 2262 3054 18156 2568 486 1550 1513 2532 7181 10975 712 657 10933 7099 874 813 6225 82 1499 499 700 402 55 1033 84 718 42 5044
is_linear=0
shrinkage=0.05


Tree=14
num_leaves=31
num_cat=0
split_feature=12 12 12 12 12 12 21 12 21 21 21 21 18 12 21 12 21 12 21 12 21 21 21 20 21 21 12 21 21 3
split_gain=40926.1 16234.3 4739.87 2845.32 2739.31 1238.1 1012.26 979.231 805.196 746.777 739.753 721.911 689.407 554.133 437.503 506.349 361.798 323.719 283.747 264.491 197.264 194 181.014 159.397 137.725 131.092 129.224 105.456 95.5131 95.0485
threshold=29.552698412698415 22.002301587301591 35.815000000000005 25.186005286983551 14.490000000000002 18.145000000000003 -6.2349999999999985 40.485000000000007 1.8650000000000004 4.8150000000000004 7.6225000000000049 -1.5650000000000011 11.080190681029498 32.624661654135345 -2.7200000000000002 26.968173119151384 2.0550000000000002 23.902500000000003 -6.2349999999999985 20.222471264367819 5.7175000000000002 1.6016666666666686 1.6100000000000014 46.560000000000009 -1.2374999999999987 -0.48916666666666758 16.745000000000001 -1.9025000000000014 -0.48916666666666758 0.9999731488258371
decision_type=2 2 2 2 2 2 2 2 2 2 2 2 2 2 2 2 2 2 2 2 2 2 2 2 2 2 2 2 2 10
left_child=1 4 11 9 12 16 -4 21 14 17 19 18 29 22 -5 -16 26 25 -2 -7 -10 24 -13 -9 -8 -3 -6 -25 -19 -1
right_child=2 3 6 8 5 10 7 23 20 -11 -12 13 -14 -15 15 -17 -18 28 -20 -21 -22 -23 -24 27 -26 -27 -28 -29 -30 -31
leaf_value=-0.65491809795560607 -0.14887733899621933 -0.12145882878068451 0.032170228378507755 -0.16478501050304362 -0.24100061759208866 -0.15182458803898025 0.22101974771169619 0.40950373610162977 0.1692905100280086 0.26139302171240625 0.22876024367954409 0.13270527816890559 -0.30856381311330505 0.22486341348704572 0.014602549743876701 0.059863576383623197 0.026509363066276805 -0.084674074051440881 0.07098043320604551 -0.10484318293837014 0.39604645289439588 0.42205474909216956 0.26547001509936513 0.37257845022151387 0.30761533285985582 -0.056400949599504958 -0.1945459777952421 0.53731140991432291 -0.017464821413720934 -0.49499899680069381
leaf_weight=14.428512454032896 18.043537229299545 81.803354784846306 26.372414171695709 29.875363379716873 219.61533552408218 526.3156379237771 52.993270367383957 138.4506521821022 32.913916081190109 19.921987026929855 14.951558858156202 450.28824745863676 103.19989078491926 325.64902168512344 2169.5063126757741 864.03100746870041 16.653913147747517 56.498431190848351 78.615386456251144 695.35297404974699 13.535380393266676 33.094763278961182 27.22584256529808 12.026045531034468 343.78828948736191 1448.819962285459 470.24477458000183 50.558764010667801 821.34131592512131 26.097176805138588
leaf_count=26 24 131 43 46 272 743 84 232 52 31 22 697 129 484 6868 1664 23 91 124 1032 23 54 44 19 555 5856 563 87 3396 57
internal_value=1.76269e-10 -0.0477016 0.233593 -0.00291747 -0.166553 -0.150973 0.335663 0.348349 0.0287517 -0.043474 -0.120805 0.159036 -0.377186 0.174572 0.0256189 0.0274941 -0.203775 -0.0459958 0.0299391 -0.125084 0.235367 0.305751 0.140275 0.439437 0.29605 -0.0598779 -0.209335 0.505657 -0.0217905 -0.551936
internal_weight=9182.21 7625.11 1557.11 5538.25 2086.86 1943.13 657.284 630.912 3109.86 2428.39 1236.62 899.822 143.726 803.163 3063.41 3033.54 706.514 2408.46 96.6589 1221.67 46.4493 429.876 477.514 201.035 396.782 1530.62 689.86 62.5848 877.84 40.5257
internal_count=23472 21025 2447 18158 2867 2655 1074 1031 8653 9505 1797 1373 212 1225 8578 8532 858 9474 148 1775 75 693 741 338 639 5987 835 106 3487 83
is_linear=0
shrinkage=0.05


Tree=15
num_leaves=31
num_cat=0
split_feature=12 12 12 12 12 12 21 12 21 21 21 12 21 21 21 12 12 12 12 18 21 21 21 21 21 0 21 21 21 21
split_gain=37001.2 13500.8 6079.03 2557.54 2279.2 1171.84 1028.58 948.15 749.132 713.538 669.144 576.446 496.203 482.325 408.003 373.033 306.943 273.348 256.885 238.392 213.744 163.606 161.475 161.139 128.186 128.044 116.239 114.313 110.388 104.768
threshold=28.094206349206353 21.291901311249141 34.890000000000008 24.620935911914177 12.569887218045114 39.158809523809531 4.3599999999999985 18.145000000000003 -6.2349999999999985 4.3599999999999985 -4.5599999999999996 31.280789473684216 2.4416666666666687 -3.2000000000000006 4.3599999999999985 26.132764011350968 42.995000000000012 22.858364123957099 16.215000000000003 11.080190681029498 -4.0049999999999981 0.57374999999999876 -0.86999999999999911 0.77999999999999947 0.50083333333333269 0.99002631578947387 0.83749999999999869 0.59250000000000125 -0.58083333333333609 -0.47999999999999859
decision_type=2 2 2 2 2 2 2 2 2 2 2 2 2 2 2 2 2 2 2 2 2 2 2 2 2 2 2 2 2 2
left_child=1 4 8 9 19 10 7 18 -2 17 -4 14 15 25 22 29 26 28 -6 -1 -17 -12 -10 -9 -13 -7 -15 -19 -3 -5
right_child=2 3 5 12 6 13 -8 23 11 -11 21 24 -14 16 -16 20 -18 27 -20 -21 -22 -23 -24 -25 -26 -27 -28 -29 -30 -31
leaf_value=-0.53053667267072246 -0.19263829116249764 -0.14313140638540817 -0.040533037018829571 -0.063017996655470671 -0.25131325504434876 0.27233731506262809 0.13140436303760258 -0.13778898734580039 0.025933937105318869 0.2039864003892379 0.25105591006188943 0.16195698260569025 0.22601944424838594 0.34614526768138282 0.38222005905352563 -0.21376439400512362 0.47636765162189421 -0.047087871794591396 -0.18752624329953682 -0.3450718041826959 0.030831887619404658 0.33202674804192506 0.10267671138459625 -0.070384977631665568 0.23944773137517014 0.071836415141493248 0.44540500450389375 0.019355726236071031 -0.074959610797629847 -0.001406315755956192
leaf_weight=39.923634923994541 18.592465609312057 64.51984429359436 18.683733433485031 72.356176182627678 222.0798552185297 22.55161526799202 29.756107993423939 798.44056762754917 77.500072509050369 26.439098119735718 361.74087473750114 356.55908063054085 27.678410798311234 162.82084727287292 12.49086359143257 8.9788419008254987 87.808127999305725 1315.5339477360249 545.6438757032156 30.611423790454865 1701.3009101301432 75.386030673980713 593.15716940164566 99.745543032884598 62.761666029691696 12.309126943349836 36.019741863012314 68.083819687366486 745.66122930496931 1487.0783373564482
leaf_count=77 24 100 29 113 275 37 43 1144 124 42 572 522 44 266 21 13 151 5387 660 42 4379 120 956 146 99 21 59 112 2136 5758
internal_value=3.05844e-10 -0.0512408 0.196604 -0.0127272 -0.171558 0.304055 -0.159973 -0.165178 0.1221 -0.0542122 0.252495 0.127408 0.0152059 0.377152 0.0990818 0.0134213 0.398509 -0.0573239 -0.205978 -0.450047 0.0295478 0.26502 0.0938084 -0.130304 0.173555 0.201542 0.364126 -0.0438184 -0.0803886 -0.00426504
internal_weight=9182.21 7283.83 1898.38 5517.63 1766.2 777.32 1695.67 1665.91 1121.06 2220.24 455.811 1102.47 3297.39 321.509 683.148 3269.71 286.649 2193.8 767.724 70.5351 1710.28 437.127 670.657 898.186 419.321 34.8607 198.841 1383.62 810.181 1559.43
internal_count=23472 20471 3001 18084 2387 1255 2268 2225 1746 7777 721 1722 10307 534 1101 10263 476 7735 935 119 4392 692 1080 1290 621 58 325 5499 2236 5871
is_linear=0
shrinkage=0.05


Tree=16
num_leaves=31
num_cat=0
split_feature=12 12 12 12 12 20 12 12 12 0 0 12 16 12 22 0 22 22 22 12 22 22 22 20 22 0 22 22 12 12
split_gain=33423.6 13639.4 3372.94 2545.16 2121.13 1074.02 786.947 729.478 474.568 473.684 444.463 413.745 344.825 331.698 249.986 214.234 207.545 136.679 129.119 123.757 110.964 103.425 99.9846 90.442 83.7869 73.7847 101.739 73.6311 72.8028 69.8836
threshold=30.124841269841273 22.620134088200242 37.785000000000004 17.135300751879701 25.70573249214554 12.760112781954888 33.878609022556397 19.55741379310345 27.630238095238099 1.3053652562574496 0.99699042262085757 42.995000000000012 15.745000000000003 24.120476190476193 6.4649999999999972 0.99705315852205023 6.4649999999999972 2.2800000000000051 -2.0033333333333352 20.842500000000005 4.5458333333333369 -9.9233333333333302 5.3500000000000041 48.230000000000011 -6.1674999999999995 0.99705315852205023 -5.4583333333333295 2.7400000000000007 40.485000000000007 36.270000000000003
decision_type=2 2 2 2 2 2 2 2 2 2 2 2 2 2 2 2 2 2 2 2 2 2 2 2 2 2 2 2 2 2
left_child=1 3 6 5 13 12 18 15 22 29 11 28 -1 14 -3 -5 19 21 25 -9 -15 -10 24 -13 -6 -2 -27 -20 -4 -8
right_child=2 4 10 7 8 -7 9 16 17 -11 -12 23 -14 20 -16 -17 -18 -19 27 -21 -22 -23 -24 -25 -26 26 -28 -29 -30 -31
leaf_value=-0.56472514935641016 0.11502668120610873 -0.048753521012745701 0.302979265564844 0.013178652226069568 -0.15819947032109535 -0.21525917962076627 0.21467338932143798 -0.11815985621885222 -0.06855503792228021 -0.0058265657523625634 0.074793535686220228 0.41180061731209988 -0.33902516575074626 -0.012593845571297883 0.14220715663641917 -0.15944096809363537 0.053705857507304 0.16598048788689479 0.13501713169472029 -0.083180432785466107 0.14127883386253923 0.071766357493657215 0.161206852872501 0.52767008701240226 0.023018336640350467 -0.091429932678345802 0.083867363992443239 0.22278606589336347 0.35418700254522933 0.2557163399325072
leaf_weight=27.765951074659824 40.761671662330627 1316.0385318100452 210.2238076031208 18.431938454508781 6.3979869186878195 376.06414295732975 288.58696094155312 378.44143939763308 13.47378486394882 22.464836329221725 15.424676507711409 78.939634054899216 43.334952831268311 1364.0163857489824 17.364441365003586 723.7278840392828 24.026604384183884 38.322124779224396 439.48033207654953 762.02478517591953 11.818058550357817 517.0619694814086 13.066444307565687 21.408495157957077 2087.8782148659229 13.510990455746649 21.36646381020546 25.2696872651577 103.62186315655708 161.89797973632812
leaf_count=55 57 5424 343 30 10 475 433 553 16 33 26 132 61 5414 26 917 36 60 668 1391 18 847 21 40 5856 19 37 45 171 258
internal_value=-4.06045e-10 -0.0411908 0.220926 -0.141593 0.00269201 -0.248953 0.17115 -0.116414 0.0342644 0.218249 0.33833 0.348144 -0.427164 -0.0284954 -0.0462667 -0.155154 -0.0917239 0.0747897 0.129929 -0.0947877 -0.0112721 0.0682027 0.023325 0.43652 0.0224647 0.0693466 0.0159599 0.139789 0.319886 0.229424
internal_weight=9182.21 7739.26 1442.96 2353.82 5385.44 447.165 1013.34 1906.65 2676.2 472.95 429.618 414.194 71.1009 2709.24 1333.4 742.16 1164.49 568.858 540.389 1140.47 1375.83 530.536 2107.34 100.348 2094.28 75.6391 34.8775 464.75 313.846 450.485
internal_count=23472 21210 2262 3518 17692 591 1550 2927 6810 724 712 686 116 10882 5450 947 1980 923 826 1944 5432 863 5887 172 5866 113 56 713 514 691
is_linear=0
shrinkage=0.05


Tree=17
num_leaves=31
num_cat=0
split_feature=12 12 12 12 12 12 21 21 12 12 21 21 21 21 21 12 12 15 21 21 21 21 21 21 21 21 0 21 21 0
split_gain=30164.8 12309.6 3044.08 2297 1916.58 973.645 818.382 812.387 719.529 689.317 570.415 565.262 481.769 402.334 393.509 392.117 286.343 252.446 229.333 226.404 220.944 179.457 160.162 155.765 144.58 133.832 123.184 115.367 101.264 92.0973
threshold=30.124841269841273 22.620134088200242 37.785000000000004 17.135300751879701 25.846641414141416 12.569887218045114 7.6225000000000049 -1.805000000000003 33.878609022556397 20.041091954022992 0.83749999999999869 7.6225000000000049 -2.7200000000000002 1.0000000180025095e-35 -6.2349999999999985 41.720000000000006 27.872539682539685 11.748840731636784 -6.2349999999999985 1.6500000000000006 5.7175000000000002 0.54833333333333212 2.4416666666666687 0.42499999999999899 2.5849999999999995 2.6716666666666673 0.99206250000000018 1.2049999999999985 -1.5650000000000011 1.9514404761904764
decision_type=2 2 2 2 2 2 2 2 2 2 2 2 2 2 2 2 2 2 2 2 2 2 2 2 2 2 2 2 2 2
left_child=1 3 7 5 11 17 9 18 22 23 14 13 26 28 -6 25 -16 -1 -2 29 -12 -11 -9 -5 -10 -14 -4 -15 -3 -7
right_child=2 4 12 6 10 19 -8 8 24 21 20 -13 15 27 16 -17 -18 -19 -20 -21 -22 -23 -24 -25 -26 -27 -28 -29 -30 -31
leaf_value=-0.50702551962310294 -0.10817236489417288 -0.10313861761036058 0.22357115017914572 -0.15552551428474465 -0.28351128373923484 -0.24375622796213872 0.20113164334806199 0.13013541452202324 0.21723723171843892 -0.093777203085404215 0.12689072613521243 0.28757580015809836 0.29468192624490286 -0.011818411771280886 0.022809896013013319 0.40906169698840594 0.066814907566794965 -0.31754666741089665 0.069593192678057997 -0.025574637162236805 0.35615002772640042 -0.027577441387126984 0.30780612439795652 -0.093891351583907587 0.36660553192095913 0.46518406348522046 0.046530050348238372 0.051803564041052776 -0.042906384088621914 -0.19218225245028578
leaf_weight=33.296871639788151 26.310786873102188 73.656626611948013 30.685864925384521 742.15509254485369 9.9791859388351423 145.02056206762791 20.824933990836143 480.8142351359129 417.88737723231316 909.37436457723379 78.486680239439011 14.358044862747191 239.57338547706604 1381.1200335919857 1958.6672286987305 132.81631430983543 455.6812654659152 37.238187074661255 58.444527417421341 16.873386196792126 12.133850127458571 115.35991436243057 13.028001695871351 118.93834597617388 16.853993922472 12.089907467365263 14.453004300594328 75.129829794168472 1326.2251973599195 214.73603988438845
leaf_count=65 37 115 53 955 12 193 30 732 634 1596 126 23 390 5733 5357 224 743 54 94 21 20 181 23 165 30 21 24 116 5447 258
internal_value=6.95167e-11 -0.0391313 0.209879 -0.134513 0.00255741 -0.236505 -0.110593 0.162593 0.176118 -0.114035 0.0344241 -0.0253622 0.321413 -0.0269354 0.0298203 0.339555 0.0311153 -0.406992 0.014409 -0.204577 0.157588 -0.0863247 0.134823 -0.147012 0.223028 0.302873 0.166884 -0.00853607 -0.0460756 -0.212972
internal_weight=9182.21 7739.26 1442.96 2353.82 5385.44 447.165 1906.65 1013.34 928.584 1885.83 2514.95 2870.49 429.618 2856.13 2424.33 384.48 2414.35 70.5351 84.7553 376.63 90.6205 1024.73 493.842 861.093 434.741 251.663 45.1389 1456.25 1399.88 359.757
internal_count=23472 21210 2262 3518 17692 591 2927 1550 1419 2897 6258 11434 712 11411 6112 635 6100 119 131 472 146 1777 755 1120 664 411 77 5849 5562 451
is_linear=0
shrinkage=0.05


Tree=18
num_leaves=31
num_cat=0
split_feature=12 12 12 12 20 21 21 21 21 12 12 12 21 12 12 16 21 21 21 21 12 21 20 21 22 21 21 21 21 22
split_gain=27242.1 10385.8 3827.01 2318.72 1623.46 810.336 693 691.784 668.708 655.506 602.006 544.205 499.707 318.776 306.557 284.931 203.166 188.298 183.026 149.475 136.241 130.855 124.076 123.457 119.476 110.483 105.025 104.191 98.9566 97.7056
threshold=28.789841269841272 21.023095238095241 35.815000000000005 24.897586821391172 12.760112781954888 7.6225000000000049 -6.2349999999999985 -3.2000000000000006 3.2850000000000006 40.485000000000007 17.692500000000006 32.085000000000008 7.6225000000000049 23.080050655542315 26.606692003648529 15.745000000000003 -4.5599999999999996 2.5849999999999995 0.63000000000000089 2.5849999999999995 15.405000000000003 -0.52166666666666994 48.230000000000011 -1.2374999999999987 10.811666666666671 -1.2374999999999987 2.2450000000000014 -0.97000000000000053 -0.91000000000000181 -9.9233333333333302
decision_type=2 2 2 2 2 2 2 2 2 2 2 2 2 2 2 2 2 2 2 2 2 2 2 2 2 2 2 2 2 2
left_child=1 4 7 8 15 10 -4 29 13 19 20 17 14 21 28 -1 -16 -9 -12 23 -6 -3 25 -8 -10 -11 -13 -15 -5 -2
right_child=2 3 6 12 5 -7 9 11 24 22 18 26 -14 27 16 -17 -18 -19 -20 -21 -22 -23 -24 -25 -26 -27 -28 -29 -30 -31
leaf_value=-0.51113761573201366 -0.15153958275048063 -0.12642544704294978 0.022908056031876168 -0.06303180718504485 -0.23045132066491406 0.15589464123895358 0.17222666196683223 0.095684127934723195 0.092672163880239869 0.2624908741249436 -0.13154399071454634 0.1690008299708427 0.39151664418041321 -0.096958569861621227 -0.19509508659924693 -0.30597340835770187 0.038240799151749764 0.29774674983387528 -0.065947478721663386 0.38979548129514563 -0.17376952917957633 -0.062594349304091496 0.46431715734814488 0.25398673300856078 0.28125351606208121 0.36349941614459702 0.30167568412997953 -0.02917601244401806 0.0067425111828643752 -4.068191423823696e-05
leaf_weight=27.765951074659824 21.581463932991028 86.776792861521244 26.372414171695709 52.229315772652626 147.22643636912107 22.527263358235359 52.993270367383957 609.60340697318316 19.312007576227188 33.38956543803215 903.23591241985559 387.49385696649551 8.9508453607559186 59.168904513120651 9.398560702800749 43.334952831268311 1257.6728048324585 11.751823633909224 120.52867647260427 18.223406404256821 378.71798172593117 1074.2633193135262 24.568713039159775 358.65964636206627 14.862861812114714 143.07718324661255 15.513327270746229 1355.1896251812577 1876.8264979869127 20.996251791715622
leaf_count=55 28 136 43 82 184 30 84 961 32 55 1224 578 15 93 13 61 2828 21 175 32 472 3382 46 577 22 237 28 5402 6542 34
internal_value=-2.02611e-10 -0.0414098 0.179115 -0.0100422 -0.152398 -0.14183 0.274021 0.120648 -0.045034 0.284518 -0.146158 0.128856 0.0184481 -0.0479497 0.0174033 -0.386093 0.03651 0.0995058 -0.123821 0.249665 -0.189636 -0.0673651 0.359044 0.243462 0.174687 0.344387 0.174108 -0.0320117 0.00485337 -0.0768313
internal_weight=9182.21 7457.99 1724.22 5814.65 1643.34 1572.24 657.284 1066.94 2609.57 630.912 1549.71 1024.36 3205.08 2575.4 3196.13 71.1009 1267.07 621.355 1023.76 429.876 525.944 1161.04 201.035 411.653 34.1749 176.467 403.007 1414.36 1929.06 42.5777
internal_count=23472 20748 2724 18547 2201 2085 1074 1650 9067 1031 2055 1588 9480 9013 9465 116 2841 982 1399 693 656 3518 338 661 54 292 606 5495 6624 62
is_linear=0
shrinkage=0.05


Tree=19
num_leaves=31
num_cat=0
split_feature=12 12 12 12 12 21 12 21 12 21 21 5 21 12 21 12 12 21 21 21 21 16 21 21 12 21 21 12 21 20
split_gain=24612.1 10056.7 2506.56 1881.82 1685.18 802.703 802.626 679.066 581.75 558.853 494.217 432.517 399.088 322.71 318.608 337.326 232.409 211.026 184.147 168.328 139.165 137.637 129.267 119.667 106.138 102.226 101.904 99.699 70.1096 68.673
threshold=30.124841269841273 22.002301587301591 37.785000000000004 25.306251393534005 14.490000000000002 7.6225000000000049 18.713333333333338 -1.805000000000003 33.878609022556397 0.81124999999999947 2.4416666666666687 9.5000000000000018 -2.7200000000000002 42.995000000000012 -6.2349999999999985 26.895566281544543 23.435222049165116 5.7175000000000002 -6.2349999999999985 -0.1902255639097756 0.77999999999999947 14.820000000000002 1.8650000000000004 1.3600000000000014 42.995000000000012 -0.41833333333333295 7.6225000000000049 17.135300751879701 0.72000000000000075 48.230000000000011
decision_type=2 2 2 2 2 2 2 2 2 2 2 2 2 2 2 2 2 2 2 2 2 2 2 2 2 2 2 2 2 2
left_child=1 4 7 10 11 6 27 18 20 14 16 -1 24 22 -5 -16 28 -11 -2 -8 -9 -13 -14 -10 -4 -18 -12 -6 -3 -15
right_child=2 3 12 9 5 -7 19 8 23 17 26 21 13 29 15 -17 25 -19 -20 -21 -22 -23 -24 -25 -26 -27 -28 -29 -30 -31
leaf_value=-0.22766827408781412 -0.098651809507725563 -0.054085035267583619 0.092431783812595217 -0.26064879099496019 -0.18072969571492628 0.16704345474530402 -0.13268115692149671 0.11214948130324398 0.19306163855189878 0.11122960023142454 0.083022357531042992 -0.49287239779623565 0.27283734657710079 0.36947666027258869 0.0099237412082935975 0.045035487292961036 -0.070717265774740509 0.32261378283422631 0.060641294290823058 -0.08274113166095047 0.1941179831456184 -0.33198026572657913 0.39318529360103943 0.28559247084799877 0.25200144383224704 -0.016974387244495757 0.25681795327950324 -0.14461771893621375 0.0022948565341984564 0.47910235303977533
leaf_weight=90.327690310776234 26.310786873102188 1124.4187013879418 28.813225239515305 9.9791859388351423 298.33923779428005 24.570448383688927 208.78464000672102 435.06461735069752 396.42230993509293 92.450131833553314 20.539526790380478 24.954091966152191 273.81487590074539 68.309299558401108 1933.944163993001 1058.4096693769097 95.33309867978096 13.535380393266676 58.444527417421341 879.56969346106052 58.777619481086731 28.443797767162323 24.292121440172195 38.31906121969223 16.325643986463547 1231.4910414144397 14.311229228973387 531.87017443776131 57.983737841248512 18.063310354948044
leaf_count=117 37 4783 49 12 373 34 318 662 602 148 31 45 447 114 6115 2080 154 23 94 1276 93 50 40 62 28 4880 22 654 95 34
internal_value=-2.53497e-10 -0.0353466 0.189581 -0.00071461 -0.12915 -0.11693 -0.120567 0.146672 0.159038 0.0253857 -0.0326036 -0.294358 0.290789 0.307301 0.0214023 0.0223429 -0.0352008 0.138225 0.0111916 -0.0923214 0.121905 -0.407169 0.282644 0.201218 0.150144 -0.0208358 0.15439 -0.157595 -0.0513202 0.392403
internal_weight=9182.21 7739.26 1442.96 5652.4 2086.86 1943.13 1918.56 1013.34 928.584 3108.32 2544.08 143.726 429.618 384.48 3002.33 2992.35 2509.23 105.986 84.7553 1088.35 493.842 53.3979 298.107 434.741 45.1389 1326.82 34.8508 830.209 1182.4 86.3726
internal_count=23472 21210 2262 18343 2867 2655 2621 1550 1419 8378 9965 212 712 635 8207 8195 9912 171 131 1594 755 95 487 664 77 5034 53 1027 4878 148
is_linear=0
shrinkage=0.05


Tree=20
num_leaves=31
num_cat=0
split_feature=12 12 12 12 20 12 21 21 21 21 12 12 21 21 21 21 12 16 21 12 12 12 21 21 21 21 21 21 12 2
split_gain=22274.3 8154.98 3669.99 1699.15 1329.25 727.035 673.425 503.159 496.186 482.667 480.906 344.151 337.251 286.639 268.585 238.514 239.385 231.826 198.493 196.683 150.304 145.656 129.054 121.746 86.7811 85.1073 84.7674 73.6419 73.1915 70.6766
threshold=28.094206349206353 21.023095238095241 34.890000000000008 24.577313181987098 12.760112781954888 39.780000000000008 4.5699999999999994 -3.2000000000000006 7.6225000000000049 -2.7200000000000002 17.985000000000003 31.280789473684216 1.8000000000000027 4.3599999999999985 -3.2000000000000006 -1.5049999999999988 26.251001233066454 15.745000000000003 0.77999999999999947 22.930443980929684 15.405000000000003 42.995000000000012 0.80749999999999755 -0.7400000000000001 -0.29999999999999977 -6.2349999999999985 0.53333333333333155 1.0200000000000016 37.135902255639103 4.7250376772155045
decision_type=2 2 2 2 2 2 2 2 2 2 2 2 2 2 2 2 2 2 2 2 2 2 2 2 2 2 2 2 2 2
left_child=1 4 7 8 17 9 10 25 18 -4 20 13 15 24 -7 -5 -17 -1 19 -3 -6 27 28 -12 -9 -2 -13 -16 -11 -14
right_child=2 3 5 12 6 14 -8 11 -10 22 23 26 29 -15 21 16 -18 -19 -20 -21 -22 -23 -24 -25 -26 -27 -28 -29 -30 -31
leaf_value=-0.46202582237351097 -0.15685902227399001 -0.067051274350666032 0.014510309127796049 -0.075172810808248919 -0.20854776108565637 0.16478263949592276 0.11233948541358144 0.037411877996150145 0.23126351019898306 0.18445780974271453 -0.17016270658836741 0.12784185891038685 0.11524530172939618 0.31634827838578206 0.2759647287350861 -0.00085570808695389358 0.026420243480913048 -0.27696565397684986 0.012497554417032904 -0.036554396173412232 -0.15157342905036378 0.37210765030623327 0.27469599594330946 -0.10191822417903817 0.083443156100034346 -0.011616252550993109 0.19231360947983167 0.37442360619400789 0.227523829786837 0.26530018122709154
leaf_weight=27.765951074659824 18.592465609312057 943.83179850131273 32.471141308546066 80.37581367790699 147.22643636912107 31.109792172908783 28.566548950970173 126.85849684476852 16.219664037227631 233.5428868830204 71.298539951443672 350.55761086940765 23.573111802339554 12.49086359143257 125.75186398625374 1703.3958855420351 1524.1912934929132 43.334952831268311 135.18533504009247 1201.9585926830769 541.58912520110607 87.808127999305725 73.448514878749847 783.55561987310648 530.85686767101288 22.044724106788635 59.660289078950882 22.36962366104126 170.81814730167389 11.762954771518705
leaf_count=55 24 2675 55 126 184 52 41 197 25 367 100 512 37 21 205 6433 3875 61 218 4861 661 151 117 1099 862 35 95 37 271 20
internal_value=-7.09412e-11 -0.0397567 0.152541 -0.0112001 -0.137773 0.236029 -0.12821 0.0946521 -0.0443069 0.201049 -0.132661 0.101148 0.0115476 0.079071 0.302874 0.00990634 0.012025 -0.349234 -0.0462664 -0.0499685 -0.163751 0.321082 0.213725 -0.10761 0.0745648 -0.0780682 0.137218 0.290834 0.202651 0.165197
internal_weight=9182.21 7283.83 1898.38 5640.49 1643.34 777.32 1572.24 1121.06 2297.2 510.281 1543.67 1080.42 3343.3 670.206 267.039 3307.96 3227.59 71.1009 2280.98 2145.79 688.816 235.93 477.81 854.854 657.715 40.6372 410.218 148.121 404.361 35.3361
internal_count=23472 20471 3001 18270 2201 1255 2085 1746 7779 810 2044 1687 10491 1080 445 10434 10308 116 7754 7536 845 393 755 1199 1059 59 607 242 638 57
is_linear=0
shrinkage=0.05


Tree=21
num_leaves=31
num_cat=0
split_feature=12 12 12 12 12 12 21 21 21 12 21 12 21 21 21 21 12 21 12 15 12 12 21 21 21 22 0 22 21 21
split_gain=20102.6 7359.87 3312.17 1533.48 1204.71 660.986 597.67 454.101 453.271 444.492 387.482 312.649 304.369 288.56 226.139 215.575 217.374 188.098 167.455 167.14 145.941 138.54 121.738 117.555 100.381 95.4716 95.3311 79.4684 79.0794 77.5201
threshold=28.094206349206353 21.023095238095241 34.890000000000008 24.577313181987098 12.569887218045114 39.158809523809531 7.6225000000000049 -3.2000000000000006 2.5849999999999995 18.145000000000003 -6.2349999999999985 30.921090225563916 1.8000000000000027 -1.9908333333333379 4.3599999999999985 -1.3549999999999984 26.463943025573464 -0.48916666666666758 42.995000000000012 11.748840731636784 16.215000000000003 22.985175804529206 0.89499999999999968 3.2850000000000006 1.3100000000000007 10.811666666666671 0.99002631578947387 -9.9233333333333302 -0.7400000000000001 0.29000000000000187
decision_type=2 2 2 2 2 2 2 2 2 2 2 2 2 2 2 2 2 2 2 2 2 2 2 2 2 2 2 2 2 2
left_child=1 4 7 8 19 10 9 27 17 20 -4 14 15 26 29 -5 -17 -3 -15 -1 -6 -19 -11 28 -13 -10 -7 -2 -12 -9
right_child=2 3 5 12 6 13 -8 11 25 22 23 24 -14 18 -16 16 -18 21 -20 -21 -22 -23 -24 -25 -26 -27 -28 -29 -30 -31
leaf_value=-0.41443364097868368 -0.15191409220052313 -0.097447742019795877 -0.048561541566409128 -0.068830785317087292 -0.18667944494526093 0.20678152752265089 0.13713178285236524 0.060988863280310168 0.071329268937244325 -0.10605227081799409 0.13912359255208678 0.11999708180489868 0.15693693935345848 0.27288296905172454 0.2887423300874698 0.001175896306699422 0.027839756421591668 -0.054707060760861848 0.35781775780143055 -0.26025775481216179 -0.13860743352283225 -0.028976096805950355 -0.044091771491314741 0.34863389522295057 0.20581145119789507 0.23995682355900094 0.044323419912961487 -0.011284563824326001 0.19930027211238202 0.11300619566326001
leaf_weight=33.296871639788151 18.170269429683685 158.31785134226084 17.020998775959015 85.753713324666023 222.0798552185297 33.897878229618073 21.971531644463539 515.55391427874565 22.523986801505089 693.07917742431164 64.275191932916641 432.84514504671097 35.336066573858261 192.16278022527695 11.855160027742384 1975.3965605348349 1246.8127188533545 977.26454351842403 83.139673948287964 37.238187074661255 546.15784669667482 1125.7090786993504 89.513704553246498 12.044112384319304 36.990117281675339 13.379929900169371 12.309126943349836 22.466920286417007 362.47033575177193 83.179791420698166
leaf_count=65 23 251 26 134 275 56 29 841 39 984 99 638 57 314 20 7247 3053 2913 143 54 662 4556 132 21 60 20 21 36 575 128
internal_value=6.92904e-11 -0.0377689 0.144914 -0.0106401 -0.130884 0.224228 -0.121818 0.0899195 -0.0420915 -0.125487 0.185505 0.0960911 0.0109703 0.279127 0.0724972 0.00941103 0.0114933 -0.0448901 0.298533 -0.333038 -0.152504 -0.0409334 -0.0989652 0.194584 0.126753 0.13417 0.163504 -0.0741648 0.190237 0.0682154
internal_weight=9182.21 7283.83 1898.38 5640.49 1643.34 777.32 1572.8 1121.06 2297.2 1550.83 455.811 1080.42 3343.3 321.509 610.589 3307.96 3222.21 2261.29 275.302 70.5351 768.238 2102.97 782.593 438.79 469.835 35.9039 46.207 40.6372 426.746 598.734
internal_count=23472 20471 3001 18270 2201 1255 2082 1746 7779 2053 721 1687 10491 534 989 10434 10300 7720 457 119 937 7469 1116 695 698 59 77 59 674 969
is_linear=0
shrinkage=0.05


Tree=22
num_leaves=31
num_cat=0
split_feature=12 12 12 12 20 21 12 21 21 21 21 12 12 21 12 16 12 21 12 21 21 21 21 21 21 21 22 21 21 21
split_gain=18156.7 7213.98 2149.96 1461.5 1174.27 638.981 557.829 486.289 437.701 415.202 400.14 370.581 348.852 260.293 226.859 191.329 171.043 164.983 147.629 146.245 135.726 133.309 112.287 108.824 101.116 86.669 82.0733 81.1876 78.5141 71.7234
threshold=29.552698412698415 21.600238095238101 36.685000000000009 25.090439765548464 12.760112781954888 2.2450000000000014 18.454137931034484 -1.5650000000000011 0.83749999999999869 2.5849999999999995 -6.2349999999999985 33.151000000000003 41.720000000000006 -2.364999999999998 26.680092564440393 15.745000000000003 23.343728686209577 5.7175000000000002 15.405000000000003 2.6716666666666673 -6.2349999999999985 -0.7400000000000001 2.4416666666666687 -1.2374999999999987 7.6225000000000049 -1.9025000000000014 10.811666666666671 -1.5049999999999988 -0.45583333333333259 2.4416666666666687
decision_type=2 2 2 2 2 2 2 2 2 2 2 2 2 2 2 2 2 2 2 2 2 2 2 2 2 2 2 2 2 2
left_child=1 4 7 9 15 6 18 20 13 16 -4 22 19 -5 -15 -1 28 -10 -6 23 -2 -8 -9 -12 -7 -18 -11 -14 -3 -13
right_child=2 3 10 8 5 24 21 11 17 26 12 29 27 14 -16 -17 25 -19 -20 -21 -22 -23 -24 -25 -26 -27 -28 -29 -30 -31
leaf_value=-0.41820285783217259 -0.1024406229438907 -0.095659069238188177 0.031973561725069113 -0.12302556864113041 -0.1891092715640087 -0.0044260323671163797 -0.14792591111832418 0.093509428467808894 0.095563771860180724 0.077560510851832187 0.14487062285770272 0.1577115692233553 0.23800485780470396 0.0054966965767399532 0.033176442271101871 -0.25008148824147558 -0.13791312558310345 0.2829505757005043 -0.13374739157254609 0.37053315443723767 0.039066446938539535 -0.081504691403351107 0.24068518911092598 0.22339546970530788 0.13881102315852309 -0.020096754688050181 0.2346763976598184 0.32813467090659998 -0.044463514770558682 0.26892294194822275
leaf_weight=27.765951074659824 21.240726053714752 80.04843720048666 23.175225347280502 33.656618073582649 146.28621297329664 24.062223590910435 82.789064273238182 516.35883586853743 88.86573651432991 21.231510192155838 51.466742664575577 359.13601154088974 31.737620532512665 1815.2575639262795 1249.9580297023058 43.334952831268311 15.809023573994635 13.535380393266676 680.95176657289267 15.196373134851454 83.790959805250168 862.90987404435873 13.29344668984413 309.15487027168274 25.251007005572319 1237.6324470937252 13.659483939409254 117.44773864746094 1162.1015223637223 15.107683867216108
leaf_count=55 30 123 37 53 183 41 120 795 141 34 82 546 53 6097 2707 61 28 23 837 27 133 1250 23 495 34 4731 21 199 4486 27
internal_value=-1.20654e-10 -0.0317724 0.155589 -0.00382086 -0.11639 -0.108612 -0.11355 0.112282 0.0186265 -0.0322187 0.235296 0.124115 0.244271 0.0152657 0.0167842 -0.315735 -0.0346135 0.120333 -0.143537 0.218591 0.0104492 -0.0873194 0.0972033 0.212189 0.068919 -0.0215827 0.13907 0.30896 -0.0477627 0.162201
internal_weight=9182.21 7625.11 1557.11 5731.76 1893.35 1822.25 1772.94 1008.93 3201.27 2530.48 548.179 903.896 525.003 3098.87 3065.22 71.1009 2495.59 102.401 827.238 375.818 105.032 945.699 529.652 360.622 49.3132 1253.44 34.891 149.185 1242.15 374.244
internal_count=23472 21025 2447 18444 2581 2465 2390 1554 9021 9423 893 1391 856 8857 8804 116 9368 164 1020 604 163 1370 818 577 75 4759 55 252 4609 573
is_linear=0
shrinkage=0.05


Tree=23
num_leaves=31
num_cat=0
split_feature=2 13 1 15 13 13 15 13 19 19 13 4 15 14 16 13 13 13 13 11 19 21 21 4 21 18 21 6 21 21
split_gain=13550.3 5237.57 3819.12 1239.36 1237.17 661.293 445.46 438.286 426.335 343.073 284.693 328.085 274.686 203.012 198.476 179.789 173.684 171.046 149.95 124.635 137.976 107.049 101.476 98.4202 90.2545 72.8803 71.8615 69.6845 61.2499 57.5704
threshold=3.2915930580727983 21.996984126984131 228.23670590541704 24.940101939123682 36.270000000000003 19.55741379310345 20.373620689655176 26.730060133103617 3.364081614587072 3.854979340162592 14.490000000000002 1.0000000180025095e-35 17.795000000000005 34.436428571428578 27.005480980372287 41.720000000000006 32.624661654135345 30.614444444444448 25.140374902874907 -0.70710678118654757 2.6710935540086873 0.35500000000000048 0.46083333333333171 0.69505601194038191 -0.048333333333332 23.378063832604955 0.92500000000000082 4.5000000000000009 0.15785714285714117 -0.17000000000000079
decision_type=2 2 2 2 2 2 2 2 2 2 2 10 2 2 2 2 2 2 2 2 2 2 2 10 2 2 2 2 2 2
left_child=1 5 12 9 6 10 -4 18 16 17 11 -1 -2 27 -10 24 -8 25 29 22 -21 -12 -9 -13 -6 -3 -7 -11 -17 -5
right_child=2 3 4 7 15 26 8 19 14 13 21 23 -14 -15 -16 28 -18 -19 -20 20 -22 -23 -24 -25 -26 -27 -28 -29 -30 -31
leaf_value=-0.42712421645169396 -0.32253835971529637 -0.040460618212058312 0.08076791146192154 -0.055751693707287102 0.17212457261641975 -0.070742571134431997 0.071177881023557113 0.046410145758291471 0.1637141047606642 -0.061725592714301503 -0.12469367548381305 -0.19584624808496143 -0.12658811368574416 -0.048965894542142598 0.25830026187255667 0.23924333321464078 0.14335158512111176 0.097668041034087411 0.0072257155215297176 0.030085749729637037 -0.036169362423910389 -0.078265333265233328 0.11745644414240344 -0.059835178849330123 0.22254746166202924 -0.020361460506817503 -0.017776541461128208 -0.17122808719412405 0.30933547309444109 -0.014760401395319056
leaf_weight=14.428512454032896 34.809316515922546 881.09274346381426 417.60554382205009 106.4520206451416 165.25209406018257 761.17027624696493 143.36267048120499 533.90386360883713 141.20469018816948 17.919600166380405 810.61209448426962 67.511365830898285 36.784391522407532 102.50462353229523 91.336403727531433 75.569234192371368 199.15320470929146 26.549741148948669 1770.9144835546613 723.37082925438881 88.154794305562973 146.60707113146782 55.482415616512299 16.564106486737728 191.69437718391418 924.00263247638941 69.921116203069687 76.779764950275421 53.046372830867767 438.45268496870995
leaf_count=26 63 4201 506 177 272 1125 242 1034 202 34 1018 74 67 146 158 129 305 51 6003 1675 145 191 94 38 308 3758 106 87 88 1149
internal_value=-1.60541e-10 -0.0273704 0.134791 -0.00363466 0.152064 -0.0996485 0.120073 0.0135225 0.148616 -0.0350656 -0.125912 -0.206852 -0.22186 -0.0977271 0.200865 0.217467 0.113143 -0.0283191 0.000168194 0.0355982 0.0228886 -0.117583 0.0530982 -0.16905 0.199204 -0.0301721 -0.0662865 -0.150507 0.268152 -0.0227684
internal_weight=9182.21 7632.39 1549.82 5745.58 1478.22 1886.81 992.663 3716.73 575.057 2028.85 1055.72 98.504 71.5937 197.204 232.541 485.562 342.516 1831.65 2315.82 1400.91 811.526 957.219 589.386 84.0755 356.946 1805.1 831.091 94.6994 128.616 544.905
internal_count=23472 21132 2340 18554 2210 2578 1413 10277 907 8277 1347 138 130 267 360 797 547 8010 7329 2948 1820 1209 1128 112 580 7959 1231 121 217 1326
is_linear=0
shrinkage=0.05


Tree=24
num_leaves=31
num_cat=0
split_feature=12 12 12 12 12 12 21 21 21 21 12 21 21 21 21 12 12 21 20 21 15 22 21 12 21 22 21 21 12 21
split_gain=14938.9 5463.05 2441.84 1181.96 865.38 583.927 455.828 355.817 328.924 324.492 311.833 242.17 225.336 221.804 187.064 186.413 169.888 154.781 136.496 128.397 126.292 108.173 107.949 106.752 104.049 81.1739 71.5613 59.1181 54.0636 49.9676
threshold=28.094206349206353 20.842500000000005 34.436428571428578 24.507863163406643 12.569887218045114 39.158809523809531 4.5699999999999994 1.76 -6.2349999999999985 -1.5650000000000011 17.505000000000006 7.6225000000000049 -1.5049999999999988 3.2850000000000006 -0.91000000000000181 30.921090225563916 26.274820867538264 -0.63000000000000067 46.560000000000009 -6.2349999999999985 11.748840731636784 10.811666666666671 0.51250000000000295 23.080050655542315 0.33000000000000368 -9.9233333333333302 0.48499999999999949 -3.2000000000000006 45.015000000000008 0.29000000000000187
decision_type=2 2 2 2 2 2 2 2 2 2 2 2 2 2 2 2 2 2 2 2 2 2 2 2 2 2 2 2 2 2
left_child=1 4 9 7 20 8 10 17 -4 19 26 14 25 15 27 29 -16 -3 -14 -2 -1 -9 -10 -19 -12 -7 -6 -5 -27 -11
right_child=2 3 5 11 6 12 -8 21 22 13 24 -13 18 -15 16 -17 -18 23 -20 -21 -22 -23 -24 -25 -26 28 -28 -29 -30 -31
leaf_value=-0.35680555048022533 -0.13933857219034876 -0.092477800555854056 -0.046752956964148974 -0.14613788282119558 -0.15433089032048883 0.042524404993065763 0.092949579904433893 0.04729193550065116 0.15263492468383713 0.055788863549120819 -0.10231064987394119 0.2769077352125785 0.24374955154715139 0.25510816219946658 5.2111984943841015e-06 0.1075289640944406 0.02282875780435422 -0.047860491081248291 0.33398465773490366 0.013858213602838855 -0.22278725246453679 0.20923214364007048 0.21299832247530379 -0.025303332005065918 -0.058246781253653651 0.15473454516324825 -0.099830922901917557 -0.041150495839300361 0.27281175004474439 0.09800330177189634
leaf_weight=33.296871639788151 16.297424882650375 135.3056478947401 19.316039502620697 15.669211804866789 374.71125089377165 12.454761594533919 28.010817237198353 44.975403979420662 411.02193620800972 484.30252930521965 875.52923486381769 8.4096775650978071 205.46575421094894 18.42630809545517 1790.8067930117249 370.133305311203 1496.8262127190828 1121.3671492561698 52.648022204637527 85.068271607160568 37.238187074661255 13.379929900169371 90.344903260469437 985.4182061329484 158.17443658411503 37.916827470064163 71.767909407615662 92.944683834910393 13.024093866348265 81.961238443851471
leaf_count=65 21 214 29 25 472 21 40 72 640 793 1168 14 340 32 6797 549 3786 3450 90 134 54 20 143 3841 221 60 87 145 23 126
internal_value=-7.52561e-11 -0.0325587 0.124923 -0.00977996 -0.114875 0.188427 -0.106869 -0.0374666 0.155712 0.0742859 -0.110651 0.00892722 0.24141 0.0833158 0.00826366 0.0799353 0.0103965 -0.040639 0.262155 -0.0107725 -0.286052 0.0844222 0.163512 -0.0373097 -0.0955681 0.156948 -0.14557 -0.0562965 0.184923 0.061899
internal_weight=9182.21 7283.83 1898.38 5705.1 1578.73 842.192 1508.19 2300.45 520.683 1056.19 1480.18 3404.66 321.509 954.823 3396.25 936.397 3287.63 2242.09 258.114 101.366 70.5351 58.3553 501.367 2106.79 1033.7 63.3957 446.479 108.614 50.9409 566.264
internal_count=23472 20471 3001 18364 2107 1346 1988 7597 812 1655 1948 10767 534 1500 10753 1468 10583 7505 430 155 119 92 783 7291 1389 104 559 170 83 919
is_linear=0
shrinkage=0.05


Tree=25
num_leaves=31
num_cat=0
split_feature=17 17 17 20 17 17 21 2 5 21 17 21 2 21 22 21 21 20 21 21 13 21 21 21 17 21 16 13 13 21
split_gain=12902.7 5393.3 1284.56 988.302 956.488 507.246 333.628 331.089 257.062 215.917 210.555 186.206 163.957 161.612 155.698 147.001 141.536 126.351 123.038 111.099 108.555 89.2866 84.4804 80.874 69.222 68.2984 66.126 61.4378 61.1527 59.0775
threshold=30.227698412698416 22.419682539682544 37.25116666666667 15.635000000000002 25.732139235160975 19.067735632183915 0.46083333333333171 6.3376856999038882 9.5000000000000018 1.4700000000000009 42.511000000000003 3.6316666666666646 2.1596161287266962 -2.364999999999998 5.3500000000000041 -1.5650000000000011 1.3600000000000014 35.507255639097757 -1.1249999999999971 0.89499999999999968 27.413888888888895 9.5625000000000036 4.5699999999999994 -1.3549999999999984 16.975500000000004 3.2850000000000006 14.820000000000002 36.685000000000009 30.381541353383465 0.80749999999999755
decision_type=2 2 2 2 2 2 2 2 2 2 2 2 2 2 2 2 2 2 2 2 2 2 2 2 2 2 2 2 2 2
left_child=1 3 7 8 9 19 13 15 -1 12 18 17 20 -6 -15 -2 23 -9 -4 24 -3 -11 -8 -7 -5 -20 -10 29 -19 -17
right_child=2 4 10 5 6 16 22 11 26 21 -12 -13 -14 14 -16 27 -18 28 25 -21 -22 -23 -24 -25 -26 -27 -28 -29 -30 -31
leaf_value=-0.16883936957552273 0.0037269914814721315 -0.028450985138927871 0.12595489198505913 -0.14174553247151916 -0.082872944493065426 -0.12169902499042085 0.078228285035587541 0.099877637126962099 -0.36834970655234811 0.037065160716385694 0.2714723768891168 0.30955026340341624 -0.0057750449737881872 0.020459898296282763 -0.13059547701770519 0.084300285990098756 0.0044643528516000713 0.18781479051129252 0.1995661545271358 -0.051410434106868075 -0.095147040017576193 0.17924618834869829 0.18037023884454551 -0.062268694837993778 -0.10812105358862896 0.32011403993067916 -0.25493083017422974 0.026081404906615424 0.13520186177445642 0.15463722097242183
leaf_weight=86.626498132944107 68.85553827881813 1711.1787642017007 60.013069659471512 202.41625625640154 39.19858655333519 60.738738596439362 125.22492748498917 257.89255565404892 24.954091966152191 74.684500753879547 106.6049553155899 14.138461530208586 1033.2603047192097 2514.0061868354678 17.175441473722458 217.76316233724356 77.153465420007706 71.156414300203323 265.83584678173065 71.610171347856522 63.26388943195343 12.957625716924666 24.147184103727341 995.00464029610157 627.78667580336332 12.293177992105482 26.4966881275177 38.431785464286804 246.74709704518318 34.596338182687759
leaf_count=117 110 6221 95 253 58 84 197 347 45 115 182 25 5007 6491 24 370 112 112 430 91 91 20 38 1484 773 21 48 64 388 59
internal_value=-6.11288e-11 -0.0250789 0.140076 -0.0919684 0.000804246 -0.0831839 0.0220963 0.107232 -0.221417 -0.0191965 0.210201 0.130284 -0.0216088 0.0178747 0.0194349 0.0694191 -0.0609103 0.125882 0.190884 -0.111165 -0.0308289 0.0580862 0.0947403 -0.0656878 -0.116319 0.204894 -0.30994 0.0849741 0.146978 0.0939429
internal_weight=9182.21 7787.88 1394.33 2172.79 5615.1 2034.71 2719.75 949.581 138.077 2895.35 444.747 589.935 2807.7 2570.38 2531.18 359.647 1132.9 575.796 338.142 901.813 1774.44 87.6421 149.372 1055.74 830.203 278.129 51.4508 290.791 317.904 252.36
internal_count=23472 21269 2203 3007 18262 2797 6808 1475 210 11454 728 872 11319 6573 6515 603 1680 847 546 1117 6312 135 235 1568 1026 451 93 493 500 429
is_linear=0
shrinkage=0.05


Tree=26
num_leaves=31
num_cat=0
split_feature=12 12 12 12 20 12 21 21 21 12 21 21 21 21 12 21 5 21 21 12 12 21 21 12 22 21 2 21 21 20
split_gain=12293.5 4415.55 2081.03 883.988 723.79 484.366 402.515 299.858 290.353 289.443 277.139 197.864 194.869 184.662 162.123 136.978 135.612 127.757 125.557 123.778 117.942 107.046 89.5271 85.1299 83.9058 68.2506 61.6994 61.4035 60.7083 50.6249
threshold=27.872539682539685 21.023095238095241 34.436428571428578 24.507863163406643 12.760112781954888 39.158809523809531 7.6225000000000049 -1.5650000000000011 1.8000000000000027 17.505000000000006 -6.2349999999999985 4.5699999999999994 -1.9908333333333379 0.65000000000000047 30.921090225563916 -1.2374999999999987 9.5000000000000018 -0.97000000000000053 -6.2349999999999985 25.822247812573902 42.995000000000012 0.63000000000000089 0.51250000000000295 23.080050655542315 10.811666666666671 4.5699999999999994 4.7250376772155045 0.079999999999999197 1.0200000000000016 48.230000000000011
decision_type=2 2 2 2 2 2 2 2 2 2 2 2 2 2 2 2 2 2 2 2 2 2 2 2 2 2 2 2 2 2
left_child=1 4 7 8 16 10 9 18 17 27 -4 14 26 15 -9 -5 -1 -3 -2 -17 28 -11 -12 -19 -10 -15 -7 -6 -14 -22
right_child=2 3 5 13 6 12 -8 11 24 21 22 -13 20 25 -16 19 -18 23 -20 -21 29 -23 -24 -25 -26 -27 -28 -29 -30 -31
leaf_value=-0.16327518885634679 -0.13672417736922604 -0.092156730100880227 -0.045119858503549957 -0.055955358935901547 -0.14647750397690509 0.02525888191178649 0.11475349235441484 0.056337956283235291 0.045480189225623399 -0.090062781404426459 0.13797947364440566 0.25083351900402423 0.20115351844119311 0.058154249052676368 0.098107408037748534 -0.0052891564741638806 -0.30842057401037815 -0.043125275449583465 0.010516165425744149 0.014989035849923314 0.26438554317481894 -0.041572218350406254 0.19295137295900125 -0.022897047877506484 0.1897822505293994 0.1747946843343714 0.15765043362282657 -0.10809718036967327 0.27877367457759678 0.36024217923379437
leaf_weight=24.613319791853428 17.26931157708168 97.029893442988396 19.316039502620697 88.529549494385719 279.17879889160395 11.828138351440428 22.527263358235359 618.79068697243929 40.766362085938454 975.4012084454298 411.02193620800972 15.715836495161055 162.34548729658127 77.62247970700264 371.94936814904213 1231.4843202382326 46.487584114074707 1088.9374822452664 89.595945745706558 1934.9298924207687 65.712877541780472 128.84840189665556 90.344903260469437 995.72420293837786 13.379929900169371 14.958265781402586 34.378866821527481 166.2805977538228 29.817292928695679 17.426796406507492
leaf_count=32 22 151 29 140 338 20 30 1005 67 1308 640 27 265 123 553 5019 84 3406 141 5369 110 185 143 3859 20 23 57 224 49 33
internal_value=-5.18121e-11 -0.030095 0.111218 -0.00889147 -0.102136 0.170521 -0.095079 0.066356 -0.0332352 -0.0981292 0.140725 0.0748115 0.218776 0.0073679 0.0720193 0.00538735 -0.258175 -0.0360738 -0.0132777 0.00710243 0.234724 -0.0844047 0.147885 -0.0334634 0.0811382 0.0769998 0.123761 -0.132151 0.213198 0.284478
internal_weight=9182.21 7226.7 1955.51 5583.36 1643.34 842.192 1572.24 1113.32 2235.84 1549.71 520.683 1006.46 321.509 3347.52 990.74 3254.94 71.1009 2181.69 106.865 3166.41 275.302 1104.25 501.367 2084.66 54.1463 92.5807 46.207 445.459 192.163 83.1397
internal_count=23472 20378 3094 18177 2201 1346 2085 1748 7503 2055 812 1585 534 10674 1558 10528 116 7416 163 10388 457 1493 783 7265 87 146 77 562 314 143
is_linear=0
shrinkage=0.05


Tree=27
num_leaves=31
num_cat=0
split_feature=12 12 12 12 12 21 21 12 21 21 21 12 12 5 21 12 21 21 21 2 21 12 21 21 12 21 21 22 15 21
split_gain=11108.6 4209.66 1556.35 851.246 692.562 362.728 328.739 295.077 291.662 264.079 230.461 228.768 208.782 190.847 144.508 144.126 131.898 124.885 117.776 108.594 106.568 101.781 95.0797 71.1425 68.1813 60.2795 56.4576 55.9159 55.0762 44.0304
threshold=28.789841269841272 21.291901311249141 36.685000000000009 24.994874244113376 14.490000000000002 -1.5049999999999988 1.4700000000000009 32.624661654135345 2.5849999999999995 -1.5049999999999988 9.5625000000000036 41.720000000000006 18.713333333333338 9.5000000000000018 -1.5650000000000011 26.968173119151384 -0.37999999999999717 -6.2349999999999985 7.6225000000000049 2.4628547113629637 1.5800000000000003 23.327738379022652 2.8049999999999984 -1.0349999999999999 42.995000000000012 -0.26999999999999774 2.5849999999999995 10.811666666666671 11.748840731636784 1.139999999999999
decision_type=2 2 2 2 2 2 2 2 2 2 2 2 2 2 2 2 2 2 2 2 2 2 2 2 2 2 2 2 2 2
left_child=1 4 5 8 13 17 12 20 16 19 14 22 25 -1 -5 -16 -3 -2 -8 -4 -7 -18 -11 -14 -21 -6 -9 -10 -15 -13
right_child=2 3 9 10 6 7 18 26 27 11 -12 29 23 28 15 -17 21 -19 -20 24 -22 -23 -24 -25 -26 -27 -28 -29 -30 -31
leaf_value=-0.15477550781761543 -0.098173491643332389 -0.068695722028606729 0.0061780134933674402 -0.057980893460307915 -0.14255439586270213 0.064375702219300376 -0.023716188240841249 0.12018518725081383 0.062209264240088838 0.17351364325850832 0.28555664583815066 0.24773994455977602 -0.13030927701568429 -0.3144188820298523 0.0069961691417055926 0.032677126545897293 -0.035443150158924415 0.02640256886810646 0.11097826539519318 0.10398884350371712 0.14836651549042632 -0.014550357062171327 0.30947328965649978 -0.066537118340120424 0.2033912918824885 -0.10230595757266253 0.21716572006528387 0.18662000891543132 -0.21019709039064624 0.33548425803480547
leaf_weight=90.327690310776234 25.300278663635254 192.29611472785473 20.107424795627594 73.379857406020164 107.3467383608222 589.23829517513514 73.543085642158985 407.36147990822792 23.152775973081589 318.73273009061813 7.6817823052406302 100.78696167469025 46.75478870421648 32.695171177387238 2326.4911900758743 714.00778768956661 1239.5548773780465 98.212290972471237 20.824731186032295 52.890008866786957 40.352430701255798 1100.4156047180295 13.399607896804808 676.60874083638191 25.601060301065445 697.39734351634979 15.580983579158781 14.807711601257322 20.702718555927277 16.660776972770691
leaf_count=117 35 307 32 113 131 930 104 618 38 511 13 170 63 59 7573 1413 4541 155 28 84 65 4341 24 987 43 862 28 22 36 29
internal_value=8.51125e-11 -0.0264431 0.114377 -0.00551745 -0.0938784 0.0819452 -0.0845596 0.0914575 -0.026827 0.183956 0.0120283 0.200208 -0.0901526 -0.199075 0.0113536 0.0130269 -0.0288892 0.000884445 0.00600767 0.109852 0.0697589 -0.0256179 0.178999 -0.070659 0.13641 -0.107675 0.123758 0.11074 -0.274011 0.260187
internal_weight=9182.21 7457.99 1724.22 5691.79 1766.2 1176.05 1622.48 1052.53 2570.23 548.179 3121.56 449.58 1528.11 143.726 3113.88 3040.5 2532.27 123.513 94.3678 98.5985 629.591 2339.97 332.132 723.364 78.4911 804.744 422.942 37.9605 53.3979 117.448
internal_count=23472 20748 2724 18361 2387 1831 2175 1641 9249 893 9112 734 2043 212 9099 8986 9189 190 132 159 995 8882 535 1050 127 993 646 60 95 199
is_linear=0
shrinkage=0.05


Tree=28
num_leaves=31
num_cat=0
split_feature=12 12 12 12 12 21 12 21 21 21 12 12 21 21 12 21 21 21 21 21 16 21 12 21 12 21 21 21 21 21
split_gain=10026.7 3608.73 1703.93 757.425 572.856 324.523 311.006 290.19 283.852 240.169 218.93 203.645 173.598 161.947 132.234 119.352 112.311 106.227 105.044 96.197 85.3618 84.4849 81.0804 78.8263 64.5025 55.5845 53.3488 48.0104 45.538 44.7063
threshold=27.872539682539685 20.842500000000005 35.395000000000003 24.120476190476193 12.569887218045114 7.6225000000000049 41.720000000000006 -1.0349999999999999 -2.1575000000000002 1.2824999999999991 17.505000000000006 31.640488721804516 0.54833333333333212 5.0758333333333363 25.775469494273846 -6.2349999999999985 4.1200000000000019 -1.9025000000000014 7.6225000000000049 -1.1249999999999971 14.820000000000002 -0.48916666666666758 38.463333333333345 -1.6300000000000006 22.800044696066752 4.5699999999999994 0.48499999999999949 -2.364999999999998 0.48499999999999949 1.3349999999999975
decision_type=2 2 2 2 2 2 2 2 2 2 2 2 2 2 2 2 2 2 2 2 2 2 2 2 2 2 2 2 2 2
left_child=1 4 7 9 20 10 8 15 -4 19 26 13 14 28 27 -2 22 -8 -11 -3 -1 -12 -10 -16 -21 -14 -6 -5 -9 -13
right_child=2 3 6 12 5 -7 17 11 16 18 21 29 25 -15 23 -17 -18 -19 -20 24 -22 -23 -24 -25 -26 -27 -28 -29 -30 -31
