{"learner":{"attributes":{"best_iteration":"152","best_score":"0.9094209100750817","scikit_learn":"{\"_estimator_type\": \"regressor\"}"},"feature_names":["current","VLL","VLN","frequency","power_factor","hour","day_of_week","is_weekend","month","power_lag_1","power_lag_5","power_lag_10","rolling_mean_5","rolling_std_5"],"feature_types":["float","float","float","float","float","int","int","int","int","float","float","float","float","float"],"gradient_booster":{"model":{"cats":{"enc":[],"feature_segments":[],"sorted_idx":[]},"gbtree_model_param":{"num_parallel_tree":"1","num_trees":"183"},"iteration_indptr":[0,1,2,3,4,5,6,7,8,9,10,11,12,13,14,15,16,17,18,19,20,21,22,23,24,25,26,27,28,29,30,31,32,33,34,35,36,37,38,39,40,41,42,43,44,45,46,47,48,49,50,51,52,53,54,55,56,57,58,59,60,61,62,63,64,65,66,67,68,69,70,71,72,73,74,75,76,77,78,79,80,81,82,83,84,85,86,87,88,89,90,91,92,93,94,95,96,97,98,99,100,101,102,103,104,105,106,107,108,109,110,111,112,113,114,115,116,117,118,119,120,121,122,123,124,125,126,127,128,129,130,131,132,133,134,135,136,137,138,139,140,141,142,143,144,145,146,147,148,149,150,151,152,153,154,155,156,157,158,159,160,161,162,163,164,165,166,167,168,169,170,171,172,173,174,175,176,177,178,179,180,181,182,183],"tree_info":[0,0,0,0,0,0,0,0,0,0,0,0,0,0,0,0,0,0,0,0,0,0,0,0,0,0,0,0,0,0,0,0,0,0,0,0,0,0,0,0,0,0,0,0,0,0,0,0,0,0,0,0,0,0,0,0,0,0,0,0,0,0,0,0,0,0,0,0,0,0,0,0,0,0,0,0,0,0,0,0,0,0,0,0,0,0,0,0,0,0,0,0,0,0,0,0,0,0,0,0,0,0,0,0,0,0,0,0,0,0,0,0,0,0,0,0,0,0,0,0,0,0,0,0,0,0,0,0,0,0,0,0,0,0,0,0,0,0,0,0,0,0,0,0,0,0,0,0,0,0,0,0,0,0,0,0,0,0,0,0,0,0,0,0,0,0,0,0,0,0,0,0,0,0,0,0,0,0,0,0,0,0,0],"trees":[{"base_weights":[3.670374E-3,-2.7987735E0,1.0267443E1,-3.8904855E0,-8.2715124E-1,7.661959E0,1.5467191E1,-4.1261683E0,-3.2485273E0,-1.4135079E0,1.8065373E0,6.0033584E0,9.469843E0,1.386186E1,9.805034E-1,-2.1717384E-1,-4.0418634E0,-3.4250154E0,-2.6639037E0,-1.7258902E0,-5.965155E-1,9.9446905E-1,2.7927582E0,4.629165E0,6.809199E0,4.216662E-1,1.0466998E1,6.44286E-1,7.6463217E-1,-2.0422406E-1,-1.888768E-1,-1.7674579E-1,-1.5837651E-1,-1.3553162E-1,-9.072854E-2,-9.409272E-2,-7.568326E-2,-3.9656367E-2,-1.0066081E-2,2.9569624E-2,7.61847E-2,1.1177681E-1,1.5359847E-1,2.0375898E-1,2.5027776E-1,3.0855116E-1,3.6212504E-1,4.8942325E-1,5.480462E-1],"categories":[],"categories_nodes":[],"categories_segments":[],"categories_sizes":[],"default_left":[0,0,0,0,0,0,0,0,0,0,0,0,0,0,0,0,0,0,0,0,0,0,0,0,0,0,0,0,0,0,0,0,0,0,0,0,0,0,0,0,0,0,0,0,0,0,0,0,0],"id":0,"left_children":[1,3,5,7,9,11,13,15,17,19,21,23,25,27,-1,-1,29,31,33,35,37,39,41,43,45,-1,47,-1,-1,-1,-1,-1,-1,-1,-1,-1,-1,-1,-1,-1,-1,-1,-1,-1,-1,-1,-1,-1,-1],"loss_changes":[4.12183E5,2.4224164E4,4.1461562E4,1.0759688E3,6.2018027E3,6.063258E3,6.405875E3,7.064844E1,1.8777148E2,8.364507E2,5.8167676E2,1.1414961E3,8.789453E2,7.428281E2,0E0,0E0,2.00625E1,2.5496094E1,1.0858643E1,7.4322266E1,7.0506165E1,8.472223E1,4.0963135E1,5.3120117E1,1.1919922E2,0E0,4.125E0,0E0,0E0,0E0,0E0,0E0,0E0,0E0,0E0,0E0,0E0,0E0,0E0,0E0,0E0,0E0,0E0,0E0,0E0,0E0,0E0,0E0,0E0],"parents":[2147483647,0,0,1,1,2,2,3,3,4,4,5,5,6,6,7,7,8,8,9,9,10,10,11,11,12,12,13,13,16,16,17,17,18,18,19,19,20,20,21,21,22,22,23,23,24,24,26,26],"right_children":[2,4,6,8,10,12,14,16,18,20,22,24,26,28,-1,-1,30,32,34,36,38,40,42,44,46,-1,48,-1,-1,-1,-1,-1,-1,-1,-1,-1,-1,-1,-1,-1,-1,-1,-1,-1,-1,-1,-1,-1,-1],"split_conditions":[1.339E1,3.352E0,2.573E1,2.082E0,8.61E0,1.964E1,3.395E1,2.5E0,4.14E0,6.71E0,1.1E1,1.636E1,2.207E1,2.991E1,9.805034E-1,-2.1717384E-1,2.83E0,2.462E0,5.66E0,4.17E0,5.33E0,9.73E0,1.177E1,1.472E1,1.786E1,4.216662E-1,2.373E1,6.44286E-1,7.6463217E-1,-2.0422406E-1,-1.888768E-1,-1.7674579E-1,-1.5837651E-1,-1.3553162E-1,-9.072854E-2,-9.409272E-2,-7.568326E-2,-3.9656367E-2,-1.0066081E-2,2.9569624E-2,7.61847E-2,1.1177681E-1,1.5359847E-1,2.0375898E-1,2.5027776E-1,3.0855116E-1,3.6212504E-1,4.8942325E-1,5.480462E-1],"split_indices":[0,12,0,12,0,0,0,0,0,0,0,0,0,0,0,0,0,12,0,9,12,0,0,0,0,0,0,0,0,0,0,0,0,0,0,0,0,0,0,0,0,0,0,0,0,0,0,0,0],"split_type":[0,0,0,0,0,0,0,0,0,0,0,0,0,0,0,0,0,0,0,0,0,0,0,0,0,0,0,0,0,0,0,0,0,0,0,0,0,0,0,0,0,0,0,0,0,0,0,0,0],"sum_hessian":[1.4327E4,1.1255E4,3.072E3,7.243E3,4.012E3,2.049E3,1.023E3,5.292E3,1.951E3,3.282E3,7.3E2,1.072E3,9.77E2,7.42E2,2.81E2,1.458E3,3.834E3,1.493E3,4.58E2,2.373E3,9.09E2,4.02E2,3.28E2,4E2,6.72E2,4.86E2,4.91E2,4.5E2,2.92E2,3.283E3,5.51E2,1.033E3,4.6E2,4.31E2,2.7E1,1.361E3,1.012E3,6.06E2,3.03E2,2.3E2,1.72E2,1.14E2,2.14E2,1.69E2,2.31E2,2.81E2,3.91E2,2.2E2,2.71E2],"tree_param":{"num_deleted":"0","num_feature":"14","num_nodes":"49","size_leaf_vector":"1"}},{"base_weights":[-1.8072868E-2,-2.6674693E0,9.757116E0,-3.6983683E0,-7.641124E-1,7.4371676E0,1.4883587E1,-3.9166834E0,-3.0722477E0,-1.3146621E0,1.8703554E0,5.7148294E0,9.148967E0,1.3266211E1,9.283342E-1,-2.0772357E-1,-3.845869E0,-3.2498748E0,-2.5216813E0,-1.6337545E0,-5.2817726E-1,1.0545352E0,2.6710155E0,4.5577116E0,6.5333366E0,3.9942825E-1,1.0094717E1,6.186556E-1,7.251891E-1,-1.9453137E-1,-1.7975302E-1,-1.675289E-1,-1.508155E-1,-1.2810542E-1,-8.792209E-2,-8.951746E-2,-7.198771E-2,-3.756441E-2,-4.9476E-3,3.9867546E-2,7.695128E-2,1.08097844E-1,1.466604E-1,2.0111E-1,2.5131956E-1,2.9569256E-1,3.4238118E-1,4.7332087E-1,5.325133E-1],"categories":[],"categories_nodes":[],"categories_segments":[],"categories_sizes":[],"default_left":[0,0,0,0,0,0,0,0,0,0,0,0,0,0,0,0,0,0,0,0,0,0,0,0,0,0,0,0,0,0,0,0,0,0,0,0,0,0,0,0,0,0,0,0,0,0,0,0,0],"id":1,"left_children":[1,3,5,7,9,11,13,15,17,19,21,23,25,27,-1,-1,29,31,33,35,37,39,41,43,45,-1,47,-1,-1,-1,-1,-1,-1,-1,-1,-1,-1,-1,-1,-1,-1,-1,-1,-1,-1,-1,-1,-1,-1],"loss_changes":[3.7267747E5,2.2210453E4,3.6328094E4,9.857422E2,5.775577E3,6.1586875E3,5.3164375E3,6.7625E1,1.7405664E2,8.249961E2,4.4549976E2,9.5785156E2,1.0406875E3,4.696953E2,0E0,0E0,2.6296875E1,1.8604492E1,7.7905273E0,6.726611E1,9.110452E1,4.096048E1,3.6735596E1,8.098535E1,5.928711E1,0E0,5.0347656E1,0E0,0E0,0E0,0E0,0E0,0E0,0E0,0E0,0E0,0E0,0E0,0E0,0E0,0E0,0E0,0E0,0E0,0E0,0E0,0E0,0E0,0E0],"parents":[2147483647,0,0,1,1,2,2,3,3,4,4,5,5,6,6,7,7,8,8,9,9,10,10,11,11,12,12,13,13,16,16,17,17,18,18,19,19,20,20,21,21,22,22,23,23,24,24,26,26],"right_children":[2,4,6,8,10,12,14,16,18,20,22,24,26,28,-1,-1,30,32,34,36,38,40,42,44,46,-1,48,-1,-1,-1,-1,-1,-1,-1,-1,-1,-1,-1,-1,-1,-1,-1,-1,-1,-1,-1,-1,-1,-1],"split_conditions":[1.339E1,3.352E0,2.61E1,2.106E0,8.83E0,1.964E1,3.395E1,2.45E0,4.14E0,6.71E0,1.1E1,1.668E1,2.207E1,2.991E1,9.283342E-1,-2.0772357E-1,2.8E0,2.462E0,5.66E0,4.15E0,5.33E0,1.01E1,1.177E1,1.514E1,1.786E1,3.9942825E-1,2.413E1,6.186556E-1,7.251891E-1,-1.9453137E-1,-1.7975302E-1,-1.675289E-1,-1.508155E-1,-1.2810542E-1,-8.792209E-2,-8.951746E-2,-7.198771E-2,-3.756441E-2,-4.9476E-3,3.9867546E-2,7.695128E-2,1.08097844E-1,1.466604E-1,2.0111E-1,2.5131956E-1,2.9569256E-1,3.4238118E-1,4.7332087E-1,5.325133E-1],"split_indices":[0,12,0,12,0,0,0,0,0,0,0,0,0,0,0,0,0,12,0,9,12,0,0,0,0,0,0,0,0,0,0,0,0,0,0,0,0,0,0,0,0,0,0,0,0,0,0,0,0],"split_type":[0,0,0,0,0,0,0,0,0,0,0,0,0,0,0,0,0,0,0,0,0,0,0,0,0,0,0,0,0,0,0,0,0,0,0,0,0,0,0,0,0,0,0,0,0,0,0,0,0],"sum_hessian":[1.4387E4,1.132E4,3.067E3,7.342E3,3.978E3,2.114E3,9.53E2,5.438E3,1.904E3,3.291E3,6.87E2,1.057E3,1.057E3,6.67E2,2.86E2,1.228E3,4.21E3,1.434E3,4.7E2,2.34E3,9.51E2,3.42E2,3.45E2,4.42E2,6.15E2,4.81E2,5.76E2,3.97E2,2.7E2,3.554E3,6.56E2,9.88E2,4.46E2,4.43E2,2.7E1,1.288E3,1.052E3,6.25E2,3.26E2,2.26E2,1.16E2,1.22E2,2.23E2,2.13E2,2.29E2,2.17E2,3.98E2,2.83E2,2.93E2],"tree_param":{"num_deleted":"0","num_feature":"14","num_nodes":"49","size_leaf_vector":"1"}},{"base_weights":[7.6166852E-3,-2.5214422E0,9.273963E0,-3.4937117E0,-7.542926E-1,7.147772E0,1.433544E1,-3.7159271E0,-2.9065022E0,-1.3136044E0,1.7013412E0,5.6112056E0,8.96389E0,1.2797958E1,8.8062125E-1,-1.9364479E-1,-3.6243324E0,-3.0099738E0,-1.8262053E0,-1.5973246E0,-5.568752E-1,8.391634E-1,2.4524276E0,4.37317E0,6.3773017E0,7.881102E0,9.785139E0,6.083879E-1,7.103083E-1,-1.8186077E-1,-1.1715442E-1,-1.5802263E-1,-1.3287947E-1,-1.1550523E-1,-7.971194E-2,-9.434729E-2,-7.3393E-2,-3.6115162E-2,-8.511502E-3,2.6980827E-2,5.6074668E-2,9.46008E-2,1.4206389E-1,1.847196E-1,2.3650813E-1,3.020369E-1,3.4959123E-1,3.5181162E-1,4.0624544E-1,4.5990816E-1,5.1412916E-1],"categories":[],"categories_nodes":[],"categories_segments":[],"categories_sizes":[],"default_left":[0,0,0,0,0,0,0,0,0,0,0,0,0,0,0,0,0,0,0,0,0,0,0,0,0,0,0,0,0,0,0,0,0,0,0,0,0,0,0,0,0,0,0,0,0,0,0,0,0,0,0],"id":2,"left_children":[1,3,5,7,9,11,13,15,17,19,21,23,25,27,-1,-1,29,31,33,35,37,39,41,43,45,47,49,-1,-1,-1,-1,-1,-1,-1,-1,-1,-1,-1,-1,-1,-1,-1,-1,-1,-1,-1,-1,-1,-1,-1,-1],"loss_changes":[3.3549728E5,1.9319172E4,3.287925E4,9.3041406E2,5.4882847E3,5.9647734E3,4.2291094E3,5.4539062E1,2.1514844E2,6.9718994E2,4.7708618E2,1.0740234E3,7.6422656E2,2.9315625E2,0E0,0E0,4.2410156E1,8.398828E1,1.4512085E1,8.4541016E1,5.6709717E1,2.8480667E1,7.8122314E1,8.39209E1,8.628516E1,3.7480469E0,2.0621094E1,0E0,0E0,0E0,0E0,0E0,0E0,0E0,0E0,0E0,0E0,0E0,0E0,0E0,0E0,0E0,0E0,0E0,0E0,0E0,0E0,0E0,0E0,0E0,0E0],"parents":[2147483647,0,0,1,1,2,2,3,3,4,4,5,5,6,6,7,7,8,8,9,9,10,10,11,11,12,12,13,13,16,16,17,17,18,18,19,19,20,20,21,21,22,22,23,23,24,24,25,25,26,26],"right_children":[2,4,6,8,10,12,14,16,18,20,22,24,26,28,-1,-1,30,32,34,36,38,40,42,44,46,48,50,-1,-1,-1,-1,-1,-1,-1,-1,-1,-1,-1,-1,-1,-1,-1,-1,-1,-1,-1,-1,-1,-1,-1,-1],"split_conditions":[9.43E0,3.2E0,1.818E1,2.08E0,6.03E0,1.391E1,2.316E1,1.63E0,6.533912E-1,4.72E0,7.44E0,1.157E1,1.547E1,2.097E1,8.8062125E-1,-1.9364479E-1,7.07128E-1,2.6E0,1.1E1,3.94E0,5.36E0,6.67E0,8.34E0,1.025E1,1.355E1,1.355E1,1.678E1,6.083879E-1,7.103083E-1,-1.8186077E-1,-1.1715442E-1,-1.5802263E-1,-1.3287947E-1,-1.1550523E-1,-7.971194E-2,-9.434729E-2,-7.3393E-2,-3.6115162E-2,-8.511502E-3,2.6980827E-2,5.6074668E-2,9.46008E-2,1.4206389E-1,1.847196E-1,2.3650813E-1,3.020369E-1,3.4959123E-1,3.5181162E-1,4.0624544E-1,4.5990816E-1,5.1412916E-1],"split_indices":[9,9,9,9,9,9,10,9,13,9,9,9,9,9,0,0,13,9,5,10,10,9,9,9,10,10,9,0,0,0,0,0,0,0,0,0,0,0,0,0,0,0,0,0,0,0,0,0,0,0,0],"split_type":[0,0,0,0,0,0,0,0,0,0,0,0,0,0,0,0,0,0,0,0,0,0,0,0,0,0,0,0,0,0,0,0,0,0,0,0,0,0,0,0,0,0,0,0,0,0,0,0,0,0,0],"sum_hessian":[1.4313E4,1.1245E4,3.068E3,7.253E3,3.992E3,2.163E3,9.05E2,5.256E3,1.997E3,3.252E3,7.4E2,1.175E3,9.88E2,6.21E2,2.84E2,1.914E3,3.342E3,1.82E3,1.77E2,2.364E3,8.88E2,3.46E2,3.94E2,4.53E2,7.22E2,4.33E2,5.55E2,4.39E2,1.82E2,3.306E3,3.6E1,1.267E3,5.53E2,5.3E1,1.24E2,7.24E2,1.64E3,6.21E2,2.67E2,1.7E2,1.76E2,1.65E2,2.29E2,1.62E2,2.91E2,4.77E2,2.45E2,1.07E2,3.26E2,2.68E2,2.87E2],"tree_param":{"num_deleted":"0","num_feature":"14","num_nodes":"51","size_leaf_vector":"1"}},{"base_weights":[-4.5016627E-3,-2.4047637E0,8.814932E0,-3.3334844E0,-6.889789E-1,6.626065E0,1.3193648E1,-3.5227869E0,-2.7332401E0,-1.2112714E0,1.6654842E0,5.1879287E0,8.102754E0,1.1609353E1,1.6348238E1,-3.5783026E0,-1.617196E-1,-2.9220238E0,-2.3926249E0,-1.4631279E0,-5.114131E-1,9.6895164E-1,2.4362864E0,4.297771E0,5.981131E0,3.5938078E-1,8.812443E0,5.28112E-1,1.2313173E1,7.1809685E-1,8.6113423E-1,-1.885892E-1,-1.7592452E-1,-1.4964372E-1,-1.3749348E-1,-1.250284E-1,-1.0423626E-1,-7.907006E-2,-6.305059E-2,-3.2758825E-2,-4.673729E-3,2.4469545E-2,6.5602355E-2,2.5517938E-1,1.1869518E-1,1.8742532E-1,2.3513234E-1,3.0235273E-1,2.3056006E-1,4.9942133E-1,4.278368E-1,6.207552E-1,4.1541845E-1],"categories":[],"categories_nodes":[],"categories_segments":[],"categories_sizes":[],"default_left":[0,0,0,0,0,0,0,0,0,0,0,0,0,0,0,0,0,0,0,0,0,0,0,0,0,0,0,0,0,0,0,0,0,0,0,0,0,0,0,0,0,0,0,0,0,0,0,0,0,0,0,0,0],"id":3,"left_children":[1,3,5,7,9,11,13,15,17,19,21,23,25,27,29,31,-1,33,35,37,39,41,43,45,47,-1,49,-1,51,-1,-1,-1,-1,-1,-1,-1,-1,-1,-1,-1,-1,-1,-1,-1,-1,-1,-1,-1,-1,-1,-1,-1,-1],"loss_changes":[3.043249E5,1.8003727E4,2.9345797E4,8.18625E2,4.885623E3,4.297922E3,4.830547E3,7.178906E1,1.0297461E2,5.7182275E2,3.8382446E2,6.989375E2,5.612656E2,3.1085938E2,2.1691406E2,3.396875E1,0E0,1.4199219E0,1.3368164E1,5.4129883E1,5.1730774E1,6.1807007E1,3.865027E1,8.4194336E1,7.7089844E0,0E0,4.0945312E1,0E0,9.175781E0,0E0,0E0,0E0,0E0,0E0,0E0,0E0,0E0,0E0,0E0,0E0,0E0,0E0,0E0,0E0,0E0,0E0,0E0,0E0,0E0,0E0,0E0,0E0,0E0],"parents":[2147483647,0,0,1,1,2,2,3,3,4,4,5,5,6,6,7,7,8,8,9,9,10,10,11,11,12,12,13,13,14,14,15,15,17,17,18,18,19,19,20,20,21,21,22,22,23,23,24,24,26,26,28,28],"right_children":[2,4,6,8,10,12,14,16,18,20,22,24,26,28,30,32,-1,34,36,38,40,42,44,46,48,-1,50,-1,52,-1,-1,-1,-1,-1,-1,-1,-1,-1,-1,-1,-1,-1,-1,-1,-1,-1,-1,-1,-1,-1,-1,-1,-1],"split_conditions":[9.506E0,3.352E0,1.744E1,2.17E0,6.052E0,1.359E1,2.2018E1,1.836E0,2.672E0,4.732E0,7.804E0,1.1836E1,1.4962E1,1.9086E1,2.391E1,1.538E0,-1.617196E-1,2.42E0,3.134E0,4.166E0,5.378E0,6.752E0,1E0,1.0548E1,1.1E1,3.5938078E-1,9.85E-1,5.28112E-1,1.9601225E0,7.1809685E-1,8.6113423E-1,-1.885892E-1,-1.7592452E-1,-1.4964372E-1,-1.3749348E-1,-1.250284E-1,-1.0423626E-1,-7.907006E-2,-6.305059E-2,-3.2758825E-2,-4.673729E-3,2.4469545E-2,6.5602355E-2,2.5517938E-1,1.1869518E-1,1.8742532E-1,2.3513234E-1,3.0235273E-1,2.3056006E-1,4.9942133E-1,4.278368E-1,6.207552E-1,4.1541845E-1],"split_indices":[12,12,12,12,12,12,12,12,12,12,12,12,12,12,12,12,0,12,12,12,12,12,4,12,5,0,4,0,13,0,0,0,0,0,0,0,0,0,0,0,0,0,0,0,0,0,0,0,0,0,0,0,0],"split_type":[0,0,0,0,0,0,0,0,0,0,0,0,0,0,0,0,0,0,0,0,0,0,0,0,0,0,0,0,0,0,0,0,0,0,0,0,0,0,0,0,0,0,0,0,0,0,0,0,0,0,0,0,0],"sum_hessian":[1.4373E4,1.1299E4,3.074E3,7.33E3,3.969E3,2.052E3,1.022E3,5.567E3,1.763E3,3.249E3,7.2E2,1.043E3,1.009E3,6.85E2,3.37E2,4.654E3,9.13E2,1.127E3,6.36E2,2.388E3,8.61E2,3.8E2,3.4E2,4.96E2,5.47E2,4.48E2,5.61E2,2.85E2,4E2,1.11E2,2.26E2,1.077E3,3.577E3,7.81E2,3.46E2,4.63E2,1.73E2,1.5E3,8.88E2,6.4E2,2.21E2,1.6E2,2.2E2,5E0,3.35E2,2.17E2,2.79E2,5.17E2,3E1,9E1,4.71E2,3.87E2,1.3E1],"tree_param":{"num_deleted":"0","num_feature":"14","num_nodes":"53","size_leaf_vector":"1"}},{"base_weights":[3.5927843E-2,-2.2805765E0,8.347942E0,-3.1683168E0,-6.697892E-1,6.2952275E0,1.2658337E1,-3.3565598E0,-2.6303189E0,-1.1597358E0,1.491265E0,4.662162E0,7.5344243E0,1.09274845E1,1.527548E1,-1.758238E-1,-3.2707877E0,-2.7814426E0,-2.1692045E0,-1.410945E0,-4.947915E-1,7.918434E-1,2.2923872E0,3.7913866E0,5.3008995E0,3.32809E-1,8.456742E0,4.9415326E-1,5.741011E-1,6.7508703E-1,8.238964E-1,-1.6558634E-1,-1.5243338E-1,-1.4332893E-1,-1.2885875E-1,-1.1037709E-1,-7.009592E-2,-7.893667E-2,-6.344802E-2,-3.270449E-2,-7.7210926E-3,2.3669489E-2,6.0396273E-2,8.07722E-2,1.2095257E-1,1.6883132E-1,2.0421012E-1,2.4185577E-1,2.7597743E-1,3.9539826E-1,4.471189E-1],"categories":[],"categories_nodes":[],"categories_segments":[],"categories_sizes":[],"default_left":[0,0,0,0,0,0,0,0,0,0,0,0,0,0,0,0,0,0,0,0,0,0,0,0,0,0,0,0,0,0,0,0,0,0,0,0,0,0,0,0,0,0,0,0,0,0,0,0,0,0,0],"id":4,"left_children":[1,3,5,7,9,11,13,15,17,19,21,23,25,27,29,-1,31,33,35,37,39,41,43,45,47,-1,49,-1,-1,-1,-1,-1,-1,-1,-1,-1,-1,-1,-1,-1,-1,-1,-1,-1,-1,-1,-1,-1,-1,-1,-1],"loss_changes":[2.7576712E5,1.6013094E4,2.7499547E4,7.180078E2,4.2182114E3,4.2324766E3,4.304422E3,5.604297E1,1.2185449E2,5.4124854E2,4.0995447E2,4.8016406E2,8.887969E2,1.8336719E2,5.119375E2,0E0,1.6675781E1,1.34296875E1,9.197998E0,5.311084E1,4.8240112E1,5.154715E1,2.3505615E1,2.7104004E1,1.3240234E1,0E0,4.863672E1,0E0,0E0,0E0,0E0,0E0,0E0,0E0,0E0,0E0,0E0,0E0,0E0,0E0,0E0,0E0,0E0,0E0,0E0,0E0,0E0,0E0,0E0,0E0,0E0],"parents":[2147483647,0,0,1,1,2,2,3,3,4,4,5,5,6,6,7,7,8,8,9,9,10,10,11,11,12,12,13,13,14,14,16,16,17,17,18,18,19,19,20,20,21,21,22,22,23,23,24,24,26,26],"right_children":[2,4,6,8,10,12,14,16,18,20,22,24,26,28,30,-1,32,34,36,38,40,42,44,46,48,-1,50,-1,-1,-1,-1,-1,-1,-1,-1,-1,-1,-1,-1,-1,-1,-1,-1,-1,-1,-1,-1,-1,-1,-1,-1],"split_conditions":[1.339E1,3.352E0,2.573E1,3.13E0,8.61E0,1.892E1,3.167E1,1.63E0,4.14E0,6.71E0,1.1E1,1.636E1,2.174E1,2.775E1,3.534E1,-1.758238E-1,1.922E0,2.45E0,5.66E0,4.08E0,7.53E0,9.73E0,1.139E1,1.472E1,1.734E1,3.32809E-1,2.373E1,4.9415326E-1,5.741011E-1,6.7508703E-1,8.238964E-1,-1.6558634E-1,-1.5243338E-1,-1.4332893E-1,-1.2885875E-1,-1.1037709E-1,-7.009592E-2,-7.893667E-2,-6.344802E-2,-3.270449E-2,-7.7210926E-3,2.3669489E-2,6.0396273E-2,8.07722E-2,1.2095257E-1,1.6883132E-1,2.0421012E-1,2.4185577E-1,2.7597743E-1,3.9539826E-1,4.471189E-1],"split_indices":[0,12,0,0,0,0,0,12,0,0,0,0,0,0,0,0,12,9,0,9,0,0,0,0,0,0,0,0,0,0,0,0,0,0,0,0,0,0,0,0,0,0,0,0,0,0,0,0,0,0,0],"split_type":[0,0,0,0,0,0,0,0,0,0,0,0,0,0,0,0,0,0,0,0,0,0,0,0,0,0,0,0,0,0,0,0,0,0,0,0,0,0,0,0,0,0,0,0,0,0,0,0,0,0,0],"sum_hessian":[1.4319E4,1.1199E4,3.12E3,7.219E3,3.98E3,2.116E3,1.004E3,5.342E3,1.877E3,3.245E3,7.35E2,9.16E2,1.2E3,6.09E2,3.95E2,1.844E3,3.498E3,1.408E3,4.69E2,2.354E3,8.91E2,3.94E2,3.41E2,3.92E2,5.24E2,6.21E2,5.79E2,2.21E2,3.88E2,1.67E2,2.28E2,2.936E3,5.62E2,9.8E2,4.28E2,4.44E2,2.5E1,1.072E3,1.282E3,6.06E2,2.85E2,2.25E2,1.69E2,5.7E1,2.84E2,1.7E2,2.22E2,1.79E2,3.45E2,2.84E2,2.95E2],"tree_param":{"num_deleted":"0","num_feature":"14","num_nodes":"51","size_leaf_vector":"1"}},{"base_weights":[-1.0487948E-2,-2.1730552E0,7.879419E0,-3.015679E0,-6.2279505E-1,5.8654284E0,1.1797518E1,-3.1840086E0,-2.4867287E0,-1.0975116E0,1.5204623E0,4.5358543E0,7.173584E0,1.0205726E1,1.4519019E1,-3.317923E0,-3.0864477E0,-1.3351937E-1,-2.2145214E0,-1.3353082E0,-4.7389182E-1,7.7053744E-1,2.1291695E0,3.809517E0,5.2864265E0,3.203042E-1,7.908614E0,9.247345E0,5.420123E-1,6.61949E-1,8.0127543E-1,-1.7367391E-1,-1.6288994E-1,-1.5660162E-1,-1.4425877E-1,-1.14797525E-1,-9.637885E-2,-7.225535E-2,-5.8154684E-2,-3.179936E-2,-5.983744E-3,2.138386E-2,4.7821473E-2,1.255004E-1,8.241754E-2,1.7168356E-1,2.1332793E-1,2.6819205E-1,2.1200302E-1,4.49208E-1,3.852952E-1,2.1683788E-1,4.65691E-1],"categories":[],"categories_nodes":[],"categories_segments":[],"categories_sizes":[],"default_left":[0,0,0,0,0,0,0,0,0,0,0,0,0,0,0,0,0,0,0,0,0,0,0,0,0,0,0,0,0,0,0,0,0,0,0,0,0,0,0,0,0,0,0,0,0,0,0,0,0,0,0,0,0],"id":5,"left_children":[1,3,5,7,9,11,13,15,17,19,21,23,25,27,29,31,33,-1,35,37,39,41,43,45,47,-1,49,51,-1,-1,-1,-1,-1,-1,-1,-1,-1,-1,-1,-1,-1,-1,-1,-1,-1,-1,-1,-1,-1,-1,-1,-1,-1],"loss_changes":[2.459895E5,1.4778461E4,2.4370156E4,6.408125E2,4.0585273E3,3.5193438E3,4.3329062E3,5.7222656E1,7.994238E1,4.8315894E2,3.278058E2,5.2668164E2,5.0591016E2,2.5615625E2,4.2321875E2,4.7382812E0,1.6128906E1,0E0,1.0289795E1,4.2151367E1,5.1762024E1,2.0195908E1,6.6765015E1,6.812207E1,6.2666016E0,0E0,9.636719E0,2.9669922E1,0E0,0E0,0E0,0E0,0E0,0E0,0E0,0E0,0E0,0E0,0E0,0E0,0E0,0E0,0E0,0E0,0E0,0E0,0E0,0E0,0E0,0E0,0E0,0E0,0E0],"parents":[2147483647,0,0,1,1,2,2,3,3,4,4,5,5,6,6,7,7,8,8,9,9,10,10,11,11,12,12,13,13,14,14,15,15,16,16,18,18,19,19,20,20,21,21,22,22,23,23,24,24,26,26,27,27],"right_children":[2,4,6,8,10,12,14,16,18,20,22,24,26,28,30,32,34,-1,36,38,40,42,44,46,48,-1,50,52,-1,-1,-1,-1,-1,-1,-1,-1,-1,-1,-1,-1,-1,-1,-1,-1,-1,-1,-1,-1,-1,-1,-1,-1,-1],"split_conditions":[9.506E0,3.352E0,1.7156E1,2.144E0,6.052E0,1.3422E1,2.1284E1,1.662E0,2.596E0,4.688E0,7.44E0,1.1836E1,1.497E1,1.886E1,2.5258E1,1.41E0,1.922E0,-1.3351937E-1,3.134E0,4.19E0,5.33E0,6.522E0,9E0,1.0858E1,4.1763E2,3.203042E-1,9.85E-1,1.521E1,5.420123E-1,6.61949E-1,8.0127543E-1,-1.7367391E-1,-1.6288994E-1,-1.5660162E-1,-1.4425877E-1,-1.14797525E-1,-9.637885E-2,-7.225535E-2,-5.8154684E-2,-3.179936E-2,-5.983744E-3,2.138386E-2,4.7821473E-2,1.255004E-1,8.241754E-2,1.7168356E-1,2.1332793E-1,2.6819205E-1,2.1200302E-1,4.49208E-1,3.852952E-1,2.1683788E-1,4.65691E-1],"split_indices":[12,12,12,12,12,12,12,12,12,12,9,12,9,9,12,12,12,0,12,9,12,12,5,12,1,0,4,9,0,0,0,0,0,0,0,0,0,0,0,0,0,0,0,0,0,0,0,0,0,0,0,0,0],"split_type":[0,0,0,0,0,0,0,0,0,0,0,0,0,0,0,0,0,0,0,0,0,0,0,0,0,0,0,0,0,0,0,0,0,0,0,0,0,0,0,0,0,0,0,0,0,0,0,0,0,0,0,0,0],"sum_hessian":[1.4414E4,1.1314E4,3.1E3,7.329E3,3.985E3,2.05E3,1.05E3,5.554E3,1.775E3,3.263E3,7.22E2,1.02E3,1.03E3,6.67E2,3.83E2,2.32E3,3.234E3,1.052E3,7.23E2,2.361E3,9.02E2,3.25E2,3.97E2,5.23E2,4.97E2,5.11E2,5.19E2,2.75E2,3.92E2,2.15E2,1.68E2,6.23E2,1.697E3,2.619E3,6.15E2,5.55E2,1.68E2,1.435E3,9.26E2,6.18E2,2.84E2,1.16E2,2.09E2,2.18E2,1.79E2,2.94E2,2.29E2,4.57E2,4E1,7.2E1,4.47E2,5E0,2.7E2],"tree_param":{"num_deleted":"0","num_feature":"14","num_nodes":"53","size_leaf_vector":"1"}},{"base_weights":[3.2651804E-2,-2.0386074E0,7.7062297E0,-2.845062E0,-5.197363E-1,5.7455854E0,1.1447934E1,-3.0232215E0,-2.3190017E0,-1.0008123E0,1.5345789E0,4.528101E0,7.106964E0,1.0226866E1,1.4507623E1,-3.103107E0,-2.8688958E0,-2.4743047E0,-1.8886534E0,-1.2516861E0,-4.1199875E-1,8.808627E-1,2.278129E0,3.5872614E0,5.0727854E0,6.396187E0,3.9343423E-1,4.695088E-1,5.572075E-1,6.4805734E-1,7.6708454E-1,-1.635999E-1,-1.5232839E-1,-1.469528E-1,-1.3665138E-1,-1.284781E-1,-1.1431592E-1,-9.713202E-2,-6.627171E-2,-6.660136E-2,-5.1204145E-2,-2.7959747E-2,-2.8864061E-3,2.9064506E-2,6.364181E-2,1.0149149E-1,1.24539606E-1,1.5500417E-1,1.8826038E-1,2.2674106E-1,2.6734373E-1,1.6694689E-1,3.2117707E-1],"categories":[],"categories_nodes":[],"categories_segments":[],"categories_sizes":[],"default_left":[0,0,0,0,0,0,0,0,0,0,0,0,0,0,0,0,0,0,0,0,0,0,0,0,0,0,0,0,0,0,0,0,0,0,0,0,0,0,0,0,0,0,0,0,0,0,0,0,0,0,0,0,0],"id":6,"left_children":[1,3,5,7,9,11,13,15,17,19,21,23,25,27,29,31,33,35,37,39,41,43,45,47,49,51,-1,-1,-1,-1,-1,-1,-1,-1,-1,-1,-1,-1,-1,-1,-1,-1,-1,-1,-1,-1,-1,-1,-1,-1,-1,-1,-1],"loss_changes":[2.2683845E5,1.3763824E4,2.2155547E4,6.7745703E2,3.856109E3,3.2558672E3,3.6685781E3,5.41875E1,1.1753613E2,4.6608887E2,3.569254E2,5.141172E2,4.326211E2,4.182578E2,8.03125E1,1.9339844E1,5.9521484E0,1.5621094E1,1.1356201E1,3.846631E1,4.9308975E1,4.5449005E1,1.0660034E1,1.6517578E1,6.1757812E1,9.099609E0,0E0,0E0,0E0,0E0,0E0,0E0,0E0,0E0,0E0,0E0,0E0,0E0,0E0,0E0,0E0,0E0,0E0,0E0,0E0,0E0,0E0,0E0,0E0,0E0,0E0,0E0,0E0],"parents":[2147483647,0,0,1,1,2,2,3,3,4,4,5,5,6,6,7,7,8,8,9,9,10,10,11,11,12,12,13,13,14,14,15,15,16,16,17,17,18,18,19,19,20,20,21,21,22,22,23,23,24,24,25,25],"right_children":[2,4,6,8,10,12,14,16,18,20,22,24,26,28,30,32,34,36,38,40,42,44,46,48,50,52,-1,-1,-1,-1,-1,-1,-1,-1,-1,-1,-1,-1,-1,-1,-1,-1,-1,-1,-1,-1,-1,-1,-1,-1,-1,-1,-1],"split_conditions":[1.379E1,3.536E0,2.573E1,3.19E0,8.83E0,1.984E1,3.395E1,1.736E0,4.19E0,6.71E0,1.139E1,1.668E1,2.245E1,2.93E1,3.666E1,2.36E0,1.922E0,2.462E0,5.66E0,4.29E0,7.63E0,1.01E1,1.242E1,1.472E1,1.786E1,8.44E-1,3.9343423E-1,4.695088E-1,5.572075E-1,6.4805734E-1,7.6708454E-1,-1.635999E-1,-1.5232839E-1,-1.469528E-1,-1.3665138E-1,-1.284781E-1,-1.1431592E-1,-9.713202E-2,-6.627171E-2,-6.660136E-2,-5.1204145E-2,-2.7959747E-2,-2.8864061E-3,2.9064506E-2,6.364181E-2,1.0149149E-1,1.24539606E-1,1.5500417E-1,1.8826038E-1,2.2674106E-1,2.6734373E-1,1.6694689E-1,3.2117707E-1],"split_indices":[0,12,0,0,0,0,0,12,0,0,0,0,0,0,0,0,12,12,0,12,0,0,0,0,0,4,0,0,0,0,0,0,0,0,0,0,0,0,0,0,0,0,0,0,0,0,0,0,0,0,0,0,0],"split_type":[0,0,0,0,0,0,0,0,0,0,0,0,0,0,0,0,0,0,0,0,0,0,0,0,0,0,0,0,0,0,0,0,0,0,0,0,0,0,0,0,0,0,0,0,0,0,0,0,0,0,0,0,0],"sum_hessian":[1.4269E4,1.1237E4,3.032E3,7.339E3,3.898E3,1.992E3,1.04E3,5.477E3,1.862E3,3.159E3,7.39E2,1.055E3,9.37E2,7.48E2,2.92E2,3.59E3,1.887E3,1.363E3,4.99E2,2.214E3,9.45E2,3.95E2,3.44E2,3.91E2,6.64E2,4.92E2,4.45E2,4E2,3.48E2,1.11E2,1.81E2,8.79E2,2.711E3,1.224E3,6.63E2,8.92E2,4.71E2,4.52E2,4.7E1,1.631E3,5.83E2,6.67E2,2.78E2,2.26E2,1.69E2,1.66E2,1.78E2,1.12E2,2.79E2,2.33E2,4.31E2,6E0,4.86E2],"tree_param":{"num_deleted":"0","num_feature":"14","num_nodes":"53","size_leaf_vector":"1"}},{"base_weights":[7.5208745E-3,-1.9562378E0,7.17468E0,-2.7181695E0,-5.720348E-1,5.424867E0,1.1035278E1,-2.8714194E0,-2.2319853E0,-1.0126839E0,1.2035333E0,4.3502364E0,6.921868E0,9.903679E0,1.3716031E1,-2.9586804E0,-2.7450294E0,-2.360001E0,-1.868378E0,-1.2335052E0,-4.9951556E-1,5.34753E-1,1.8594886E0,3.3206387E0,4.9306126E0,6.1530495E0,3.7563306E-1,4.574143E-1,5.41629E-1,6.1538035E-1,7.268877E-1,-1.557583E-1,-1.4520234E-1,-1.4015539E-1,-1.2959291E-1,-1.2199105E-1,-1.0977202E-1,-9.413612E-2,-4.4355545E-2,-7.044079E-2,-5.7258554E-2,-3.390019E-2,-1.4957509E-2,9.490476E-3,3.9225854E-2,6.7035966E-2,1.0354477E-1,1.4661402E-1,1.8460377E-1,2.2670178E-1,2.661228E-1,2.270193E-1,3.1173894E-1],"categories":[],"categories_nodes":[],"categories_segments":[],"categories_sizes":[],"default_left":[0,0,0,0,0,0,0,0,0,0,0,0,0,0,0,0,0,0,0,0,0,0,0,0,0,0,0,0,0,0,0,0,0,0,0,0,0,0,0,0,0,0,0,0,0,0,0,0,0,0,0,0,0],"id":7,"left_children":[1,3,5,7,9,11,13,15,17,19,21,23,25,27,29,31,33,35,37,39,41,43,45,47,49,51,-1,-1,-1,-1,-1,-1,-1,-1,-1,-1,-1,-1,-1,-1,-1,-1,-1,-1,-1,-1,-1,-1,-1,-1,-1,-1,-1],"loss_changes":[2.0205448E5,1.1882195E4,2.0767266E4,5.318711E2,3.1333938E3,3.3773906E3,2.7129922E3,4.870703E1,7.4774414E1,3.6254492E2,3.4792505E2,7.1790234E2,3.333164E2,3.2954688E2,5.740625E1,1.4183594E1,9.345703E0,8.876953E0,4.0045166E0,3.2291748E1,3.4296356E1,3.3936882E1,3.9868286E1,4.903418E1,8.6796875E1,9.40332E0,0E0,0E0,0E0,0E0,0E0,0E0,0E0,0E0,0E0,0E0,0E0,0E0,0E0,0E0,0E0,0E0,0E0,0E0,0E0,0E0,0E0,0E0,0E0,0E0,0E0,0E0,0E0],"parents":[2147483647,0,0,1,1,2,2,3,3,4,4,5,5,6,6,7,7,8,8,9,9,10,10,11,11,12,12,13,13,14,14,15,15,16,16,17,17,18,18,19,19,20,20,21,21,22,22,23,23,24,24,25,25],"right_children":[2,4,6,8,10,12,14,16,18,20,22,24,26,28,30,32,34,36,38,40,42,44,46,48,50,52,-1,-1,-1,-1,-1,-1,-1,-1,-1,-1,-1,-1,-1,-1,-1,-1,-1,-1,-1,-1,-1,-1,-1,-1,-1,-1,-1],"split_conditions":[1.339E1,3.352E0,2.61E1,2.17E0,8.29E0,2.034E1,3.395E1,1.716E0,4.14E0,6.58E0,1.047E1,1.668E1,2.245E1,2.991E1,3.666E1,2.33E0,2.92E0,3.71E0,3.94E0,5.73E0,7.28E0,9.15E0,1.139E1,1.514E1,1.864E1,8.87E-1,3.7563306E-1,4.574143E-1,5.41629E-1,6.1538035E-1,7.268877E-1,-1.557583E-1,-1.4520234E-1,-1.4015539E-1,-1.2959291E-1,-1.2199105E-1,-1.0977202E-1,-9.413612E-2,-4.4355545E-2,-7.044079E-2,-5.7258554E-2,-3.390019E-2,-1.4957509E-2,9.490476E-3,3.9225854E-2,6.7035966E-2,1.0354477E-1,1.4661402E-1,1.8460377E-1,2.2670178E-1,2.661228E-1,2.270193E-1,3.1173894E-1],"split_indices":[0,12,0,12,0,0,0,12,0,0,0,0,0,0,0,0,0,0,9,0,0,0,0,0,0,4,0,0,0,0,0,0,0,0,0,0,0,0,0,0,0,0,0,0,0,0,0,0,0,0,0,0,0],"split_type":[0,0,0,0,0,0,0,0,0,0,0,0,0,0,0,0,0,0,0,0,0,0,0,0,0,0,0,0,0,0,0,0,0,0,0,0,0,0,0,0,0,0,0,0,0,0,0,0,0,0,0,0,0],"sum_hessian":[1.4353E4,1.1267E4,3.086E3,7.266E3,4.001E3,2.126E3,9.6E2,5.519E3,1.747E3,3.206E3,7.95E2,1.241E3,8.85E2,6.8E2,2.8E2,3.245E3,2.274E3,1.286E3,4.61E2,2.24E3,9.66E2,3.95E2,4E2,4.51E2,7.9E2,3.92E2,4.93E2,3.84E2,2.96E2,1.12E2,1.68E2,8.18E2,2.427E3,1.63E3,6.44E2,8.52E2,4.34E2,4.53E2,8E0,7.43E2,1.497E3,5.09E2,4.57E2,1.67E2,2.28E2,1.19E2,2.81E2,2.27E2,2.24E2,4.02E2,3.88E2,2.3E1,3.69E2],"tree_param":{"num_deleted":"0","num_feature":"14","num_nodes":"53","size_leaf_vector":"1"}},{"base_weights":[-7.210259E-3,-1.8553021E0,6.7651224E0,-2.5794668E0,-5.461697E-1,5.0966825E0,1.0221218E1,-2.7262213E0,-2.1112149E0,-9.3621284E-1,1.3804649E0,3.9199831E0,6.214135E0,8.971236E0,1.2722071E1,-2.7906263E0,-2.572525E0,-1.1433786E-1,-1.8960862E0,-1.1521132E0,-3.4774202E-1,7.535943E-1,1.8394674E0,3.1939468E0,4.526975E0,5.559409E0,3.4568545E-1,8.187763E0,4.8550972E-1,5.541925E-1,6.701943E-1,-1.4774057E-1,-1.3729304E-1,-1.3173303E-1,-1.2358113E-1,-9.854505E-2,-8.046265E-2,-6.923732E-2,-5.401758E-2,-2.5743842E-2,-3.2486182E-3,5.9144504E-2,3.334857E-2,7.246102E-2,1.04543984E-1,1.3751188E-1,1.720295E-1,2.302033E-1,1.8328176E-1,1.317194E-1,2.7893814E-1,1.7701809E-1,4.1210023E-1],"categories":[],"categories_nodes":[],"categories_segments":[],"categories_sizes":[],"default_left":[0,0,0,0,0,0,0,0,0,0,0,0,0,0,0,0,0,0,0,0,0,0,0,0,0,0,0,0,0,0,0,0,0,0,0,0,0,0,0,0,0,0,0,0,0,0,0,0,0,0,0,0,0],"id":8,"left_children":[1,3,5,7,9,11,13,15,17,19,21,23,25,27,29,31,33,-1,35,37,39,41,43,45,47,49,-1,51,-1,-1,-1,-1,-1,-1,-1,-1,-1,-1,-1,-1,-1,-1,-1,-1,-1,-1,-1,-1,-1,-1,-1,-1,-1],"loss_changes":[1.7949047E5,1.067884E4,1.7650312E4,4.898086E2,3.0187173E3,2.6938633E3,2.95325E3,4.3847656E1,5.911133E1,4.2368604E2,1.9257361E2,4.2584082E2,4.290039E2,2.695078E2,1.451914E2,1.6279297E1,5.683594E-1,0E0,1.2184814E1,3.853125E1,4.2413513E1,9.544952E0,3.3669678E1,3.696826E1,1.1172852E1,9.457031E0,0E0,4.0802734E1,0E0,0E0,0E0,0E0,0E0,0E0,0E0,0E0,0E0,0E0,0E0,0E0,0E0,0E0,0E0,0E0,0E0,0E0,0E0,0E0,0E0,0E0,0E0,0E0,0E0],"parents":[2147483647,0,0,1,1,2,2,3,3,4,4,5,5,6,6,7,7,8,8,9,9,10,10,11,11,12,12,13,13,14,14,15,15,16,16,18,18,19,19,20,20,21,21,22,22,23,23,24,24,25,25,27,27],"right_children":[2,4,6,8,10,12,14,16,18,20,22,24,26,28,30,32,34,-1,36,38,40,42,44,46,48,50,-1,52,-1,-1,-1,-1,-1,-1,-1,-1,-1,-1,-1,-1,-1,-1,-1,-1,-1,-1,-1,-1,-1,-1,-1,-1,-1],"split_conditions":[9.506E0,3.352E0,1.744E1,2.17E0,6.278E0,1.3422E1,2.2018E1,1.754E0,2.56E0,4.732E0,7.44E0,1.1588E1,1.521E1,1.9434E1,2.391E1,1.484E0,1.922E0,-1.1433786E-1,3.134E0,3.904E0,5.33E0,6.06E0,8.414E0,1.0294E1,4.1745E2,1.157E1,3.4568545E-1,1.628E1,4.8550972E-1,5.541925E-1,6.701943E-1,-1.4774057E-1,-1.3729304E-1,-1.3173303E-1,-1.2358113E-1,-9.854505E-2,-8.046265E-2,-6.923732E-2,-5.401758E-2,-2.5743842E-2,-3.2486182E-3,5.9144504E-2,3.334857E-2,7.246102E-2,1.04543984E-1,1.3751188E-1,1.720295E-1,2.302033E-1,1.8328176E-1,1.317194E-1,2.7893814E-1,1.7701809E-1,4.1210023E-1],"split_indices":[12,12,12,12,12,12,12,12,12,12,9,12,9,12,12,12,12,0,12,12,12,11,12,12,1,9,0,9,0,0,0,0,0,0,0,0,0,0,0,0,0,0,0,0,0,0,0,0,0,0,0,0,0],"split_type":[0,0,0,0,0,0,0,0,0,0,0,0,0,0,0,0,0,0,0,0,0,0,0,0,0,0,0,0,0,0,0,0,0,0,0,0,0,0,0,0,0,0,0,0,0,0,0,0,0,0,0,0,0],"sum_hessian":[1.4338E4,1.1265E4,3.073E3,7.252E3,4.013E3,2.075E3,9.98E2,5.516E3,1.736E3,3.338E3,6.75E2,1.014E3,1.061E3,6.7E2,3.28E2,3.869E3,1.647E3,9.48E2,7.88E2,2.441E3,8.97E2,2.87E2,3.88E2,4.66E2,5.48E2,5.55E2,5.06E2,3.34E2,3.36E2,1.04E2,2.24E2,8.08E2,3.061E3,9.96E2,6.51E2,6.18E2,1.7E2,5.69E2,1.872E3,5.63E2,3.34E2,4.5E1,2.42E2,1.56E2,2.32E2,1.73E2,2.93E2,4.97E2,5.1E1,5E0,5.5E2,5E0,3.29E2],"tree_param":{"num_deleted":"0","num_feature":"14","num_nodes":"53","size_leaf_vector":"1"}},{"base_weights":[1.6967244E-2,-1.7704307E0,6.4431553E0,-2.415498E0,-4.5941064E-1,4.64752E0,9.38705E0,-2.5899646E0,-1.9097424E0,-8.219268E-1,1.3042411E0,3.5930955E0,5.6054983E0,8.18209E0,1.18529415E1,-2.6731167E0,-2.4702868E0,-2.0456324E0,-1.3444327E0,-1.0458356E0,-2.697937E-1,7.678495E-1,1.7462039E0,2.9184184E0,4.1132417E0,4.998393E0,6.2115726E0,3.713773E-1,4.4575983E-1,5.392272E-1,6.5670586E-1,-1.4081341E-1,-1.312069E-1,-1.2382307E-1,-7.253655E-2,-1.0572504E-1,-8.5438E-2,-7.761451E-2,-4.400353E-2,-5.564816E-2,-4.117688E-2,-1.9425694E-2,5.128419E-3,-6.5475285E-2,4.05785E-2,7.003218E-2,9.5510304E-2,1.3041198E-1,1.562637E-1,1.8696247E-1,2.1475041E-1,2.5071457E-1,1.3006042E-1,2.2540401E-1,3.136038E-1],"categories":[],"categories_nodes":[],"categories_segments":[],"categories_sizes":[],"default_left":[0,0,0,0,0,0,0,0,0,0,0,0,0,0,0,0,0,0,0,0,0,0,0,0,0,0,0,0,0,0,0,0,0,0,0,0,0,0,0,0,0,0,0,0,0,0,0,0,0,0,0,0,0,0,0],"id":9,"left_children":[1,3,5,7,9,11,13,15,17,19,21,23,25,27,29,31,33,35,37,39,41,43,45,47,49,51,53,-1,-1,-1,-1,-1,-1,-1,-1,-1,-1,-1,-1,-1,-1,-1,-1,-1,-1,-1,-1,-1,-1,-1,-1,-1,-1,-1,-1],"loss_changes":[1.6438973E5,9.46802E3,1.6398297E4,6.547617E2,2.3636946E3,1.9268867E3,3.356211E3,4.5578125E1,1.4417578E2,3.785569E2,1.4745837E2,3.0713086E2,3.2597852E2,3.4126562E2,3.1246875E2,1.18515625E1,9.125E0,3.0621094E1,3.448407E1,3.116333E1,3.924919E1,2.7705734E1,1.5510498E1,1.3983154E1,1.1224609E1,4.8828125E-3,9.169922E0,0E0,0E0,0E0,0E0,0E0,0E0,0E0,0E0,0E0,0E0,0E0,0E0,0E0,0E0,0E0,0E0,0E0,0E0,0E0,0E0,0E0,0E0,0E0,0E0,0E0,0E0,0E0,0E0],"parents":[2147483647,0,0,1,1,2,2,3,3,4,4,5,5,6,6,7,7,8,8,9,9,10,10,11,11,12,12,13,13,14,14,15,15,16,16,17,17,18,18,19,19,20,20,21,21,22,22,23,23,24,24,25,25,26,26],"right_children":[2,4,6,8,10,12,14,16,18,20,22,24,26,28,30,32,34,36,38,40,42,44,46,48,50,52,54,-1,-1,-1,-1,-1,-1,-1,-1,-1,-1,-1,-1,-1,-1,-1,-1,-1,-1,-1,-1,-1,-1,-1,-1,-1,-1,-1,-1],"split_conditions":[1.339E1,5.4E0,2.448E1,3.23E0,9.15E0,1.892E1,3.167E1,1.72E0,3.2E0,6.86E0,1.1E1,1.636E1,2.128E1,2.775E1,3.666E1,2.33E0,3.9E0,4.19E0,4.19E0,6.32E0,8.04E0,4.84E0,1.177E1,1.472E1,1.734E1,4.2951E2,9.32E-1,3.713773E-1,4.4575983E-1,5.392272E-1,6.5670586E-1,-1.4081341E-1,-1.312069E-1,-1.2382307E-1,-7.253655E-2,-1.0572504E-1,-8.5438E-2,-7.761451E-2,-4.400353E-2,-5.564816E-2,-4.117688E-2,-1.9425694E-2,5.128419E-3,-6.5475285E-2,4.05785E-2,7.003218E-2,9.5510304E-2,1.3041198E-1,1.562637E-1,1.8696247E-1,2.1475041E-1,2.5071457E-1,1.3006042E-1,2.2540401E-1,3.136038E-1],"split_indices":[0,0,0,0,0,0,0,9,9,0,0,0,0,0,0,0,9,0,9,0,0,9,0,0,0,1,4,0,0,0,0,0,0,0,0,0,0,0,0,0,0,0,0,0,0,0,0,0,0,0,0,0,0,0,0],"split_type":[0,0,0,0,0,0,0,0,0,0,0,0,0,0,0,0,0,0,0,0,0,0,0,0,0,0,0,0,0,0,0,0,0,0,0,0,0,0,0,0,0,0,0,0,0,0,0,0,0,0,0,0,0,0,0],"sum_hessian":[1.4309E4,1.1196E4,3.113E3,7.503E3,3.693E3,1.936E3,1.177E3,5.574E3,1.929E3,3.064E3,6.29E2,9.25E2,1.011E3,7.95E2,3.82E2,3.27E3,2.304E3,1.552E3,3.77E2,2.179E3,8.85E2,2.86E2,3.43E2,4.07E2,5.18E2,5.12E2,4.99E2,4E2,3.95E2,2.16E2,1.66E2,8.12E2,2.458E3,2.288E3,1.6E1,1.282E3,2.7E2,2.58E2,1.19E2,1.669E3,5.1E2,6.71E2,2.14E2,5E0,2.81E2,1.15E2,2.28E2,1.71E2,2.36E2,1.8E2,3.38E2,5.07E2,5E0,2.1E1,4.78E2],"tree_param":{"num_deleted":"0","num_feature":"14","num_nodes":"55","size_leaf_vector":"1"}},{"base_weights":[-1.6553555E-2,-1.6615293E0,6.222323E0,-2.2921078E0,-3.9795023E-1,4.7296076E0,9.479697E0,-2.462893E0,-1.8269498E0,-7.779083E-1,1.3215183E0,3.8426547E0,6.033446E0,8.445428E0,1.1858151E1,-1.3040912E-1,-2.4022422E0,-1.9493681E0,-1.2781476E0,-9.990545E-1,-2.5525302E-1,8.417416E-1,1.8183688E0,3.0632725E0,4.361998E0,5.3674545E0,3.225994E-1,3.9654726E-1,4.69447E-1,5.3350997E-1,6.289865E-1,-1.2211001E-1,-1.11801505E-1,-1.0306754E-1,-8.782167E-2,-6.943774E-2,-2.1629453E-2,-5.327607E-2,-4.0316835E-2,-2.0832015E-2,5.8657234E-4,-6.899079E-2,4.399964E-2,7.844199E-2,1.02155976E-1,1.3172615E-1,1.6900374E-1,1.9910008E-1,2.2995725E-1,2.6995257E-1,1.280561E-1],"categories":[],"categories_nodes":[],"categories_segments":[],"categories_sizes":[],"default_left":[0,0,0,0,0,0,0,0,0,0,0,0,0,0,0,0,0,0,0,0,0,0,0,0,0,0,0,0,0,0,0,0,0,0,0,0,0,0,0,0,0,0,0,0,0,0,0,0,0,0,0],"id":10,"left_children":[1,3,5,7,9,11,13,15,17,19,21,23,25,27,29,-1,31,33,35,37,39,41,43,45,47,49,-1,-1,-1,-1,-1,-1,-1,-1,-1,-1,-1,-1,-1,-1,-1,-1,-1,-1,-1,-1,-1,-1,-1,-1,-1],"loss_changes":[1.4650161E5,8.999523E3,1.4415203E4,5.918867E2,2.459681E3,2.3307266E3,2.1486094E3,3.9128906E1,1.3261182E2,3.559027E2,1.601582E2,4.7438086E2,1.781582E2,2.0698438E2,3.8246094E1,0E0,1.7742188E1,3.035791E1,3.4123962E1,2.6449951E1,3.9583565E1,3.1520828E1,1.3895264E1,5.3674316E1,3.826758E1,8.297852E0,0E0,0E0,0E0,0E0,0E0,0E0,0E0,0E0,0E0,0E0,0E0,0E0,0E0,0E0,0E0,0E0,0E0,0E0,0E0,0E0,0E0,0E0,0E0,0E0,0E0],"parents":[2147483647,0,0,1,1,2,2,3,3,4,4,5,5,6,6,7,7,8,8,9,9,10,10,11,11,12,12,13,13,14,14,16,16,17,17,18,18,19,19,20,20,21,21,22,22,23,23,24,24,25,25],"right_children":[2,4,6,8,10,12,14,16,18,20,22,24,26,28,30,-1,32,34,36,38,40,42,44,46,48,50,-1,-1,-1,-1,-1,-1,-1,-1,-1,-1,-1,-1,-1,-1,-1,-1,-1,-1,-1,-1,-1,-1,-1,-1,-1],"split_conditions":[1.379E1,5.4E0,2.61E1,3.19E0,9.15E0,2.066E1,3.395E1,2.52E0,3.2E0,6.86E0,1.139E1,1.734E1,2.245E1,3.046E1,3.666E1,-1.3040912E-1,2.8E0,3.92E0,4.72E0,6.29E0,7.63E0,4.77E0,1.242E1,1.556E1,1.864E1,4.2979E2,3.225994E-1,3.9654726E-1,4.69447E-1,5.3350997E-1,6.289865E-1,-1.2211001E-1,-1.11801505E-1,-1.0306754E-1,-8.782167E-2,-6.943774E-2,-2.1629453E-2,-5.327607E-2,-4.0316835E-2,-2.0832015E-2,5.8657234E-4,-6.899079E-2,4.399964E-2,7.844199E-2,1.02155976E-1,1.3172615E-1,1.6900374E-1,1.9910008E-1,2.2995725E-1,2.6995257E-1,1.280561E-1],"split_indices":[0,0,0,0,0,0,0,0,9,0,0,0,0,0,0,0,0,0,9,0,0,9,0,0,0,1,0,0,0,0,0,0,0,0,0,0,0,0,0,0,0,0,0,0,0,0,0,0,0,0,0],"split_type":[0,0,0,0,0,0,0,0,0,0,0,0,0,0,0,0,0,0,0,0,0,0,0,0,0,0,0,0,0,0,0,0,0,0,0,0,0,0,0,0,0,0,0,0,0,0,0,0,0,0,0],"sum_hessian":[1.4272E4,1.1295E4,2.977E3,7.534E3,3.761E3,2.044E3,9.33E2,5.506E3,2.028E3,3.081E3,6.8E2,1.22E3,8.24E2,6.55E2,2.78E2,1.603E3,3.903E3,1.655E3,3.73E2,2.164E3,9.17E2,3.48E2,3.32E2,4.92E2,7.28E2,3.26E2,4.98E2,4.33E2,2.22E2,1.14E2,1.64E2,3.13E3,7.73E2,1.038E3,6.17E2,3.29E2,4.4E1,1.604E3,5.6E2,5.71E2,3.46E2,5E0,3.43E2,1.63E2,1.69E2,2.15E2,2.77E2,2.9E2,4.38E2,3.21E2,5E0],"tree_param":{"num_deleted":"0","num_feature":"14","num_nodes":"51","size_leaf_vector":"1"}},{"base_weights":[3.5966415E-2,-1.6019549E0,5.8963366E0,-2.221134E0,-4.6928692E-1,4.5379376E0,9.141673E0,-2.3519287E0,-1.8489572E0,-7.9271567E-1,1.1299068E0,3.7040107E0,5.9930925E0,8.134007E0,1.1211013E1,-1.255867E-1,-2.3055816E0,-1.9561265E0,-1.5409669E0,-9.721154E-1,-2.9941693E-1,6.285503E-1,1.6202011E0,2.7930787E0,4.1921787E0,2.698759E-1,3.1913516E-1,3.8138378E-1,4.447972E-1,5.048868E-1,5.926138E-1,-1.16444245E-1,-1.06863335E-1,-1.0075458E-1,-9.014849E-2,-7.782894E-2,-2.5072752E-2,-5.3670134E-2,-4.0846795E-2,-2.1566272E-2,-3.2568541E-3,-6.334224E-2,3.3472605E-2,6.5580525E-2,8.864571E-2,1.2495595E-1,1.570014E-1,1.8780863E-1,2.2165394E-1],"categories":[],"categories_nodes":[],"categories_segments":[],"categories_sizes":[],"default_left":[0,0,0,0,0,0,0,0,0,0,0,0,0,0,0,0,0,0,0,0,0,0,0,0,0,0,0,0,0,0,0,0,0,0,0,0,0,0,0,0,0,0,0,0,0,0,0,0,0],"id":11,"left_children":[1,3,5,7,9,11,13,15,17,19,21,23,25,27,29,-1,31,33,35,37,39,41,43,45,47,-1,-1,-1,-1,-1,-1,-1,-1,-1,-1,-1,-1,-1,-1,-1,-1,-1,-1,-1,-1,-1,-1,-1,-1],"loss_changes":[1.3685984E5,7.8136445E3,1.366793E4,3.441797E2,2.0394695E3,2.6345664E3,1.7763828E3,3.075586E1,5.754834E1,2.8970288E2,1.6156885E2,6.0566797E2,1.3361133E2,1.383711E2,3.2152344E1,0E0,8.796875E0,7.098633E0,6.8217773E0,3.6462402E1,2.7044777E1,2.689418E1,1.2275574E1,3.856079E1,7.055078E1,0E0,0E0,0E0,0E0,0E0,0E0,0E0,0E0,0E0,0E0,0E0,0E0,0E0,0E0,0E0,0E0,0E0,0E0,0E0,0E0,0E0,0E0,0E0,0E0],"parents":[2147483647,0,0,1,1,2,2,3,3,4,4,5,5,6,6,7,7,8,8,9,9,10,10,11,11,12,12,13,13,14,14,16,16,17,17,18,18,19,19,20,20,21,21,22,22,23,23,24,24],"right_children":[2,4,6,8,10,12,14,16,18,20,22,24,26,28,30,-1,32,34,36,38,40,42,44,46,48,-1,-1,-1,-1,-1,-1,-1,-1,-1,-1,-1,-1,-1,-1,-1,-1,-1,-1,-1,-1,-1,-1,-1,-1],"split_conditions":[1.339E1,3.352E0,2.677E1,3.11E0,8.83E0,2.128E1,3.395E1,2.43E0,4.09E0,6.79E0,1.1E1,1.7E1,2.33E1,3.046E1,3.666E1,-1.255867E-1,1.888E0,3.71E0,4.49E0,4.23E0,7.53E0,5.378E0,1.177E1,1.556E1,1.864E1,2.698759E-1,3.1913516E-1,3.8138378E-1,4.447972E-1,5.048868E-1,5.926138E-1,-1.16444245E-1,-1.06863335E-1,-1.0075458E-1,-9.014849E-2,-7.782894E-2,-2.5072752E-2,-5.3670134E-2,-4.0846795E-2,-2.1566272E-2,-3.2568541E-3,-6.334224E-2,3.3472605E-2,6.5580525E-2,8.864571E-2,1.2495595E-1,1.570014E-1,1.8780863E-1,2.2165394E-1],"split_indices":[0,12,0,0,0,0,0,0,0,0,0,0,0,0,0,0,12,0,11,9,0,12,0,0,0,0,0,0,0,0,0,0,0,0,0,0,0,0,0,0,0,0,0,0,0,0,0,0,0],"split_type":[0,0,0,0,0,0,0,0,0,0,0,0,0,0,0,0,0,0,0,0,0,0,0,0,0,0,0,0,0,0,0,0,0,0,0,0,0,0,0,0,0,0,0,0,0,0,0,0,0],"sum_hessian":[1.4255E4,1.1142E4,3.113E3,7.203E3,3.939E3,2.197E3,9.16E2,5.324E3,1.879E3,3.277E3,6.62E2,1.4E3,7.97E2,6.21E2,2.95E2,1.179E3,4.145E3,1.388E3,4.91E2,2.402E3,8.75E2,3.29E2,3.33E2,4.92E2,9.08E2,3.24E2,4.73E2,3.83E2,2.38E2,1.17E2,1.78E2,3.624E3,5.21E2,9.89E2,3.99E2,4.83E2,8E0,1.448E3,9.54E2,5.59E2,3.16E2,6E0,3.23E2,1.15E2,2.18E2,2.73E2,2.19E2,3.32E2,5.76E2],"tree_param":{"num_deleted":"0","num_feature":"14","num_nodes":"49","size_leaf_vector":"1"}},{"base_weights":[-1.2164377E-2,-1.5060341E0,5.642227E0,-2.0930383E0,-3.8987163E-1,4.345781E0,8.655471E0,-2.2021282E0,-1.6302371E0,-7.510063E-1,1.0635248E0,3.4426408E0,5.4468575E0,7.8339496E0,5.517039E-1,-2.260226E0,-2.0121977E0,-1.7413231E0,-1.3304571E0,-9.2557573E-1,-3.127887E-1,5.318028E-1,1.5938814E0,2.7785506E0,3.9342825E0,4.9537697E0,3.00491E-1,3.6455807E-1,4.3119487E-1,-1.19586304E-1,-1.1099543E-1,-1.0081837E-1,-5.8169942E-2,-8.7639876E-2,-4.6213053E-2,-6.906008E-2,-4.8933264E-2,-5.1890172E-2,-4.1196678E-2,-2.4059502E-2,-8.982369E-3,1.4326927E-2,4.2196065E-2,5.9447348E-2,8.734333E-2,1.2134063E-1,1.5266594E-1,1.8405716E-1,2.0833452E-1,2.3302074E-1,2.637864E-1],"categories":[],"categories_nodes":[],"categories_segments":[],"categories_sizes":[],"default_left":[0,0,0,0,0,0,0,0,0,0,0,0,0,0,0,0,0,0,0,0,0,0,0,0,0,0,0,0,0,0,0,0,0,0,0,0,0,0,0,0,0,0,0,0,0,0,0,0,0,0,0],"id":12,"left_children":[1,3,5,7,9,11,13,15,17,19,21,23,25,27,-1,29,31,33,35,37,39,41,43,45,47,49,-1,-1,-1,-1,-1,-1,-1,-1,-1,-1,-1,-1,-1,-1,-1,-1,-1,-1,-1,-1,-1,-1,-1,-1,-1],"loss_changes":[1.2119655E5,7.434877E3,1.1657258E4,3.7011328E2,2.055284E3,2.059668E3,1.6299844E3,5.954492E1,4.3962402E1,2.3942944E2,2.1854938E2,3.615205E2,2.1725E2,1.9489062E2,0E0,1.6388672E1,1.5161133E0,7.2685547E0,4.9612427E0,2.4286377E1,1.9948494E1,2.9607193E1,2.1013733E1,3.6966797E1,1.5910156E1,1.14296875E1,0E0,0E0,0E0,0E0,0E0,0E0,0E0,0E0,0E0,0E0,0E0,0E0,0E0,0E0,0E0,0E0,0E0,0E0,0E0,0E0,0E0,0E0,0E0,0E0,0E0],"parents":[2147483647,0,0,1,1,2,2,3,3,4,4,5,5,6,6,7,7,8,8,9,9,10,10,11,11,12,12,13,13,15,15,16,16,17,17,18,18,19,19,20,20,21,21,22,22,23,23,24,24,25,25],"right_children":[2,4,6,8,10,12,14,16,18,20,22,24,26,28,-1,30,32,34,36,38,40,42,44,46,48,50,-1,-1,-1,-1,-1,-1,-1,-1,-1,-1,-1,-1,-1,-1,-1,-1,-1,-1,-1,-1,-1,-1,-1,-1,-1],"split_conditions":[1.379E1,3.536E0,2.677E1,2.29E0,8.61E0,2.034E1,3.534E1,2.75E0,4.39E0,6.71E0,1.1E1,1.734E1,2.33E1,3.046E1,5.517039E-1,1.538E0,4.26E0,3.83E0,5.66E0,5.91E0,7.28E0,9.73E0,1.177E1,1.556E1,1.892E1,2.174E1,3.00491E-1,3.6455807E-1,4.3119487E-1,-1.19586304E-1,-1.1099543E-1,-1.0081837E-1,-5.8169942E-2,-8.7639876E-2,-4.6213053E-2,-6.906008E-2,-4.8933264E-2,-5.1890172E-2,-4.1196678E-2,-2.4059502E-2,-8.982369E-3,1.4326927E-2,4.2196065E-2,5.9447348E-2,8.734333E-2,1.2134063E-1,1.5266594E-1,1.8405716E-1,2.0833452E-1,2.3302074E-1,2.637864E-1],"split_indices":[0,12,0,12,0,0,0,0,0,0,0,0,0,0,0,12,0,9,0,0,0,0,0,0,0,0,0,0,0,0,0,0,0,0,0,0,0,0,0,0,0,0,0,0,0,0,0,0,0,0,0],"split_type":[0,0,0,0,0,0,0,0,0,0,0,0,0,0,0,0,0,0,0,0,0,0,0,0,0,0,0,0,0,0,0,0,0,0,0,0,0,0,0,0,0,0,0,0,0,0,0,0,0,0,0],"sum_hessian":[1.4345E4,1.1348E4,2.997E3,7.436E3,3.912E3,2.098E3,8.99E2,6.013E3,1.423E3,3.134E3,7.78E2,1.156E3,9.42E2,6.73E2,2.26E2,4.592E3,1.421E3,1.033E3,3.9E2,2.24E3,8.94E2,3.9E2,3.88E2,4.96E2,6.6E2,5.1E2,4.32E2,4.08E2,2.65E2,1.057E3,3.535E3,1.412E3,9E0,1.017E3,1.6E1,3.37E2,5.3E1,1.058E3,1.182E3,3.93E2,5.01E2,2.2E2,1.7E2,1.1E2,2.78E2,2.24E2,2.72E2,3.28E2,3.32E2,2.79E2,2.31E2],"tree_param":{"num_deleted":"0","num_feature":"14","num_nodes":"51","size_leaf_vector":"1"}},{"base_weights":[-4.1589136E-3,-1.4413624E0,5.263418E0,-1.9901091E0,-3.9218646E-1,3.8956263E0,7.90508E0,-2.1194668E0,-1.6402568E0,-7.3170924E-1,9.136063E-1,3.001831E0,4.814798E0,6.7814236E0,9.738488E0,-2.2305105E0,-2.0633662E0,-1.7566053E0,-1.3601155E0,-8.784036E-1,-3.3779305E-1,3.3173406E-1,1.3350353E0,2.4120445E0,3.4581072E0,2.144405E-1,5.321257E0,3.0649385E-1,3.6216414E-1,4.4509026E-1,5.379159E-1,-1.15916274E-1,-1.0891427E-1,-1.0436797E-1,-9.6204236E-2,-9.1478996E-2,-8.265223E-2,-6.961376E-2,-4.1946452E-2,-4.9278855E-2,-3.8809925E-2,-2.4237674E-2,-1.1800501E-2,1.7732408E-2,-4.6200722E-2,4.8939425E-2,7.732711E-2,1.0398785E-1,1.2979406E-1,1.6433644E-1,1.9348304E-1,2.519122E-1,2.8202865E-1],"categories":[],"categories_nodes":[],"categories_segments":[],"categories_sizes":[],"default_left":[0,0,0,0,0,0,0,0,0,0,0,0,0,0,0,0,0,0,0,0,0,0,0,0,0,0,0,0,0,0,0,0,0,0,0,0,0,0,0,0,0,0,0,0,0,0,0,0,0,0,0,0,0],"id":13,"left_children":[1,3,5,7,9,11,13,15,17,19,21,23,25,27,29,31,33,35,37,39,41,43,45,47,49,-1,51,-1,-1,-1,-1,-1,-1,-1,-1,-1,-1,-1,-1,-1,-1,-1,-1,-1,-1,-1,-1,-1,-1,-1,-1,-1,-1],"loss_changes":[1.091148E5,6.518127E3,1.1116922E4,3.312422E2,1.725842E3,1.6530547E3,2.069211E3,2.6876953E1,6.2043945E1,1.7802466E2,1.9636823E2,2.6668555E2,2.3282422E2,1.3125781E2,1.9467188E2,6.8652344E-1,6.0810547E0,6.1757812E0,8.262817E0,2.349292E1,1.240065E1,1.0260437E1,3.28042E1,1.9849121E1,2.1936035E1,0E0,2.9638672E0,0E0,0E0,0E0,0E0,0E0,0E0,0E0,0E0,0E0,0E0,0E0,0E0,0E0,0E0,0E0,0E0,0E0,0E0,0E0,0E0,0E0,0E0,0E0,0E0,0E0,0E0],"parents":[2147483647,0,0,1,1,2,2,3,3,4,4,5,5,6,6,7,7,8,8,9,9,10,10,11,11,12,12,13,13,14,14,15,15,16,16,17,17,18,18,19,19,20,20,21,21,22,22,23,23,24,24,26,26],"right_children":[2,4,6,8,10,12,14,16,18,20,22,24,26,28,30,32,34,36,38,40,42,44,46,48,50,-1,52,-1,-1,-1,-1,-1,-1,-1,-1,-1,-1,-1,-1,-1,-1,-1,-1,-1,-1,-1,-1,-1,-1,-1,-1,-1,-1],"split_conditions":[1.339E1,3.536E0,2.535E1,2.106E0,8.29E0,1.939E1,3.167E1,1.62E0,4.09E0,6.71E0,1.01E1,1.668E1,2.174E1,2.775E1,3.666E1,2.24E0,2.87E0,3.54E0,5.78E0,5.91E0,7.18E0,4.3138E2,1.139E1,1.472E1,1.355E1,2.144405E-1,2.373E1,3.0649385E-1,3.6216414E-1,4.4509026E-1,5.379159E-1,-1.15916274E-1,-1.0891427E-1,-1.0436797E-1,-9.6204236E-2,-9.1478996E-2,-8.265223E-2,-6.961376E-2,-4.1946452E-2,-4.9278855E-2,-3.8809925E-2,-2.4237674E-2,-1.1800501E-2,1.7732408E-2,-4.6200722E-2,4.8939425E-2,7.732711E-2,1.0398785E-1,1.2979406E-1,1.6433644E-1,1.9348304E-1,2.519122E-1,2.8202865E-1],"split_indices":[0,12,0,12,0,0,0,12,0,0,0,0,0,0,0,0,0,0,0,0,0,1,0,0,10,0,0,0,0,0,0,0,0,0,0,0,0,0,0,0,0,0,0,0,0,0,0,0,0,0,0,0,0],"split_type":[0,0,0,0,0,0,0,0,0,0,0,0,0,0,0,0,0,0,0,0,0,0,0,0,0,0,0,0,0,0,0,0,0,0,0,0,0,0,0,0,0,0,0,0,0,0,0,0,0,0,0,0,0],"sum_hessian":[1.441E4,1.1322E4,3.088E3,7.433E3,3.889E3,2.037E3,1.051E3,5.421E3,2.012E3,3.087E3,8.02E2,1.036E3,1.001E3,6.56E2,3.95E2,1.8E3,3.621E3,1.416E3,5.96E2,2.248E3,8.39E2,3.38E2,4.64E2,4.56E2,5.8E2,4.98E2,5.03E2,2.81E2,3.75E2,2.25E2,1.7E2,6.47E2,1.153E3,3.071E3,5.5E2,8.16E2,6E2,5.59E2,3.7E1,1.091E3,1.157E3,3.41E2,4.98E2,3.33E2,5E0,1.76E2,2.88E2,1.69E2,2.87E2,4.19E2,1.61E2,2.8E2,2.23E2],"tree_param":{"num_deleted":"0","num_feature":"14","num_nodes":"53","size_leaf_vector":"1"}},{"base_weights":[-1.1088246E-2,-1.3590149E0,5.0867558E0,-1.8907256E0,-3.497586E-1,3.656636E0,7.2987447E0,-2.015606E0,-1.5676421E0,-6.7700064E-1,9.630214E-1,2.949189E0,4.473322E0,6.3275657E0,9.190092E0,-1.0638616E-1,-1.9691112E0,-1.6749823E0,-1.2625313E0,-8.2811904E-1,-2.8952378E-1,5.0697E-1,1.4130687E0,2.4047565E0,3.2945359E0,4.0720806E0,2.4519837E-1,2.874428E-1,3.4282836E-1,4.0781942E-1,4.9614802E-1,-9.982359E-2,-9.3677364E-2,-8.644291E-2,-7.728207E-2,-6.450459E-2,-4.1841894E-2,-4.5004334E-2,-3.5229724E-2,-1.875449E-2,-4.656331E-3,1.8045556E-2,4.315428E-2,6.0348388E-2,8.354022E-2,1.0498182E-1,1.278008E-1,1.5585344E-1,1.8605748E-1,2.0612751E-1,1.0727262E-1],"categories":[],"categories_nodes":[],"categories_segments":[],"categories_sizes":[],"default_left":[0,0,0,0,0,0,0,0,0,0,0,0,0,0,0,0,0,0,0,0,0,0,0,0,0,0,0,0,0,0,0,0,0,0,0,0,0,0,0,0,0,0,0,0,0,0,0,0,0,0,0],"id":14,"left_children":[1,3,5,7,9,11,13,15,17,19,21,23,25,27,29,-1,31,33,35,37,39,41,43,45,47,49,-1,-1,-1,-1,-1,-1,-1,-1,-1,-1,-1,-1,-1,-1,-1,-1,-1,-1,-1,-1,-1,-1,-1,-1,-1],"loss_changes":[9.849642E4,6.082541E3,9.442281E3,2.9481445E2,1.6822051E3,1.0337617E3,2.0719766E3,2.1603516E1,6.483496E1,1.8312207E2,1.593241E2,1.7265625E2,1.15796875E2,1.801211E2,1.7821484E2,0E0,4.328125E0,6.663574E0,4.7924194E0,1.9081787E1,1.4761139E1,1.9844154E1,1.7824524E1,9.787842E0,2.7761719E1,3.0051758E1,0E0,0E0,0E0,0E0,0E0,0E0,0E0,0E0,0E0,0E0,0E0,0E0,0E0,0E0,0E0,0E0,0E0,0E0,0E0,0E0,0E0,0E0,0E0,0E0,0E0],"parents":[2147483647,0,0,1,1,2,2,3,3,4,4,5,5,6,6,7,7,8,8,9,9,10,10,11,11,12,12,13,13,14,14,16,16,17,17,18,18,19,19,20,20,21,21,22,22,23,23,24,24,25,25],"right_children":[2,4,6,8,10,12,14,16,18,20,22,24,26,28,30,-1,32,34,36,38,40,42,44,46,48,50,-1,-1,-1,-1,-1,-1,-1,-1,-1,-1,-1,-1,-1,-1,-1,-1,-1,-1,-1,-1,-1,-1,-1,-1,-1],"split_conditions":[1.379E1,3.536E0,2.448E1,2.082E0,8.61E0,1.964E1,3.167E1,1.602E0,4.14E0,6.71E0,1.1E1,1.668E1,2.174E1,2.775E1,3.534E1,-1.0638616E-1,2.73E0,2.45E0,5.78E0,4.27E0,7.53E0,1.01E1,1.242E1,1.027E1,1.355E1,1.1E1,2.4519837E-1,2.874428E-1,3.4282836E-1,4.0781942E-1,4.9614802E-1,-9.982359E-2,-9.3677364E-2,-8.644291E-2,-7.728207E-2,-6.450459E-2,-4.1841894E-2,-4.5004334E-2,-3.5229724E-2,-1.875449E-2,-4.656331E-3,1.8045556E-2,4.315428E-2,6.0348388E-2,8.354022E-2,1.0498182E-1,1.278008E-1,1.5585344E-1,1.8605748E-1,2.0612751E-1,1.0727262E-1],"split_indices":[0,12,0,12,0,0,0,12,0,0,0,0,0,0,0,0,0,9,0,9,0,0,0,10,10,5,0,0,0,0,0,0,0,0,0,0,0,0,0,0,0,0,0,0,0,0,0,0,0,0,0],"split_type":[0,0,0,0,0,0,0,0,0,0,0,0,0,0,0,0,0,0,0,0,0,0,0,0,0,0,0,0,0,0,0,0,0,0,0,0,0,0,0,0,0,0,0,0,0,0,0,0,0,0,0],"sum_hessian":[1.4331E4,1.1335E4,2.996E3,7.423E3,3.912E3,1.822E3,1.174E3,5.348E3,2.075E3,3.132E3,7.8E2,9.8E2,8.42E2,7.8E2,3.94E2,1.548E3,3.8E3,1.53E3,5.45E2,2.252E3,8.8E2,3.89E2,3.91E2,3.85E2,5.95E2,4.44E2,3.98E2,3.81E2,3.99E2,1.71E2,2.23E2,2.931E3,8.69E2,1.067E3,4.63E2,5.09E2,3.6E1,1.417E3,8.35E2,6.12E2,2.68E2,2.78E2,1.11E2,2.22E2,1.69E2,1.35E2,2.5E2,4.29E2,1.66E2,4.31E2,1.3E1],"tree_param":{"num_deleted":"0","num_feature":"14","num_nodes":"51","size_leaf_vector":"1"}},{"base_weights":[1.5368171E-2,-1.3079761E0,4.7063403E0,-1.7948545E0,-4.1543406E-1,3.4101276E0,7.0086217E0,-1.9116286E0,-1.4911692E0,-6.7726517E-1,8.566032E-1,2.5789366E0,4.085052E0,6.1599803E0,8.827236E0,-1.9718533E0,-1.8400815E0,-1.5524789E0,-8.51095E-1,-8.214373E-1,-2.8751308E-1,4.638402E-1,1.233048E0,2.1007624E0,3.036295E0,3.6957529E0,2.3376262E-1,5.4867663E0,6.636971E0,8.904557E0,1.2985149E-1,-1.0401394E-1,-9.708329E-2,-9.243669E-2,-4.4265892E-2,-8.144842E-2,-6.804701E-2,-6.386853E-2,-3.311068E-2,-5.0056595E-2,-3.7424468E-2,-1.5318018E-2,3.3732418E-2,3.4690402E-2,1.56474E-2,1.4124458E-1,5.7627644E-2,1.1089877E-1,7.852058E-2,1.6472338E-1,1.3510801E-1,1.8849568E-1,1.5618427E-1,2.601462E-1,3.002808E-1,3.334084E-1,1.9226754E-1,4.0612593E-1,4.7792014E-1],"categories":[],"categories_nodes":[],"categories_segments":[],"categories_sizes":[],"default_left":[0,0,0,0,0,0,0,0,0,0,0,0,0,0,0,0,0,0,0,0,0,0,0,0,0,0,0,0,0,0,0,0,0,0,0,0,0,0,0,0,0,0,0,0,0,0,0,0,0,0,0,0,0,0,0,0,0,0,0],"id":15,"left_children":[1,3,5,7,9,11,13,15,17,19,21,23,25,27,29,31,33,35,37,39,41,43,45,47,49,51,-1,53,55,57,-1,-1,-1,-1,-1,-1,-1,-1,-1,-1,-1,-1,-1,-1,-1,-1,-1,-1,-1,-1,-1,-1,-1,-1,-1,-1,-1,-1,-1],"loss_changes":[8.89697E4,4.8566035E3,9.374969E3,2.5220703E2,1.3156204E3,1.1176777E3,1.6693711E3,1.7042969E1,7.711182E1,1.8364441E2,9.8869354E1,1.893374E2,2.2969727E2,1.9536523E2,1.375293E2,3.1484375E0,1.7433105E1,2.3595215E1,1.3183701E1,3.0198486E1,1.6385925E1,1.1212173E1,3.913086E1,2.271814E1,2.6458008E1,1.1078125E1,0E0,1.9501953E0,5.996094E-1,6.378711E1,0E0,0E0,0E0,0E0,0E0,0E0,0E0,0E0,0E0,0E0,0E0,0E0,0E0,0E0,0E0,0E0,0E0,0E0,0E0,0E0,0E0,0E0,0E0,0E0,0E0,0E0,0E0,0E0,0E0],"parents":[2147483647,0,0,1,1,2,2,3,3,4,4,5,5,6,6,7,7,8,8,9,9,10,10,11,11,12,12,13,13,14,14,15,15,16,16,17,17,18,18,19,19,20,20,21,21,22,22,23,23,24,24,25,25,27,27,28,28,29,29],"right_children":[2,4,6,8,10,12,14,16,18,20,22,24,26,28,30,32,34,36,38,40,42,44,46,48,50,52,-1,54,56,58,-1,-1,-1,-1,-1,-1,-1,-1,-1,-1,-1,-1,-1,-1,-1,-1,-1,-1,-1,-1,-1,-1,-1,-1,-1,-1,-1,-1,-1],"split_conditions":[9.06E0,3.2E0,1.697E1,2.06E0,6.03E0,1.288E1,2.21E1,1.69E0,6.533912E-1,4.72E0,7.44E0,1.134E1,1.497E1,1.84E1,9.93E-1,1.39E0,7.07128E-1,2.6E0,1.99E0,3.96E0,1.2183678E0,1.1E1,1.98E0,1.1E1,3E0,3E0,2.3376262E-1,1.886E1,1.9601225E0,2.523E1,1.2985149E-1,-1.0401394E-1,-9.708329E-2,-9.243669E-2,-4.4265892E-2,-8.144842E-2,-6.804701E-2,-6.386853E-2,-3.311068E-2,-5.0056595E-2,-3.7424468E-2,-1.5318018E-2,3.3732418E-2,3.4690402E-2,1.56474E-2,1.4124458E-1,5.7627644E-2,1.1089877E-1,7.852058E-2,1.6472338E-1,1.3510801E-1,1.8849568E-1,1.5618427E-1,2.601462E-1,3.002808E-1,3.334084E-1,1.9226754E-1,4.0612593E-1,4.7792014E-1],"split_indices":[9,9,9,9,9,9,9,9,13,9,9,9,9,11,4,9,13,9,4,9,13,5,4,5,6,6,0,9,13,9,0,0,0,0,0,0,0,0,0,0,0,0,0,0,0,0,0,0,0,0,0,0,0,0,0,0,0,0,0],"split_type":[0,0,0,0,0,0,0,0,0,0,0,0,0,0,0,0,0,0,0,0,0,0,0,0,0,0,0,0,0,0,0,0,0,0,0,0,0,0,0,0,0,0,0,0,0,0,0,0,0,0,0,0,0,0,0,0,0,0,0],"sum_hessian":[1.4329E4,1.1177E4,3.152E3,7.231E3,3.946E3,2.019E3,1.133E3,5.217E3,2.014E3,3.273E3,6.73E2,9.08E2,1.111E3,7.77E2,3.56E2,2.811E3,2.406E3,1.836E3,1.78E2,2.388E3,8.85E2,3.31E2,3.42E2,4.48E2,4.6E2,6.76E2,4.35E2,3.3E2,4.47E2,3.51E2,5E0,5.9E2,2.221E3,2.383E3,2.3E1,1.304E3,5.32E2,5.2E1,1.26E2,6.84E2,1.704E3,8.69E2,1.6E1,1.29E2,2.02E2,1.4E1,3.28E2,3.63E2,8.5E1,2.52E2,2.08E2,5.91E2,8.5E1,2.24E2,1.06E2,4.4E2,7E0,1.69E2,1.82E2],"tree_param":{"num_deleted":"0","num_feature":"14","num_nodes":"59","size_leaf_vector":"1"}},{"base_weights":[-8.772422E-3,-1.2477722E0,4.5152287E0,-1.7207841E0,-3.7695798E-1,3.2564893E0,6.5819297E0,-1.8251489E0,-1.4505817E0,-6.5340286E-1,7.489266E-1,2.4537036E0,3.9065168E0,5.722045E0,8.290558E0,-9.891529E-2,-1.7957542E0,-1.5421598E0,-1.2091434E0,-7.838182E-1,-3.0003673E-1,2.543516E-1,1.114711E0,2.0163934E0,2.8330102E0,3.4622371E0,4.3636355E0,5.201702E0,3.1167874E-1,3.6336622E-1,4.501083E-1,-9.091515E-2,-8.552484E-2,-7.9750076E-2,-7.357999E-2,-6.581673E-2,-5.3492483E-2,-5.1274624E-2,-3.644213E-2,-2.1598045E-2,-8.101128E-3,4.606131E-3,2.2131523E-2,4.6381697E-2,7.13478E-2,8.8671155E-2,1.0918263E-1,1.2829463E-1,1.4823088E-1,1.5815724E-1,1.8444112E-1,2.0543022E-1,2.3209845E-1,2.6123437E-1,1.3137443E-1],"categories":[],"categories_nodes":[],"categories_segments":[],"categories_sizes":[],"default_left":[0,0,0,0,0,0,0,0,0,0,0,0,0,0,0,0,0,0,0,0,0,0,0,0,0,0,0,0,0,0,0,0,0,0,0,0,0,0,0,0,0,0,0,0,0,0,0,0,0,0,0,0,0,0,0],"id":16,"left_children":[1,3,5,7,9,11,13,15,17,19,21,23,25,27,29,-1,31,33,35,37,39,41,43,45,47,49,51,53,-1,-1,-1,-1,-1,-1,-1,-1,-1,-1,-1,-1,-1,-1,-1,-1,-1,-1,-1,-1,-1,-1,-1,-1,-1,-1,-1],"loss_changes":[7.989709E4,4.608041E3,7.939957E3,2.0049023E2,1.2271951E3,9.8101953E2,1.6309414E3,1.8191406E1,4.203174E1,1.454812E2,1.4023059E2,1.3366895E2,1.9088477E2,1.5777734E2,1.8183594E2,0E0,3.7919922E0,1.9399414E0,6.316223E0,2.9576538E1,1.5471451E1,1.0094812E1,2.4096191E1,1.0588989E1,4.602783E0,1.9126953E1,7.7714844E0,2.6914062E0,0E0,0E0,0E0,0E0,0E0,0E0,0E0,0E0,0E0,0E0,0E0,0E0,0E0,0E0,0E0,0E0,0E0,0E0,0E0,0E0,0E0,0E0,0E0,0E0,0E0,0E0,0E0],"parents":[2147483647,0,0,1,1,2,2,3,3,4,4,5,5,6,6,7,7,8,8,9,9,10,10,11,11,12,12,13,13,14,14,16,16,17,17,18,18,19,19,20,20,21,21,22,22,23,23,24,24,25,25,26,26,27,27],"right_children":[2,4,6,8,10,12,14,16,18,20,22,24,26,28,30,-1,32,34,36,38,40,42,44,46,48,50,52,54,-1,-1,-1,-1,-1,-1,-1,-1,-1,-1,-1,-1,-1,-1,-1,-1,-1,-1,-1,-1,-1,-1,-1,-1,-1,-1,-1],"split_conditions":[1.339E1,3.256E0,2.448E1,3.07E0,5.838E0,1.864E1,3.167E1,2.33E0,4E0,4.618E0,1.01E1,1.636E1,2.128E1,2.775E1,3.534E1,-9.891529E-2,1.79E0,2.29E0,4.39E0,5.53E0,7.28E0,9.15E0,1.208E1,1.472E1,1.199E1,1.355E1,1.573E1,4.1932E2,3.1167874E-1,3.6336622E-1,4.501083E-1,-9.091515E-2,-8.552484E-2,-7.9750076E-2,-7.357999E-2,-6.581673E-2,-5.3492483E-2,-5.1274624E-2,-3.644213E-2,-2.1598045E-2,-8.101128E-3,4.606131E-3,2.2131523E-2,4.6381697E-2,7.13478E-2,8.8671155E-2,1.0918263E-1,1.2829463E-1,1.4823088E-1,1.5815724E-1,1.8444112E-1,2.0543022E-1,2.3209845E-1,2.6123437E-1,1.3137443E-1],"split_indices":[0,12,0,0,12,0,0,0,0,12,0,0,0,0,0,0,9,12,0,0,0,0,0,0,10,10,10,1,0,0,0,0,0,0,0,0,0,0,0,0,0,0,0,0,0,0,0,0,0,0,0,0,0,0,0],"split_type":[0,0,0,0,0,0,0,0,0,0,0,0,0,0,0,0,0,0,0,0,0,0,0,0,0,0,0,0,0,0,0,0,0,0,0,0,0,0,0,0,0,0,0,0,0,0,0,0,0,0,0,0,0,0,0],"sum_hessian":[1.4251E4,1.1188E4,3.063E3,7.249E3,3.939E3,1.906E3,1.157E3,5.223E3,2.026E3,3.163E3,7.76E2,8.56E2,1.05E3,7.74E2,3.83E2,8.25E2,4.398E3,1.463E3,5.63E2,2.309E3,8.54E2,3.31E2,4.45E2,4.02E2,4.54E2,5.39E2,5.11E2,3.92E2,3.82E2,1.64E2,2.19E2,3.454E3,9.44E2,8.18E2,6.45E2,3.11E2,2.52E2,4.23E2,1.886E3,4.35E2,4.19E2,1.79E2,1.52E2,2.82E2,1.63E2,1.71E2,2.31E2,1.6E2,2.94E2,2.42E2,2.97E2,2.79E2,2.32E2,3.87E2,5E0],"tree_param":{"num_deleted":"0","num_feature":"14","num_nodes":"55","size_leaf_vector":"1"}},{"base_weights":[-6.10717E-3,-1.1643263E0,4.374462E0,-1.5948267E0,-2.5220624E-1,3.1748312E0,6.3654857E0,-1.6994646E0,-1.1884207E0,-5.281527E-1,9.912825E-1,2.4581673E0,3.8068414E0,5.525599E0,7.936891E0,-1.7489158E0,-1.5406832E0,-1.2370884E0,-5.520722E-1,-6.759292E-1,-1.8608677E-1,6.0399264E-1,1.344831E0,1.9788978E0,2.7416203E0,3.438864E0,4.255784E0,2.570332E-1,3.058829E-1,3.5754615E-1,4.4199872E-1,-9.337729E-2,-8.597565E-2,-7.76489E-2,-4.647747E-2,-6.7653425E-2,-5.265618E-2,-6.613951E-2,-2.21242E-2,-3.6403615E-2,-2.5800113E-2,-1.3509559E-2,3.2058475E-3,1.881004E-2,4.1375283E-2,5.6339767E-2,7.190203E-2,9.426435E-2,1.2062329E-1,1.2770535E-1,1.4631785E-1,1.5383898E-1,1.796972E-1,1.8261026E-1,2.1875964E-1],"categories":[],"categories_nodes":[],"categories_segments":[],"categories_sizes":[],"default_left":[0,0,0,0,0,0,0,0,0,0,0,0,0,0,0,0,0,0,0,0,0,0,0,0,0,0,0,0,0,0,0,0,0,0,0,0,0,0,0,0,0,0,0,0,0,0,0,0,0,0,0,0,0,0,0],"id":17,"left_children":[1,3,5,7,9,11,13,15,17,19,21,23,25,27,29,31,33,35,37,39,41,43,45,47,49,51,53,-1,-1,-1,-1,-1,-1,-1,-1,-1,-1,-1,-1,-1,-1,-1,-1,-1,-1,-1,-1,-1,-1,-1,-1,-1,-1,-1,-1],"loss_changes":[7.2340266E4,4.4273164E3,7.0909805E3,3.2273633E2,1.242081E3,8.300156E2,1.4117344E3,4.376367E1,4.77063E1,1.4951306E2,8.88103E1,1.110708E2,1.4118262E2,1.202207E2,1.7951367E2,1.1338867E1,8.793213E0,2.902417E1,8.792889E0,1.667749E1,1.8870201E1,1.5647476E1,4.5300293E0,6.632202E0,7.7543945E0,1.4324707E1,7.635254E0,0E0,0E0,0E0,0E0,0E0,0E0,0E0,0E0,0E0,0E0,0E0,0E0,0E0,0E0,0E0,0E0,0E0,0E0,0E0,0E0,0E0,0E0,0E0,0E0,0E0,0E0,0E0,0E0],"parents":[2147483647,0,0,1,1,2,2,3,3,4,4,5,5,6,6,7,7,8,8,9,9,10,10,11,11,12,12,13,13,14,14,15,15,16,16,17,17,18,18,19,19,20,20,21,21,22,22,23,23,24,24,25,25,26,26],"right_children":[2,4,6,8,10,12,14,16,18,20,22,24,26,28,30,32,34,36,38,40,42,44,46,48,50,52,54,-1,-1,-1,-1,-1,-1,-1,-1,-1,-1,-1,-1,-1,-1,-1,-1,-1,-1,-1,-1,-1,-1,-1,-1,-1,-1,-1,-1],"split_conditions":[1.379E1,5.53E0,2.482E1,3.5E0,9.15E0,1.917E1,3.167E1,1.85E0,4.3E0,6.86E0,1.139E1,1.636E1,2.174E1,2.881E1,3.666E1,2.37E0,3.52E0,4.26E0,1.2E1,6.32E0,8.04E0,1.01E1,1.208E1,1.251E1,1.786E1,1.322E1,1.44E1,2.570332E-1,3.058829E-1,3.5754615E-1,4.4199872E-1,-9.337729E-2,-8.597565E-2,-7.76489E-2,-4.647747E-2,-6.7653425E-2,-5.265618E-2,-6.613951E-2,-2.21242E-2,-3.6403615E-2,-2.5800113E-2,-1.3509559E-2,3.2058475E-3,1.881004E-2,4.1375283E-2,5.6339767E-2,7.190203E-2,9.426435E-2,1.2062329E-1,1.2770535E-1,1.4631785E-1,1.5383898E-1,1.796972E-1,1.8261026E-1,2.1875964E-1],"split_indices":[0,0,0,0,0,0,0,9,9,0,0,0,0,0,0,0,9,0,5,0,0,0,0,10,0,10,10,0,0,0,0,0,0,0,0,0,0,0,0,0,0,0,0,0,0,0,0,0,0,0,0,0,0,0,0],"split_type":[0,0,0,0,0,0,0,0,0,0,0,0,0,0,0,0,0,0,0,0,0,0,0,0,0,0,0,0,0,0,0,0,0,0,0,0,0,0,0,0,0,0,0,0,0,0,0,0,0,0,0,0,0,0,0],"sum_hessian":[1.4255E4,1.1275E4,2.98E3,7.659E3,3.616E3,1.862E3,1.118E3,6.087E3,1.572E3,2.96E3,6.56E2,8.76E2,9.86E2,7.33E2,3.85E2,4.63E3,1.457E3,1.459E3,1.13E2,2.066E3,8.94E2,3.15E2,3.41E2,3.3E2,5.46E2,5.49E2,4.37E2,4.53E2,2.8E2,2.13E2,1.72E2,9.01E2,3.729E3,1.426E3,3.1E1,8.89E2,5.7E2,1.2E1,1.01E2,1.554E3,5.12E2,6.69E2,2.25E2,1.58E2,1.57E2,1.08E2,2.33E2,2.78E2,5.2E1,2.82E2,2.64E2,1.74E2,3.75E2,8E1,3.57E2],"tree_param":{"num_deleted":"0","num_feature":"14","num_nodes":"55","size_leaf_vector":"1"}},{"base_weights":[-7.80335E-3,-1.1035385E0,4.1333575E0,-1.5191692E0,-2.6420256E-1,3.1509829E0,6.300942E0,-1.6246941E0,-1.1723759E0,-5.149912E-1,9.0730184E-1,2.5560684E0,3.9990609E0,5.537819E0,7.7651663E0,-1.6755729E0,-1.5162265E0,-1.2231144E0,-4.92057E-1,-6.51513E-1,-1.8003996E-1,5.586403E-1,1.2457324E0,2.0551627E0,2.9150069E0,3.6314175E0,2.2044782E-1,2.5226337E-1,2.965083E-1,3.625631E-1,4.3363366E-1,-8.922282E-2,-8.238297E-2,-7.611037E-2,-4.8461046E-2,-6.464779E-2,-5.0816514E-2,-2.9360367E-2,9.7830435E-3,-3.6120813E-2,-2.6917083E-2,-1.4431426E-2,-5.172802E-4,-3.3933357E-3,3.118052E-2,5.3922247E-2,6.9726825E-2,8.483233E-2,1.0972853E-1,1.3696828E-1,1.5687929E-1,8.2421295E-2,1.8283147E-1],"categories":[],"categories_nodes":[],"categories_segments":[],"categories_sizes":[],"default_left":[0,0,0,0,0,0,0,0,0,0,0,0,0,0,0,0,0,0,0,0,0,0,0,0,0,0,0,0,0,0,0,0,0,0,0,0,0,0,0,0,0,0,0,0,0,0,0,0,0,0,0,0,0],"id":18,"left_children":[1,3,5,7,9,11,13,15,17,19,21,23,25,27,29,31,33,35,37,39,41,43,45,47,49,51,-1,-1,-1,-1,-1,-1,-1,-1,-1,-1,-1,-1,-1,-1,-1,-1,-1,-1,-1,-1,-1,-1,-1,-1,-1,-1,-1],"loss_changes":[6.550505E4,3.9817402E3,6.4020117E3,2.7652734E2,1.1119995E3,1.0348555E3,9.8639453E2,2.8470703E1,6.076416E1,1.423357E2,7.7719604E1,2.117124E2,1.0490332E2,7.561328E1,5.420703E1,7.6484375E0,3.9492188E0,2.2024414E1,8.450064E0,1.7178345E1,1.6662619E1,1.3556938E1,6.145569E0,2.0279541E1,1.4922852E1,1.3931152E1,0E0,0E0,0E0,0E0,0E0,0E0,0E0,0E0,0E0,0E0,0E0,0E0,0E0,0E0,0E0,0E0,0E0,0E0,0E0,0E0,0E0,0E0,0E0,0E0,0E0,0E0,0E0],"parents":[2147483647,0,0,1,1,2,2,3,3,4,4,5,5,6,6,7,7,8,8,9,9,10,10,11,11,12,12,13,13,14,14,15,15,16,16,17,17,18,18,19,19,20,20,21,21,22,22,23,23,24,24,25,25],"right_children":[2,4,6,8,10,12,14,16,18,20,22,24,26,28,30,32,34,36,38,40,42,44,46,48,50,52,-1,-1,-1,-1,-1,-1,-1,-1,-1,-1,-1,-1,-1,-1,-1,-1,-1,-1,-1,-1,-1,-1,-1,-1,-1,-1,-1],"split_conditions":[1.379E1,5.4E0,2.61E1,3.37E0,9.15E0,2.066E1,2.21E1,2.68E0,4.3E0,6.86E0,1.139E1,1.734E1,2.33E1,2.881E1,3.809E1,2.29E0,1.0351956E0,4.39E0,5.23E0,6.16E0,5.36E0,5.87E0,1.242E1,1.027E1,1.355E1,8.44E-1,2.2044782E-1,2.5226337E-1,2.965083E-1,3.625631E-1,4.3363366E-1,-8.922282E-2,-8.238297E-2,-7.611037E-2,-4.8461046E-2,-6.464779E-2,-5.0816514E-2,-2.9360367E-2,9.7830435E-3,-3.6120813E-2,-2.6917083E-2,-1.4431426E-2,-5.172802E-4,-3.3933357E-3,3.118052E-2,5.3922247E-2,6.9726825E-2,8.483233E-2,1.0972853E-1,1.3696828E-1,1.5687929E-1,8.2421295E-2,1.8283147E-1],"split_indices":[0,0,0,0,0,0,10,0,9,0,0,0,0,0,0,0,13,0,11,0,10,10,0,10,10,4,0,0,0,0,0,0,0,0,0,0,0,0,0,0,0,0,0,0,0,0,0,0,0,0,0,0,0],"split_type":[0,0,0,0,0,0,0,0,0,0,0,0,0,0,0,0,0,0,0,0,0,0,0,0,0,0,0,0,0,0,0,0,0,0,0,0,0,0,0,0,0,0,0,0,0,0,0,0,0,0,0,0,0],"sum_hessian":[1.4433E4,1.1414E4,3.019E3,7.633E3,3.781E3,2.08E3,9.39E2,5.848E3,1.785E3,3.115E3,6.66E2,1.226E3,8.54E2,6.22E2,3.17E2,3.966E3,1.882E3,1.66E3,1.25E2,2.212E3,9.03E2,3.3E2,3.36E2,5.16E2,7.1E2,4.58E2,3.96E2,2.85E2,3.37E2,2.11E2,1.06E2,7.9E2,3.176E3,1.859E3,2.3E1,1.235E3,4.25E2,1.1E2,1.5E1,1.355E3,8.57E2,5.5E2,3.53E2,3.1E1,2.99E2,1.64E2,1.72E2,1.5E2,3.66E2,4.08E2,3.02E2,7E0,4.51E2],"tree_param":{"num_deleted":"0","num_feature":"14","num_nodes":"53","size_leaf_vector":"1"}},{"base_weights":[1.0658096E-2,-1.0564339E0,3.8907838E0,-1.485584E0,-3.2086113E-1,3.001417E0,6.0550623E0,-1.5719708E0,-1.280232E0,-5.628046E-1,6.914898E-1,2.289135E0,3.7386298E0,5.280103E0,7.346537E0,-1.6558874E0,-7.680941E-2,-1.3531526E0,-1.1387174E0,-6.833292E-1,-2.5867692E-1,3.5912657E-1,1.0220932E0,1.7540627E0,2.5623462E0,3.2303758E0,4.0331736E0,5.0155487E0,2.8743848E-1,3.3358344E-1,3.9895153E-1,-8.724202E-2,-8.11291E-2,-4.4662997E-2,-6.782662E-2,-4.733509E-2,-5.8809884E-2,-5.02355E-2,-3.2708906E-2,-1.1666252E-2,-5.0678845E-2,8.234299E-3,2.4756776E-2,6.34684E-2,3.550784E-2,7.149762E-2,9.4588615E-2,1.2935649E-1,4.7196373E-2,1.6390078E-1,9.506663E-2,1.91136E-1,2.258503E-1,2.266625E-1,2.623547E-1],"categories":[],"categories_nodes":[],"categories_segments":[],"categories_sizes":[],"default_left":[0,0,0,0,0,0,0,0,0,0,0,0,0,0,0,0,0,0,0,0,0,0,0,0,0,0,0,0,0,0,0,0,0,0,0,0,0,0,0,0,0,0,0,0,0,0,0,0,0,0,0,0,0,0,0],"id":19,"left_children":[1,3,5,7,9,11,13,15,17,19,21,23,25,27,29,31,-1,33,35,37,39,41,43,45,47,49,51,53,-1,-1,-1,-1,-1,-1,-1,-1,-1,-1,-1,-1,-1,-1,-1,-1,-1,-1,-1,-1,-1,-1,-1,-1,-1,-1,-1],"loss_changes":[5.9382305E4,3.5501104E3,5.9272227E3,1.2299512E2,1.016193E3,1.1400273E3,8.420703E2,1.1178711E1,1.9477783E1,1.2243713E2,8.740869E1,1.5706152E2,1.4161328E2,2.7113281E1,6.2503906E1,1.18652344E-1,0E0,3.3618164E-1,3.5654297E0,2.1465942E1,1.7874336E1,1.0495625E1,2.9539948E1,1.3059082E1,2.595752E1,1.6135254E1,4.288086E1,6.1435547E0,0E0,0E0,0E0,0E0,0E0,0E0,0E0,0E0,0E0,0E0,0E0,0E0,0E0,0E0,0E0,0E0,0E0,0E0,0E0,0E0,0E0,0E0,0E0,0E0,0E0,0E0,0E0],"parents":[2147483647,0,0,1,1,2,2,3,3,4,4,5,5,6,6,7,7,8,8,9,9,10,10,11,11,12,12,13,13,14,14,15,15,17,17,18,18,19,19,20,20,21,21,22,22,23,23,24,24,25,25,26,26,27,27],"right_children":[2,4,6,8,10,12,14,16,18,20,22,24,26,28,30,32,-1,34,36,38,40,42,44,46,48,50,52,54,-1,-1,-1,-1,-1,-1,-1,-1,-1,-1,-1,-1,-1,-1,-1,-1,-1,-1,-1,-1,-1,-1,-1,-1,-1,-1,-1],"split_conditions":[9.506E0,3.134E0,1.818E1,1.978E0,5.838E0,1.3738E1,2.21E1,1.594E0,2.462E0,4.568E0,7.44E0,1.134E1,1.497E1,2.048E1,2.523E1,1.346E0,-7.680941E-2,1.55E0,2.42E0,1.977E0,4.3478E2,6.522E0,9E0,1.005E1,4.2979E2,2.016E1,1.722E1,1.84E1,2.8743848E-1,3.3358344E-1,3.9895153E-1,-8.724202E-2,-8.11291E-2,-4.4662997E-2,-6.782662E-2,-4.733509E-2,-5.8809884E-2,-5.02355E-2,-3.2708906E-2,-1.1666252E-2,-5.0678845E-2,8.234299E-3,2.4756776E-2,6.34684E-2,3.550784E-2,7.149762E-2,9.4588615E-2,1.2935649E-1,4.7196373E-2,1.6390078E-1,9.506663E-2,1.91136E-1,2.258503E-1,2.266625E-1,2.623547E-1],"split_indices":[12,12,9,12,12,12,10,12,12,12,9,9,9,9,10,12,0,9,10,4,1,12,5,12,1,10,10,11,0,0,0,0,0,0,0,0,0,0,0,0,0,0,0,0,0,0,0,0,0,0,0,0,0,0,0],"split_type":[0,0,0,0,0,0,0,0,0,0,0,0,0,0,0,0,0,0,0,0,0,0,0,0,0,0,0,0,0,0,0,0,0,0,0,0,0,0,0,0,0,0,0,0,0,0,0,0,0,0,0,0,0,0,0],"sum_hessian":[1.4339E4,1.1247E4,3.092E3,7.102E3,4.145E3,2.194E3,8.98E2,4.992E3,2.11E3,3.346E3,7.99E2,1.119E3,1.075E3,5.66E2,3.32E2,1.472E3,3.52E3,1.384E3,7.26E2,2.395E3,9.51E2,4E2,3.99E2,3.82E2,7.37E2,4.01E2,6.74E2,3.73E2,1.93E2,1.69E2,1.63E2,3.8E2,1.092E3,1.3E1,1.371E3,1.25E2,6.01E2,1.95E2,2.2E3,9.22E2,2.9E1,1.66E2,2.34E2,2.2E2,1.79E2,1.19E2,2.63E2,7.25E2,1.2E1,3.85E2,1.6E1,4.79E2,1.95E2,1.31E2,2.42E2],"tree_param":{"num_deleted":"0","num_feature":"14","num_nodes":"55","size_leaf_vector":"1"}},{"base_weights":[-8.476699E-3,-1.0014333E0,3.7579086E0,-1.391694E0,-2.634146E-1,2.8024025E0,5.6371503E0,-1.4845438E0,-1.1512588E0,-5.162946E-1,6.6609275E-1,2.3016334E0,3.5767095E0,4.939701E0,7.056277E0,-1.5621299E0,-1.444325E0,-1.2150202E0,-9.0642387E-1,-6.2196845E-1,-2.3309253E-1,3.0930743E-1,1.0588696E0,1.9098084E0,2.6877472E0,3.2935135E0,1.967651E-1,2.2062972E-1,2.626684E-1,3.2726988E-1,3.9984816E-1,-8.246368E-2,-7.65925E-2,-7.30252E-2,-6.774736E-2,-6.116357E-2,-1.7317044E-2,-4.6672728E-2,-3.0477678E-2,-3.3320364E-2,-2.3939777E-2,-1.7012477E-2,-7.037981E-3,-6.360964E-2,1.6589746E-2,4.3577332E-2,5.998469E-2,7.781303E-2,1.01644516E-1,1.2399053E-1,1.4588964E-1,1.1317319E-1,1.6787715E-1],"categories":[],"categories_nodes":[],"categories_segments":[],"categories_sizes":[],"default_left":[0,0,0,0,0,0,0,0,0,0,0,0,0,0,0,0,0,0,0,0,0,0,0,0,0,0,0,0,0,0,0,0,0,0,0,0,0,0,0,0,0,0,0,0,0,0,0,0,0,0,0,0,0],"id":20,"left_children":[1,3,5,7,9,11,13,15,17,19,21,23,25,27,29,31,33,35,37,39,41,43,45,47,49,51,-1,-1,-1,-1,-1,-1,-1,-1,-1,-1,-1,-1,-1,-1,-1,-1,-1,-1,-1,-1,-1,-1,-1,-1,-1,-1,-1],"loss_changes":[5.3498688E4,3.2599756E3,5.3353516E3,1.6273828E2,9.213391E2,7.559756E2,9.419414E2,1.3267578E1,3.065503E1,9.197284E1,1.1701358E2,1.7498193E2,5.93125E1,7.74082E1,7.8875E1,9.692383E-1,2.1425781E0,1.11015625E1,2.625183E0,1.3789185E1,8.234268E0,1.6334652E1,8.943909E0,2.1559326E1,1.8062988E1,1.7785156E1,0E0,0E0,0E0,0E0,0E0,0E0,0E0,0E0,0E0,0E0,0E0,0E0,0E0,0E0,0E0,0E0,0E0,0E0,0E0,0E0,0E0,0E0,0E0,0E0,0E0,0E0,0E0],"parents":[2147483647,0,0,1,1,2,2,3,3,4,4,5,5,6,6,7,7,8,8,9,9,10,10,11,11,12,12,13,13,14,14,15,15,16,16,17,17,18,18,19,19,20,20,21,21,22,22,23,23,24,24,25,25],"right_children":[2,4,6,8,10,12,14,16,18,20,22,24,26,28,30,32,34,36,38,40,42,44,46,48,50,52,-1,-1,-1,-1,-1,-1,-1,-1,-1,-1,-1,-1,-1,-1,-1,-1,-1,-1,-1,-1,-1,-1,-1,-1,-1,-1,-1],"split_conditions":[1.379E1,3.536E0,2.573E1,3.1E0,8.29E0,2.066E1,2.21E1,2.54E0,4.26E0,6.71E0,1.1E1,1.786E1,2.33E1,2.838E1,3.809E1,1.36E0,2.8E0,1.0351956E0,5.78E0,4.328E0,7.28E0,4.688E0,1.208E1,1.027E1,1.355E1,1.0059821E-1,1.967651E-1,2.2062972E-1,2.626684E-1,3.2726988E-1,3.9984816E-1,-8.246368E-2,-7.65925E-2,-7.30252E-2,-6.774736E-2,-6.116357E-2,-1.7317044E-2,-4.6672728E-2,-3.0477678E-2,-3.3320364E-2,-2.3939777E-2,-1.7012477E-2,-7.037981E-3,-6.360964E-2,1.6589746E-2,4.3577332E-2,5.998469E-2,7.781303E-2,1.01644516E-1,1.2399053E-1,1.4588964E-1,1.1317319E-1,1.6787715E-1],"split_indices":[0,12,0,0,0,0,10,0,0,0,0,0,0,0,0,12,0,13,0,12,0,12,0,10,10,13,0,0,0,0,0,0,0,0,0,0,0,0,0,0,0,0,0,0,0,0,0,0,0,0,0,0,0],"split_type":[0,0,0,0,0,0,0,0,0,0,0,0,0,0,0,0,0,0,0,0,0,0,0,0,0,0,0,0,0,0,0,0,0,0,0,0,0,0,0,0,0,0,0,0,0,0,0,0,0,0,0,0,0],"sum_hessian":[1.4302E4,1.1319E4,2.983E3,7.403E3,3.916E3,1.98E3,1.003E3,5.335E3,2.068E3,3.079E3,8.37E2,1.206E3,7.74E2,6.77E2,3.26E2,1.802E3,3.533E3,1.636E3,4.32E2,2.241E3,8.38E2,4.4E2,3.97E2,6.03E2,6.03E2,4.41E2,3.33E2,2.61E2,4.16E2,2.19E2,1.07E2,4.44E2,1.358E3,2.972E3,5.61E2,1.62E3,1.6E1,3.93E2,3.9E1,1.706E3,5.35E2,3.86E2,4.52E2,5E0,4.35E2,1.75E2,2.22E2,1.61E2,4.42E2,3.26E2,2.77E2,2.9E1,4.12E2],"tree_param":{"num_deleted":"0","num_feature":"14","num_nodes":"53","size_leaf_vector":"1"}},{"base_weights":[-2.0692938E-3,-9.608029E-1,3.5195577E0,-1.3163967E0,-2.6111138E-1,2.595279E0,5.249735E0,-1.3985909E0,-1.0512223E0,-4.5882452E-1,6.794089E-1,2.1051648E0,3.2924504E0,4.6437078E0,6.6773415E0,-1.4625897E0,-1.3411615E0,-1.1567019E0,-9.107505E-1,-5.825251E-1,-2.1689308E-1,4.4786274E-1,9.909803E-1,1.5848143E0,2.3523602E0,2.8871312E0,1.7699201E-1,4.2799096E0,2.5769016E-1,3.0746874E-1,3.775555E-1,-7.7388756E-2,-7.184718E-2,-6.853431E-2,-6.294126E-2,-5.8551665E-2,-4.4978227E-2,-4.725195E-2,-2.8172398E-2,-3.1408798E-2,-2.4258053E-2,-1.4459287E-2,-4.0237806E-4,3.127204E-2,1.573766E-2,4.795892E-2,9.762468E-2,7.0085265E-2,9.029884E-2,1.10252656E-1,1.3089292E-1,1.4738497E-1,6.540906E-2,2.0206968E-1,2.2794981E-1],"categories":[],"categories_nodes":[],"categories_segments":[],"categories_sizes":[],"default_left":[0,0,0,0,0,0,0,0,0,0,0,0,0,0,0,0,0,0,0,0,0,0,0,0,0,0,0,0,0,0,0,0,0,0,0,0,0,0,0,0,0,0,0,0,0,0,0,0,0,0,0,0,0,0,0],"id":21,"left_children":[1,3,5,7,9,11,13,15,17,19,21,23,25,27,29,31,33,35,37,39,41,43,45,47,49,51,-1,53,-1,-1,-1,-1,-1,-1,-1,-1,-1,-1,-1,-1,-1,-1,-1,-1,-1,-1,-1,-1,-1,-1,-1,-1,-1,-1,-1],"loss_changes":[4.8257496E4,2.7946953E3,4.8706094E3,1.6014062E2,7.0476544E2,6.7179395E2,8.735957E2,1.7939453E1,2.4623535E1,9.349707E1,4.6840546E1,1.4573926E2,6.7043945E1,1.0637109E2,7.49707E1,2.4980469E0,4.7353516E0,2.121582E0,8.317139E0,8.745789E0,1.6023026E1,8.698715E0,5.7373657E0,1.1733398E1,2.2413574E1,2.4770752E1,0E0,2.1513672E0,0E0,0E0,0E0,0E0,0E0,0E0,0E0,0E0,0E0,0E0,0E0,0E0,0E0,0E0,0E0,0E0,0E0,0E0,0E0,0E0,0E0,0E0,0E0,0E0,0E0,0E0,0E0],"parents":[2147483647,0,0,1,1,2,2,3,3,4,4,5,5,6,6,7,7,8,8,9,9,10,10,11,11,12,12,13,13,14,14,15,15,16,16,17,17,18,18,19,19,20,20,21,21,22,22,23,23,24,24,25,25,27,27],"right_children":[2,4,6,8,10,12,14,16,18,20,22,24,26,28,30,32,34,36,38,40,42,44,46,48,50,52,-1,54,-1,-1,-1,-1,-1,-1,-1,-1,-1,-1,-1,-1,-1,-1,-1,-1,-1,-1,-1,-1,-1,-1,-1,-1,-1,-1,-1],"split_conditions":[1.339E1,3.64E0,2.535E1,3.31E0,8.83E0,2.007E1,2.21E1,2.6E0,2.672E0,6.58E0,1.139E1,1.636E1,2.174E1,2.93E1,3.809E1,1.41E0,1.922E0,4.19E0,5.66E0,4.198E0,7.63E0,4.2012E2,4.2979E2,1.514E1,1.355E1,4.2256E2,1.7699201E-1,1.84E1,2.5769016E-1,3.0746874E-1,3.775555E-1,-7.7388756E-2,-7.184718E-2,-6.853431E-2,-6.294126E-2,-5.8551665E-2,-4.4978227E-2,-4.725195E-2,-2.8172398E-2,-3.1408798E-2,-2.4258053E-2,-1.4459287E-2,-4.0237806E-4,3.127204E-2,1.573766E-2,4.795892E-2,9.762468E-2,7.0085265E-2,9.029884E-2,1.10252656E-1,1.3089292E-1,1.4738497E-1,6.540906E-2,2.0206968E-1,2.2794981E-1],"split_indices":[0,12,0,0,0,0,10,0,12,0,0,0,0,0,0,12,12,0,0,12,0,1,1,0,10,1,0,11,0,0,0,0,0,0,0,0,0,0,0,0,0,0,0,0,0,0,0,0,0,0,0,0,0,0,0],"split_type":[0,0,0,0,0,0,0,0,0,0,0,0,0,0,0,0,0,0,0,0,0,0,0,0,0,0,0,0,0,0,0,0,0,0,0,0,0,0,0,0,0,0,0,0,0,0,0,0,0,0,0,0,0,0,0],"sum_hessian":[1.429E4,1.1233E4,3.057E3,7.447E3,3.786E3,1.995E3,1.062E3,5.68E3,1.767E3,3.129E3,6.57E2,1.175E3,8.2E2,7.5E2,3.12E2,2.669E3,3.011E3,1.003E3,7.64E2,2.069E3,1.06E3,3.79E2,2.78E2,3.82E2,7.93E2,3.18E2,5.02E2,4.46E2,3.04E2,2.02E2,1.1E2,5.97E2,2.072E3,2.199E3,8.12E2,9.45E2,5.8E1,6.93E2,7.1E1,1.403E3,6.66E2,7.87E2,2.73E2,1.6E2,2.19E2,2.72E2,6E0,2.15E2,1.67E2,5.19E2,2.74E2,3.05E2,1.3E1,2.53E2,1.93E2],"tree_param":{"num_deleted":"0","num_feature":"14","num_nodes":"55","size_leaf_vector":"1"}},{"base_weights":[-8.179388E-3,-9.19919E-1,3.270476E0,-1.2521452E0,-2.6214278E-1,2.3821182E0,4.8587227E0,-1.3215292E0,-9.676938E-1,-4.7320727E-1,4.945339E-1,1.7856508E0,2.870142E0,4.190991E0,6.1216984E0,-1.3652908E0,-1.21822E0,-1.0285668E0,-8.0440843E-1,-5.61666E-1,-2.9295382E-1,1.9583039E-1,7.7108383E-1,1.3961153E0,2.0233788E0,2.6066325E0,3.2481234E0,3.8326607E0,2.2475925E-1,2.7726912E-1,3.4118047E-1,-7.358709E-2,-6.7208186E-2,-6.1047316E-2,-3.792787E-2,-2.937823E-2,-5.1810563E-2,-4.159736E-2,-1.9913511E-2,-3.174415E-2,-2.620456E-2,-1.33030135E-2,-4.420339E-2,2.2867579E-2,6.419292E-3,5.153674E-2,3.139837E-2,1.7367888E-2,7.096811E-2,1.041353E-1,6.442146E-2,1.3209052E-1,7.227653E-2,1.2522753E-1,1.6445951E-1,8.637468E-2,1.9373791E-1],"categories":[],"categories_nodes":[],"categories_segments":[],"categories_sizes":[],"default_left":[0,0,0,0,0,0,0,0,0,0,0,0,0,0,0,0,0,0,0,0,0,0,0,0,0,0,0,0,0,0,0,0,0,0,0,0,0,0,0,0,0,0,0,0,0,0,0,0,0,0,0,0,0,0,0,0,0],"id":22,"left_children":[1,3,5,7,9,11,13,15,17,19,21,23,25,27,29,31,33,35,37,39,41,43,45,47,49,51,53,55,-1,-1,-1,-1,-1,-1,-1,-1,-1,-1,-1,-1,-1,-1,-1,-1,-1,-1,-1,-1,-1,-1,-1,-1,-1,-1,-1,-1,-1],"loss_changes":[4.2666027E4,2.4399463E3,4.364285E3,1.4451562E2,5.991746E2,5.728926E2,8.9971875E2,2.4452148E1,1.3275879E1,4.651184E1,6.7386856E1,7.924463E1,9.631445E1,5.4E1,9.756641E1,6.4208984E0,8.508301E-1,2.6551514E0,4.0159607E0,4.908203E0,1.5043571E1,6.887825E0,1.480365E1,7.708191E0,2.0239746E1,2.092334E1,1.1855469E0,2.066748E1,0E0,0E0,0E0,0E0,0E0,0E0,0E0,0E0,0E0,0E0,0E0,0E0,0E0,0E0,0E0,0E0,0E0,0E0,0E0,0E0,0E0,0E0,0E0,0E0,0E0,0E0,0E0,0E0,0E0],"parents":[2147483647,0,0,1,1,2,2,3,3,4,4,5,5,6,6,7,7,8,8,9,9,10,10,11,11,12,12,13,13,14,14,15,15,16,16,17,17,18,18,19,19,20,20,21,21,22,22,23,23,24,24,25,25,26,26,27,27],"right_children":[2,4,6,8,10,12,14,16,18,20,22,24,26,28,30,32,34,36,38,40,42,44,46,48,50,52,54,56,-1,-1,-1,-1,-1,-1,-1,-1,-1,-1,-1,-1,-1,-1,-1,-1,-1,-1,-1,-1,-1,-1,-1,-1,-1,-1,-1,-1,-1],"split_conditions":[9.198E0,3.64E0,1.6904E1,2.29E0,5.494E0,1.292E1,2.1284E1,1.776E0,3.032E0,4.488E0,6.942E0,1.0858E1,1.4962E1,1.886E1,2.5258E1,1.43E0,6.3334036E-1,1.94E0,4.3732E2,3.992E0,4.3478E2,4E0,6E0,8.34E0,1.1E1,1.1E1,1.44E1,1.521E1,2.2475925E-1,2.7726912E-1,3.4118047E-1,-7.358709E-2,-6.7208186E-2,-6.1047316E-2,-3.792787E-2,-2.937823E-2,-5.1810563E-2,-4.159736E-2,-1.9913511E-2,-3.174415E-2,-2.620456E-2,-1.33030135E-2,-4.420339E-2,2.2867579E-2,6.419292E-3,5.153674E-2,3.139837E-2,1.7367888E-2,7.096811E-2,1.041353E-1,6.442146E-2,1.3209052E-1,7.227653E-2,1.2522753E-1,1.6445951E-1,8.637468E-2,1.9373791E-1],"split_indices":[12,12,12,12,12,12,12,12,12,12,12,12,12,9,12,12,13,9,1,12,1,5,5,9,5,5,9,9,0,0,0,0,0,0,0,0,0,0,0,0,0,0,0,0,0,0,0,0,0,0,0,0,0,0,0,0,0],"split_type":[0,0,0,0,0,0,0,0,0,0,0,0,0,0,0,0,0,0,0,0,0,0,0,0,0,0,0,0,0,0,0,0,0,0,0,0,0,0,0,0,0,0,0,0,0,0,0,0,0,0,0,0,0,0,0,0,0],"sum_hessian":[1.427E4,1.1166E4,3.104E3,7.418E3,3.748E3,1.993E3,1.111E3,5.959E3,1.459E3,2.931E3,8.17E2,9E2,1.093E3,7.31E2,3.8E2,4.173E3,1.786E3,1.057E3,4.02E2,1.964E3,9.67E2,3.94E2,4.23E2,3.45E2,5.55E2,6.51E2,4.42E2,3.45E2,3.86E2,2.16E2,1.64E2,6.74E2,3.499E3,1.773E3,1.3E1,2E1,1.037E3,3.75E2,2.7E1,6.58E2,1.306E3,9.27E2,4E1,7.9E1,3.15E2,1.47E2,2.76E2,8E0,3.37E2,5.11E2,4.4E1,6.3E2,2.1E1,2.8E1,4.14E2,8E0,3.37E2],"tree_param":{"num_deleted":"0","num_feature":"14","num_nodes":"57","size_leaf_vector":"1"}},{"base_weights":[-4.9773045E-3,-8.568148E-1,3.1895921E0,-1.1821853E0,-2.101521E-1,2.3009992E0,4.624834E0,-1.2519852E0,-8.840141E-1,-4.0027314E-1,6.85994E-1,1.7678311E0,2.7842739E0,4.02397E0,5.90891E0,-1.2851024E0,-1.125894E0,-9.261044E-1,-3.8664868E-1,-5.0946015E-1,-1.3362454E-1,3.863819E-1,9.6767825E-1,1.4207982E0,1.970567E0,2.4511752E0,3.0391698E0,1.8350296E-1,2.1800125E-1,2.6299903E-1,3.3335128E-1,-6.833775E-2,-6.298522E-2,-5.6417406E-2,-1.9206038E-2,-5.0150495E-2,-4.161988E-2,-2.3809638E-2,1.1568053E-2,-2.4484202E-2,-3.9960302E-2,-1.0744645E-2,2.660481E-3,-5.625222E-2,2.1007655E-2,4.7103535E-2,9.598272E-2,6.708172E-2,8.799441E-2,9.940817E-2,3.1895388E-2,9.1417156E-2,1.2462684E-1,1.3299541E-1,1.5940993E-1],"categories":[],"categories_nodes":[],"categories_segments":[],"categories_sizes":[],"default_left":[0,0,0,0,0,0,0,0,0,0,0,0,0,0,0,0,0,0,0,0,0,0,0,0,0,0,0,0,0,0,0,0,0,0,0,0,0,0,0,0,0,0,0,0,0,0,0,0,0,0,0,0,0,0,0],"id":23,"left_children":[1,3,5,7,9,11,13,15,17,19,21,23,25,27,29,31,33,35,37,39,41,43,45,47,49,51,53,-1,-1,-1,-1,-1,-1,-1,-1,-1,-1,-1,-1,-1,-1,-1,-1,-1,-1,-1,-1,-1,-1,-1,-1,-1,-1,-1,-1],"loss_changes":[3.9044566E4,2.3829893E3,3.8362227E3,1.551709E2,6.4673413E2,4.7406738E2,8.5432227E2,2.33125E1,2.9493164E1,9.1041046E1,5.5520325E1,5.859326E1,7.18208E1,7.001465E1,1.2671875E2,7.4189453E0,1.6827393E0,8.270996E0,6.501589E0,1.2136536E1,1.3857098E1,1.727238E1,5.612335E0,5.4375E0,1.1217773E1,4.2802734E0,1.8225098E1,0E0,0E0,0E0,0E0,0E0,0E0,0E0,0E0,0E0,0E0,0E0,0E0,0E0,0E0,0E0,0E0,0E0,0E0,0E0,0E0,0E0,0E0,0E0,0E0,0E0,0E0,0E0,0E0],"parents":[2147483647,0,0,1,1,2,2,3,3,4,4,5,5,6,6,7,7,8,8,9,9,10,10,11,11,12,12,13,13,14,14,15,15,16,16,17,17,18,18,19,19,20,20,21,21,22,22,23,23,24,24,25,25,26,26],"right_children":[2,4,6,8,10,12,14,16,18,20,22,24,26,28,30,32,34,36,38,40,42,44,46,48,50,52,54,-1,-1,-1,-1,-1,-1,-1,-1,-1,-1,-1,-1,-1,-1,-1,-1,-1,-1,-1,-1,-1,-1,-1,-1,-1,-1,-1,-1],"split_conditions":[1.379E1,5.4E0,2.448E1,2.314E0,9.15E0,1.917E1,3.167E1,2.87E0,4.4E0,6.86E0,1.139E1,1.636E1,1.44E1,2.775E1,3.666E1,2.42E0,6.653345E-1,4.09E0,4.852E0,2.5315E2,5.494E0,4.688E0,2.4807E2,1.251E1,1.5962E1,1.0059821E-1,2.128E1,1.8350296E-1,2.1800125E-1,2.6299903E-1,3.3335128E-1,-6.833775E-2,-6.298522E-2,-5.6417406E-2,-1.9206038E-2,-5.0150495E-2,-4.161988E-2,-2.3809638E-2,1.1568053E-2,-2.4484202E-2,-3.9960302E-2,-1.0744645E-2,2.660481E-3,-5.625222E-2,2.1007655E-2,4.7103535E-2,9.598272E-2,6.708172E-2,8.799441E-2,9.940817E-2,3.1895388E-2,9.1417156E-2,1.2462684E-1,1.3299541E-1,1.5940993E-1],"split_indices":[0,0,0,12,0,0,0,0,9,0,0,0,10,0,0,0,13,0,12,2,12,12,2,10,12,13,0,0,0,0,0,0,0,0,0,0,0,0,0,0,0,0,0,0,0,0,0,0,0,0,0,0,0,0,0],"split_type":[0,0,0,0,0,0,0,0,0,0,0,0,0,0,0,0,0,0,0,0,0,0,0,0,0,0,0,0,0,0,0,0,0,0,0,0,0,0,0,0,0,0,0,0,0,0,0,0,0,0,0,0,0,0,0],"sum_hessian":[1.4345E4,1.1326E4,3.019E3,7.534E3,3.792E3,1.867E3,1.152E3,6.101E3,1.433E3,3.129E3,6.63E2,8.91E2,9.76E2,7.89E2,3.63E2,4.821E3,1.28E3,1.32E3,1.13E2,2.219E3,9.1E2,3.23E2,3.4E2,3.33E2,5.58E2,4.3E2,5.46E2,3.93E2,3.96E2,2.02E2,1.61E2,1.125E3,3.696E3,1.275E3,5E0,7.17E2,6.03E2,9.9E1,1.4E1,2.081E3,1.38E2,6.34E2,2.76E2,6E0,3.17E2,3.34E2,6E0,2.76E2,5.7E1,5.5E2,8E0,3.1E1,3.99E2,1.62E2,3.84E2],"tree_param":{"num_deleted":"0","num_feature":"14","num_nodes":"55","size_leaf_vector":"1"}},{"base_weights":[1.2652383E-2,-8.0805916E-1,3.057474E0,-1.1355057E0,-2.239317E-1,2.154166E0,4.347187E0,-1.2004932E0,-9.1933095E-1,-4.0111023E-1,6.5801674E-1,1.7000067E0,2.6022017E0,3.7873194E0,5.538728E0,-1.255604E0,-1.1518534E0,-9.6926105E-1,-7.303784E-1,-5.072226E-1,-1.5445295E-1,4.0299216E-1,9.035137E-1,1.3638719E0,1.8979642E0,2.3313584E0,2.8661537E0,1.7267433E-1,2.076823E-1,2.5190863E-1,3.0756846E-1,-6.684211E-2,-6.170408E-2,-5.7704028E-2,-1.8000772E-2,-5.1175106E-2,-4.4261526E-2,-2.1045085E-2,-3.9481573E-2,-2.9361451E-2,-2.1409418E-2,-1.1634683E-2,3.8158876E-5,2.1293247E-2,-4.2649973E-2,4.3476302E-2,6.7672774E-2,5.8547128E-2,7.280544E-2,8.052502E-2,9.897693E-2,7.7423014E-2,1.18398026E-1,1.441484E-1,5.2874893E-2],"categories":[],"categories_nodes":[],"categories_segments":[],"categories_sizes":[],"default_left":[0,0,0,0,0,0,0,0,0,0,0,0,0,0,0,0,0,0,0,0,0,0,0,0,0,0,0,0,0,0,0,0,0,0,0,0,0,0,0,0,0,0,0,0,0,0,0,0,0,0,0,0,0,0,0],"id":24,"left_children":[1,3,5,7,9,11,13,15,17,19,21,23,25,27,29,31,33,35,37,39,41,43,45,47,49,51,53,-1,-1,-1,-1,-1,-1,-1,-1,-1,-1,-1,-1,-1,-1,-1,-1,-1,-1,-1,-1,-1,-1,-1,-1,-1,-1,-1,-1],"loss_changes":[3.5774496E4,2.1564785E3,3.526996E3,9.9853516E1,6.336489E2,3.5769434E2,8.0275195E2,1.2709473E1,1.4754883E1,8.8230774E1,4.1933228E1,5.55708E1,5.421045E1,8.3103516E1,7.510254E1,2.0461426E0,4.607666E0,4.6643066E0,6.0387726E0,1.45425415E1,1.2357008E1,1.0183144E1,3.5029602E0,3.430603E0,8.314697E0,7.4379883E0,9.066162E0,0E0,0E0,0E0,0E0,0E0,0E0,0E0,0E0,0E0,0E0,0E0,0E0,0E0,0E0,0E0,0E0,0E0,0E0,0E0,0E0,0E0,0E0,0E0,0E0,0E0,0E0,0E0,0E0],"parents":[2147483647,0,0,1,1,2,2,3,3,4,4,5,5,6,6,7,7,8,8,9,9,10,10,11,11,12,12,13,13,14,14,15,15,16,16,17,17,18,18,19,19,20,20,21,21,22,22,23,23,24,24,25,25,26,26],"right_children":[2,4,6,8,10,12,14,16,18,20,22,24,26,28,30,32,34,36,38,40,42,44,46,48,50,52,54,-1,-1,-1,-1,-1,-1,-1,-1,-1,-1,-1,-1,-1,-1,-1,-1,-1,-1,-1,-1,-1,-1,-1,-1,-1,-1,-1,-1],"split_conditions":[1.379E1,3.352E0,2.413E1,3.27E0,9.15E0,1.917E1,3.167E1,1.684E0,4.26E0,6.71E0,1.139E1,1.636E1,2.128E1,2.775E1,3.666E1,2.21E0,3.37E0,2.45E0,2.7E0,5.91E0,7.63E0,4.2994E2,4.2816E2,1.472E1,1.137E1,2.2858E2,4E0,1.7267433E-1,2.076823E-1,2.5190863E-1,3.0756846E-1,-6.684211E-2,-6.170408E-2,-5.7704028E-2,-1.8000772E-2,-5.1175106E-2,-4.4261526E-2,-2.1045085E-2,-3.9481573E-2,-2.9361451E-2,-2.1409418E-2,-1.1634683E-2,3.8158876E-5,2.1293247E-2,-4.2649973E-2,4.3476302E-2,6.7672774E-2,5.8547128E-2,7.280544E-2,8.052502E-2,9.897693E-2,7.7423014E-2,1.18398026E-1,1.441484E-1,5.2874893E-2],"split_indices":[0,12,0,0,0,0,0,12,0,0,0,0,0,0,0,0,9,9,9,0,0,1,1,0,11,2,6,0,0,0,0,0,0,0,0,0,0,0,0,0,0,0,0,0,0,0,0,0,0,0,0,0,0,0,0],"split_type":[0,0,0,0,0,0,0,0,0,0,0,0,0,0,0,0,0,0,0,0,0,0,0,0,0,0,0,0,0,0,0,0,0,0,0,0,0,0,0,0,0,0,0,0,0,0,0,0,0,0,0,0,0,0,0],"sum_hessian":[1.4313E4,1.1275E4,3.038E3,7.224E3,4.051E3,1.789E3,1.249E3,5.549E3,1.675E3,3.374E3,6.77E2,8.92E2,8.97E2,8.54E2,3.95E2,2.584E3,2.965E3,1.32E3,3.55E2,2.358E3,1.016E3,3.34E2,3.43E2,3.35E2,5.57E2,4.5E2,4.47E2,4.55E2,3.99E2,2.25E2,1.7E2,5.22E2,2.062E3,2.956E3,9E0,7.92E2,5.28E2,5.9E1,2.96E2,1.167E3,1.191E3,6.75E2,3.41E2,3.29E2,5E0,3.23E2,2E1,1.15E2,2.2E2,1.3E2,4.27E2,2.3E1,4.27E2,4.42E2,5E0],"tree_param":{"num_deleted":"0","num_feature":"14","num_nodes":"55","size_leaf_vector":"1"}},{"base_weights":[1.2384924E-2,-7.796684E-1,2.8744237E0,-1.0762588E0,-2.1152613E-1,2.0593212E0,4.158395E0,-1.1297984E0,-8.190228E-1,-3.9509425E-1,5.2280086E-1,1.5527837E0,2.4561613E0,3.6575143E0,5.4417377E0,-1.168903E0,-1.0388018E0,-8.9559853E-1,-7.1858394E-1,-4.8781583E-1,-2.042366E-1,2.7262846E-1,7.6330215E-1,1.2345537E0,1.7115728E0,2.1745355E0,2.672375E0,3.3034706E0,3.9879582E0,5.4958005E0,9.927133E-2,-6.317147E-2,-5.7601776E-2,-3.3698235E-2,-5.2122552E-2,-4.5146402E-2,-2.0679744E-2,-3.7218906E-2,-1.705966E-2,-3.8777806E-2,-2.3522325E-2,-9.206513E-3,-3.819355E-2,2.354749E-2,9.505092E-3,4.9319282E-2,2.5249695E-2,2.9521943E-3,6.276329E-2,8.881559E-2,4.7281202E-2,1.1159203E-1,8.738997E-2,3.2203373E-2,1.34397E-1,1.6677718E-1,5.650338E-2,1.2700917E-1,2.0097318E-1,2.4983652E-1,2.962607E-1],"categories":[],"categories_nodes":[],"categories_segments":[],"categories_sizes":[],"default_left":[0,0,0,0,0,0,0,0,0,0,0,0,0,0,0,0,0,0,0,0,0,0,0,0,0,0,0,0,0,0,0,0,0,0,0,0,0,0,0,0,0,0,0,0,0,0,0,0,0,0,0,0,0,0,0,0,0,0,0,0,0],"id":25,"left_children":[1,3,5,7,9,11,13,15,17,19,21,23,25,27,29,31,33,35,37,39,41,43,45,47,49,51,53,55,57,59,-1,-1,-1,-1,-1,-1,-1,-1,-1,-1,-1,-1,-1,-1,-1,-1,-1,-1,-1,-1,-1,-1,-1,-1,-1,-1,-1,-1,-1,-1,-1],"loss_changes":[3.2425518E4,1.8875103E3,3.232041E3,9.99834E1,5.185447E2,3.7610498E2,7.431133E2,1.984375E1,8.829346E0,5.429425E1,4.5986176E1,3.920117E1,5.598047E1,8.196289E1,4.6137695E1,4.5874023E0,1.4003906E0,1.9711304E0,5.055786E0,9.795776E0,1.1136875E1,6.0769024E0,2.1812729E1,6.8155823E0,2.5025879E1,5.630127E0,1.6171875E1,2.421582E1,4.8691406E0,2.5989258E1,0E0,0E0,0E0,0E0,0E0,0E0,0E0,0E0,0E0,0E0,0E0,0E0,0E0,0E0,0E0,0E0,0E0,0E0,0E0,0E0,0E0,0E0,0E0,0E0,0E0,0E0,0E0,0E0,0E0,0E0,0E0],"parents":[2147483647,0,0,1,1,2,2,3,3,4,4,5,5,6,6,7,7,8,8,9,9,10,10,11,11,12,12,13,13,14,14,15,15,16,16,17,17,18,18,19,19,20,20,21,21,22,22,23,23,24,24,25,25,26,26,27,27,28,28,29,29],"right_children":[2,4,6,8,10,12,14,16,18,20,22,24,26,28,30,32,34,36,38,40,42,44,46,48,50,52,54,56,58,60,-1,-1,-1,-1,-1,-1,-1,-1,-1,-1,-1,-1,-1,-1,-1,-1,-1,-1,-1,-1,-1,-1,-1,-1,-1,-1,-1,-1,-1,-1,-1],"split_conditions":[9.506E0,3.536E0,1.678E1,2.314E0,5.838E0,1.292E1,2.21E1,1.782E0,2.81E0,4.526E0,7.44E0,1.0858E1,1.44E1,1.886E1,9.94E-1,1.41E0,1.55E0,1.0351956E0,4.44E0,1.977E0,2.5103E2,9E0,9E0,8.34E0,1.1E1,3E0,1.134E1,2.419E2,1.374E1,2.5258E1,9.927133E-2,-6.317147E-2,-5.7601776E-2,-3.3698235E-2,-5.2122552E-2,-4.5146402E-2,-2.0679744E-2,-3.7218906E-2,-1.705966E-2,-3.8777806E-2,-2.3522325E-2,-9.206513E-3,-3.819355E-2,2.354749E-2,9.505092E-3,4.9319282E-2,2.5249695E-2,2.9521943E-3,6.276329E-2,8.881559E-2,4.7281202E-2,1.1159203E-1,8.738997E-2,3.2203373E-2,1.34397E-1,1.6677718E-1,5.650338E-2,1.2700917E-1,2.0097318E-1,2.4983652E-1,2.962607E-1],"split_indices":[12,12,9,12,12,12,10,12,12,12,9,12,10,10,4,12,9,13,10,4,2,5,5,9,5,6,9,2,11,12,0,0,0,0,0,0,0,0,0,0,0,0,0,0,0,0,0,0,0,0,0,0,0,0,0,0,0,0,0,0,0],"split_type":[0,0,0,0,0,0,0,0,0,0,0,0,0,0,0,0,0,0,0,0,0,0,0,0,0,0,0,0,0,0,0,0,0,0,0,0,0,0,0,0,0,0,0,0,0,0,0,0,0,0,0,0,0,0,0,0,0,0,0,0,0],"sum_hessian":[1.4301E4,1.1202E4,3.099E3,7.359E3,3.843E3,1.898E3,1.201E3,6.087E3,1.272E3,3.075E3,7.68E2,8.37E2,1.061E3,8.68E2,3.33E2,4.245E3,1.842E3,7.15E2,5.57E2,2.068E3,1.007E3,3.78E2,3.9E2,2.83E2,5.54E2,4.68E2,5.93E2,4.27E2,4.41E2,3.27E2,6E0,6.26E2,3.619E3,2.1E1,1.821E3,7.03E2,1.2E1,5.2E2,3.7E1,1.14E2,1.954E3,9.74E2,3.3E1,1.09E2,2.69E2,2.07E2,1.83E2,5E0,2.78E2,5.09E2,4.5E1,4.07E2,6.1E1,5E0,5.88E2,4.2E2,7E0,1.2E1,4.29E2,1.6E2,1.67E2],"tree_param":{"num_deleted":"0","num_feature":"14","num_nodes":"61","size_leaf_vector":"1"}},{"base_weights":[2.499718E-3,-7.3729247E-1,2.7661602E0,-1.0216782E0,-1.8566713E-1,1.9332615E0,3.9744341E0,-1.0744585E0,-7.681391E-1,-3.7431607E-1,4.855018E-1,1.4973662E0,2.2795463E0,3.444442E0,5.089978E0,-1.1164323E0,-9.972955E-1,-7.9106295E-1,-3.7866092E-1,-4.356673E-1,-1.24502026E-1,1.589709E-1,7.055257E-1,1.2379271E0,1.6380165E0,2.058104E0,2.5572054E0,3.1494777E0,1.8881561E-1,2.363094E-1,2.9572526E-1,-5.9178013E-2,-5.468867E-2,-5.0038654E-2,-2.1540667E-3,-3.989771E-2,5.689118E-3,-1.43562425E-2,-6.350048E-2,-2.5652362E-2,-1.8891908E-2,-2.676392E-2,-5.6959875E-3,9.080249E-3,-2.9024243E-2,2.6332978E-2,4.207709E-2,8.190533E-2,5.853036E-2,8.273252E-2,-1.93568E-3,4.5240354E-2,1.0393418E-1,1.2850748E-1,5.548951E-2,1.484398E-1,1.6867115E-1],"categories":[],"categories_nodes":[],"categories_segments":[],"categories_sizes":[],"default_left":[0,0,0,0,0,0,0,0,0,0,0,0,0,0,0,0,0,0,0,0,0,0,0,0,0,0,0,0,0,0,0,0,0,0,0,0,0,0,0,0,0,0,0,0,0,0,0,0,0,0,0,0,0,0,0,0,0],"id":26,"left_children":[1,3,5,7,9,11,13,15,17,19,21,23,25,27,29,31,33,35,37,39,41,43,45,47,49,51,53,55,-1,-1,-1,-1,-1,-1,-1,-1,-1,-1,-1,-1,-1,-1,-1,-1,-1,-1,-1,-1,-1,-1,-1,-1,-1,-1,-1,-1,-1],"loss_changes":[2.9255236E4,1.7704355E3,3.0292207E3,9.842334E1,4.8666525E2,2.652964E2,7.018008E2,1.8282227E1,1.1054871E1,4.5890198E1,6.043268E1,2.6059204E1,5.331494E1,6.433887E1,7.6103516E1,4.1083984E0,7.184326E0,7.715454E0,5.53152E0,1.0482361E1,2.4884453E0,5.8737774E0,1.1584686E1,4.841919E0,1.4390137E1,1.0505371E1,3.8806152E0,3.3271484E0,0E0,0E0,0E0,0E0,0E0,0E0,0E0,0E0,0E0,0E0,0E0,0E0,0E0,0E0,0E0,0E0,0E0,0E0,0E0,0E0,0E0,0E0,0E0,0E0,0E0,0E0,0E0,0E0,0E0],"parents":[2147483647,0,0,1,1,2,2,3,3,4,4,5,5,6,6,7,7,8,8,9,9,10,10,11,11,12,12,13,13,14,14,15,15,16,16,17,17,18,18,19,19,20,20,21,21,22,22,23,23,24,24,25,25,26,26,27,27],"right_children":[2,4,6,8,10,12,14,16,18,20,22,24,26,28,30,32,34,36,38,40,42,44,46,48,50,52,54,56,-1,-1,-1,-1,-1,-1,-1,-1,-1,-1,-1,-1,-1,-1,-1,-1,-1,-1,-1,-1,-1,-1,-1,-1,-1,-1,-1,-1,-1],"split_conditions":[1.379E1,3.64E0,2.413E1,3.54E0,8.29E0,1.864E1,3.167E1,2.68E0,5.66E0,7.02E0,1.01E1,1.595E1,2.128E1,2.775E1,3.809E1,1.52E0,3.9E0,4.4038E2,7.18E0,5.91E0,3.2E0,7.804E0,1.177E1,8.58E0,1.6186E1,1.986E0,1.84E1,1.752E1,1.8881561E-1,2.363094E-1,2.9572526E-1,-5.9178013E-2,-5.468867E-2,-5.0038654E-2,-2.1540667E-3,-3.989771E-2,5.689118E-3,-1.43562425E-2,-6.350048E-2,-2.5652362E-2,-1.8891908E-2,-2.676392E-2,-5.6959875E-3,9.080249E-3,-2.9024243E-2,2.6332978E-2,4.207709E-2,8.190533E-2,5.853036E-2,8.273252E-2,-1.93568E-3,4.5240354E-2,1.0393418E-1,1.2850748E-1,5.548951E-2,1.484398E-1,1.6867115E-1],"split_indices":[0,12,0,0,0,0,0,0,0,0,0,0,0,0,0,9,9,1,0,0,10,12,0,11,12,4,9,10,0,0,0,0,0,0,0,0,0,0,0,0,0,0,0,0,0,0,0,0,0,0,0,0,0,0,0,0,0],"split_type":[0,0,0,0,0,0,0,0,0,0,0,0,0,0,0,0,0,0,0,0,0,0,0,0,0,0,0,0,0,0,0,0,0,0,0,0,0,0,0,0,0,0,0,0,0,0,0,0,0,0,0,0,0,0,0,0,0],"sum_hessian":[1.4306E4,1.1286E4,3.02E3,7.446E3,3.84E3,1.79E3,1.23E3,6.159E3,1.287E3,2.998E3,8.42E2,7.96E2,9.94E2,8.38E2,3.92E2,3.976E3,2.183E3,1.214E3,7.3E1,2.406E3,5.92E2,3.4E2,5.02E2,2.85E2,5.11E2,5.6E2,4.34E2,4.52E2,3.86E2,2.79E2,1.13E2,9.84E2,2.992E3,2.175E3,8E0,1.205E3,9E0,6.8E1,5E0,1.024E3,1.382E3,1.3E1,5.79E2,3.31E2,9E0,2.2E2,2.82E2,3.6E1,2.49E2,5.06E2,5E0,1.1E1,5.49E2,4.29E2,5E0,2.62E2,1.9E2],"tree_param":{"num_deleted":"0","num_feature":"14","num_nodes":"57","size_leaf_vector":"1"}},{"base_weights":[9.355745E-3,-7.057051E-1,2.6011162E0,-9.715925E-1,-1.9897527E-1,1.9599195E0,3.9986918E0,-1.040678E0,-8.066333E-1,-3.5831067E-1,4.3052104E-1,1.5791272E0,2.5198498E0,3.6253037E0,5.2181E0,-1.0936829E0,-1.0096798E0,-8.7018156E-1,-6.6891897E-1,-4.3866393E-1,-1.7721577E-1,1.5760186E-1,6.2609845E-1,1.239103E0,1.8388281E0,2.3184927E0,2.8221712E0,3.3043716E0,3.9990702E0,2.4381264E-1,3.0053803E-1,-5.909101E-2,-5.3793915E-2,-2.688416E-2,-5.0536215E-2,-4.3851927E-2,-3.285231E-2,-3.378233E-2,1.0109848E-2,-2.0819863E-2,-3.3454277E-2,-1.26397E-2,-5.564715E-3,8.759188E-3,-2.0078933E-2,3.0150278E-2,8.684103E-2,5.6456324E-2,7.411455E-2,9.255859E-2,2.8809696E-3,1.18728176E-1,8.4679596E-2,1.255969E-1,1.469364E-1,1.6647246E-1,4.8289295E-2,1.5600857E-1,2.056856E-1],"categories":[],"categories_nodes":[],"categories_segments":[],"categories_sizes":[],"default_left":[0,0,0,0,0,0,0,0,0,0,0,0,0,0,0,0,0,0,0,0,0,0,0,0,0,0,0,0,0,0,0,0,0,0,0,0,0,0,0,0,0,0,0,0,0,0,0,0,0,0,0,0,0,0,0,0,0,0,0],"id":27,"left_children":[1,3,5,7,9,11,13,15,17,19,21,23,25,27,29,31,33,35,37,39,41,43,45,47,49,51,53,55,57,-1,-1,-1,-1,-1,-1,-1,-1,-1,-1,-1,-1,-1,-1,-1,-1,-1,-1,-1,-1,-1,-1,-1,-1,-1,-1,-1,-1,-1,-1],"loss_changes":[2.6649945E4,1.5182188E3,2.7747324E3,8.297656E1,3.894496E2,4.4914355E2,4.1623633E2,6.8945312E0,1.8279541E1,4.495688E1,4.1726105E1,1.09126465E2,4.262793E1,7.044336E1,1.7138672E1,1.0783691E0,8.137207E-1,1.3168945E0,4.2926636E0,1.058493E1,4.713335E0,3.344986E0,1.0138214E1,1.2373047E1,1.5659424E1,1.2380859E1,1.1311035E0,1.9427246E1,1.50546875E1,0E0,0E0,0E0,0E0,0E0,0E0,0E0,0E0,0E0,0E0,0E0,0E0,0E0,0E0,0E0,0E0,0E0,0E0,0E0,0E0,0E0,0E0,0E0,0E0,0E0,0E0,0E0,0E0,0E0,0E0],"parents":[2147483647,0,0,1,1,2,2,3,3,4,4,5,5,6,6,7,7,8,8,9,9,10,10,11,11,12,12,13,13,14,14,15,15,16,16,17,17,18,18,19,19,20,20,21,21,22,22,23,23,24,24,25,25,26,26,27,27,28,28],"right_children":[2,4,6,8,10,12,14,16,18,20,22,24,26,28,30,32,34,36,38,40,42,44,46,48,50,52,54,56,58,-1,-1,-1,-1,-1,-1,-1,-1,-1,-1,-1,-1,-1,-1,-1,-1,-1,-1,-1,-1,-1,-1,-1,-1,-1,-1,-1,-1,-1,-1],"split_conditions":[1.339E1,3.536E0,2.61E1,3.07E0,8.29E0,2.066E1,3.534E1,1.63E0,2.672E0,6.58E0,1.01E1,1.734E1,2.373E1,2.991E1,3.948E1,2.13E0,9.95E-1,4.26E0,5.11E0,2.529E2,7.18E0,7.804E0,4.2979E2,1.636E1,1.8426E1,2.3946E2,4.0018E2,4.1932E2,3.9373E2,2.4381264E-1,3.0053803E-1,-5.909101E-2,-5.3793915E-2,-2.688416E-2,-5.0536215E-2,-4.3851927E-2,-3.285231E-2,-3.378233E-2,1.0109848E-2,-2.0819863E-2,-3.3454277E-2,-1.26397E-2,-5.564715E-3,8.759188E-3,-2.0078933E-2,3.0150278E-2,8.684103E-2,5.6456324E-2,7.411455E-2,9.255859E-2,2.8809696E-3,1.18728176E-1,8.4679596E-2,1.255969E-1,1.469364E-1,1.6647246E-1,4.8289295E-2,1.5600857E-1,2.056856E-1],"split_indices":[0,12,0,0,0,0,0,12,12,0,0,0,0,0,0,0,4,0,11,2,0,12,1,0,12,2,1,1,1,0,0,0,0,0,0,0,0,0,0,0,0,0,0,0,0,0,0,0,0,0,0,0,0,0,0,0,0,0,0],"split_type":[0,0,0,0,0,0,0,0,0,0,0,0,0,0,0,0,0,0,0,0,0,0,0,0,0,0,0,0,0,0,0,0,0,0,0,0,0,0,0,0,0,0,0,0,0,0,0,0,0,0,0,0,0,0,0,0,0,0,0],"sum_hessian":[1.4377E4,1.1269E4,3.108E3,7.39E3,3.879E3,2.133E3,9.75E2,5.203E3,2.187E3,3.096E3,7.83E2,1.273E3,8.6E2,7.51E2,2.24E2,1.901E3,3.302E3,1.491E3,6.96E2,2.143E3,9.53E2,3.28E2,4.55E2,5.55E2,7.18E2,5.24E2,3.36E2,4.12E2,3.39E2,1.64E2,6E1,3.03E2,1.598E3,9E0,3.293E3,1.44E3,5.1E1,6.91E2,5E0,1.958E3,1.85E2,4.42E2,5.11E2,3.19E2,9E0,4.48E2,7E0,3.88E2,1.67E2,7.13E2,5E0,4.77E2,4.7E1,1.01E2,2.35E2,4.07E2,5E0,4.4E1,2.95E2],"tree_param":{"num_deleted":"0","num_feature":"14","num_nodes":"59","size_leaf_vector":"1"}},{"base_weights":[2.286779E-3,-6.6023594E-1,2.4904168E0,-9.2331284E-1,-1.6796659E-1,1.7744071E0,3.645951E0,-9.836165E-1,-7.499509E-1,-3.2699448E-1,5.16913E-1,1.326478E0,2.1010158E0,3.1253848E0,4.626376E0,-1.0251528E0,-9.440408E-1,-7.975328E-1,-5.553312E-1,-4.2251134E-1,-1.8480676E-1,2.7425373E-1,7.357152E-1,1.0884199E0,1.4923375E0,1.9371568E0,2.452868E0,2.8453066E0,1.7159455E-1,4.209799E0,2.5823164E-1,-5.5875164E-2,-5.0570454E-2,-4.7282275E-2,-2.6861314E-2,-4.0241573E-2,-5.001475E-3,-2.075403E-2,-3.030999E-2,-2.1555606E-2,5.484723E-3,-1.2120073E-2,-2.5347346E-3,2.2452293E-2,7.1052196E-3,3.5738524E-2,7.729664E-2,4.331714E-2,6.001943E-2,7.536908E-2,4.8010168E-3,8.5595384E-2,1.0190181E-1,9.607422E-2,1.2617157E-1,5.5856485E-2,1.4314146E-1,1.4086129E-1,2.1435599E-1],"categories":[],"categories_nodes":[],"categories_segments":[],"categories_sizes":[],"default_left":[0,0,0,0,0,0,0,0,0,0,0,0,0,0,0,0,0,0,0,0,0,0,0,0,0,0,0,0,0,0,0,0,0,0,0,0,0,0,0,0,0,0,0,0,0,0,0,0,0,0,0,0,0,0,0,0,0,0,0],"id":28,"left_children":[1,3,5,7,9,11,13,15,17,19,21,23,25,27,29,31,33,35,37,39,41,43,45,47,49,51,53,55,-1,57,-1,-1,-1,-1,-1,-1,-1,-1,-1,-1,-1,-1,-1,-1,-1,-1,-1,-1,-1,-1,-1,-1,-1,-1,-1,-1,-1,-1,-1],"loss_changes":[2.3521621E4,1.4590913E3,2.47283E3,7.566504E1,4.2790808E2,2.672744E2,5.6345703E2,7.4960938E0,1.6944214E1,4.317331E1,3.9013718E1,2.8618042E1,5.459131E1,5.0037598E1,5.584375E1,1.6538086E0,1.0700684E0,7.6401978E0,2.3229141E0,8.793121E0,9.895508E0,8.069664E0,4.9352875E0,6.6084595E0,9.435242E0,1.1524902E1,5.2695312E0,7.390869E0,0E0,6.7026367E0,0E0,0E0,0E0,0E0,0E0,0E0,0E0,0E0,0E0,0E0,0E0,0E0,0E0,0E0,0E0,0E0,0E0,0E0,0E0,0E0,0E0,0E0,0E0,0E0,0E0,0E0,0E0,0E0,0E0],"parents":[2147483647,0,0,1,1,2,2,3,3,4,4,5,5,6,6,7,7,8,8,9,9,10,10,11,11,12,12,13,13,14,14,15,15,16,16,17,17,18,18,19,19,20,20,21,21,22,22,23,23,24,24,25,25,26,26,27,27,29,29],"right_children":[2,4,6,8,10,12,14,16,18,20,22,24,26,28,30,32,34,36,38,40,42,44,46,48,50,52,54,56,-1,58,-1,-1,-1,-1,-1,-1,-1,-1,-1,-1,-1,-1,-1,-1,-1,-1,-1,-1,-1,-1,-1,-1,-1,-1,-1,-1,-1,-1,-1],"split_conditions":[1.379E1,3.536E0,2.448E1,3.16E0,8.83E0,1.864E1,3.167E1,2.6E0,4.39E0,6.35E0,1.1E1,1.636E1,2.207E1,1.886E1,2.523E1,1.328E0,1.0910317E0,1.0082262E0,5E0,5.42E0,7.48E0,1.1E1,4.2967E2,4.0505E2,1.5962E1,1.322E1,3.1411782E-1,2.281E2,1.7159455E-1,2.2732E2,2.5823164E-1,-5.5875164E-2,-5.0570454E-2,-4.7282275E-2,-2.6861314E-2,-4.0241573E-2,-5.001475E-3,-2.075403E-2,-3.030999E-2,-2.1555606E-2,5.484723E-3,-1.2120073E-2,-2.5347346E-3,2.2452293E-2,7.1052196E-3,3.5738524E-2,7.729664E-2,4.331714E-2,6.001943E-2,7.536908E-2,4.8010168E-3,8.5595384E-2,1.0190181E-1,9.607422E-2,1.2617157E-1,5.5856485E-2,1.4314146E-1,1.4086129E-1,2.1435599E-1],"split_indices":[0,12,0,0,0,0,0,0,0,0,0,0,0,10,10,12,13,13,5,10,0,5,1,1,12,10,13,2,0,2,0,0,0,0,0,0,0,0,0,0,0,0,0,0,0,0,0,0,0,0,0,0,0,0,0,0,0,0,0],"split_type":[0,0,0,0,0,0,0,0,0,0,0,0,0,0,0,0,0,0,0,0,0,0,0,0,0,0,0,0,0,0,0,0,0,0,0,0,0,0,0,0,0,0,0,0,0,0,0,0,0,0,0,0,0,0,0,0,0,0,0],"sum_hessian":[1.4266E4,1.1267E4,2.999E3,7.342E3,3.925E3,1.854E3,1.145E3,5.442E3,1.9E3,3.186E3,7.39E2,7.85E2,1.069E3,7.52E2,3.93E2,2.637E3,2.805E3,1.523E3,3.77E2,1.904E3,1.282E3,3.52E2,3.87E2,3.27E2,4.58E2,7.36E2,3.33E2,4.01E2,3.51E2,2.29E2,1.64E2,3.26E2,2.311E3,2.792E3,1.3E1,1.507E3,1.6E1,1.04E2,2.73E2,1.874E3,3E1,8.96E2,3.86E2,1.5E2,2.02E2,3.8E2,7E0,1.14E2,2.13E2,4.53E2,5E0,2.36E2,5E2,4.4E1,2.89E2,5E0,3.96E2,1.5E1,2.14E2],"tree_param":{"num_deleted":"0","num_feature":"14","num_nodes":"59","size_leaf_vector":"1"}},{"base_weights":[1.0126013E-2,-6.2969154E-1,2.3647456E0,-8.647254E-1,-1.390157E-1,1.6592857E0,3.40482E0,-9.3472844E-1,-6.8864703E-1,-2.7889955E-1,4.79831E-1,1.3782681E0,2.0679035E0,3.0224876E0,4.4621267E0,-9.74905E-1,-8.960613E-1,-6.953297E-1,2.7558437E-2,-3.56516E-1,-6.112984E-2,2.7269837E-1,6.8790525E-1,1.1589358E0,1.5758308E0,1.8374448E0,2.2078726E0,2.812685E0,3.428237E0,4.2335286E0,2.7190512E-1,-5.24045E-2,-4.7981735E-2,-4.491838E-2,-1.603164E-2,-3.529391E-2,-9.604757E-3,-1.6890856E-2,-3.1038178E-2,8.540269E-3,-4.316766E-3,1.461944E-2,-3.300172E-2,3.7522208E-2,2.7044747E-2,5.2739926E-2,7.098401E-2,6.177279E-2,8.1925265E-2,3.733531E-2,9.302536E-2,9.354452E-2,1.1372601E-1,1.2560388E-1,1.473394E-1,1.6625051E-1,2.126454E-1,1.3053511E-1,2.1501248E-1],"categories":[],"categories_nodes":[],"categories_segments":[],"categories_sizes":[],"default_left":[0,0,0,0,0,0,0,0,0,0,0,0,0,0,0,0,0,0,0,0,0,0,0,0,0,0,0,0,0,0,0,0,0,0,0,0,0,0,0,0,0,0,0,0,0,0,0,0,0,0,0,0,0,0,0,0,0,0,0],"id":29,"left_children":[1,3,5,7,9,11,13,15,17,19,21,23,25,27,29,31,33,35,-1,37,39,41,43,45,47,49,51,53,55,57,-1,-1,-1,-1,-1,-1,-1,-1,-1,-1,-1,-1,-1,-1,-1,-1,-1,-1,-1,-1,-1,-1,-1,-1,-1,-1,-1,-1,-1],"loss_changes":[2.1614117E4,1.3008638E3,2.2407773E3,9.305127E1,3.1664517E2,2.0580371E2,4.8001953E2,7.161621E0,1.8599731E1,5.0379074E1,2.8788864E1,4.442749E1,1.7865723E1,6.3299805E1,3.808789E1,1.4611816E0,3.2805176E0,1.1286499E1,0E0,1.0548523E1,4.6141825E0,6.5430737E0,2.4756775E0,1.1914246E1,9.091431E0,5.1983643E0,3.824463E0,1.3507324E1,4.709961E0,1.244873E1,0E0,0E0,0E0,0E0,0E0,0E0,0E0,0E0,0E0,0E0,0E0,0E0,0E0,0E0,0E0,0E0,0E0,0E0,0E0,0E0,0E0,0E0,0E0,0E0,0E0,0E0,0E0,0E0,0E0],"parents":[2147483647,0,0,1,1,2,2,3,3,4,4,5,5,6,6,7,7,8,8,9,9,10,10,11,11,12,12,13,13,14,14,15,15,16,16,17,17,19,19,20,20,21,21,22,22,23,23,24,24,25,25,26,26,27,27,28,28,29,29],"right_children":[2,4,6,8,10,12,14,16,18,20,22,24,26,28,30,32,34,36,-1,38,40,42,44,46,48,50,52,54,56,58,-1,-1,-1,-1,-1,-1,-1,-1,-1,-1,-1,-1,-1,-1,-1,-1,-1,-1,-1,-1,-1,-1,-1,-1,-1,-1,-1,-1,-1],"split_conditions":[1.379E1,5.53E0,2.413E1,3.16E0,9.15E0,1.984E1,2.21E1,2.6E0,5.42E0,7.02E0,1.139E1,1.734E1,2.128E1,2.93E1,3.948E1,2.17E0,1.0910317E0,4.4442E2,2.7558437E-2,4.3864E2,4E0,1.4658854E0,1.1E1,1.233E1,2.2964E2,4.3243498E-2,3.654723E-1,4.0132E2,1.7178242E0,3.046E1,2.7190512E-1,-5.24045E-2,-4.7981735E-2,-4.491838E-2,-1.603164E-2,-3.529391E-2,-9.604757E-3,-1.6890856E-2,-3.1038178E-2,8.540269E-3,-4.316766E-3,1.461944E-2,-3.300172E-2,3.7522208E-2,2.7044747E-2,5.2739926E-2,7.098401E-2,6.177279E-2,8.1925265E-2,3.733531E-2,9.302536E-2,9.354452E-2,1.1372601E-1,1.2560388E-1,1.473394E-1,1.6625051E-1,2.126454E-1,1.3053511E-1,2.1501248E-1],"split_indices":[0,0,0,0,0,0,10,0,10,0,0,0,0,0,0,0,13,1,0,1,5,13,5,10,2,13,13,1,13,0,0,0,0,0,0,0,0,0,0,0,0,0,0,0,0,0,0,0,0,0,0,0,0,0,0,0,0,0,0],"split_type":[0,0,0,0,0,0,0,0,0,0,0,0,0,0,0,0,0,0,0,0,0,0,0,0,0,0,0,0,0,0,0,0,0,0,0,0,0,0,0,0,0,0,0,0,0,0,0,0,0,0,0,0,0,0,0,0,0,0,0],"sum_hessian":[1.4344E4,1.128E4,3.064E3,7.626E3,3.654E3,1.828E3,1.236E3,5.452E3,2.174E3,2.981E3,6.73E2,1.087E3,7.41E2,9.12E2,3.24E2,2.656E3,2.796E3,2.163E3,1.1E1,2.197E3,7.84E2,3.39E2,3.34E2,5.2E2,5.67E2,2.88E2,4.53E2,6.09E2,3.03E2,2.69E2,5.5E1,4.41E2,2.215E3,2.784E3,1.2E1,2.118E3,4.5E1,2.055E3,1.42E2,7.6E1,7.08E2,3.33E2,6E0,2.3E2,1.04E2,3.77E2,1.43E2,9.3E1,4.74E2,7E0,2.81E2,8.2E1,3.71E2,1.97E2,4.12E2,2.76E2,2.7E1,1.3E1,2.56E2],"tree_param":{"num_deleted":"0","num_feature":"14","num_nodes":"59","size_leaf_vector":"1"}},{"base_weights":[-2.8431339E-3,-5.8341163E-1,2.3094592E0,-8.0686647E-1,-6.39421E-2,1.8302344E0,3.5959496E0,-8.743016E-1,-5.8414644E-1,-2.279564E-1,5.928478E-1,1.4528112E0,2.3485134E0,3.1305292E0,4.2779365E0,-8.992799E-1,-7.802713E-1,-6.945488E-1,-4.9067757E-1,-2.9624763E-1,3.143287E-2,4.2089036E-1,7.697982E-1,1.1858512E0,1.6276317E0,2.2108884E0,2.6513927E0,3.0610688E0,1.9898783E-1,2.033469E-1,2.5725383E-1,-4.750214E-2,-4.3933336E-2,-3.9241575E-2,2.6493662E-3,-3.554906E-2,-2.4370167E-2,-2.552159E-2,5.6210286E-3,-1.3837918E-2,-2.8352404E-2,2.1898362E-3,-3.212359E-2,6.2195707E-2,1.9199412E-2,3.5890933E-2,5.9830584E-2,5.2628525E-2,6.83925E-2,6.1165977E-2,8.446463E-2,9.6766375E-2,1.1268442E-1,1.3435882E-1,2.9445851E-2,1.2819187E-1,1.5942334E-1],"categories":[],"categories_nodes":[],"categories_segments":[],"categories_sizes":[],"default_left":[0,0,0,0,0,0,0,0,0,0,0,0,0,0,0,0,0,0,0,0,0,0,0,0,0,0,0,0,0,0,0,0,0,0,0,0,0,0,0,0,0,0,0,0,0,0,0,0,0,0,0,0,0,0,0,0,0],"id":30,"left_children":[1,3,5,7,9,11,13,15,17,19,21,23,25,27,29,31,33,35,37,39,41,43,45,47,49,51,53,55,-1,-1,-1,-1,-1,-1,-1,-1,-1,-1,-1,-1,-1,-1,-1,-1,-1,-1,-1,-1,-1,-1,-1,-1,-1,-1,-1,-1,-1],"loss_changes":[1.9274902E4,1.3320913E3,1.766627E3,1.1975586E2,3.722239E2,4.0615234E2,2.2765039E2,1.3407227E1,1.8780518E1,4.898436E1,2.052449E1,5.406543E1,2.8035156E1,9.421387E0,2.578955E1,3.8278809E0,5.015442E0,2.385437E0,1.2208298E1,1.1314865E1,4.8539696E0,1.0019794E1,6.221405E0,9.68988E0,1.51866455E1,7.2875977E-1,1.744226E1,1.564209E1,0E0,0E0,0E0,0E0,0E0,0E0,0E0,0E0,0E0,0E0,0E0,0E0,0E0,0E0,0E0,0E0,0E0,0E0,0E0,0E0,0E0,0E0,0E0,0E0,0E0,0E0,0E0,0E0,0E0],"parents":[2147483647,0,0,1,1,2,2,3,3,4,4,5,5,6,6,7,7,8,8,9,9,10,10,11,11,12,12,13,13,14,14,15,15,16,16,17,17,18,18,19,19,20,20,21,21,22,22,23,23,24,24,25,25,26,26,27,27],"right_children":[2,4,6,8,10,12,14,16,18,20,22,24,26,28,30,32,34,36,38,40,42,44,46,48,50,52,54,56,-1,-1,-1,-1,-1,-1,-1,-1,-1,-1,-1,-1,-1,-1,-1,-1,-1,-1,-1,-1,-1,-1,-1,-1,-1,-1,-1,-1,-1],"split_conditions":[1.472E1,5.73E0,2.775E1,3.54E0,9.73E0,2.128E1,2.21E1,2.87E0,2.912E0,5.27E0,1.208E1,1.786E1,1.722E1,1.7178242E0,3.948E1,1.58E0,4.4E0,4.73E0,5.27E0,2.5315E2,8.13E0,4.99E1,5.015E1,1.217E1,2.2964E2,2.3001E2,2.4171E2,