{"learner":{"attributes":{"best_iteration":"499","best_score":"0.46225271154505143","scikit_learn":"{\"_estimator_type\": \"regressor\"}"},"feature_names":["power_factor","VLN","kVAR","volt_ratio","specific_pwr","hour","dow","month","week","is_biz_hour","hour_sin","hour_cos","kw_lag_1","kw_lag_5","kw_lag_10","kw_lag_30","kw_lag_60","kw_roll_mean_5","kw_roll_mean_30","kw_roll_std_10","kw_roll_max_10","kw_delta","kw_delta2","volt_sag","volt_swell","pf_poor","vll_stability"],"feature_types":["float","float","float","float","float","int","int","int","int","int","float","float","float","float","float","float","float","float","float","float","float","float","float","int","int","int","float"],"gradient_booster":{"model":{"cats":{"enc":[],"feature_segments":[],"sorted_idx":[]},"gbtree_model_param":{"num_parallel_tree":"1","num_trees":"500"},"iteration_indptr":[0,1,2,3,4,5,6,7,8,9,10,11,12,13,14,15,16,17,18,19,20,21,22,23,24,25,26,27,28,29,30,31,32,33,34,35,36,37,38,39,40,41,42,43,44,45,46,47,48,49,50,51,52,53,54,55,56,57,58,59,60,61,62,63,64,65,66,67,68,69,70,71,72,73,74,75,76,77,78,79,80,81,82,83,84,85,86,87,88,89,90,91,92,93,94,95,96,97,98,99,100,101,102,103,104,105,106,107,108,109,110,111,112,113,114,115,116,117,118,119,120,121,122,123,124,125,126,127,128,129,130,131,132,133,134,135,136,137,138,139,140,141,142,143,144,145,146,147,148,149,150,151,152,153,154,155,156,157,158,159,160,161,162,163,164,165,166,167,168,169,170,171,172,173,174,175,176,177,178,179,180,181,182,183,184,185,186,187,188,189,190,191,192,193,194,195,196,197,198,199,200,201,202,203,204,205,206,207,208,209,210,211,212,213,214,215,216,217,218,219,220,221,222,223,224,225,226,227,228,229,230,231,232,233,234,235,236,237,238,239,240,241,242,243,244,245,246,247,248,249,250,251,252,253,254,255,256,257,258,259,260,261,262,263,264,265,266,267,268,269,270,271,272,273,274,275,276,277,278,279,280,281,282,283,284,285,286,287,288,289,290,291,292,293,294,295,296,297,298,299,300,301,302,303,304,305,306,307,308,309,310,311,312,313,314,315,316,317,318,319,320,321,322,323,324,325,326,327,328,329,330,331,332,333,334,335,336,337,338,339,340,341,342,343,344,345,346,347,348,349,350,351,352,353,354,355,356,357,358,359,360,361,362,363,364,365,366,367,368,369,370,371,372,373,374,375,376,377,378,379,380,381,382,383,384,385,386,387,388,389,390,391,392,393,394,395,396,397,398,399,400,401,402,403,404,405,406,407,408,409,410,411,412,413,414,415,416,417,418,419,420,421,422,423,424,425,426,427,428,429,430,431,432,433,434,435,436,437,438,439,440,441,442,443,444,445,446,447,448,449,450,451,452,453,454,455,456,457,458,459,460,461,462,463,464,465,466,467,468,469,470,471,472,473,474,475,476,477,478,479,480,481,482,483,484,485,486,487,488,489,490,491,492,493,494,495,496,497,498,499,500],"tree_info":[0,0,0,0,0,0,0,0,0,0,0,0,0,0,0,0,0,0,0,0,0,0,0,0,0,0,0,0,0,0,0,0,0,0,0,0,0,0,0,0,0,0,0,0,0,0,0,0,0,0,0,0,0,0,0,0,0,0,0,0,0,0,0,0,0,0,0,0,0,0,0,0,0,0,0,0,0,0,0,0,0,0,0,0,0,0,0,0,0,0,0,0,0,0,0,0,0,0,0,0,0,0,0,0,0,0,0,0,0,0,0,0,0,0,0,0,0,0,0,0,0,0,0,0,0,0,0,0,0,0,0,0,0,0,0,0,0,0,0,0,0,0,0,0,0,0,0,0,0,0,0,0,0,0,0,0,0,0,0,0,0,0,0,0,0,0,0,0,0,0,0,0,0,0,0,0,0,0,0,0,0,0,0,0,0,0,0,0,0,0,0,0,0,0,0,0,0,0,0,0,0,0,0,0,0,0,0,0,0,0,0,0,0,0,0,0,0,0,0,0,0,0,0,0,0,0,0,0,0,0,0,0,0,0,0,0,0,0,0,0,0,0,0,0,0,0,0,0,0,0,0,0,0,0,0,0,0,0,0,0,0,0,0,0,0,0,0,0,0,0,0,0,0,0,0,0,0,0,0,0,0,0,0,0,0,0,0,0,0,0,0,0,0,0,0,0,0,0,0,0,0,0,0,0,0,0,0,0,0,0,0,0,0,0,0,0,0,0,0,0,0,0,0,0,0,0,0,0,0,0,0,0,0,0,0,0,0,0,0,0,0,0,0,0,0,0,0,0,0,0,0,0,0,0,0,0,0,0,0,0,0,0,0,0,0,0,0,0,0,0,0,0,0,0,0,0,0,0,0,0,0,0,0,0,0,0,0,0,0,0,0,0,0,0,0,0,0,0,0,0,0,0,0,0,0,0,0,0,0,0,0,0,0,0,0,0,0,0,0,0,0,0,0,0,0,0,0,0,0,0,0,0,0,0,0,0,0,0,0,0,0,0,0,0,0,0,0,0,0,0,0,0,0,0,0,0,0,0,0,0,0,0,0,0,0,0,0,0,0,0,0,0,0,0,0,0,0,0,0,0,0,0,0,0,0,0,0,0,0,0,0,0,0,0,0,0,0,0,0,0],"trees":[{"base_weights":[-2.2495747E-2,-1.9665238E0,9.666862E0,-7.0707245E0,-2.2809492E-1,6.4786696E0,1.3491255E1,-1.6136513E1,-6.4836783E0,-2.0081253E0,1.0221769E0,-3.1188762E0,6.7283797E0,1.1801082E1,1.6912094E1,-1.1395066E0,-6.586729E-1,-8.324194E0,-5.1266685E0,-2.113337E0,9.135278E0,9.691084E-1,1.294168E1,-2.3345101E-1,1.0068221E0,5.367874E0,8.585239E0,6.168148E-1,1.2264194E1,2.047406E-1,1.7359352E1,-8.516833E0,3.759067E0,-5.2831693E0,6.527528E0,-2.556663E0,-9.593212E-1,1.7174079E-1,5.276712E-1,2.2305965E-1,1.7559806E0,6.816623E-1,2.007778E-1,-2.9175466E-2,1.496226E0,5.0831947E0,8.143245E0,5.898862E0,8.875336E0,-1.023805E0,3.77855E0,5.58857E-1,1.3548978E1,7.5096196E-1,9.118436E-1,-5.000455E-1,-3.9350656E-1,1.987223E-2,2.1589004E-1,-3.1271634E-1,-2.2870953E-1,3.5796267E-1,-3.8642492E-3,-1.6236404E-1,-1.11789405E-1,-1.378223E-1,-4.2033214E-2,-1.0169885E-2,2.9123247E-2,-3.3529234E-1,9.205771E-2,2.3899535E-2,9.8384164E-2,1.5121351E-1,2.6485837E-1,3.5153607E-1,5.7627636E-1,1.5457454E-1,3.140436E-1,3.8908792E-1,4.7719574E-1,-7.23748E-2,1.930502E-2,2.5140533E-1,6.192627E-2,4.8761582E-1,6.894748E-1],"categories":[],"categories_nodes":[],"categories_segments":[],"categories_sizes":[],"default_left":[0,0,0,0,0,0,0,0,0,0,0,0,0,0,0,0,0,0,0,0,0,0,0,0,0,0,0,0,0,0,0,0,0,0,0,0,0,0,0,0,0,0,0,0,0,0,0,0,0,0,0,0,0,0,0,0,0,0,0,0,0,0,0,0,0,0,0,0,0,0,0,0,0,0,0,0,0,0,0,0,0,0,0,0,0,0,0],"id":0,"left_children":[1,3,5,7,9,11,13,15,17,19,21,23,25,27,29,-1,-1,31,33,35,37,39,41,-1,43,45,47,49,51,-1,53,55,57,59,61,63,65,-1,-1,67,69,-1,-1,-1,71,73,75,77,79,81,83,-1,85,-1,-1,-1,-1,-1,-1,-1,-1,-1,-1,-1,-1,-1,-1,-1,-1,-1,-1,-1,-1,-1,-1,-1,-1,-1,-1,-1,-1,-1,-1,-1,-1,-1,-1],"loss_changes":[1.3859089E5,5.4374734E4,1.49039375E4,8.1810547E3,1.0177654E4,1.6325918E3,3.0270234E3,1.5531914E3,3.6134336E3,2.231416E3,1.6867637E3,1.1812756E2,1.6104355E3,1.9442188E3,9.736211E2,0E0,0E0,1.4743711E3,1.5760449E3,9.5422754E2,1.0793579E2,1.5703132E3,1.8261108E1,0E0,5.283321E0,2.5971582E2,1.6243164E2,8.7049706E1,3.5384375E2,0E0,8.706641E1,5.0696094E2,1.7850708E1,5.460117E2,4.914926E1,2.919834E2,1.08693756E2,0E0,0E0,2.1080157E2,9.507527E2,0E0,0E0,0E0,1.274231E0,1.3743066E2,4.6128418E1,1.2588379E1,1.061543E2,7.3355904E0,1.1836784E1,0E0,1.2630859E1,0E0,0E0,0E0,0E0,0E0,0E0,0E0,0E0,0E0,0E0,0E0,0E0,0E0,0E0,0E0,0E0,0E0,0E0,0E0,0E0,0E0,0E0,0E0,0E0,0E0,0E0,0E0,0E0,0E0,0E0,0E0,0E0,0E0,0E0],"parents":[2147483647,0,0,1,1,2,2,3,3,4,4,5,5,6,6,7,7,8,8,9,9,10,10,11,11,12,12,13,13,14,14,17,17,18,18,19,19,20,20,21,21,22,22,24,24,25,25,26,26,27,27,28,28,30,30,31,31,32,32,33,33,34,34,35,35,36,36,39,39,40,40,44,44,45,45,46,46,47,47,48,48,49,49,50,50,52,52],"right_children":[2,4,6,8,10,12,14,16,18,20,22,24,26,28,30,-1,-1,32,34,36,38,40,42,-1,44,46,48,50,52,-1,54,56,58,60,62,64,66,-1,-1,68,70,-1,-1,-1,72,74,76,78,80,82,84,-1,86,-1,-1,-1,-1,-1,-1,-1,-1,-1,-1,-1,-1,-1,-1,-1,-1,-1,-1,-1,-1,-1,-1,-1,-1,-1,-1,-1,-1,-1,-1,-1,-1,-1,-1],"split_conditions":[2.962E1,2.164E1,3.573E1,1.514E1,2.4927864E1,-4.76E0,4.04E1,8.834289E0,1.823E1,5.71E0,5.71E0,-7.6025E0,3.247E1,-4.76E0,4.0644183E0,-1.1395066E0,-6.586729E-1,5.71E0,5.71E0,2.39E1,3.125E1,2.6466095E1,3.169E1,-2.3345101E-1,3.098E1,1.02E0,-1.07E0,-1.269E1,3.944E1,2.047406E-1,4.343E1,1.651E1,2.817E1,2E1,2.6789238E1,2.2718481E1,-7.25E-1,1.7174079E-1,5.276712E-1,2.5704727E1,-4.76E0,6.816623E-1,2.007778E-1,-2.9175466E-2,3.312E1,-1.46E0,4.235E0,-3.8E0,3.397E1,3.824E1,2.3759798E2,5.58857E-1,-1.63E0,7.5096196E-1,9.118436E-1,-5.000455E-1,-3.9350656E-1,1.987223E-2,2.1589004E-1,-3.1271634E-1,-2.2870953E-1,3.5796267E-1,-3.8642492E-3,-1.6236404E-1,-1.11789405E-1,-1.378223E-1,-4.2033214E-2,-1.0169885E-2,2.9123247E-2,-3.3529234E-1,9.205771E-2,2.3899535E-2,9.8384164E-2,1.5121351E-1,2.6485837E-1,3.5153607E-1,5.7627636E-1,1.5457454E-1,3.140436E-1,3.8908792E-1,4.7719574E-1,-7.23748E-2,1.930502E-2,2.5140533E-1,6.192627E-2,4.8761582E-1,6.894748E-1],"split_indices":[12,12,12,20,12,21,12,18,12,21,21,22,12,21,2,0,0,21,21,12,20,12,15,0,12,21,21,21,20,0,20,12,20,12,15,12,21,0,0,12,21,0,0,0,12,21,21,21,12,12,1,0,21,0,0,0,0,0,0,0,0,0,0,0,0,0,0,0,0,0,0,0,0,0,0,0,0,0,0,0,0,0,0,0,0,0,0],"split_type":[0,0,0,0,0,0,0,0,0,0,0,0,0,0,0,0,0,0,0,0,0,0,0,0,0,0,0,0,0,0,0,0,0,0,0,0,0,0,0,0,0,0,0,0,0,0,0,0,0,0,0,0,0,0,0,0,0,0,0,0,0,0,0,0,0,0,0,0,0,0,0,0,0,0,0,0,0,0,0,0,0,0,0,0,0,0,0],"sum_hessian":[7.355608E3,6.1270933E3,1.2285146E3,1.5558615E3,4.571232E3,6.714537E2,5.57061E2,9.301029E1,1.4628511E3,1.8857936E3,2.6854382E3,1.673559E1,6.547181E2,3.7582333E2,1.8123764E2,2.6596256E1,6.641404E1,6.1864594E2,8.4420514E2,1.8689579E3,1.6835646E1,2.6746116E3,1.0826701E1,1.2069163E1,4.6664257E0,3.8010742E2,2.7461066E2,1.5035843E1,3.607875E2,6.453458E0,1.7478418E2,6.092284E2,9.417568E0,8.335582E2,1.064693E1,1.3493695E3,5.195884E2,4.035673E0,1.2799973E1,1.3735786E3,1.3010328E3,9.558777E0,1.2679245E0,1.0528555E0,3.61357E0,3.4731372E2,3.2793686E1,2.8843672E1,2.4576698E2,1.0344358E1,4.691484E0,2.0068666E2,1.6010085E2,5.2608E1,1.22176186E2,1.8051381E2,4.287146E2,1.5861031E0,7.8314657E0,3.4844193E2,4.851163E2,9.640872E0,1.006058E0,4.251664E2,9.242031E2,3.0804657E1,4.8878372E2,6.28389E2,7.4518964E2,1.2190583E1,1.2888423E3,1.7809664E0,1.8326037E0,3.4121193E1,3.1319254E2,2.6993496E1,5.8001895E0,4.543855E0,2.4299816E1,9.804182E1,1.4772517E2,7.933577E0,2.4107819E0,2.4879804E0,2.2035036E0,1.2013348E1,1.480875E2],"tree_param":{"num_deleted":"0","num_feature":"27","num_nodes":"87","size_leaf_vector":"1"}},{"base_weights":[2.3473103E-3,-2.0137715E0,8.352235E0,-6.45545E0,-2.4595182E-1,5.577003E0,1.2779901E1,-1.2346694E1,-5.594238E0,-1.9181912E0,8.018757E-1,-4.2918124E0,5.8277755E0,1.1203122E1,1.6043905E1,-1.0133327E0,-1.0487604E1,-7.019789E0,-4.1652184E0,-2.289833E0,-9.168898E-1,7.0864797E-1,1.0456505E1,-5.5594077E0,5.516448E-1,4.563352E0,8.00713E0,6.705195E-1,1.1634463E1,4.2179947E0,1.6498468E1,-5.933135E-1,-4.8237702E-1,-7.099949E0,2.3207536E0,-4.4399514E0,5.0371923E0,-2.3549511E0,1.5221265E-2,-2.9634805E0,-7.6640743E-1,-2.6384156E-2,1.3336052E0,1.6278496E-1,5.726309E-1,-3.3976972E-1,-1.665614E-1,-5.602339E-2,1.2907394E0,4.4468737E0,6.2302613E-1,6.9397326E0,8.857793E0,-1.4082639E0,3.100892E0,1.0627007E1,1.281058E1,2.2779356E-1,7.437327E-2,7.1044797E-1,8.667386E-1,-3.7894592E-1,-3.110797E-1,1.3211206E-1,3.277923E-2,-2.5748876E-1,-1.9023094E-1,2.5622034E-2,3.3343896E-1,-1.3889055E-1,-1.0323652E-1,-2.4881667E-2,1.5619455E-1,-2.6274154E-1,-1.1789389E-1,-4.4587817E-2,4.599405E-2,-2.6315987E-2,1.3265237E-2,-2.4592423E-1,6.8902165E-2,1.653729E-2,7.879831E-2,1.9299836E-1,2.718716E-1,2.3841868E-1,3.6271533E-1,3.111687E-1,4.5450088E-1,-9.704443E-2,4.4178948E-4,2.3012236E-1,4.668282E-2,5.111864E-1,6.215181E-1,4.6842867E-1,6.5311956E-1],"categories":[],"categories_nodes":[],"categories_segments":[],"categories_sizes":[],"default_left":[0,0,0,0,0,0,0,0,0,0,0,0,0,0,0,0,0,0,0,0,0,0,0,0,0,0,0,0,0,0,0,0,0,0,0,0,0,0,0,0,0,0,0,0,0,0,0,0,0,0,0,0,0,0,0,0,0,0,0,0,0,0,0,0,0,0,0,0,0,0,0,0,0,0,0,0,0,0,0,0,0,0,0,0,0,0,0,0,0,0,0,0,0,0,0,0,0],"id":1,"left_children":[1,3,5,7,9,11,13,15,17,19,21,23,25,27,29,-1,31,33,35,37,39,41,43,45,47,49,51,53,55,57,59,-1,-1,61,63,65,67,69,71,73,75,77,79,-1,-1,-1,-1,-1,81,83,-1,85,87,89,91,93,95,-1,-1,-1,-1,-1,-1,-1,-1,-1,-1,-1,-1,-1,-1,-1,-1,-1,-1,-1,-1,-1,-1,-1,-1,-1,-1,-1,-1,-1,-1,-1,-1,-1,-1,-1,-1,-1,-1,-1,-1],"loss_changes":[1.2495708E5,4.6946562E4,1.7668297E4,8.567117E3,7.4973354E3,2.2256523E3,2.6790156E3,2.9717656E3,2.9998008E3,6.1124854E2,2.360393E3,1.4188995E2,2.3542344E3,1.7088164E3,8.9058203E2,0E0,9.077734E1,5.7270703E2,1.9059082E3,1.803667E2,1.3564853E2,1.1974008E3,1.4265625E2,2.696637E1,8.366889E0,4.517705E2,2.2656836E2,8.483036E1,2.938828E2,5.623932E-1,8.237891E1,0E0,0E0,2.6283203E2,2.0551834E0,3.068877E2,1.5948273E2,1.376543E2,5.576197E1,2.9688477E1,8.928108E1,1.7495282E2,3.9818384E2,0E0,0E0,0E0,0E0,0E0,6.6933346E-1,2.9580664E2,0E0,6.466113E1,4.921582E1,7.0153217E0,2.061264E1,1.9341797E1,1.8533203E1,0E0,0E0,0E0,0E0,0E0,0E0,0E0,0E0,0E0,0E0,0E0,0E0,0E0,0E0,0E0,0E0,0E0,0E0,0E0,0E0,0E0,0E0,0E0,0E0,0E0,0E0,0E0,0E0,0E0,0E0,0E0,0E0,0E0,0E0,0E0,0E0,0E0,0E0,0E0,0E0],"parents":[2147483647,0,0,1,1,2,2,3,3,4,4,5,5,6,6,7,7,8,8,9,9,10,10,11,11,12,12,13,13,14,14,16,16,17,17,18,18,19,19,20,20,21,21,22,22,23,23,24,24,25,25,26,26,27,27,28,28,29,29,30,30,33,33,34,34,35,35,36,36,37,37,38,38,39,39,40,40,41,41,42,42,48,48,49,49,51,51,52,52,53,53,54,54,55,55,56,56],"right_children":[2,4,6,8,10,12,14,16,18,20,22,24,26,28,30,-1,32,34,36,38,40,42,44,46,48,50,52,54,56,58,60,-1,-1,62,64,66,68,70,72,74,76,78,80,-1,-1,-1,-1,-1,82,84,-1,86,88,90,92,94,96,-1,-1,-1,-1,-1,-1,-1,-1,-1,-1,-1,-1,-1,-1,-1,-1,-1,-1,-1,-1,-1,-1,-1,-1,-1,-1,-1,-1,-1,-1,-1,-1,-1,-1,-1,-1,-1,-1,-1,-1],"split_conditions":[2.864E1,2.201E1,3.573E1,1.6154E1,2.48E1,-4.76E0,4.04E1,1.2188872E1,1.9685E1,2.39E1,5.71E0,-7.6025E0,3.212E1,-4.76E0,4.0644183E0,-1.0133327E0,1.403E1,5.71E0,4.235E0,1.44E0,-1.56E0,2.6189444E1,3.067E1,3.397E1,1E0,5.71E0,3.397E1,-1.269E1,3.778E1,9.999875E-1,4.343E1,-5.933135E-1,-4.8237702E-1,1.823E1,1.9524368E1,2.089E1,3.8866441E0,2.299E1,4.235E0,-3.8E0,2.5306683E1,2.5348581E1,-3.8E0,1.6278496E-1,5.726309E-1,-3.3976972E-1,-1.665614E-1,-5.602339E-2,3.212E1,3.0608253E1,6.2302613E-1,-9.5E-1,-1.07E0,3.778E1,2.3759798E2,5.8E-1,-1.63E0,2.2779356E-1,7.437327E-2,7.1044797E-1,8.667386E-1,-3.7894592E-1,-3.110797E-1,1.3211206E-1,3.277923E-2,-2.5748876E-1,-1.9023094E-1,2.5622034E-2,3.3343896E-1,-1.3889055E-1,-1.0323652E-1,-2.4881667E-2,1.5619455E-1,-2.6274154E-1,-1.1789389E-1,-4.4587817E-2,4.599405E-2,-2.6315987E-2,1.3265237E-2,-2.4592423E-1,6.8902165E-2,1.653729E-2,7.879831E-2,1.9299836E-1,2.718716E-1,2.3841868E-1,3.6271533E-1,3.111687E-1,4.5450088E-1,-9.704443E-2,4.4178948E-4,2.3012236E-1,4.668282E-2,5.111864E-1,6.215181E-1,4.6842867E-1,6.5311956E-1],"split_indices":[12,12,12,17,17,21,12,20,17,12,21,22,12,21,2,0,12,21,21,21,21,12,20,13,6,21,12,21,12,3,20,0,0,12,16,12,2,12,21,21,12,12,21,0,0,0,0,0,12,12,0,21,21,12,1,21,21,0,0,0,0,0,0,0,0,0,0,0,0,0,0,0,0,0,0,0,0,0,0,0,0,0,0,0,0,0,0,0,0,0,0,0,0,0,0,0,0],"split_type":[0,0,0,0,0,0,0,0,0,0,0,0,0,0,0,0,0,0,0,0,0,0,0,0,0,0,0,0,0,0,0,0,0,0,0,0,0,0,0,0,0,0,0,0,0,0,0,0,0,0,0,0,0,0,0,0,0,0,0,0,0,0,0,0,0,0,0,0,0,0,0,0,0,0,0,0,0,0,0,0,0,0,0,0,0,0,0,0,0,0,0,0,0,0,0,0,0],"sum_hessian":[7.4207393E3,5.9780664E3,1.4426729E3,1.701177E3,4.2768896E3,8.88209E2,5.5446387E2,2.1526822E2,1.4859088E3,1.6472286E3,2.629661E3,2.1611315E1,8.6659766E2,3.7684805E2,1.7761584E2,3.904218E1,1.7622604E2,7.418984E2,7.4401044E2,1.2004021E3,4.468266E2,2.6055742E3,2.4086733E1,1.7011395E1,4.59992E0,5.503741E2,3.162236E2,1.4926368E1,3.619217E2,6.954962E0,1.7066087E2,6.1753784E1,1.1447225E2,7.3582355E2,6.074865E0,7.2294476E2,2.1065632E1,1.1674012E3,3.300086E1,2.9323793E1,4.175028E2,1.1977821E3,1.407792E3,3.445796E0,2.0640936E1,9.623451E0,7.3879447E0,1.2518222E0,3.3480976E0,5.439148E2,6.4592957E0,1.4430731E2,1.7191628E2,8.271779E0,6.654588E0,2.0034375E2,1.6157794E2,5.594237E0,1.3607252E0,5.047318E1,1.201877E2,4.7123138E2,2.6459216E2,4.5999923E0,1.4748726E0,3.380991E2,3.848457E2,5.9311934E0,1.51344385E1,4.716387E2,6.957625E2,2.9048489E1,3.9523706E0,4.5252175E0,2.4798574E1,3.8905396E2,2.8448832E1,4.4104892E2,7.567332E2,9.161487E0,1.3986305E3,1.2615753E0,2.0865223E0,3.4462234E2,1.9929243E2,2.0305569E1,1.2400175E2,1.6178774E1,1.557375E2,5.7434516E0,2.5283277E0,3.2672482E0,3.3873398E0,1.6917996E2,3.1163786E1,1.3619362E1,1.4795859E2],"tree_param":{"num_deleted":"0","num_feature":"27","num_nodes":"97","size_leaf_vector":"1"}},{"base_weights":[-3.7804036E-3,-1.7232511E0,8.387979E0,-6.3451896E0,-2.0125382E-1,5.9391565E0,1.2710484E1,-1.2777982E1,-5.618861E0,-1.8815937E0,8.632851E-1,4.1207376E0,7.628503E0,1.124132E1,1.5806216E1,-1.9188917E1,-1.0439783E1,-6.9479613E0,-4.284837E0,-1.9757044E0,3.741129E0,6.236229E-1,3.6862705E0,-1.5971268E0,4.4698477E0,6.004363E0,9.3973675E0,4.3181605E0,1.1672183E1,1.5993393E1,2.308222E-1,-1.0376892E0,-7.175224E-1,-5.2483386E-1,-1.6915978E-1,-7.028438E0,2.2391648E0,-4.4067693E0,2.4158812E-1,-2.4615443E0,-1.3036387E0,-5.7314014E-1,6.1262455E0,-2.6234424E-1,1.0954765E0,2.6975212E0,8.342072E0,8.8678396E-1,-2.3052595E0,4.71103E0,-1.0830579E-1,4.815412E0,3.531485E-1,8.848442E0,1.2309067E1,3.58187E-1,2.9947798E0,5.098025E-1,6.199748E-1,7.341826E-1,8.7086374E-1,-4.0743908E-1,-3.341741E-1,2.9770916E-2,1.2901723E-1,-2.647253E-1,-2.0084582E-1,-1.2156601E-1,-3.794313E-1,-8.680888E-2,-4.318511E-2,-9.076912E-2,7.359866E-2,1.5340233E-1,3.3124003E-1,-3.5864174E-1,-7.901272E-3,4.4304997E-2,1.1772487E-1,6.60352E-2,1.5293728E-1,1.2059998E-1,4.7874746E-1,-1.2956455E-1,1.1589904E-1,-1.696174E-1,-7.033846E-2,2.0240836E-1,2.943084E-1,-7.761236E-2,3.0545884E-1,1.3534619E-1,2.4465077E-1,2.735362E-1,4.4716072E-1,6.722645E-1,3.5957587E-1,4.7673468E-2,1.7143522E-1],"categories":[],"categories_nodes":[],"categories_segments":[],"categories_sizes":[],"default_left":[0,0,0,0,0,0,0,0,0,0,0,0,0,0,0,0,0,0,0,0,0,0,0,0,0,0,0,0,0,0,0,0,0,0,0,0,0,0,0,0,0,0,0,0,0,0,0,0,0,0,0,0,0,0,0,0,0,0,0,0,0,0,0,0,0,0,0,0,0,0,0,0,0,0,0,0,0,0,0,0,0,0,0,0,0,0,0,0,0,0,0,0,0,0,0,0,0,0,0],"id":2,"left_children":[1,3,5,7,9,11,13,15,17,19,21,23,25,27,29,31,33,35,37,39,41,43,45,47,49,51,53,55,57,59,-1,-1,-1,-1,-1,61,63,65,-1,67,69,71,73,75,77,79,81,83,85,87,89,91,-1,93,95,-1,97,-1,-1,-1,-1,-1,-1,-1,-1,-1,-1,-1,-1,-1,-1,-1,-1,-1,-1,-1,-1,-1,-1,-1,-1,-1,-1,-1,-1,-1,-1,-1,-1,-1,-1,-1,-1,-1,-1,-1,-1,-1,-1],"loss_changes":[1.0584948E5,4.2826727E4,1.3129086E4,6.9748125E3,8.196152E3,2.4206094E3,1.8702031E3,2.081541E3,2.3761445E3,9.476909E2,1.8955146E3,7.788418E2,1.1289688E3,8.7077344E2,2.2452344E2,1.1660156E0,1.0149414E1,5.1710547E2,7.7699023E2,5.676636E2,3.080773E2,1.0816815E3,9.870415E2,4.2468822E1,4.0310254E2,2.4021533E2,2.039336E2,5.265799E1,1.850664E2,4.7851562E0,0E0,0E0,0E0,0E0,0E0,2.0542578E2,2.1912842E0,2.1108398E2,0E0,1.3862646E2,1.3849976E2,3.1766283E1,8.866577E0,6.4747864E2,4.4289856E2,8.665808E1,2.5426587E2,3.4980724E1,1.2966972E1,2.4599121E2,1.820732E2,4.060547E0,0E0,4.9316406E0,6.897461E1,0E0,1.015155E1,0E0,0E0,0E0,0E0,0E0,0E0,0E0,0E0,0E0,0E0,0E0,0E0,0E0,0E0,0E0,0E0,0E0,0E0,0E0,0E0,0E0,0E0,0E0,0E0,0E0,0E0,0E0,0E0,0E0,0E0,0E0,0E0,0E0,0E0,0E0,0E0,0E0,0E0,0E0,0E0,0E0,0E0],"parents":[2147483647,0,0,1,1,2,2,3,3,4,4,5,5,6,6,7,7,8,8,9,9,10,10,11,11,12,12,13,13,14,14,15,15,16,16,17,17,18,18,19,19,20,20,21,21,22,22,23,23,24,24,25,25,26,26,27,27,28,28,29,29,35,35,36,36,37,37,39,39,40,40,41,41,42,42,43,43,44,44,45,45,46,46,47,47,48,48,49,49,50,50,51,51,53,53,54,54,56,56],"right_children":[2,4,6,8,10,12,14,16,18,20,22,24,26,28,30,32,34,36,38,40,42,44,46,48,50,52,54,56,58,60,-1,-1,-1,-1,-1,62,64,66,-1,68,70,72,74,76,78,80,82,84,86,88,90,92,-1,94,96,-1,98,-1,-1,-1,-1,-1,-1,-1,-1,-1,-1,-1,-1,-1,-1,-1,-1,-1,-1,-1,-1,-1,-1,-1,-1,-1,-1,-1,-1,-1,-1,-1,-1,-1,-1,-1,-1,-1,-1,-1,-1,-1,-1],"split_conditions":[2.9414E1,2.1806E1,3.6122E1,1.5282E1,2.48E1,6.2544036E0,4.061E1,1.2188872E1,1.9122E1,4.0644183E0,2.636531E0,-4.76E0,3.523E1,4.0644183E0,9.87E-1,8.834289E0,1.69E0,5.71E0,7.63E0,2.3438E1,2.857E1,2.594E1,3.351E1,1.4966657E0,7.63E0,3.2096E1,3.944E1,4.979054E-1,3.905E1,4.336E1,2.308222E-1,-1.0376892E0,-7.175224E-1,-5.2483386E-1,-1.6915978E-1,1.7196E1,2.817E1,2.0228E1,2.4158812E-1,7.63E0,2.8698356E-4,2.3033E2,3.067E1,-4.76E0,2.735423E1,2.84E1,5.7952943E0,-1.269E1,3.298591E1,3.1134E1,1.84E0,-1.07E0,3.531485E-1,-1.79E0,3.2485363E1,3.58187E-1,4.122E1,5.098025E-1,6.199748E-1,7.341826E-1,8.7086374E-1,-4.0743908E-1,-3.341741E-1,2.9770916E-2,1.2901723E-1,-2.647253E-1,-2.0084582E-1,-1.2156601E-1,-3.794313E-1,-8.680888E-2,-4.318511E-2,-9.076912E-2,7.359866E-2,1.5340233E-1,3.3124003E-1,-3.5864174E-1,-7.901272E-3,4.4304997E-2,1.1772487E-1,6.60352E-2,1.5293728E-1,1.2059998E-1,4.7874746E-1,-1.2956455E-1,1.1589904E-1,-1.696174E-1,-7.033846E-2,2.0240836E-1,2.943084E-1,-7.761236E-2,3.0545884E-1,1.3534619E-1,2.4465077E-1,2.735362E-1,4.4716072E-1,6.722645E-1,3.5957587E-1,4.7673468E-2,1.7143522E-1],"split_indices":[17,17,17,17,17,2,17,20,17,2,2,21,20,2,0,18,21,21,22,17,20,15,20,0,22,17,20,26,20,17,0,0,0,0,0,17,20,17,0,22,21,1,20,21,17,20,2,21,17,17,21,21,0,21,13,0,20,0,0,0,0,0,0,0,0,0,0,0,0,0,0,0,0,0,0,0,0,0,0,0,0,0,0,0,0,0,0,0,0,0,0,0,0,0,0,0,0,0,0],"split_type":[0,0,0,0,0,0,0,0,0,0,0,0,0,0,0,0,0,0,0,0,0,0,0,0,0,0,0,0,0,0,0,0,0,0,0,0,0,0,0,0,0,0,0,0,0,0,0,0,0,0,0,0,0,0,0,0,0,0,0,0,0,0,0,0,0,0,0,0,0,0,0,0,0,0,0,0,0,0,0,0,0,0,0,0,0,0,0,0,0,0,0,0,0,0,0,0,0,0,0],"sum_hessian":[7.3336875E3,6.0872124E3,1.2464747E3,1.5071606E3,4.580052E3,7.9720776E2,4.4926694E2,1.5122551E2,1.3559352E3,1.7759714E3,2.8040806E3,3.855931E2,4.1161465E2,3.0781583E2,1.4145111E2,3.84889E1,1.127366E2,6.771132E2,6.7882196E2,1.7473733E3,2.8598166E1,2.5857773E3,2.183031E2,2.1982357E1,3.6361075E2,2.1687682E2,1.9473785E2,1.8680305E1,2.8913553E2,1.3870169E2,2.7494164E0,2.6597397E1,1.1891503E1,1.1135135E2,1.3852539E0,6.714663E2,5.6468973E0,6.703725E2,8.449465E0,1.0126563E3,7.34717E2,1.0451993E1,1.8146172E1,8.987327E2,1.6870447E3,1.8136592E2,3.6937176E1,4.8206654E0,1.7161692E1,3.4538638E2,1.822437E1,1.0476318E2,1.1211363E2,1.672467E2,2.749114E1,4.528898E0,1.4151407E1,1.0039509E2,1.8874043E2,7.8138916E1,6.056278E1,1.5274875E2,5.187175E2,1.4424747E0,4.2044225E0,2.0072334E2,4.6964917E2,1.0081873E3,4.4690175E0,3.6898752E2,3.6572946E2,6.5722256E0,3.879768E0,3.5463412E0,1.4599831E1,1.2357602E1,8.863751E2,1.4479523E3,2.3909235E2,3.866175E1,1.4270418E2,6.8664293E0,3.0070747E1,1.1690588E0,3.6516068E0,6.5098186E0,1.0651874E1,2.2366695E2,1.21719444E2,1.5398564E1,2.8258047E0,4.9926977E0,9.9770485E1,6.167303E0,1.610794E2,2.116475E1,6.326391E0,3.041341E0,1.1110066E1],"tree_param":{"num_deleted":"0","num_feature":"27","num_nodes":"99","size_leaf_vector":"1"}},{"base_weights":[-2.3815999E-2,-1.7081312E0,7.7218847E0,-6.1283092E0,-2.6814687E-1,5.4881988E0,1.1994203E1,-1.1414709E1,-5.365574E0,-1.8182362E0,7.752315E-1,3.799635E0,7.1995196E0,1.077524E1,1.5501234E1,-9.040786E-1,-9.6611E0,-6.5540805E0,-4.122379E0,-1.9106528E0,3.5361428E0,5.693536E-1,3.5134983E0,-1.4145157E0,4.0796533E0,5.202927E0,8.546691E0,4.349049E0,1.1152504E1,2.124952E-1,7.8210413E-1,-5.342079E-1,-4.4181156E-1,-6.6328077E0,1.122813E-1,-4.2324667E0,2.2784367E-1,-2.4297538E0,-1.285748E0,-5.2007765E-1,5.6032486E0,-2.0089135E-1,1.0268072E0,2.4177883E0,7.85217E0,8.938819E-2,-1.9236629E0,4.474644E0,2.1837728E0,4.166826E0,3.045127E-1,8.198771E0,1.2206409E1,5.1003785E0,2.3068376E0,5.050492E-1,6.0487455E-1,-3.6535507E-1,-3.089131E-1,-2.4945235E-1,-1.9329037E-1,-2.4013965E-1,-1.1859174E-1,-8.36814E-2,-4.1236293E-2,-9.247697E-2,6.2649526E-2,2.1474922E-1,3.4850612E-1,-3.426652E-1,-4.3827146E-3,3.0109426E-2,7.605764E-2,5.7881314E-2,1.4243649E-1,9.420703E-2,4.4457823E-1,-1.2696002E-1,7.4308724E-3,1.9214241E-1,3.0079618E-1,5.373424E-2,1.9833426E-1,1.1300184E-1,2.1251908E-1,3.6447188E-1,4.3091774E-1,6.555305E-1,2.4131759E-1,1.0045526E-1,2.7045926E-1,1.384735E-1,-7.6921373E-3],"categories":[],"categories_nodes":[],"categories_segments":[],"categories_sizes":[],"default_left":[0,0,0,0,0,0,0,0,0,0,0,0,0,0,0,0,0,0,0,0,0,0,0,0,0,0,0,0,0,0,0,0,0,0,0,0,0,0,0,0,0,0,0,0,0,0,0,0,0,0,0,0,0,0,0,0,0,0,0,0,0,0,0,0,0,0,0,0,0,0,0,0,0,0,0,0,0,0,0,0,0,0,0,0,0,0,0,0,0,0,0,0,0],"id":3,"left_children":[1,3,5,7,9,11,13,15,17,19,21,23,25,27,29,-1,31,33,35,37,39,41,43,45,47,49,51,53,55,-1,-1,-1,-1,57,-1,59,-1,61,63,65,67,69,71,73,75,-1,77,79,81,83,-1,85,87,89,91,-1,-1,-1,-1,-1,-1,-1,-1,-1,-1,-1,-1,-1,-1,-1,-1,-1,-1,-1,-1,-1,-1,-1,-1,-1,-1,-1,-1,-1,-1,-1,-1,-1,-1,-1,-1,-1,-1],"loss_changes":[9.639241E4,3.8626492E4,1.2527945E4,5.9515273E3,7.4065625E3,2.482168E3,1.7662656E3,2.0131855E3,1.901293E3,9.1840137E2,1.5411495E3,6.470947E2,1.1126602E3,7.730547E2,1.14759766E2,0E0,3.2441406E1,4.7595508E2,6.313262E2,5.8457715E2,2.679509E2,8.9767377E2,8.9006274E2,4.1149883E1,3.0258936E2,1.3631836E2,2.2501562E2,1.9582214E1,1.9522266E2,0E0,0E0,0E0,0E0,1.5709961E2,0E0,1.5632617E2,0E0,1.2447363E2,1.46005E2,2.9627989E1,7.6591797E0,7.1496313E2,3.3455444E2,8.039282E1,2.1964868E2,0E0,2.644748E1,3.1209766E2,1.4181274E2,3.8256836E0,0E0,2.7296875E1,7.098218E1,2.601715E0,8.759758E0,0E0,0E0,0E0,0E0,0E0,0E0,0E0,0E0,0E0,0E0,0E0,0E0,0E0,0E0,0E0,0E0,0E0,0E0,0E0,0E0,0E0,0E0,0E0,0E0,0E0,0E0,0E0,0E0,0E0,0E0,0E0,0E0,0E0,0E0,0E0,0E0,0E0,0E0],"parents":[2147483647,0,0,1,1,2,2,3,3,4,4,5,5,6,6,7,7,8,8,9,9,10,10,11,11,12,12,13,13,14,14,16,16,17,17,18,18,19,19,20,20,21,21,22,22,23,23,24,24,25,25,26,26,27,27,28,28,33,33,35,35,37,37,38,38,39,39,40,40,41,41,42,42,43,43,44,44,46,46,47,47,48,48,49,49,51,51,52,52,53,53,54,54],"right_children":[2,4,6,8,10,12,14,16,18,20,22,24,26,28,30,-1,32,34,36,38,40,42,44,46,48,50,52,54,56,-1,-1,-1,-1,58,-1,60,-1,62,64,66,68,70,72,74,76,-1,78,80,82,84,-1,86,88,90,92,-1,-1,-1,-1,-1,-1,-1,-1,-1,-1,-1,-1,-1,-1,-1,-1,-1,-1,-1,-1,-1,-1,-1,-1,-1,-1,-1,-1,-1,-1,-1,-1,-1,-1,-1,-1,-1,-1],"split_conditions":[2.9072E1,2.1622E1,3.6122E1,1.565E1,2.48E1,6.2544036E0,4.1252E1,1.2188872E1,1.9122E1,4.0644183E0,2.6447492E0,-4.76E0,3.451E1,4.0644183E0,2.3337529E0,-9.040786E-1,1.4112E1,4.235E0,5.71E0,2.3362036E1,2.857E1,2.6003477E1,3.351E1,3.3679183E0,4.289177E0,3.1438E1,4.031E1,7.0710677E-1,3.8157E1,2.124952E-1,7.8210413E-1,-5.342079E-1,-4.4181156E-1,1.769E1,1.122813E-1,2.0228E1,2.2784367E-1,1.852E1,2.8698356E-4,2.3033E2,3.261E1,-4.76E0,2.6754227E1,2.84E1,4.634345E0,8.938819E-2,3.778E1,3.1134E1,1.2996832E0,-1.07E0,3.045127E-1,3.577E1,3.462E1,-1.269E1,5.2036586E0,5.050492E-1,6.0487455E-1,-3.6535507E-1,-3.089131E-1,-2.4945235E-1,-1.9329037E-1,-2.4013965E-1,-1.1859174E-1,-8.36814E-2,-4.1236293E-2,-9.247697E-2,6.2649526E-2,2.1474922E-1,3.4850612E-1,-3.426652E-1,-4.3827146E-3,3.0109426E-2,7.605764E-2,5.7881314E-2,1.4243649E-1,9.420703E-2,4.4457823E-1,-1.2696002E-1,7.4308724E-3,1.9214241E-1,3.0079618E-1,5.373424E-2,1.9833426E-1,1.1300184E-1,2.1251908E-1,3.6447188E-1,4.3091774E-1,6.555305E-1,2.4131759E-1,1.0045526E-1,2.7045926E-1,1.384735E-1,-7.6921373E-3],"split_indices":[17,17,17,17,17,2,17,20,17,2,2,21,20,2,2,0,17,21,21,17,20,15,20,19,19,17,20,10,17,0,0,0,0,17,0,17,0,16,21,1,20,21,17,20,2,0,14,17,2,21,0,20,13,21,19,0,0,0,0,0,0,0,0,0,0,0,0,0,0,0,0,0,0,0,0,0,0,0,0,0,0,0,0,0,0,0,0,0,0,0,0,0,0],"split_type":[0,0,0,0,0,0,0,0,0,0,0,0,0,0,0,0,0,0,0,0,0,0,0,0,0,0,0,0,0,0,0,0,0,0,0,0,0,0,0,0,0,0,0,0,0,0,0,0,0,0,0,0,0,0,0,0,0,0,0,0,0,0,0,0,0,0,0,0,0,0,0,0,0,0,0,0,0,0,0,0,0,0,0,0,0,0,0,0,0,0,0,0,0],"sum_hessian":[7.386531E3,6.067847E3,1.3186837E3,1.4902174E3,4.57763E3,8.674444E2,4.5123935E2,1.8614067E2,1.3040768E3,1.8413281E3,2.7363018E3,4.3824625E2,4.2919812E2,3.3787448E2,1.1336486E2,3.682573E1,1.4931494E2,6.645185E2,6.395582E2,1.8107183E3,3.0609821E1,2.5460813E3,1.9022038E2,2.2129354E1,4.161169E2,1.7487883E2,2.5431929E2,1.9430456E1,3.1844403E2,1.7870094E0,1.1157785E2,6.1315186E1,8.7999756E1,6.588701E2,5.6484075E0,6.3205365E2,7.504624E0,9.875138E2,8.2320447E2,1.05858755E1,2.0023947E1,9.489061E2,1.5971752E3,1.5311037E2,3.7110004E1,2.6912777E0,1.9438076E1,3.432445E2,7.2872375E1,8.3303764E1,9.157507E1,2.3519974E2,1.9119547E1,1.3109861E1,6.3205953E0,1.5625854E2,1.6218549E2,2.5923438E2,3.9963574E2,2.0220607E2,4.2984756E2,2.15762E1,9.659376E2,4.4563794E2,3.7756653E2,6.0250854E0,4.56079E0,1.2347798E1,7.6761475E0,1.4885675E1,9.3402045E2,8.60374E2,7.368011E2,3.9956257E1,1.1315411E2,5.921642E0,3.1188362E1,1.4812843E1,4.6252337E0,2.4592789E2,9.731663E1,4.5913773E1,2.6958605E1,4.674616E0,7.862914E1,8.006141E1,1.5513834E2,1.634097E1,2.7785795E0,1.8724048E0,1.1237456E1,5.214692E0,1.1059031E0],"tree_param":{"num_deleted":"0","num_feature":"27","num_nodes":"93","size_leaf_vector":"1"}},{"base_weights":[2.135846E-3,-1.5923514E0,7.9231462E0,-5.5634212E0,-7.401169E-2,5.7192326E0,1.1507747E1,-1.0640002E1,-4.8068504E0,-1.3234051E0,1.0613945E0,4.4887815E0,7.4144382E0,2.6197028E0,1.1950301E1,-8.76873E-1,-9.02301E0,-5.9744673E0,-3.5807533E0,-1.9481186E0,-5.2668667E-1,9.6592164E-1,9.163748E0,-1.8517236E0,4.712512E0,-4.1842103E-1,7.7303324E0,8.398017E-1,5.210092E0,1.0622954E1,1.4734853E1,-5.115838E-1,-8.259056E0,-6.038241E0,1.1724532E-1,-3.7932935E0,5.19828E0,-1.9957513E0,3.2851186E0,-2.4798305E0,-4.1932803E-1,6.6729635E-1,2.3475525E0,2.6003173E-1,5.445046E-1,-4.417114E0,5.42318E-1,4.422929E0,7.0549407E0,-1.3113293E-1,1.3601536E-1,6.7623515E0,8.216019E0,-7.11169E-1,2.7341204E0,2.870712E-1,4.4494327E-2,4.8170885E-1,1.1337917E1,5.6917363E-1,1.5138401E1,-4.1530952E-1,-1.42066E-1,-3.2610473E-1,-2.638214E-1,-3.6151865E-1,-1.8227008E-1,2.9218063E-1,1.844021E-2,-1.2269592E-1,-8.854153E-2,6.708532E-2,2.240107E-1,-2.6587552E-1,-9.7439736E-2,-2.3984678E-2,1.04164205E-1,1.0036035E-2,5.1602613E-2,-2.8395388E-1,1.2819675E-1,-6.175965E-2,-2.3836695E-1,-2.2900881E-2,5.1379688E-2,1.8905067E-1,2.4898362E-1,3.0700174E-1,4.9076626E-1,2.6762092E-1,3.512856E-1,3.9392838E-1,4.7948208E-1,1.5029492E-2,-4.5924257E-2,1.5068202E-1,3.5457898E-2,3.5403332E-1,5.7677424E-1,6.941348E-1,8.407917E-1],"categories":[],"categories_nodes":[],"categories_segments":[],"categories_sizes":[],"default_left":[0,0,0,0,0,0,0,0,0,0,0,0,0,0,0,0,0,0,0,0,0,0,0,0,0,0,0,0,0,0,0,0,0,0,0,0,0,0,0,0,0,0,0,0,0,0,0,0,0,0,0,0,0,0,0,0,0,0,0,0,0,0,0,0,0,0,0,0,0,0,0,0,0,0,0,0,0,0,0,0,0,0,0,0,0,0,0,0,0,0,0,0,0,0,0,0,0,0,0,0,0],"id":4,"left_children":[1,3,5,7,9,11,13,15,17,19,21,23,25,27,29,-1,31,33,35,37,39,41,43,45,47,49,51,53,55,57,59,-1,61,63,-1,65,67,69,71,73,75,77,79,-1,-1,81,83,85,87,-1,-1,89,91,93,95,-1,-1,-1,97,-1,99,-1,-1,-1,-1,-1,-1,-1,-1,-1,-1,-1,-1,-1,-1,-1,-1,-1,-1,-1,-1,-1,-1,-1,-1,-1,-1,-1,-1,-1,-1,-1,-1,-1,-1,-1,-1,-1,-1,-1,-1],"loss_changes":[9.312078E4,3.700546E4,9.694641E3,6.468965E3,6.3011885E3,1.5667285E3,1.8150781E3,2.2882793E3,2.0962969E3,1.0515457E3,1.791333E3,6.4281934E2,7.976875E2,1.0418158E2,1.4951016E3,0E0,8.147754E1,4.1536523E2,1.3707119E3,3.0193848E2,1.9413849E2,9.47875E2,1.2798462E2,1.00373184E2,2.6186328E2,9.9810684E1,8.955859E1,4.6449356E1,1.6461365E1,1.0723047E2,1.9267578E1,0E0,5.8496094E0,2.4230469E2,0E0,3.3328027E2,5.2499847E1,1.1673047E2,1.9690842E1,6.241278E1,1.344732E2,3.2205627E2,7.241931E2,0E0,0E0,2.8150787E0,4.9088917E0,1.1954639E2,5.5538574E1,0E0,0E0,2.7895508E0,1.756836E1,2.189529E0,1.8394432E0,0E0,0E0,0E0,6.3029297E1,0E0,2.649414E1,0E0,0E0,0E0,0E0,0E0,0E0,0E0,0E0,0E0,0E0,0E0,0E0,0E0,0E0,0E0,0E0,0E0,0E0,0E0,0E0,0E0,0E0,0E0,0E0,0E0,0E0,0E0,0E0,0E0,0E0,0E0,0E0,0E0,0E0,0E0,0E0,0E0,0E0,0E0,0E0],"parents":[2147483647,0,0,1,1,2,2,3,3,4,4,5,5,6,6,7,7,8,8,9,9,10,10,11,11,12,12,13,13,14,14,16,16,17,17,18,18,19,19,20,20,21,21,22,22,23,23,24,24,25,25,26,26,27,27,28,28,29,29,30,30,32,32,33,33,35,35,36,36,37,37,38,38,39,39,40,40,41,41,42,42,45,45,46,46,47,47,48,48,51,51,52,52,53,53,54,54,58,58,60,60],"right_children":[2,4,6,8,10,12,14,16,18,20,22,24,26,28,30,-1,32,34,36,38,40,42,44,46,48,50,52,54,56,58,60,-1,62,64,-1,66,68,70,72,74,76,78,80,-1,-1,82,84,86,88,-1,-1,90,92,94,96,-1,-1,-1,98,-1,100,-1,-1,-1,-1,-1,-1,-1,-1,-1,-1,-1,-1,-1,-1,-1,-1,-1,-1,-1,-1,-1,-1,-1,-1,-1,-1,-1,-1,-1,-1,-1,-1,-1,-1,-1,-1,-1,-1,-1,-1],"split_conditions":[2.982E1,2.201E1,3.65E1,1.6154E1,2.5436972E1,3.312E1,4.0644183E0,1.2188872E1,1.984E1,2.39E1,4.235E0,-2.73E0,-3.8E0,2.828E1,4.104E1,-8.76873E-1,1.403E1,7.63E0,5.71E0,2.76E0,-1.37E0,2.751E1,5.616113E0,-7.6025E0,7.9E-1,-1.293E1,3.461E1,3.9135162E1,1.998E0,3.824E1,-2.26E0,-5.115838E-1,7.1318215E-1,1.823E1,1.1724532E-1,1.823E1,2.6789238E1,2.286484E1,5.71E0,-3.8E0,3.4574666E0,2.6300793E1,-4.76E0,2.6003173E-1,5.445046E-1,7.095193E-1,3.098E1,3.098E1,2.76E0,-1.3113293E-1,1.3601536E-1,-5.8166665E-1,4.7E-1,2E0,1.4E1,2.870712E-1,4.4494327E-2,4.8170885E-1,-2.26E0,5.6917363E-1,4.392E1,-4.1530952E-1,-1.42066E-1,-3.2610473E-1,-2.638214E-1,-3.6151865E-1,-1.8227008E-1,2.9218063E-1,1.844021E-2,-1.2269592E-1,-8.854153E-2,6.708532E-2,2.240107E-1,-2.6587552E-1,-9.7439736E-2,-2.3984678E-2,1.04164205E-1,1.0036035E-2,5.1602613E-2,-2.8395388E-1,1.2819675E-1,-6.175965E-2,-2.3836695E-1,-2.2900881E-2,5.1379688E-2,1.8905067E-1,2.4898362E-1,3.0700174E-1,4.9076626E-1,2.6762092E-1,3.512856E-1,3.9392838E-1,4.7948208E-1,1.5029492E-2,-4.5924257E-2,1.5068202E-1,3.5457898E-2,3.5403332E-1,5.7677424E-1,6.941348E-1,8.407917E-1],"split_indices":[12,12,12,17,17,12,2,20,17,12,21,21,21,15,12,0,12,22,21,21,21,12,2,22,21,22,12,12,0,12,21,0,4,12,0,12,15,12,21,21,2,12,21,0,0,4,12,12,21,0,0,21,21,6,5,0,0,0,21,0,12,0,0,0,0,0,0,0,0,0,0,0,0,0,0,0,0,0,0,0,0,0,0,0,0,0,0,0,0,0,0,0,0,0,0,0,0,0,0,0,0],"split_type":[0,0,0,0,0,0,0,0,0,0,0,0,0,0,0,0,0,0,0,0,0,0,0,0,0,0,0,0,0,0,0,0,0,0,0,0,0,0,0,0,0,0,0,0,0,0,0,0,0,0,0,0,0,0,0,0,0,0,0,0,0,0,0,0,0,0,0,0,0,0,0,0,0,0,0,0,0,0,0,0,0,0,0,0,0,0,0,0,0,0,0,0,0,0,0,0,0,0,0,0,0],"sum_hessian":[7.3710137E3,6.136537E3,1.2344766E3,1.6965946E3,4.4399424E3,7.660703E2,4.6840625E2,2.1835718E2,1.4782374E3,2.1137834E3,2.326159E3,4.4599585E2,3.2007443E2,2.2544916E1,4.4586133E2,3.9598724E1,1.7875845E2,7.5519244E2,7.2304504E2,1.1839744E3,9.298091E2,2.3001743E3,2.598454E1,1.49529915E1,4.3104285E2,1.2395421E1,3.0767902E2,1.414787E1,8.397047E0,3.0519513E2,1.4066621E2,6.442984E1,1.1432861E2,7.497195E2,5.4729466E0,7.065084E2,1.6536629E1,1.1739082E3,1.0066211E1,4.7294548E1,8.825145E2,1.8925929E3,4.075815E2,9.101961E0,1.6882578E1,6.810258E0,8.142734E0,3.8618842E2,4.4854446E1,7.3782854E0,5.017135E0,1.0778499E2,1.9989404E2,8.122314E0,6.0255556E0,7.1844745E0,1.2125721E0,1.341473E2,1.7104782E2,1.8256704E1,1.224095E2,1.12813995E2,1.5146184E0,4.5388242E2,2.9583707E2,2.7170183E1,6.7933826E2,1.4402167E1,2.1344614E0,3.8327005E2,7.906381E2,4.6413407E0,5.42487E0,6.0345335E0,4.1260014E1,8.62518E2,1.999648E1,8.3107623E2,1.0615166E3,1.003646E1,3.9754504E2,1.124115E0,5.6861424E0,2.6781764E0,5.4645576E0,1.829925E2,2.031959E2,3.6110325E1,8.744123E0,2.0320448E1,8.746454E1,1.65879E2,3.4015045E1,1.3047706E0,6.8175435E0,4.8656683E0,1.1598874E0,9.219622E0,1.618282E2,7.530974E1,4.709977E1],"tree_param":{"num_deleted":"0","num_feature":"27","num_nodes":"101","size_leaf_vector":"1"}},{"base_weights":[3.7274233E-3,-1.50805E0,7.436866E0,-5.255665E0,-8.796963E-2,5.284323E0,1.0980115E1,-9.721673E0,-4.4904056E0,-1.3215137E0,9.4953704E-1,4.0976324E0,6.986141E0,3.1029575E0,1.1357671E1,-1.666453E1,-8.445205E0,-4.6559873E0,3.4976788E0,-1.385316E0,6.954595E0,6.3994336E-1,2.6245904E0,-3.7631185E0,4.3044324E0,-7.0368074E-2,7.335143E0,1.0725701E0,4.9513693E0,1.0131577E1,1.3957367E1,-9.0422505E-1,-6.029851E-1,-4.8771867E-1,-7.7640147E0,-5.8160257E0,-3.5807636E0,2.5275803E-1,4.7358E0,-1.8848696E0,-6.219125E-1,1.6482878E-1,4.114666E-1,-5.6597333E0,6.8148243E-1,2.3749154E0,1.0428615E1,-2.4353655E-1,-3.625674E-1,4.059441E0,6.4705276E0,-1.3029395E-1,2.29254E0,6.506708E0,7.868587E0,-5.0246453E-1,2.2859414E0,3.2432947E0,3.2641587E-1,9.836235E0,6.466833E-1,4.6249276E-1,1.4250071E1,-3.9000022E-1,-1.3237885E-1,-3.0910587E-1,-2.544267E-1,-2.0981054E-1,-1.5928996E-1,-3.5998337E-2,4.1225087E-2,1.21372856E-1,2.9234135E-1,-1.6837673E-1,-9.065962E-2,-1.0014341E-1,-2.5413597E-2,-3.585442E-1,-1.2508865E-1,1.3535671E-2,5.259795E-2,1.06896065E-1,2.0726828E-1,5.5346864E-1,1.4795469E-1,2.498529E-2,-7.028205E-2,1.2716413E-1,2.1451943E-1,2.8343162E-1,4.493452E-1,1.3295497E-1,9.531661E-3,2.158046E-1,3.3151183E-1,3.7999752E-1,4.794073E-1,-5.7008553E-2,3.3841243E-3,1.4269555E-1,3.831479E-2,4.8975367E-2,1.8664216E-1,4.4657832E-1,5.2675E-1,6.550774E-1,7.880877E-1],"categories":[],"categories_nodes":[],"categories_segments":[],"categories_sizes":[],"default_left":[0,0,0,0,0,0,0,0,0,0,0,0,0,0,0,0,0,0,0,0,0,0,0,0,0,0,0,0,0,0,0,0,0,0,0,0,0,0,0,0,0,0,0,0,0,0,0,0,0,0,0,0,0,0,0,0,0,0,0,0,0,0,0,0,0,0,0,0,0,0,0,0,0,0,0,0,0,0,0,0,0,0,0,0,0,0,0,0,0,0,0,0,0,0,0,0,0,0,0,0,0,0,0,0,0,0,0],"id":5,"left_children":[1,3,5,7,9,11,13,15,17,19,21,23,25,27,29,31,33,35,37,39,41,43,45,47,49,51,53,55,57,59,61,-1,-1,-1,63,65,67,69,71,73,75,-1,-1,77,79,81,83,-1,85,87,89,-1,91,93,95,97,99,101,-1,103,-1,-1,105,-1,-1,-1,-1,-1,-1,-1,-1,-1,-1,-1,-1,-1,-1,-1,-1,-1,-1,-1,-1,-1,-1,-1,-1,-1,-1,-1,-1,-1,-1,-1,-1,-1,-1,-1,-1,-1,-1,-1,-1,-1,-1,-1,-1],"loss_changes":[8.326837E4,3.277011E4,9.493773E3,5.739379E3,5.7176025E3,1.5486328E3,1.3696016E3,2.0453594E3,1.9294531E3,1.0873127E3,1.2567407E3,7.6814014E2,7.872168E2,8.0936844E1,1.2941719E3,2.5676758E1,1.118916E2,1.7472129E3,1.1910886E2,7.715183E2,4.6452087E1,5.401545E2,7.121819E2,4.4903305E1,2.131582E2,1.0210219E2,8.332324E1,2.4517445E1,1.04841E1,1.2907617E2,6.3427734E1,0E0,0E0,0E0,5.7333984E0,1.4971289E2,1.6608203E2,5.7805223E0,4.1249878E1,1.2399658E2,1.2498596E2,0E0,0E0,4.663916E1,3.0968933E2,1.4545654E2,2.1952515E1,0E0,4.412209E0,1.3195459E2,3.8165405E1,0E0,6.301857E0,5.2109375E0,1.0458008E1,2.3098722E0,3.9300804E0,4.7986526E0,0E0,8.565039E1,0E0,0E0,2.1886719E1,0E0,0E0,0E0,0E0,0E0,0E0,0E0,0E0,0E0,0E0,0E0,0E0,0E0,0E0,0E0,0E0,0E0,0E0,0E0,0E0,0E0,0E0,0E0,0E0,0E0,0E0,0E0,0E0,0E0,0E0,0E0,0E0,0E0,0E0,0E0,0E0,0E0,0E0,0E0,0E0,0E0,0E0,0E0,0E0],"parents":[2147483647,0,0,1,1,2,2,3,3,4,4,5,5,6,6,7,7,8,8,9,9,10,10,11,11,12,12,13,13,14,14,15,15,16,16,17,17,18,18,19,19,20,20,21,21,22,22,23,23,24,24,25,25,26,26,27,27,28,28,29,29,30,30,34,34,35,35,36,36,37,37,38,38,39,39,40,40,43,43,44,44,45,45,46,46,48,48,49,49,50,50,52,52,53,53,54,54,55,55,56,56,57,57,59,59,62,62],"right_children":[2,4,6,8,10,12,14,16,18,20,22,24,26,28,30,32,34,36,38,40,42,44,46,48,50,52,54,56,58,60,62,-1,-1,-1,64,66,68,70,72,74,76,-1,-1,78,80,82,84,-1,86,88,90,-1,92,94,96,98,100,102,-1,104,-1,-1,106,-1,-1,-1,-1,-1,-1,-1,-1,-1,-1,-1,-1,-1,-1,-1,-1,-1,-1,-1,-1,-1,-1,-1,-1,-1,-1,-1,-1,-1,-1,-1,-1,-1,-1,-1,-1,-1,-1,-1,-1,-1,-1,-1,-1],"split_conditions":[2.962E1,2.201E1,3.65E1,1.6552E1,2.5306683E1,3.312E1,4.0644183E0,1.2188872E1,4.235E0,5.71E0,2.765E1,-4.76E0,-3.8E0,2.731E1,4.104E1,8.834289E0,1.403E1,1.941E1,3.8866441E0,2.39E1,3.125E1,-3.8E0,5.71E0,2.112E1,7.9E-1,-1.269E1,3.577E1,3.5364666E1,-4.76E0,1.61E0,-3.8E0,-9.0422505E-1,-6.029851E-1,-4.8771867E-1,7.145883E-1,1.823E1,2.0760317E1,2.1142E1,3.099E1,-6.5166664E-1,-4.4333333E-1,1.6482878E-1,4.114666E-1,7.0204043E-1,2.6356754E1,8.7E-1,3.954E1,-2.4353655E-1,3.247E1,-1.07E0,2.76E0,-1.3029395E-1,7.2501826E-1,-1.79E0,1.44E0,3.4936333E1,2.6093304E1,7.3631215E-1,3.2641587E-1,3.824E1,6.466833E-1,4.6249276E-1,4.392E1,-3.9000022E-1,-1.3237885E-1,-3.0910587E-1,-2.544267E-1,-2.0981054E-1,-1.5928996E-1,-3.5998337E-2,4.1225087E-2,1.21372856E-1,2.9234135E-1,-1.6837673E-1,-9.065962E-2,-1.0014341E-1,-2.5413597E-2,-3.585442E-1,-1.2508865E-1,1.3535671E-2,5.259795E-2,1.06896065E-1,2.0726828E-1,5.5346864E-1,1.4795469E-1,2.498529E-2,-7.028205E-2,1.2716413E-1,2.1451943E-1,2.8343162E-1,4.493452E-1,1.3295497E-1,9.531661E-3,2.158046E-1,3.3151183E-1,3.7999752E-1,4.794073E-1,-5.7008553E-2,3.3841243E-3,1.4269555E-1,3.831479E-2,4.8975367E-2,1.8664216E-1,4.4657832E-1,5.2675E-1,6.550774E-1,7.880877E-1],"split_indices":[12,12,12,17,12,12,2,20,21,21,17,21,21,15,12,18,12,12,2,12,20,21,21,15,21,21,20,18,21,21,21,0,0,0,4,12,17,17,20,21,21,0,0,4,12,21,15,0,12,21,21,0,4,21,21,17,15,26,0,12,0,0,12,0,0,0,0,0,0,0,0,0,0,0,0,0,0,0,0,0,0,0,0,0,0,0,0,0,0,0,0,0,0,0,0,0,0,0,0,0,0,0,0,0,0,0,0],"split_type":[0,0,0,0,0,0,0,0,0,0,0,0,0,0,0,0,0,0,0,0,0,0,0,0,0,0,0,0,0,0,0,0,0,0,0,0,0,0,0,0,0,0,0,0,0,0,0,0,0,0,0,0,0,0,0,0,0,0,0,0,0,0,0,0,0,0,0,0,0,0,0,0,0,0,0,0,0,0,0,0,0,0,0,0,0,0,0,0,0,0,0,0,0,0,0,0,0,0,0,0,0,0,0,0,0,0,0],"sum_hessian":[7.4080327E3,6.1566655E3,1.2513668E3,1.6911068E3,4.465559E3,7.800025E2,4.713643E2,2.4567252E2,1.4454343E3,2.0399207E3,2.4256384E3,4.6156052E2,3.18442E2,2.1981E1,4.493833E2,3.6280956E1,2.0939156E2,1.4164896E3,2.8944687E1,2.025141E3,1.47796545E1,2.048419E3,3.772194E2,1.1390642E1,4.5016986E2,1.5044938E1,3.0339703E2,1.122794E1,1.0753062E1,3.0869205E2,1.4069125E2,2.5492617E1,1.0788341E1,6.710463E1,1.4228693E2,6.792501E2,7.372395E2,8.326468E0,2.061822E1,1.2232233E3,8.019178E2,4.746125E0,1.0033529E1,1.2532491E1,2.0358865E3,3.6678897E2,1.0430397E1,8.265956E0,3.1246865E0,4.0700995E2,4.3159912E1,7.2078023E0,7.837136E0,1.2400922E2,1.7938782E2,5.1407743E0,6.087165E0,6.629258E0,4.123804E0,2.8333838E2,2.5353666E1,1.0144254E1,1.30547E2,1.4077222E2,1.5147125E0,4.468743E2,2.3237582E2,2.8442078E2,4.528187E2,2.9863887E0,5.34008E0,7.7341413E0,1.2884077E1,5.42875E1,1.1689358E3,5.9709194E1,7.4220856E2,7.616908E0,4.9155827E0,9.6626385E2,1.0696226E3,3.2543372E2,4.1355267E1,9.162473E0,1.2679245E0,1.9957762E0,1.1289103E0,5.5390022E1,3.5161993E2,3.5196518E1,7.9633937E0,6.4476223E0,1.3895135E0,8.538025E0,1.1547119E2,1.598371E2,1.9550734E1,1.954685E0,3.1860893E0,3.7919195E0,2.2952456E0,1.7122496E0,4.9170084E0,1.2948296E2,1.5385542E2,7.9677666E1,5.0869343E1],"tree_param":{"num_deleted":"0","num_feature":"27","num_nodes":"107","size_leaf_vector":"1"}},{"base_weights":[9.658389E-3,-1.4626839E0,6.7130466E0,-4.9969087E0,-1.4053144E-1,4.5595365E0,9.945479E0,-1.0450417E1,-4.4343534E0,-1.4100773E0,6.888504E-1,5.742573E0,3.1183014E0,8.842034E0,1.278111E1,-1.5538006E1,-4.2855343E-1,-5.6853294E0,-3.3557062E0,3.145654E0,-1.498452E0,3.4174008E0,5.3455305E-1,4.542562E0,6.8467984E0,-7.74075E-1,3.4303064E0,9.154537E0,4.5081477E0,1.2941078E1,1.957737E-1,-1.580582E1,-1.6396984E-1,-5.7496185E0,1.1542276E-1,5.649256E-1,-3.4794686E0,4.6097183E0,-1.520775E0,-1.80867E0,-7.664353E-1,2.6977122E0,7.645416E0,-1.8938088E-1,8.9402723E-1,3.517135E0,5.3962216E0,5.8797035E0,8.384016E0,9.189485E-1,-1.8216081E0,3.6588154E0,-1.951685E-1,8.435108E0,5.1194745E-1,2.0388665E0,6.0089407E0,5.9289163E-1,7.1848685E-1,-8.8334227E-1,-6.018294E-1,-3.4263864E-1,-2.721614E-1,1.6075474E-1,-1.2470198E-1,-2.023453E-1,-1.4868805E-1,1.5742214E-1,3.0673584E-1,-8.229634E-2,-1.7111786E-2,-2.1085022E-1,-8.8481694E-2,-4.1592952E-2,7.267856E-2,3.238748E-1,1.07058525E-1,1.7283909E-1,4.3171763E-1,-3.0290872E-1,-3.9716135E-3,2.819869E-2,7.0465975E-2,1.2771623E-1,1.8530586E-1,2.3619826E-1,3.046038E-1,2.1771875E-1,3.2990515E-1,3.671635E-1,5.5485123E-1,-3.6327984E-2,6.9331825E-2,1.631316E-2,-1.1627165E-1,1.6239132E-1,2.6100215E-1,-6.873261E-2,2.6804405E-1,1.3866447E-1,4.2281508E-1,3.956267E-2,1.4848052E-1,3.7309134E-1,1.603494E-1],"categories":[],"categories_nodes":[],"categories_segments":[],"categories_sizes":[],"default_left":[0,0,0,0,0,0,0,0,0,0,0,0,0,0,0,1,0,0,0,0,0,0,0,0,0,0,0,0,0,0,0,0,0,0,0,0,0,0,0,0,0,0,0,0,0,0,0,0,0,0,0,0,0,0,0,0,0,0,0,0,0,0,0,0,0,0,0,0,0,0,0,0,0,0,0,0,0,0,0,0,0,0,0,0,0,0,0,0,0,0,0,0,0,0,0,0,0,0,0,0,0,0,0,0,0],"id":6,"left_children":[1,3,5,7,9,11,13,15,17,19,21,23,25,27,29,31,-1,33,35,37,39,41,43,45,47,49,51,53,55,57,-1,59,-1,61,-1,63,65,67,69,71,73,75,77,79,81,83,85,87,89,91,93,95,97,99,-1,101,103,-1,-1,-1,-1,-1,-1,-1,-1,-1,-1,-1,-1,-1,-1,-1,-1,-1,-1,-1,-1,-1,-1,-1,-1,-1,-1,-1,-1,-1,-1,-1,-1,-1,-1,-1,-1,-1,-1,-1,-1,-1,-1,-1,-1,-1,-1,-1,-1],"loss_changes":[7.216689E4,2.8013527E4,9.120934E3,4.9609766E3,4.5960195E3,1.332707E3,1.5317539E3,1.3190469E3,1.9797051E3,6.9911816E2,1.1097489E3,5.437803E2,4.3898755E2,4.756211E2,1.5497852E2,7.863867E1,0E0,3.650039E2,3.8911328E2,2.3344647E2,3.829795E2,4.0880884E2,6.507952E2,1.6561572E2,2.8366602E2,5.0406776E1,2.764297E2,1.9059766E2,9.017566E1,4.9367188E1,0E0,5.8323242E1,0E0,1.9227734E2,0E0,2.1292438E2,2.0995312E2,3.745807E1,7.15086E-1,1.0423071E2,7.463364E1,2.4307654E2,5.29292E1,5.353287E2,2.8336E2,8.487183E0,2.417749E1,1.25586914E2,1.5609277E2,9.60207E0,1.9491299E1,1.8396289E2,1.4290462E2,2.8388672E0,0E0,1.1540489E1,4.3961548E1,0E0,0E0,0E0,0E0,0E0,0E0,0E0,0E0,0E0,0E0,0E0,0E0,0E0,0E0,0E0,0E0,0E0,0E0,0E0,0E0,0E0,0E0,0E0,0E0,0E0,0E0,0E0,0E0,0E0,0E0,0E0,0E0,0E0,0E0,0E0,0E0,0E0,0E0,0E0,0E0,0E0,0E0,0E0,0E0,0E0,0E0,0E0,0E0],"parents":[2147483647,0,0,1,1,2,2,3,3,4,4,5,5,6,6,7,7,8,8,9,9,10,10,11,11,12,12,13,13,14,14,15,15,17,17,18,18,19,19,20,20,21,21,22,22,23,23,24,24,25,25,26,26,27,27,28,28,29,29,31,31,33,33,35,35,36,36,37,37,38,38,39,39,40,40,41,41,42,42,43,43,44,44,45,45,46,46,47,47,48,48,49,49,50,50,51,51,52,52,53,53,55,55,56,56],"right_children":[2,4,6,8,10,12,14,16,18,20,22,24,26,28,30,32,-1,34,36,38,40,42,44,46,48,50,52,54,56,58,-1,60,-1,62,-1,64,66,68,70,72,74,76,78,80,82,84,86,88,90,92,94,96,98,100,-1,102,104,-1,-1,-1,-1,-1,-1,-1,-1,-1,-1,-1,-1,-1,-1,-1,-1,-1,-1,-1,-1,-1,-1,-1,-1,-1,-1,-1,-1,-1,-1,-1,-1,-1,-1,-1,-1,-1,-1,-1,-1,-1,-1,-1,-1,-1,-1,-1,-1],"split_conditions":[2.9072E1,2.2096E1,3.5594284E1,1.5282E1,2.4876032E1,9.88E-1,4.061E1,1.1306442E1,1.9122E1,9.87E-1,9.9E-1,2.05E1,-3.8E0,9.9E-1,9.87E-1,1.0000021E0,-4.2855343E-1,5.71E0,9.950304E-1,2.564E1,2.3882E1,1.44E0,2.591279E1,3.1438E1,3.6720347E0,-5E-1,7.63E0,3.8157E1,-4.76E0,4.336E1,1.957737E-1,1.618E1,-1.6396984E-1,1.7042E1,1.1542276E-1,2.02E1,2.0846E1,3.95E0,9.53E-1,1.852E1,1.69E0,-7.6025E0,3.1563804E0,-4.76E0,2.685E1,-5E-1,3.2718E1,3.298591E1,2.621929E1,-7.6025E0,3.6720347E0,3.1828E1,1.84E0,-4.76E0,5.1194745E-1,3.8157E1,3.954E1,5.9289163E-1,7.1848685E-1,-8.8334227E-1,-6.018294E-1,-3.4263864E-1,-2.721614E-1,1.6075474E-1,-1.2470198E-1,-2.023453E-1,-1.4868805E-1,1.5742214E-1,3.0673584E-1,-8.229634E-2,-1.7111786E-2,-2.1085022E-1,-8.8481694E-2,-4.1592952E-2,7.267856E-2,3.238748E-1,1.07058525E-1,1.7283909E-1,4.3171763E-1,-3.0290872E-1,-3.9716135E-3,2.819869E-2,7.0465975E-2,1.2771623E-1,1.8530586E-1,2.3619826E-1,3.046038E-1,2.1771875E-1,3.2990515E-1,3.671635E-1,5.5485123E-1,-3.6327984E-2,6.9331825E-2,1.631316E-2,-1.1627165E-1,1.6239132E-1,2.6100215E-1,-6.873261E-2,2.6804405E-1,1.3866447E-1,4.2281508E-1,3.956267E-2,1.4848052E-1,3.7309134E-1,1.603494E-1],"split_indices":[17,17,17,17,17,0,17,17,17,0,0,16,21,0,0,3,0,21,0,15,17,21,15,17,19,11,22,17,21,17,0,16,0,17,0,14,17,22,0,16,21,22,19,21,17,21,17,17,14,22,19,17,21,21,0,17,14,0,0,0,0,0,0,0,0,0,0,0,0,0,0,0,0,0,0,0,0,0,0,0,0,0,0,0,0,0,0,0,0,0,0,0,0,0,0,0,0,0,0,0,0,0,0,0,0],"split_type":[0,0,0,0,0,0,0,0,0,0,0,0,0,0,0,0,0,0,0,0,0,0,0,0,0,0,0,0,0,0,0,0,0,0,0,0,0,0,0,0,0,0,0,0,0,0,0,0,0,0,0,0,0,0,0,0,0,0,0,0,0,0,0,0,0,0,0,0,0,0,0,0,0,0,0,0,0,0,0,0,0,0,0,0,0,0,0,0,0,0,0,0,0,0,0,0,0,0,0,0,0,0,0,0,0],"sum_hessian":[7.309982E3,5.9941904E3,1.3157913E3,1.6311664E3,4.363024E3,7.911333E2,5.2465796E2,1.508849E2,1.4802815E3,1.7237527E3,2.6392715E3,4.3284683E2,3.5828647E2,3.806511E2,1.4400685E2,3.874106E1,1.1214385E2,6.8341296E2,7.968685E2,3.2143696E1,1.691609E3,1.4012863E2,2.4991428E3,2.0987746E2,2.2296938E2,2.6478355E1,3.318081E2,3.5401202E2,2.6639065E1,1.4100296E2,3.0038965E0,3.7629593E1,1.1114634E0,6.78239E2,5.173931E0,2.427587E1,7.7259265E2,2.4476494E1,7.6672025E0,1.1870736E3,5.0453546E2,1.21145424E2,1.8983204E1,8.293711E2,1.6697717E3,9.767228E1,1.1220518E2,1.3982655E2,8.314283E1,1.016784E1,1.6310516E1,3.12126E2,1.9682085E1,2.180981E2,1.3591394E2,1.0961855E1,1.5677209E1,8.548556E1,5.55174E1,2.2723131E1,1.4906462E1,1.427836E2,5.3545544E2,1.2979711E1,1.129616E1,3.607759E2,4.1181674E2,1.4064367E1,1.04121275E1,6.5726542E0,1.0945481E0,1.7226955E1,1.1698466E3,4.9069983E2,1.3835653E1,1.4182865E1,1.0696256E2,4.484518E0,1.4498685E1,1.4257177E1,8.151139E2,1.0191094E3,6.5066235E2,1.8407497E1,7.926478E1,6.1031788E1,5.117339E1,4.703071E1,9.279584E1,6.2770084E1,2.0372744E1,2.1278222E0,8.040018E0,3.1659753E0,1.3144541E1,2.4952066E2,6.260536E1,1.685628E1,2.8258047E0,1.3050573E0,2.1679303E2,5.4741607E0,5.4876943E0,9.22877E0,6.4484396E0],"tree_param":{"num_deleted":"0","num_feature":"27","num_nodes":"105","size_leaf_vector":"1"}},{"base_weights":[-6.532638E-3,-1.3262017E0,6.816997E0,-4.99785E0,-1.4540985E-1,4.625275E0,9.463102E0,-1.1490351E1,-4.5686545E0,-1.3229674E0,8.4731644E-1,-1.2187084E0,4.8633685E0,8.349427E0,1.1934655E1,-1.5095307E1,-4.4502053E-1,-5.704069E0,-3.5132499E0,-1.4067377E0,5.6200337E0,7.730294E-1,6.1584063E0,-3.456374E0,1.1248151E0,3.868368E0,6.1356587E0,2.1380916E-1,8.658646E0,3.6715698E0,1.2300066E1,-8.0182076E-1,-5.0943214E-1,-5.8388133E0,2.644477E0,-3.6437414E0,2.1363914E0,-1.8116094E0,-6.1544704E-1,2.6877656E0,3.7458706E-1,5.4314303E-1,2.025373E0,4.349665E0,9.648836E0,-3.78584E0,8.166772E-3,-3.497919E-1,1.7267698E0,3.679133E0,3.4008616E-1,5.375638E0,6.6436667E0,1.6372208E-1,-4.6004924E-1,3.8970292E-1,9.465986E0,1.9604719E-1,5.8755714E-2,1.1389156E1,7.0936614E-1,-3.5241863E-1,-2.7060738E-1,-1.3027422E-3,1.507087E-1,-2.0467809E-1,-1.552488E-1,1.3053076E-2,2.4816349E-1,-1.1798125E-1,-7.7276155E-2,-1.04231946E-1,-2.6126055E-2,7.605737E-2,1.5420054E-1,5.1167854E-3,4.1079152E-2,-1.6245952E-1,1.12315014E-1,5.94436E-2,2.229539E-1,2.1077617E-1,5.3074515E-1,-2.1358533E-1,-1.0017621E-1,5.4586255E-3,-3.84967E-2,2.7384082E-2,9.253209E-2,1.1566243E-1,1.9399567E-1,2.2136235E-1,2.8554496E-1,3.1700182E-1,3.991763E-1,-5.3495117E-2,3.3732917E-2,4.030623E-1,4.9912545E-1,3.994114E-1,5.8763176E-1],"categories":[],"categories_nodes":[],"categories_segments":[],"categories_sizes":[],"default_left":[0,0,0,0,0,0,0,0,0,0,0,0,0,0,0,0,0,0,0,0,0,0,0,0,0,0,0,0,0,0,0,0,0,0,0,0,0,0,0,0,0,0,0,0,0,0,0,0,0,0,0,0,0,0,0,0,0,0,0,0,0,0,0,0,0,0,0,0,0,0,0,0,0,0,0,0,0,0,0,0,0,0,0,0,0,0,0,0,0,0,0,0,0,0,0,0,0,0,0,0,0],"id":7,"left_children":[1,3,5,7,9,11,13,15,17,19,21,23,25,27,29,31,-1,33,35,37,39,41,43,45,47,49,51,53,55,57,59,-1,-1,61,63,65,67,69,71,73,-1,75,77,79,81,83,-1,85,87,89,-1,91,93,-1,95,-1,97,-1,-1,99,-1,-1,-1,-1,-1,-1,-1,-1,-1,-1,-1,-1,-1,-1,-1,-1,-1,-1,-1,-1,-1,-1,-1,-1,-1,-1,-1,-1,-1,-1,-1,-1,-1,-1,-1,-1,-1,-1,-1,-1,-1],"loss_changes":[6.625103E4,2.672729E4,6.8710586E3,4.1277695E3,5.455443E3,9.1605664E2,1.3845156E3,7.2798145E2,1.6681523E3,1.2494407E3,9.943098E2,1.4235945E2,7.7215137E2,9.4163477E2,4.5353906E2,8.282227E0,0E0,7.770879E2,5.4797363E2,6.7486035E2,1.2063098E2,7.181869E2,1.7764648E2,1.702031E1,1.2722345E1,1.7231104E2,7.015234E1,3.1943674E1,1.7840234E2,6.3438416E-1,1.0959766E2,0E0,0E0,3.0588477E2,1.1375572E1,1.6094434E2,8.974055E1,1.9981299E2,9.662109E1,6.490936E-1,0E0,2.591756E2,4.584143E2,3.2523804E0,1.326709E1,2.3937683E0,0E0,1.0075312E0,4.2700768E-1,8.320703E1,0E0,1.1310303E1,1.4519531E1,0E0,9.698371E0,0E0,5.170508E1,0E0,0E0,4.390332E1,0E0,0E0,0E0,0E0,0E0,0E0,0E0,0E0,0E0,0E0,0E0,0E0,0E0,0E0,0E0,0E0,0E0,0E0,0E0,0E0,0E0,0E0,0E0,0E0,0E0,0E0,0E0,0E0,0E0,0E0,0E0,0E0,0E0,0E0,0E0,0E0,0E0,0E0,0E0,0E0,0E0],"parents":[2147483647,0,0,1,1,2,2,3,3,4,4,5,5,6,6,7,7,8,8,9,9,10,10,11,11,12,12,13,13,14,14,15,15,17,17,18,18,19,19,20,20,21,21,22,22,23,23,24,24,25,25,26,26,27,27,28,28,29,29,30,30,33,33,34,34,35,35,36,36,37,37,38,38,39,39,41,41,42,42,43,43,44,44,45,45,47,47,48,48,49,49,51,51,52,52,54,54,56,56,59,59],"right_children":[2,4,6,8,10,12,14,16,18,20,22,24,26,28,30,32,-1,34,36,38,40,42,44,46,48,50,52,54,56,58,60,-1,-1,62,64,66,68,70,72,74,-1,76,78,80,82,84,-1,86,88,90,-1,92,94,-1,96,-1,98,-1,-1,100,-1,-1,-1,-1,-1,-1,-1,-1,-1,-1,-1,-1,-1,-1,-1,-1,-1,-1,-1,-1,-1,-1,-1,-1,-1,-1,-1,-1,-1,-1,-1,-1,-1,-1,-1,-1,-1,-1,-1,-1,-1],"split_conditions":[2.982E1,2.157E1,3.573E1,1.403E1,2.52E1,-3.8E0,4.04E1,1.2188872E1,1.869E1,4.235E0,2.01E0,-7.6025E0,3.247E1,-4.76E0,4.832306E0,1.269E1,-4.4502053E-1,5.71E0,2.76E0,2.39E1,3.24E1,2.764E1,5.71E0,2.4543018E1,3.161E1,1.61E0,3.397E1,3.21E1,3.905E1,9.999875E-1,4.692E1,-8.0182076E-1,-5.0943214E-1,1.651E1,3.3060796E0,2.043375E1,3.8866441E0,2.2718481E1,-8.8E-1,2.257E1,3.7458706E-1,2.6135777E1,-2.73E0,2.5382158E1,3.1563804E0,3.461E1,8.166772E-3,2.8212805E0,3.212E1,-9.5E-1,3.4008616E-1,-2.5027272E-1,6.5E-1,1.6372208E-1,3.824E1,3.8970292E-1,-2.1E-1,1.9604719E-1,5.8755714E-2,-2.73E0,7.0936614E-1,-3.5241863E-1,-2.7060738E-1,-1.3027422E-3,1.507087E-1,-2.0467809E-1,-1.552488E-1,1.3053076E-2,2.4816349E-1,-1.1798125E-1,-7.7276155E-2,-1.04231946E-1,-2.6126055E-2,7.605737E-2,1.5420054E-1,5.1167854E-3,4.1079152E-2,-1.6245952E-1,1.12315014E-1,5.94436E-2,2.229539E-1,2.1077617E-1,5.3074515E-1,-2.1358533E-1,-1.0017621E-1,5.4586255E-3,-3.84967E-2,2.7384082E-2,9.253209E-2,1.1566243E-1,1.9399567E-1,2.2136235E-1,2.8554496E-1,3.1700182E-1,3.991763E-1,-5.3495117E-2,3.3732917E-2,4.030623E-1,4.9912545E-1,3.994114E-1,5.8763176E-1],"split_indices":[12,12,12,12,12,21,12,20,12,21,21,22,12,21,2,15,0,21,21,12,20,12,21,15,12,21,12,14,20,3,20,0,0,12,2,12,2,12,21,12,0,12,21,12,19,12,0,19,12,21,0,21,21,0,12,0,21,0,0,21,0,0,0,0,0,0,0,0,0,0,0,0,0,0,0,0,0,0,0,0,0,0,0,0,0,0,0,0,0,0,0,0,0,0,0,0,0,0,0,0,0],"split_type":[0,0,0,0,0,0,0,0,0,0,0,0,0,0,0,0,0,0,0,0,0,0,0,0,0,0,0,0,0,0,0,0,0,0,0,0,0,0,0,0,0,0,0,0,0,0,0,0,0,0,0,0,0,0,0,0,0,0,0,0,0,0,0,0,0,0,0,0,0,0,0,0,0,0,0,0,0,0,0,0,0,0,0,0,0,0,0,0,0,0,0,0,0,0,0,0,0,0,0,0,0],"sum_hessian":[7.3552974E3,6.163989E3,1.1913085E3,1.4991573E3,4.6648315E3,6.531029E2,5.382055E2,9.1360565E1,1.4077968E3,2.1336245E3,2.531207E3,2.5405628E1,6.2769727E2,3.740416E2,1.6416394E2,3.6177036E1,5.518353E1,6.760699E2,7.3172687E2,2.1089763E3,2.4648333E1,2.497421E3,3.3786285E1,1.2753422E1,1.2652206E1,3.5449954E2,2.731977E2,1.3757945E1,3.6028366E2,7.4200983E0,1.5674384E2,2.8451656E1,7.725382E0,6.656274E2,1.0442495E1,7.155545E2,1.6172346E1,1.3942864E3,7.1468994E2,1.0552497E1,1.4095836E1,2.111295E3,3.8612592E2,2.3733667E1,1.0052619E1,1.164738E1,1.1060419E0,3.7890604E0,8.863146E0,3.3513382E2,1.9365728E1,1.14090675E2,1.5910703E2,1.7861402E0,1.1971806E1,1.7911829E2,1.8116537E2,6.227429E0,1.1926694E0,1.1046244E2,4.6281395E1,1.6952367E2,4.961037E2,1.3828573E0,9.059638E0,3.8637134E2,3.291832E2,1.0379208E1,5.7931385E0,4.531461E2,9.4114026E2,4.123989E1,6.7345E2,3.9023035E0,6.6501937E0,8.1786835E2,1.2934265E3,1.4971821E1,3.711541E2,1.1910713E0,2.2542597E1,2.3272707E0,7.725348E0,8.0548725E0,3.592507E0,2.1645992E0,1.6244612E0,1.3580229E0,7.5051227E0,4.4554733E1,2.905791E2,3.3508068E1,8.058261E1,1.3438533E2,2.472169E1,7.8239202E0,4.147885E0,5.317011E1,1.2799526E2,1.2884501E1,9.757794E1],"tree_param":{"num_deleted":"0","num_feature":"27","num_nodes":"101","size_leaf_vector":"1"}},{"base_weights":[7.499079E-3,-1.3880584E0,5.915445E0,-4.5280614E0,-1.7114308E-1,3.9450366E0,9.048078E0,-9.581026E0,-4.021896E0,-1.3703959E0,5.436782E-1,2.9754407E0,5.320182E0,7.6759467E0,1.1129063E1,-1.4658599E1,-7.766542E0,-5.059287E0,-2.9285352E0,-1.8132201E0,-1.0023148E0,1.6184467E-1,1.1906514E0,-1.4096346E0,3.1132808E0,3.097626E0,5.6823177E0,7.9999056E0,-5.2956235E-1,3.0519855E0,1.142877E1,-7.797186E-1,-5.1083267E-1,-4.19657E-1,-6.7880883E0,-5.173649E0,-1.1073347E0,-3.0333383E0,1.9969648E0,-1.8771613E0,-9.749775E-1,-1.2391526E0,-5.9696615E-1,1.266725E-1,6.178687E0,1.0077934E0,2.915527E0,2.6400313E0,-2.5818422E-1,2.971768E0,5.1473E0,8.848522E-1,4.476353E0,2.5043264E-1,6.306933E0,3.717398E-1,4.4321638E-1,-9.627198E-1,4.31836E-1,4.621813E-2,1.6548806E-1,5.2759117E-1,6.6142106E-1,-3.4292263E-1,-9.848348E-2,-3.0366427E-1,-2.3892413E-1,-2.4685593E-1,1.5496172E-1,-1.7403488E-1,-1.324095E-1,2.79142E-1,-1.3066149E-1,-1.15160905E-1,-8.767929E-2,-5.546083E-2,1.1711806E-1,-6.3432775E-2,2.059522E-2,-3.3272583E-2,5.4794747E-2,-3.105397E-1,7.1888673E-3,6.443722E-2,3.4306946E-1,-7.7664725E-2,5.3642947E-2,9.3357496E-2,4.39289E-1,1.4599153E-1,3.7338328E-2,1.2734069E-1,1.7481501E-1,3.7851414E-1,2.0435369E-1,-1.1251142E-1,1.5566625E-1,1.21204175E-1,2.3571806E-1,3.1668535E-1,9.626477E-2,-6.604938E-2,-1.0682305E-2,3.25078E-3,2.8437084E-2],"categories":[],"categories_nodes":[],"categories_segments":[],"categories_sizes":[],"default_left":[0,0,0,0,0,0,0,0,0,0,0,0,0,0,0,0,0,0,0,0,0,0,0,0,0,0,0,0,0,0,0,0,0,0,0,0,0,0,0,0,0,0,0,0,0,0,0,0,0,0,0,0,0,0,0,0,0,0,0,0,0,0,0,0,0,0,0,0,0,0,0,0,0,0,0,0,0,0,0,0,0,0,0,0,0,0,0,0,0,0,0,0,0,0,0,0,0,0,0,0,0,0,0,0,0],"id":8,"left_children":[1,3,5,7,9,11,13,15,17,19,21,23,25,27,29,31,33,35,37,39,41,43,45,47,49,51,53,55,57,59,61,-1,-1,-1,63,65,67,69,71,73,75,77,79,81,83,85,87,89,-1,91,93,95,97,-1,99,-1,-1,101,103,-1,-1,-1,-1,-1,-1,-1,-1,-1,-1,-1,-1,-1,-1,-1,-1,-1,-1,-1,-1,-1,-1,-1,-1,-1,-1,-1,-1,-1,-1,-1,-1,-1,-1,-1,-1,-1,-1,-1,-1,-1,-1,-1,-1,-1,-1],"loss_changes":[6.0454668E4,2.2663484E4,8.612539E3,4.1984844E3,3.6660962E3,1.1333174E3,1.4571016E3,1.2691738E3,1.6950586E3,2.5849707E2,6.617735E2,3.1128174E2,2.682295E2,8.782129E2,4.7938086E2,2.6660156E-1,1.2135254E1,3.4325977E2,3.861548E2,3.6958496E1,8.320166E1,3.5607404E2,3.1069275E2,2.593369E2,1.2648535E2,1.5454272E2,9.640039E1,8.863281E1,6.006528E0,1.8574448E0,1.8311328E2,0E0,0E0,0E0,3.183838E0,2.3767383E2,3.856627E2,1.1507666E2,2.781671E2,3.130664E1,2.6365452E1,2.7361145E1,3.8338776E1,1.827348E2,2.3803589E1,1.5173853E2,5.6691174E2,2.2886963E0,0E0,9.427637E1,4.785962E1,1.5505547E2,4.087097E0,0E0,5.869629E0,0E0,0E0,2.2847204E0,2.071073E-1,0E0,0E0,0E0,0E0,0E0,0E0,0E0,0E0,0E0,0E0,0E0,0E0,0E0,0E0,0E0,0E0,0E0,0E0,0E0,0E0,0E0,0E0,0E0,0E0,0E0,0E0,0E0,0E0,0E0,0E0,0E0,0E0,0E0,0E0,0E0,0E0,0E0,0E0,0E0,0E0,0E0,0E0,0E0,0E0,0E0,0E0],"parents":[2147483647,0,0,1,1,2,2,3,3,4,4,5,5,6,6,7,7,8,8,9,9,10,10,11,11,12,12,13,13,14,14,15,15,16,16,17,17,18,18,19,19,20,20,21,21,22,22,23,23,24,24,25,25,26,26,27,27,28,28,29,29,30,30,34,34,35,35,36,36,37,37,38,38,39,39,40,40,41,41,42,42,43,43,44,44,45,45,46,46,47,47,49,49,50,50,51,51,52,52,54,54,57,57,58,58],"right_children":[2,4,6,8,10,12,14,16,18,20,22,24,26,28,30,32,34,36,38,40,42,44,46,48,50,52,54,56,58,60,62,-1,-1,-1,64,66,68,70,72,74,76,78,80,82,84,86,88,90,-1,92,94,96,98,-1,100,-1,-1,102,104,-1,-1,-1,-1,-1,-1,-1,-1,-1,-1,-1,-1,-1,-1,-1,-1,-1,-1,-1,-1,-1,-1,-1,-1,-1,-1,-1,-1,-1,-1,-1,-1,-1,-1,-1,-1,-1,-1,-1,-1,-1,-1,-1,-1,-1,-1],"split_conditions":[2.864E1,2.201E1,3.573E1,1.5282E1,2.473042E1,3.186E1,3.999E1,1.2188872E1,1.941E1,2.3254559E1,2.6629677E1,-7.6025E0,-2.03E0,1.3164604E0,4.0644183E0,8.834289E0,1.937E0,9.143433E-1,7.63E0,8.9E-1,2.431E1,7.63E0,2.918339E0,1.0130754E0,2.14E0,1.2996832E0,3.397E1,3.7722E1,3.824E1,7.3631215E-1,4.392E1,-7.797186E-1,-5.1083267E-1,-4.19657E-1,1.968E0,1.73E1,2.5827172E0,2.0968E1,2.260584E1,2.257E1,2.4323015E1,1.78E0,3.0735378E0,-7.6025E0,5.142076E0,2.485E1,7.63E0,2.031365E1,-2.5818422E-1,3.032E1,9.77E-1,-7.6025E0,3.24E1,2.5043264E-1,4.392E1,3.717398E-1,4.4321638E-1,9.9997824E-1,3.9135162E1,4.621813E-2,1.6548806E-1,5.2759117E-1,6.6142106E-1,-3.4292263E-1,-9.848348E-2,-3.0366427E-1,-2.3892413E-1,-2.4685593E-1,1.5496172E-1,-1.7403488E-1,-1.324095E-1,2.79142E-1,-1.3066149E-1,-1.15160905E-1,-8.767929E-2,-5.546083E-2,1.1711806E-1,-6.3432775E-2,2.059522E-2,-3.3272583E-2,5.4794747E-2,-3.105397E-1,7.1888673E-3,6.443722E-2,3.4306946E-1,-7.7664725E-2,5.3642947E-2,9.3357496E-2,4.39289E-1,1.4599153E-1,3.7338328E-2,1.2734069E-1,1.7481501E-1,3.7851414E-1,2.0435369E-1,-1.1251142E-1,1.5566625E-1,1.21204175E-1,2.3571806E-1,3.1668535E-1,9.626477E-2,-6.604938E-2,-1.0682305E-2,3.25078E-3,2.8437084E-2],"split_indices":[12,12,12,17,17,12,12,20,12,12,17,22,22,0,2,18,0,2,22,22,12,22,2,0,22,2,12,17,12,26,12,0,0,0,0,12,19,17,14,12,17,22,2,22,2,12,22,14,0,12,0,22,20,0,14,0,0,3,12,0,0,0,0,0,0,0,0,0,0,0,0,0,0,0,0,0,0,0,0,0,0,0,0,0,0,0,0,0,0,0,0,0,0,0,0,0,0,0,0,0,0,0,0,0,0],"split_type":[0,0,0,0,0,0,0,0,0,0,0,0,0,0,0,0,0,0,0,0,0,0,0,0,0,0,0,0,0,0,0,0,0,0,0,0,0,0,0,0,0,0,0,0,0,0,0,0,0,0,0,0,0,0,0,0,0,0,0,0,0,0,0,0,0,0,0,0,0,0,0,0,0,0,0,0,0,0,0,0,0,0,0,0,0,0,0,0,0,0,0,0,0,0,0,0,0,0,0,0,0,0,0,0,0],"sum_hessian":[7.3303945E3,5.9303174E3,1.400077E3,1.655616E3,4.274701E3,8.6086017E2,5.3921686E2,1.4911331E2,1.5065027E3,1.5960677E3,2.6786335E3,5.0673322E2,3.5412698E2,3.2777908E2,2.1143776E2,3.7393703E1,1.11719604E2,7.711763E2,7.353264E2,7.22695E2,8.7337274E2,1.685266E3,9.933676E2,1.51619625E1,4.9157126E2,5.095458E1,3.031724E2,3.153538E2,1.24253E1,7.965022E0,2.0347275E2,2.8813042E1,8.580664E0,6.348569E1,4.8233913E1,7.491871E2,2.1989176E1,7.203825E2,1.4943902E1,6.7032336E2,5.2371643E1,5.499752E2,3.2339752E2,1.6764869E3,8.779051E0,8.995848E2,9.378282E1,7.436558E0,7.7254047E0,4.6189676E2,2.9674482E1,2.0191011E1,3.0763567E1,1.5019824E2,1.5297415E2,1.9649657E2,1.18857216E2,8.56498E0,3.8603208E0,1.3563056E0,6.6087165E0,1.4142253E2,6.205021E1,4.7122395E1,1.1115179E0,2.2426234E2,5.2492474E2,1.1419165E1,1.0570011E1,3.2955698E2,3.9082556E2,8.287101E0,6.656801E0,1.4674522E2,5.235781E2,5.0974545E1,1.3970993E0,5.405477E2,9.427524E0,3.1140634E2,1.1991186E1,3.5379808E0,1.672949E3,1.4292896E0,7.349761E0,2.1721403E1,8.778634E2,8.069029E1,1.3092529E1,6.006637E0,1.4299204E0,2.5840396E2,2.0349281E2,7.163397E0,2.2511086E1,8.3849945E0,1.1806017E1,4.359327E0,2.640424E1,1.5160226E2,1.3718851E0,5.277403E0,3.2875762E0,1.4500365E0,2.4102843E0],"tree_param":{"num_deleted":"0","num_feature":"27","num_nodes":"105","size_leaf_vector":"1"}},{"base_weights":[1.351515E-2,-1.3254375E0,5.5121717E0,-4.487703E0,-2.6213863E-1,3.4427323E0,8.159545E0,-7.8151126E0,-3.8384783E0,-1.4277977E0,4.6440193E-1,2.7523983E0,4.6826806E0,7.0313873E0,1.0606046E1,-1.3560315E1,-6.8291883E0,-4.619432E0,-2.9133608E0,-1.8558794E0,-1.0122938E0,4.342402E-1,7.7548237E0,-1.8053501E0,2.8942935E0,2.2784874E0,4.9392204E0,7.3262777E0,-3.5850117E-1,2.968196E0,1.0891275E1,-7.429697E-1,-5.0648206E-1,-4.006922E-1,-6.2558575E0,-4.6696916E0,1.6026989E0,-3.1572673E0,2.3164103E0,-1.879137E0,2.1979998E-1,-1.2223824E0,-6.095757E-1,-1.5844956E-1,8.2900625E-1,4.146555E-1,1.5300366E-1,2.3674815E0,-2.577683E-1,1.6852888E0,3.0474293E0,-4.406342E-1,2.1041465E-1,2.2602394E-1,2.736683E-1,6.570254E0,8.124752E0,1.5412614E-1,-8.221393E-1,4.4887938E-2,1.6183765E-1,4.9027762E-1,6.108596E-1,-3.1447655E-1,-7.8443624E-2,-2.499434E-1,-2.0606075E-1,1.809114E-2,9.5850624E-2,-2.9557672E-1,-1.493697E-1,-1.3390325E-1,2.0971666E-1,-1.1706483E-1,-8.456709E-2,-6.207511E-2,3.605881E-2,-3.455945E-2,5.103072E-2,-9.9915555E-3,1.0331734E-1,3.466984E-2,8.2320325E-2,1.3063674E-1,2.334266E-2,5.7202447E-2,1.12199366E-1,1.3296555E-1,1.7590834E-1,-1.4577863E-1,9.564587E-2,2.5612402E-1,3.3815715E-1,3.4730634E-1,4.2251024E-1,-6.971625E-2,9.117028E-3],"categories":[],"categories_nodes":[],"categories_segments":[],"categories_sizes":[],"default_left":[0,0,0,0,0,0,0,0,0,0,0,0,0,0,0,0,0,0,0,0,0,0,0,0,0,0,0,0,0,0,0,0,0,0,0,0,0,0,0,0,0,0,0,0,0,0,0,0,0,0,0,0,0,0,0,0,0,0,0,0,0,0,0,0,0,0,0,0,0,0,0,0,0,0,0,0,0,0,0,0,0,0,0,0,0,0,0,0,0,0,0,0,0,0,0,0,0],"id":9,"left_children":[1,3,5,7,9,11,13,15,17,19,21,23,25,27,29,31,33,35,37,39,41,43,45,47,49,51,53,55,57,59,61,-1,-1,-1,63,65,67,69,71,73,-1,75,77,79,81,-1,-1,83,-1,85,87,89,-1,-1,-1,91,93,-1,95,-1,-1,-1,-1,-1,-1,-1,-1,-1,-1,-1,-1,-1,-1,-1,-1,-1,-1,-1,-1,-1,-1,-1,-1,-1,-1,-1,-1,-1,-1,-1,-1,-1,-1,-1,-1,-1,-1],"loss_changes":[5.4112902E4,1.9872838E4,7.8570156E3,3.1828145E3,3.747641E3,6.8005566E2,1.6662578E3,1.2772744E3,8.87041E2,3.0033032E2,5.961245E2,3.4310156E2,1.6643262E2,9.49791E2,3.9703906E2,2.8295898E0,9.143457E1,2.1830664E2,7.385386E2,1.2976855E2,7.238788E1,6.356352E2,2.8590088E0,2.4131998E2,8.874072E1,1.5735066E2,3.3290527E1,1.9895508E2,3.0663939E1,1.8036575E0,1.5317578E2,0E0,0E0,0E0,1.3020508E1,1.0018555E2,1.7036085E0,2.3879639E2,2.5622614E2,6.835962E1,0E0,2.1967285E1,4.0397316E1,1.00460335E2,1.7958765E2,0E0,0E0,2.5018158E0,0E0,1.5346863E1,7.264307E1,8.2501816E1,0E0,0E0,0E0,2.6777344E1,1.7663086E1,0E0,9.638572E0,0E0,0E0,0E0,0E0,0E0,0E0,0E0,0E0,0E0,0E0,0E0,0E0,0E0,0E0,0E0,0E0,0E0,0E0,0E0,0E0,0E0,0E0,0E0,0E0,0E0,0E0,0E0,0E0,0E0,0E0,0E0,0E0,0E0,0E0,0E0,0E0,0E0,0E0],"parents":[2147483647,0,0,1,1,2,2,3,3,4,4,5,5,6,6,7,7,8,8,9,9,10,10,11,11,12,12,13,13,14,14,15,15,16,16,17,17,18,18,19,19,20,20,21,21,22,22,23,23,24,24,25,25,26,26,27,27,28,28,29,29,30,30,34,34,35,35,36,36,37,37,38,38,39,39,41,41,42,42,43,43,44,44,47,47,49,49,50,50,51,51,55,55,56,56,58,58],"right_children":[2,4,6,8,10,12,14,16,18,20,22,24,26,28,30,32,34,36,38,40,42,44,46,48,50,52,54,56,58,60,62,-1,-1,-1,64,66,68,70,72,74,-1,76,78,80,82,-1,-1,84,-1,86,88,90,-1,-1,-1,92,94,-1,96,-1,-1,-1,-1,-1,-1,-1,-1,-1,-1,-1,-1,-1,-1,-1,-1,-1,-1,-1,-1,-1,-1,-1,-1,-1,-1,-1,-1,-1,-1,-1,-1,-1,-1,-1,-1,-1,-1],"split_conditions":[2.848E1,2.157E1,3.479E1,1.6552E1,2.4656E1,3.161E1,3.999E1,1.2188872E1,1.9685E1,2.321E1,1.358E1,-7.6025E0,-3.87E0,1.3164604E0,4.0644183E0,1.1236616E1,1.403E1,4.47E0,2.7714036E0,7.63E0,2.418E1,2.5951534E1,9.847391E-1,1.0130754E0,-1.45E0,1.6949946E0,3.3435238E1,3.699E1,3.397E1,7.3631215E-1,4.291E1,-7.429697E-1,-5.0648206E-1,-4.006922E-1,1.994E0,1.823E1,2.821E1,1.823E1,3.06E0,2.23E1,2.1979998E-1,1.96E0,3.0735378E0,2.639327E0,2.735423E1,4.146555E-1,1.5300366E-1,1.977E1,-2.577683E-1,3.032E1,3.019E1,-7.6025E0,2.1041465E-1,2.2602394E-1,2.736683E-1,-1.03E0,-1.45E0,1.5412614E-1,3.4936333E1,4.4887938E-2,1.6183765E-1,4.9027762E-1,6.108596E-1,-3.1447655E-1,-7.8443624E-2,-2.499434E-1,-2.0606075E-1,1.809114E-2,9.5850624E-2,-2.9557672E-1,-1.493697E-1,-1.3390325E-1,2.0971666E-1,-1.1706483E-1,-8.456709E-2,-6.207511E-2,3.605881E-2,-3.455945E-2,5.103072E-2,-9.9915555E-3,1.0331734E-1,3.466984E-2,8.2320325E-2,1.3063674E-1,2.334266E-2,5.7202447E-2,1.12199366E-1,1.3296555E-1,1.7590834E-1,-1.4577863E-1,9.564587E-2,2.5612402E-1,3.3815715E-1,3.4730634E-1,4.2251024E-1,-6.971625E-2,9.117028E-3],"split_indices":[12,12,12,17,17,12,12,20,17,12,22,22,22,0,2,15,12,22,2,22,12,12,0,0,22,2,12,12,13,26,12,0,0,0,0,12,20,12,22,17,0,22,2,2,17,0,0,13,0,12,12,22,0,0,0,22,22,0,17,0,0,0,0,0,0,0,0,0,0,0,0,0,0,0,0,0,0,0,0,0,0,0,0,0,0,0,0,0,0,0,0,0,0,0,0,0,0],"split_type":[0,0,0,0,0,0,0,0,0,0,0,0,0,0,0,0,0,0,0,0,0,0,0,0,0,0,0,0,0,0,0,0,0,0,0,0,0,0,0,0,0,0,0,0,0,0,0,0,0,0,0,0,0,0,0,0,0,0,0,0,0,0,0,0,0,0,0,0,0,0,0,0,0,0,0,0,0,0,0,0,0,0,0,0,0,0,0,0,0,0,0,0,0,0,0,0,0],"sum_hessian":[7.3478667E3,5.9096045E3,1.4382618E3,1.4862517E3,4.423353E3,8.085344E2,6.2972736E2,2.4084308E2,1.2454087E3,1.6980471E3,2.725306E3,5.2144354E2,2.8709088E2,4.336377E2,1.9608969E2,3.3408764E1,2.0743431E2,6.731578E2,5.722509E2,8.346571E2,8.6338995E2,2.7151323E3,1.0173402E1,1.5389861E1,5.060537E2,2.8633167E1,2.584577E2,4.1700583E2,1.663185E1,7.469829E0,1.8861986E2,2.1816336E1,1.1592428E1,6.3418053E1,1.4401627E2,6.680114E2,5.146361E0,5.471301E2,2.5120821E1,8.3226044E2,2.396667E0,5.6605634E2,2.9733362E2,1.0856976E3,1.6294348E3,8.439311E0,1.7340908E0,6.9839E0,8.405961E0,5.8241684E1,4.47812E2,1.2206174E1,1.6426994E1,1.5018428E2,1.0827343E2,2.1893697E2,1.9806888E2,1.3041527E0,1.5327697E1,1.3563056E0,6.1135235E0,1.0831867E2,8.030119E1,1.4264949E2,1.3667681E0,4.1239328E2,2.5561812E2,1.4748726E0,3.6714885E0,2.9821106E1,5.17309E2,6.747982E0,1.8372839E1,2.3715657E2,5.951039E2,5.608997E2,5.1566224E0,2.8370624E2,1.3627372E1,1.0667657E3,1.893183E1,1.399158E3,2.3027682E2,5.853861E0,1.1300391E0,3.11311E1,2.7110582E1,2.4908954E2,1.9872249E2,5.8332605E0,6.3729134E0,2.897971E1,1.8995724E2,4.769283E1,1.5037605E2,9.517882E0,5.8098145E0],"tree_param":{"num_deleted":"0","num_feature":"27","num_nodes":"97","size_leaf_vector":"1"}},{"base_weights":[1.280178E-2,-1.1421107E0,5.8515744E0,-4.04491E0,-5.802002E-2,4.200802E0,8.582823E0,-7.5387416E0,-3.4582255E0,-1.0620764E0,7.2567534E-1,-2.4198139E0,4.3653893E0,2.2323618E0,8.896981E0,-1.3045733E1,-6.536724E0,-3.6043863E0,3.2313485E0,-1.1330068E0,4.1345496E0,4.856882E-1,1.9866637E0,-3.1329732E0,1.0683457E0,3.4770124E0,5.6408978E0,7.10006E-1,4.508021E0,7.885219E0,1.0992924E1,-7.168533E-1,-4.9665615E-1,-3.829649E-1,-5.9707866E0,-4.5395927E0,-2.7515998E0,1.2811466E0,4.3170576E0,-1.4781E0,-5.795446E-1,1.9210671E0,5.7994485E0,-3.6876032E0,5.269915E-1,1.788095E0,7.125106E0,-1.7588298E-1,-7.452824E-2,-5.153426E-3,7.620736E-2,3.2983267E0,6.211232E0,4.292376E0,5.898731E0,-2.6730618E-1,9.041219E-2,2.5260672E-1,9.745145E-2,7.5914226E0,5.153088E-1,4.131062E-1,1.1346755E1,-3.0031642E-1,-6.961359E-2,-2.6494044E-1,-2.1374023E-1,-1.447515E-1,-7.0525885E-2,-1.3041859E-2,7.652099E-2,2.293324E-1,1.9151561E-2,-1.3698319E-1,-7.058594E-2,-1.1305817E-1,-2.4656262E-2,5.4142255E-2,1.09327175E-1,1.3022777E-1,3.23943E-1,-2.9360786E-1,-1.1163149E-1,1.2377461E-2,4.5467056E-2,-1.350133E-2,9.8827824E-2,4.331443E-1,2.214864E-1,8.336566E-2,1.7259988E-1,2.4724996E-1,4.068435E-1,1.5628877E-1,2.2838187E-1,2.846438E-1,3.639922E-1,-3.415698E-2,3.7228614E-2,2.868296E-1,3.9052448E-1,5.1742995E-1,6.316343E-1],"categories":[],"categories_nodes":[],"categories_segments":[],"categories_sizes":[],"default_left":[0,0,0,0,0,0,0,0,0,0,0,0,0,0,0,0,0,0,0,0,0,0,0,0,0,0,0,0,0,0,0,0,0,0,0,0,0,0,0,0,0,0,0,0,0,0,0,0,0,0,0,0,0,0,0,0,0,0,0,0,0,0,0,0,0,0,0,0,0,0,0,0,0,0,0,0,0,0,0,0,0,0,0,0,0,0,0,0,0,0,0,0,0,0,0,0,0,0,0,0,0,0,0],"id":10,"left_children":[1,3,5,7,9,11,13,15,17,19,21,23,25,27,29,31,33,35,37,39,41,43,45,47,49,51,53,55,57,59,61,-1,-1,-1,63,65,67,69,71,73,75,77,79,81,83,85,87,-1,-1,-1,-1,89,91,93,95,97,-1,-1,-1,99,-1,-1,101,-1,-1,-1,-1,-1,-1,-1,-1,-1,-1,-1,-1,-1,-1,-1,-1,-1,-1,-1,-1,-1,-1,-1,-1,-1,-1,-1,-1,-1,-1,-1,-1,-1,-1,-1,-1,-1,-1,-1,-1],"loss_changes":[4.932669E4,1.9217852E4,5.4102617E3,3.377713E3,3.5003416E3,8.3311816E2,8.8608984E2,1.227498E3,1.4036348E3,7.2345996E2,7.551061E2,5.0497337E1,8.154043E2,7.5580505E1,8.301797E2,7.5683594E-1,8.341504E1,1.0990195E3,6.003897E1,3.6672485E2,8.641843E1,3.6396786E2,3.9451624E2,4.859955E0,2.2731133E0,1.9300732E2,7.93125E1,1.6381779E1,2.5845795E0,1.316836E2,3.9808594E1,0E0,0E0,0E0,1.4368652E1,1.106709E2,1.3662305E2,5.2026367E0,1.8893707E1,9.534985E1,1.06537674E2,4.9394226E-1,1.4846222E1,5.270868E1,2.2207166E2,1.5010889E2,2.1790527E1,0E0,0E0,0E0,0E0,9.758496E1,2.2362549E1,2.4124756E0,2.962207E1,4.173112E0,0E0,0E0,0E0,6.368164E1,0E0,0E0,2.2899414E1,0E0,0E0,0E0,0E0,0E0,0E0,0E0,0E0,0E0,0E0,0E0,0E0,0E0,0E0,0E0,0E0,0E0,0E0,0E0,0E0,0E0,0E0,0E0,0E0,0E0,0E0,0E0,0E0,0E0,0E0,0E0,0E0,0E0,0E0,0E0,0E0,0E0,0E0,0E0,0E0],"parents":[2147483647,0,0,1,1,2,2,3,3,4,4,5,5,6,6,7,7,8,8,9,9,10,10,11,11,12,12,13,13,14,14,15,15,16,16,17,17,18,18,19,19,20,20,21,21,22,22,23,23,24,24,25,25,26,26,27,27,28,28,29,29,30,30,34,34,35,35,36,36,37,37,38,38,39,39,40,40,41,41,42,42,43,43,44,44,45,45,46,46,51,51,52,52,53,53,54,54,55,55,59,59,62,62],"right_children":[2,4,6,8,10,12,14,16,18,20,22,24,26,28,30,32,34,36,38,40,42,44,46,48,50,52,54,56,58,60,62,-1,-1,-1,64,66,68,70,72,74,76,78,80,82,84,86,88,-1,-1,-1,-1,90,92,94,96,98,-1,-1,-1,100,-1,-1,102,-1,-1,-1,-1,-1,-1,-1,-1,-1,-1,-1,-1,-1,-1,-1,-1,-1,-1,-1,-1,-1,-1,-1,-1,-1,-1,-1,-1,-1,-1,-1,-1,-1,-1,-1,-1,-1,-1,-1,-1],"split_conditions":[2.982E1,2.201E1,3.65E1,1.6552E1,2.52E1,-4.76E0,4.0644183E0,1.2188872E1,4.235E0,2.76E0,2.765E1,-7.6025E0,3.312E1,2.828E1,4.104E1,1.578E1,1.403E1,1.941E1,2.96E1,2.381E1,5.71E0,-2.73E0,4.235E0,3.479E1,3.687E1,1.61E0,-5E-1,3.9135162E1,4.148866E0,1.61E0,-2.26E0,-7.168533E-1,-4.9665615E-1,-3.829649E-1,1.84E0,1.746E1,8.7E-1,2.5494656E1,2.3401407E1,-5E-1,-1.21E0,2.314E1,3.067E1,-7.6025E0,2.651804E1,-9.5E-1,2.931E1,-1.7588298E-1,-7.452824E-2,-5.153426E-3,7.620736E-2,-1.56E0,4.235E0,-2.03E0,1.02E0,-1.269E1,9.041219E-2,2.5260672E-1,9.745145E-2,-1.46E0,5.153088E-1,4.131062E-1,4.392E1,-3.0031642E-1,-6.961359E-2,-2.6494044E-1,-2.1374023E-1,-1.447515E-1,-7.0525885E-2,-1.3041859E-2,7.652099E-2,2.293324E-1,1.9151561E-2,-1.3698319E-1,-7.058594E-2,-1.1305817E-1,-2.4656262E-2,5.4142255E-2,1.09327175E-1,1.3022777E-1,3.23943E-1,-2.9360786E-1,-1.1163149E-1,1.2377461E-2,4.5467056E-2,-1.350133E-2,9.8827824E-2,4.331443E-1,2.214864E-1,8.336566E-2,1.7259988E-1,2.4724996E-1,4.068435E-1,1.5628877E-1,2.2838187E-1,2.846438E-1,3.639922E-1,-3.415698E-2,3.7228614E-2,2.868296E-1,3.9052448E-1,5.1742995E-1,6.316343E-1],"split_indices":[12,12,12,17,12,21,2,20,21,21,17,22,12,15,12,16,12,12,20,12,21,21,21,12,20,21,21,12,19,21,21,0,0,0,21,12,21,20,13,21,21,12,20,22,12,21,13,0,0,0,0,21,21,21,21,21,0,0,0,21,0,0,12,0,0,0,0,0,0,0,0,0,0,0,0,0,0,0,0,0,0,0,0,0,0,0,0,0,0,0,0,0,0,0,0,0,0,0,0,0,0,0,0],"split_type":[0,0,0,0,0,0,0,0,0,0,0,0,0,0,0,0,0,0,0,0,0,0,0,0,0,0,0,0,0,0,0,0,0,0,0,0,0,0,0,0,0,0,0,0,0,0,0,0,0,0,0,0,0,0,0,0,0,0,0,0,0,0,0,0,0,0,0,0,0,0,0,0,0,0,0,0,0,0,0,0,0,0,0,0,0,0,0,0,0,0,0,0,0,0,0,0,0,0,0,0,0,0,0],"sum_hessian":[7.312959E3,6.1059946E3,1.2069647E3,1.6595619E3,4.4464326E3,7.5386505E2,4.5309967E2,2.3690318E2,1.4226587E3,1.9490234E3,2.4974092E3,1.7954004E1,7.35911E2,2.1740467E1,4.313592E2,3.4619297E1,2.0228389E2,1.3926909E3,2.996781E1,1.9235503E3,2.5473152E1,2.0992683E3,3.981407E2,1.4990916E1,2.9630885E0,4.3598108E2,2.9992996E2,1.3812362E1,7.928105E0,2.9413516E2,1.3722404E2,2.1919432E1,1.2699866E1,6.359845E1,1.3868544E2,6.6218463E2,7.305063E2,1.1496771E1,1.8471039E1,1.1837754E3,7.3977484E2,1.1859636E1,1.3613516E1,1.970779E1,2.0795605E3,3.846253E2,1.3515383E1,1.1220963E1,3.7699537E0,1.0467657E0,1.916323E0,4.1130777E2,2.4673302E1,5.0973892E1,2.4895605E2,7.7088914E0,6.1034703E0,5.7345195E0,2.1935854E0,2.659913E2,2.8143852E1,1.8533846E1,1.186902E2,1.3730771E2,1.3777289E0,1.6631247E2,4.9587213E2,6.5887964E2,7.162666E1,1.5934466E0,9.903324E0,1.7131182E1,1.3398564E0,5.7161366E1,1.1266141E3,3.4929188E1,7.048457E2,4.074279E0,7.7853575E0,3.2349393E0,1.0378576E1,6.664913E0,1.3042878E1,1.202416E3,8.7714465E2,3.222916E1,3.5239612E2,7.195942E0,6.319441E0,3.6436096E1,3.7487167E2,1.703781E1,7.6354923E0,1.209006E1,3.888383E1,2.2112006E2,2.7836006E1,5.693866E0,2.0150256E0,3.0968498E1,2.350228E2,7.191578E1,4.677442E1],"tree_param":{"num_deleted":"0","num_feature":"27","num_nodes":"103","size_leaf_vector":"1"}},{"base_weights":[-1.9751685E-2,-1.2394495E0,4.851595E0,-3.8718073E0,-1.9143204E-1,3.2237468E0,7.7187095E0,-7.827911E0,-3.413912E0,-1.1594386E0,4.1885933E-1,2.4925888E0,4.522826E0,6.723119E0,9.755236E0,-1.2452086E1,-6.5010896E0,-4.3689847E0,-2.6455944E0,-1.3577999E0,-5.4101104E-1,3.5065266E-1,4.8577013E0,-2.3226411E0,2.6572995E0,-4.5484066E-1,4.8092318E0,4.5974723E-1,7.0038443E0,6.0016828E0,1.0343414E1,-6.6458786E-1,-4.09012E-1,-3.5666212E-1,-5.789562E0,-4.4243126E0,1.4145632E0,-2.7926195E0,2.9720707E0,-1.4207381E0,3.825984E-1,-6.162307E-1,1.1257786E0,-2.2521424E-1,6.561701E-1,3.5171667E-1,3.342828E0,-2.317255E-1,-5.340393E-1,2.5450072E0,4.0703845E-1,-2.074777E0,1.2314718E0,4.524163E0,3.041033E-1,-6.781502E-1,1.8599956E0,6.336917E0,7.761322E0,6.8814645E0,2.8785565E0,4.7610664E-1,5.9113425E-1,-2.916099E-1,-8.363022E-2,-2.5501093E-1,-2.073516E-1,1.6201993E-2,8.222488E-2,-1.8382432E-1,-1.2469542E-1,2.0533529E-1,3.9550032E-2,-1.3537678E-1,-6.797E-2,4.71297E-3,1.13432325E-1,-8.009917E-2,-2.499013E-2,3.3465046E-2,1.124764E-1,-9.0790264E-2,-7.585031E-3,-8.021366E-2,3.5019755E-2,1.0692524E-1,1.8355615E-1,-3.5533176E-3,-5.398866E-2,1.1284907E-1,1.6381277E-1,-1.2105208E-2,-1.2492982E-1,5.501903E-3,6.754782E-2,1.9334851E-1,2.5100288E-1,-6.821337E-2,-7.5927447E-3,1.3848536E-1,2.7561957E-2,3.0064535E-1,3.9274034E-1,2.1123543E-1,3.93841E-1,2.2709255E-1,3.8341197E-1,1.6173588E-1,5.828896E-2],"categories":[],"categories_nodes":[],"categories_segments":[],"categories_sizes":[],"default_left":[0,0,0,0,0,0,0,0,0,0,0,0,0,0,0,0,0,0,0,0,0,0,0,0,0,0,0,0,0,0,0,0,0,0,0,0,0,0,0,0,0,0,0,0,0,0,0,0,0,0,0,0,0,0,0,0,0,0,0,0,0,0,0,0,0,0,0,0,0,0,0,0,0,0,0,0,0,0,0,0,0,0,0,0,0,0,0,0,0,0,0,0,0,0,0,0,0,0,0,0,0,0,0,0,0,0,0,0,0],"id":11,"left_children":[1,3,5,7,9,11,13,15,17,19,21,23,25,27,29,31,33,35,37,39,41,43,45,47,49,51,53,55,57,59,61,-1,-1,-1,63,65,67,69,71,73,75,77,79,81,83,-1,85,-1,87,89,-1,91,93,95,-1,97,99,101,103,105,107,-1,-1,-1,-1,-1,-1,-1,-1,-1,-1,-1,-1,-1,-1,-1,-1,-1,-1,-1,-1,-1,-1,-1,-1,-1,-1,-1,-1,-1,-1,-1,-1,-1,-1,-1,-1,-1,-1,-1,-1,-1,-1,-1,-1,-1,-1,-1,-1],"loss_changes":[4.348066E4,1.6145245E4,6.814465E3,2.99217E3,2.4740808E3,8.781719E2,1.00896484E3,9.750078E2,1.0857832E3,1.9791089E2,7.7601636E2,4.8316382E2,4.8121436E2,6.2831445E2,3.1721387E2,2.4993164E1,1.9795898E1,2.1910156E2,6.948804E2,1.3477051E2,5.0207283E1,4.4544214E2,1.04409485E2,8.198357E1,3.376416E2,5.499066E1,8.780176E1,2.7516449E1,1.24447266E2,5.0686035E1,6.618848E1,0E0,0E0,0E0,2.3937988E0,1.0237305E2,1.237545E0,2.0484326E2,5.0417374E1,8.968091E1,2.3472536E1,4.2641342E1,7.4233074E0,1.0239711E2,1.6646216E2,0E0,1.9470825E0,0E0,3.118429E0,1.130293E2,0E0,7.288677E0,1.1956282E0,6.648193E1,0E0,3.3400788E0,7.586714E0,4.5340332E1,3.0639648E1,6.951294E-1,7.175789E-1,0E0,0E0,0E0,0E0,0E0,0E0,0E0,0E0,0E0,0E0,0E0,0E0,0E0,0E0,0E0,0E0,0E0,0E0,0E0,0E0,0E0,0E0,0E0,0E0,0E0,0E0,0E0,0E0,0E0,0E0,0E0,0E0,0E0,0E0,0E0,0E0,0E0,0E0,0E0,0E0,0E0,0E0,0E0,0E0,0E0,0E0,0E0,0E0],"parents":[2147483647,0,0,1,1,2,2,3,3,4,4,5,5,6,6,7,7,8,8,9,9,10,10,11,11,12,12,13,13,14,14,15,15,16,16,17,17,18,18,19,19,20,20,21,21,22,22,23,23,24,24,25,25,26,26,27,27,28,28,29,29,30,30,34,34,35,35,36,36,37,37,38,38,39,39,40,40,41,41,42,42,43,43,44,44,46,46,48,48,49,49,51,51,52,52,53,53,55,55,56,56,57,57,58,58,59,59,60,60],"right_children":[2,4,6,8,10,12,14,16,18,20,22,24,26,28,30,32,34,36,38,40,42,44,46,48,50,52,54,56,58,60,62,-1,-1,-1,64,66,68,70,72,74,76,78,80,82,84,-1,86,-1,88,90,-1,92,94,96,-1,98,100,102,104,106,108,-1,-1,-1,-1,-1,-1,-1,-1,-1,-1,-1,-1,-1,-1,-1,-1,-1,-1,-1,-1,-1,-1,-1,-1,-1,-1,-1,-1,-1,-1,-1,-1,-1,-1,-1,-1,-1,-1,-1,-1,-1,-1,-1,-1,-1,-1,-1,-1],"split_conditions":[2.821E1,2.201E1,3.573E1,1.565E1,2.4764E1,3.186E1,4.04E1,1.2188872E1,1.9122E1,2.404E1,2.25E0,-2.73E0,-3.8E0,-4.76E0,-2.73E0,1.269E1,1.941E0,4.235E0,4.235E0,1.23E0,6.5E-1,2.5829565E1,9.82E-1,-1.269E1,4.235E0,-7.6025E0,5.8E-1,-1.269E1,3.778E1,9.75E-1,4.392E1,-6.6458786E-1,-4.09012E-1,-3.5666212E-1,1.9794137E0,1.73E1,1.334E1,2E1,9.87E-1,-6.5166664E-1,4.235E0,-8.8E-1,2.01E0,-4.2E-1,-1.46E0,3.5171667E-1,3.023E1,-2.317255E-1,7.3631215E-1,3.0608253E1,4.0703845E-1,5E-1,9.999575E-1,3.3435238E1,3.041033E-1,3.7391354E1,2.3759798E2,7.9E-1,-2.73E0,4.291E1,9.999875E-1,4.7610664E-1,5.9113425E-1,-2.916099E-1,-8.363022E-2,-2.5501093E-1,-2.073516E-1,1.6201993E-2,8.222488E-2,-1.8382432E-1,-1.2469542E-1,2.0533529E-1,3.9550032E-2,-1.3537678E-1,-6.797E-2,4.71297E-3,1.13432325E-1,-8.009917E-2,-2.499013E-2,3.3465046E-2,1.124764E-1,-9.0790264E-2,-7.585031E-3,-8.021366E-2,3.5019755E-2,1.0692524E-1,1.8355615E-1,-3.5533176E-3,-5.398866E-2,1.1284907E-1,1.6381277E-1,-1.2105208E-2,-1.2492982E-1,5.501903E-3,6.754782E-2,1.9334851E-1,2.5100288E-1,-6.821337E-2,-7.5927447E-3,1.3848536E-1,2.7561957E-2,3.0064535E-1,3.9274034E-1,2.1123543E-1,3.93841E-1,2.2709255E-1,3.8341197E-1,1.6173588E-1,5.828896E-2],"split_indices":[12,12,12,17,17,12,12,20,17,12,21,21,21,21,21,15,0,21,21,21,21,12,0,21,21,22,21,21,12,0,12,0,0,0,0,12,21,12,0,21,21,21,21,21,21,0,20,0,26,12,0,11,3,12,0,12,1,21,21,12,3,0,0,0,0,0,0,0,0,0,0,0,0,0,0,0,0,0,0,0,0,0,0,0,0,0,0,0,0,0,0,0,0,0,0,0,0,0,0,0,0,0,0,0,0,0,0,0,0],"split_type":[0,0,0,0,0,0,0,0,0,0,0,0,0,0,0,0,0,0,0,0,0,0,0,0,0,0,0,0,0,0,0,0,0,0,0,0,0,0,0,0,0,0,0,0,0,0,0,0,0,0,0,0,0,0,0,0,0,0,0,0,0,0,0,0,0,0,0,0,0,0,0,0,0,0,0,0,0,0,0,0,0,0,0,0,0,0,0,0,0,0,0,0,0,0,0,0,0,0,0,0,0,0,0,0,0,0,0,0,0],"sum_hessian":[7.3160293E3,5.8516313E3,1.4643981E3,1.6655336E3,4.1860977E3,9.354223E2,5.2897577E2,1.7110788E2,1.4944257E3,1.6183195E3,2.5677783E3,6.004123E2,3.3501E2,3.5817633E2,1.7079947E2,3.6280365E1,1.3482751E2,6.641519E2,8.3027374E2,1.2243972E3,3.9392215E2,2.529982E3,3.779637E1,1.9425226E1,5.8098706E2,1.8195108E1,3.1681488E2,1.5478033E1,3.426983E2,2.465619E1,1.4614328E2,2.8555954E1,7.7244086E0,6.6616875E1,6.821064E1,6.580914E2,6.0605655E0,8.0958813E2,2.0685606E1,1.1818418E3,4.2555447E1,3.7751572E2,1.6406435E1,8.77068E2,1.6529141E3,1.4015221E1,2.3781153E1,7.779128E0,1.1646099E1,5.7076294E2,1.0224144E1,9.162703E0,9.032406E0,2.6256433E2,5.425055E1,8.823445E0,6.654588E0,1.8722252E2,1.5547578E2,1.8298212E1,6.3579793E0,9.875319E1,4.739009E1,6.709912E1,1.1115179E0,1.8637793E2,4.717134E2,1.4748726E0,4.585693E0,2.0164015E2,6.07948E2,1.3026226E1,7.65938E0,5.1809185E1,1.1300326E3,3.782304E1,4.7324085E0,3.8530796E1,3.3898492E2,1.2801813E1,3.604622E0,3.7698444E1,8.3936957E2,3.104135E1,1.6218727E3,6.703581E0,1.7077572E1,6.912287E0,4.733812E0,4.1240875E2,1.5835419E2,2.0160742E0,7.1466284E0,1.0546687E0,7.9777374E0,1.16701584E2,1.4586276E2,3.139002E0,5.684443E0,3.2672482E0,3.3873398E0,1.583767E2,2.884582E1,6.1053047E0,1.4937047E2,6.309262E0,1.198895E1,4.5278597E0,1.8301196E0],"tree_param":{"num_deleted":"0","num_feature":"27","num_nodes":"109","size_leaf_vector":"1"}},{"base_weights":[8.112464E-3,-1.1757017E0,4.6212606E0,-3.9814496E0,-2.8330368E-1,3.0750031E0,7.379201E0,-8.712595E0,-3.6453037E0,-1.2488121E0,3.8266885E-1,2.3562515E0,4.361076E0,6.444775E0,9.35514E0,-1.1919732E1,-3.4196782E-1,-4.522725E0,-2.9079027E0,-1.7258805E0,-9.1095924E-1,-1.3342327E-1,6.655277E-1,-2.1283314E-1,2.5334988E0,2.750032E0,4.598212E0,1.8594671E0,6.7005405E0,2.6801062E0,9.6213E0,-6.19728E-1,-3.317709E-1,-4.6210666E0,1.1120805E0,-2.9846227E0,1.4539775E0,-1.7611624E0,2.1541166E-1,-1.0790085E0,-5.116339E-1,-1.6640483E-1,4.312729E0,6.016556E-1,2.95363E0,-3.070768E0,1.7136663E0,2.4428148E0,6.6033325E0,6.546225E-1,1.93111E-1,4.0828047E0,5.1207285E0,-1.626406E-1,2.3241985E-1,3.0155835E-1,3.6991915E-1,1.480615E-1,5.6404322E-2,4.4600493E-1,5.583121E-1,-2.7797922E-1,-2.1607533E-1,-1.941278E-1,1.2363074E-1,-1.7228825E-1,-1.2990856E-1,1.9832732E-1,-1.1096916E-1,-1.3427407E-1,-8.361136E-2,-1.0431434E-1,-5.230953E-2,-2.9086784E-2,5.814263E-2,-2.4568896E-1,-7.5906822E-3,2.4825399E-1,5.3645622E-2,-7.322919E-2,3.235516E-2,4.777405E-2,3.7766424E-1,-2.1521302E-1,-2.437707E-2,9.8505534E-2,-1.4654757E-2,1.0255861E-1,1.4817019E-1,4.87947E-1,1.2284243E-1,-8.480224E-2,1.20680444E-1,1.9255319E-1,2.4081846E-1,2.5791407E-1,1.24836974E-1,-3.716332E-2,3.3806447E-2],"categories":[],"categories_nodes":[],"categories_segments":[],"categories_sizes":[],"default_left":[0,0,0,0,0,0,0,0,0,0,0,0,0,0,0,0,0,0,0,0,0,0,0,0,0,0,0,0,0,0,0,0,0,0,0,0,0,0,0,0,0,0,0,0,0,0,0,0,0,0,0,0,0,0,0,0,0,0,0,0,0,0,0,0,0,0,0,0,0,0,0,0,0,0,0,0,0,0,0,0,0,0,0,0,0,0,0,0,0,0,0,0,0,0,0,0,0,0,0],"id":12,"left_children":[1,3,5,7,9,11,13,15,17,19,21,23,25,27,29,31,-1,33,35,37,39,41,43,45,47,49,51,53,55,57,59,-1,-1,61,63,65,67,69,-1,71,73,75,77,79,81,83,85,87,89,91,-1,93,95,97,-1,-1,-1,-1,-1,-1,-1,-1,-1,-1,-1,-1,-1,-1,-1,-1,-1,-1,-1,-1,-1,-1,-1,-1,-1,-1,-1,-1,-1,-1,-1,-1,-1,-1,-1,-1,-1,-1,-1,-1,-1,-1,-1,-1,-1],"loss_changes":[4.0079598E4,1.4622225E4,6.3686523E3,2.209461E3,2.8503293E3,8.79E2,9.3249414E2,4.7578857E2,8.3928125E2,2.900686E2,3.8309653E2,2.8255127E2,1.186709E2,4.1944043E2,2.7699316E2,2.0361328E-1,0E0,3.375244E2,2.4483643E2,1.670542E2,7.067352E1,1.3705188E2,2.45935E2,2.3040988E2,1.9771509E2,1.0605087E2,5.93833E1,1.1828874E2,1.18137695E2,1.15493774E-1,7.7521484E1,0E0,0E0,1.4177344E2,8.4994446E1,1.1696533E2,1.2965881E2,5.6783936E1,0E0,2.2481384E1,3.7801735E1,6.324762E1,9.220062E0,1.5590979E2,4.1348236E2,5.15094E1,1.3478348E1,1.09805176E2,1.3359052E2,7.586838E1,0E0,7.80542E0,1.3220215E0,6.856849E0,0E0,0E0,0E0,0E0,0E0,0E0,0E0,0E0,0E0,0E0,0E0,0E0,0E0,0E0,0E0,0E0,0E0,0E0,0E0,0E0,0E0,0E0,0E0,0E0,0E0,0E0,0E0,0E0,0E0,0E0,0E0,0E0,0E0,0E0,0E0,0E0,0E0,0E0,0E0,0E0,0E0,0E0,0E0,0E0,0E0],"parents":[2147483647,0,0,1,1,2,2,3,3,4,4,5,5,6,6,7,7,8,8,9,9,10,10,11,11,12,12,13,13,14,14,15,15,17,17,18,18,19,19,20,20,21,21,22,22,23,23,24,24,25,25,26,26,27,27,28,28,29,29,30,30,33,33,34,34,35,35,36,36,37,37,39,39,40,40,41,41,42,42,43,43,44,44,45,45,46,46,47,47,48,48,49,49,51,51,52,52,53,53],"right_children":[2,4,6,8,10,12,14,16,18,20,22,24,26,28,30,32,-1,34,36,38,40,42,44,46,48,50,52,54,56,58,60,-1,-1,62,64,66,68,70,-1,72,74,76,78,80,82,84,86,88,90,92,-1,94,96,98,-1,-1,-1,-1,-1,-1,-1,-1,-1,-1,-1,-1,-1,-1,-1,-1,-1,-1,-1,-1,-1,-1,-1,-1,-1,-1,-1,-1,-1,-1,-1,-1,-1,-1,-1,-1,-1,-1,-1,-1,-1,-1,-1,-1,-1],"split_conditions":[2.821E1,2.13E1,3.573E1,1.4112E1,2.469426E1,3.186E1,4.04E1,1.2188872E1,1.823E1,2.299E1,2.5854E1,-3.87E0,-2.39E0,3.760059E0,4.832306E0,1.387E1,-3.4196782E-1,1.358E1,7.63E0,7.63E0,2.418E1,7.63E0,5.937559E0,9.143433E-1,7.63E0,1.2996832E0,3.397E1,-7.6025E0,3.778E1,9.999875E-1,4.692E1,-6.19728E-1,-3.317709E-1,1.624E1,9.143433E-1,2.0005238E1,2.52E1,-8.4E-1,2.1541166E-1,-1.73E0,3.1724901E0,-7.6025E0,2.3401407E1,2.485E1,2.008E1,2.138E1,3.212E1,3.019E1,3.098E1,2.4543018E1,1.93111E-1,5.8E-1,4.04E1,3.824E1,2.3241985E-1,3.0155835E-1,3.6991915E-1,1.480615E-1,5.6404322E-2,4.4600493E-1,5.583121E-1,-2.7797922E-1,-2.1607533E-1,-1.941278E-1,1.2363074E-1,-1.7228825E-1,-1.2990856E-1,1.9832732E-1,-1.1096916E-1,-1.3427407E-1,-8.361136E-2,-1.0431434E-1,-5.230953E-2,-2.9086784E-2,5.814263E-2,-2.4568896E-1,-7.5906822E-3,2.4825399E-1,5.3645622E-2,-7.322919E-2,3.235516E-2,4.777405E-2,3.7766424E-1,-2.1521302E-1,-2.437707E-2,9.8505534E-2,-1.4654757E-2,1.0255861E-1,1.4817019E-1,4.87947E-1,1.2284243E-1,-8.480224E-2,1.20680444E-1,1.9255319E-1,2.4081846E-1,2.5791407E-1,1.24836974E-1,-3.716332E-2,3.3806447E-2],"split_indices":[12,12,12,17,17,12,12,20,12,12,17,22,22,2,2,15,0,22,22,22,12,22,2,2,22,2,12,22,12,3,20,0,0,12,2,17,13,22,0,22,2,22,13,12,15,15,13,12,13,15,0,22,13,12,0,0,0,0,0,0,0,0,0,0,0,0,0,0,0,0,0,0,0,0,0,0,0,0,0,0,0,0,0,0,0,0,0,0,0,0,0,0,0,0,0,0,0,0,0],"split_type":[0,0,0,0,0,0,0,0,0,0,0,0,0,0,0,0,0,0,0,0,0,0,0,0,0,0,0,0,0,0,0,0,0,0,0,0,0,0,0,0,0,0,0,0,0,0,0,0,0,0,0,0,0,0,0,0,0,0,0,0,0,0,0,0,0,0,0,0,0,0,0,0,0,0,0,0,0,0,0,0,0,0,0,0,0,0,0,0,0,0,0,0,0,0,0,0,0,0,0],"sum_hessian":[7.337098E3,5.8393613E3,1.4977368E3,1.4082587E3,4.431103E3,9.610389E2,5.366979E2,9.176574E1,1.3164929E3,1.8084243E3,2.6226785E3,6.183126E2,3.427263E2,3.672746E2,1.6942331E2,3.1858397E1,5.9907345E1,5.988263E2,7.176667E2,7.480395E2,1.0603849E3,9.2871436E2,1.6939641E3,3.9892727E1,5.784199E2,4.559072E1,2.9713556E2,1.9840923E1,3.4743365E2,6.9210105E0,1.625023E2,2.7997137E1,3.861258E0,5.887313E2,1.0094955E1,7.055723E2,1.2094379E1,7.443951E2,3.6444006E0,7.4511444E2,3.1527048E2,9.2283136E2,5.8829875E0,1.6491902E3,4.4773994E1,1.5824032E1,2.4068693E1,5.673778E2,1.1042081E1,1.6358746E1,2.9231976E1,1.5402254E2,1.4311304E2,1.2047553E1,7.7933702E0,1.8225566E2,1.6517801E2,5.090891E0,1.8301196E0,1.1643139E2,4.607091E1,1.381983E2,4.50533E2,1.7643135E0,8.330642E0,3.1808887E2,3.8748346E2,7.134551E0,4.9598284E0,6.2774258E1,6.816208E2,2.1536009E1,7.235784E2,3.0322852E2,1.2041973E1,1.7988384E0,9.2103253E2,4.453698E0,1.4292896E0,3.482172E1,1.6143684E3,3.205613E1,1.2717865E1,1.0259082E1,5.5649505E0,2.1357658E1,2.7110357E0,3.2660834E2,2.4076949E2,5.501623E0,5.5404577E0,7.0170755E0,9.34167E0,1.2179575E2,3.2226776E1,1.401416E2,2.9714243E0,7.186598E0,4.860955E0],"tree_param":{"num_deleted":"0","num_feature":"27","num_nodes":"99","size_leaf_vector":"1"}},{"base_weights":[1.6647415E-2,-1.0789952E0,4.5128756E0,-3.633731E0,-2.0514092E-1,3.0253975E0,7.035106E0,-6.8418193E0,-3.1893885E0,-1.0614052E0,4.4659063E-1,2.312505E0,4.1353984E0,6.1243415E0,8.945827E0,-1.1276305E1,-5.8260217E0,-3.2984645E0,3.0282211E0,-1.1166434E0,4.2592654E0,4.037787E-1,5.4891686E0,-2.045299E0,2.4786558E0,-1.4437269E0,4.3188314E0,5.8580216E-2,6.3706255E0,3.6223693E0,9.292914E0,-6.1827356E-1,-4.0922663E-1,-6.08922E0,3.1240848E-1,-4.101043E0,-2.5952506E0,3.7871764E0,3.954357E-1,-1.5522305E0,-8.023366E-1,1.05394E-1,5.2563467E0,1.03959344E-1,7.8682107E-1,1.6090988E-1,7.4485993E0,-1.8713169E-1,-4.6749744E-1,2.366476E0,3.606201E-1,-1.1178436E-1,6.062082E-1,3.1221552E0,4.5837536E0,-8.787116E-1,1.7197791E0,6.073422E0,3.9607546E-1,3.9706833E0,5.4580618E-2,8.59842E0,5.370158E-1,-3.2736325E-1,-2.69633E-1,6.7689545E-2,-1.0766753E-1,-2.0992208E-1,-1.4274518E-1,-1.36964E-1,-6.7401774E-2,1.16373256E-1,2.175933E-1,-6.2642926E-3,3.3994187E-2,-8.11794E-2,-2.4009986E-2,-5.2030083E-2,-2.25855E-2,2.797788E-1,6.974677E-2,-7.8679144E-2,7.7224793E-3,-2.1658972E-1,4.1219044E-2,4.015563E-1,9.034483E-2,-7.133895E-3,-5.3875964E-2,6.7647174E-2,1.2798461E-1,-8.193661E-3,4.610603E-2,7.467953E-2,1.6282623E-1,2.188684E-1,3.0229846E-1,-5.4041203E-2,5.652893E-3,1.17324404E-1,2.4974162E-2,2.8012714E-1,3.5068285E-1,2.3152898E-1,1.0503656E-1,3.532376E-1,4.5082006E-1],"categories":[],"categories_nodes":[],"categories_segments":[],"categories_sizes":[],"default_left":[0,0,0,0,0,0,0,0,0,0,0,0,0,0,0,0,0,0,0,0,0,0,0,0,0,0,0,0,0,0,0,0,0,0,0,0,0,0,0,0,0,0,0,0,0,0,0,0,0,0,0,0,0,0,0,0,0,0,0,0,0,0,0,0,0,0,0,0,0,0,0,0,0,0,0,0,0,0,0,0,0,0,0,0,0,0,0,0,0,0,0,0,0,0,0,0,0,0,0,0,0,0,0,0,0,0,0],"id":13,"left_children":[1,3,5,7,9,11,13,15,17,19,21,23,25,27,29,31,33,35,37,39,41,43,45,47,49,51,53,55,57,59,61,-1,-1,63,65,67,69,71,73,75,77,-1,79,81,83,-1,85,-1,87,89,-1,-1,91,93,95,97,99,101,-1,103,-1,105,-1,-1,-1,-1,-1,-1,-1,-1,-1,-1,-1,-1,-1,-1,-1,-1,-1,-1,-1,-1,-1,-1,-1,-1,-1,-1,-1,-1,-1,-1,-1,-1,-1,-1,-1,-1,-1,-1,-1,-1,-1,-1,-1,-1,-1],"loss_changes":[3.602536E4,1.3126336E4,5.354451E3,2.1144375E3,2.4461294E3,7.0504297E2,8.689043E2,7.516211E2,9.0395996E2,5.6150757E2,5.35145E2,4.048662E2,3.6636816E2,5.413506E2,2.789082E2,9.0703125E0,2.4375488E2,7.207549E2,4.4954697E1,2.5554688E2,3.1119202E1,2.8349713E2,6.8921875E1,5.402678E1,2.656194E2,2.075748E1,9.377881E1,2.5112904E1,1.12506836E2,6.237625E0,6.664844E1,0E0,0E0,1.0505859E1,2.11615E1,6.1259766E1,1.2087402E2,4.649658E0,1.0210749E0,5.9276978E1,9.072217E1,0E0,8.92569E0,1.1765799E2,2.1197644E2,0E0,1.9818054E1,0E0,2.2114255E0,9.866333E1,0E0,0E0,1.1527208E0,9.345764E0,5.7131836E1,2.1973162E0,3.2680817E0,9.207129E1,0E0,2.8134918E0,0E0,8.03418E0,0E0,0E0,0E0,0E0,0E0,0E0,0E0,0E0,0E0,0E0,0E0,0E0,0E0,0E0,0E0,0E0,0E0,0E0,0E0,0E0,0E0,0E0,0E0,0E0,0E0,0E0,0E0,0E0,0E0,0E0,0E0,0E0,0E0,0E0,0E0,0E0,0E0,0E0,0E0,0E0,0E0,0E0,0E0,0E0,0E0],"parents":[2147483647,0,0,1,1,2,2,3,3,4,4,5,5,6,6,7,7,8,8,9,9,10,10,11,11,12,12,13,13,14,14,15,15,16,16,17,17,18,18,19,19,20,20,21,21,22,22,23,23,24,24,25,25,26,26,27,27,28,28,29,29,30,30,33,33,34,34,35,35,36,36,37,37,38,38,39,39,40,40,42,42,43,43,44,44,46,46,48,48,49,49,52,52,53,53,54,54,55,55,56,56,57,57,59,59,61,61],"right_children":[2,4,6,8,10,12,14,16,18,20,22,24,26,28,30,32,34,36,38,40,42,44,46,48,50,52,54,56,58,60,62,-1,-1,64,66,68,70,72,74,76,78,-1,80,82,84,-1,86,-1,88,90,-1,-1,92,94,96,98,100,102,-1,104,-1,106,-1,-1,-1,-1,-1,-1,-1,-1,-1,-1,-1,-1,-1,-1,-1,-1,-1,-1,-1,-1,-1,-1,-1,-1,-1,-1,-1,-1,-1,-1,-1,-1,-1,-1,-1,-1,-1,-1,-1,-1,-1,-1,-1,-1,-1],"split_conditions":[2.848E1,2.164E1,3.573E1,1.555E1,2.4927864E1,3.186E1,4.04E1,1.2188872E1,4.235E0,4.235E0,2.76E0,-2.73E0,-4.76E0,-4.76E0,-4.76E0,1.1236616E1,1.84E0,1.881E1,9.87E-1,2.318E1,3.056E1,2.649221E1,5.71E0,-7.6025E0,2.76E0,-7.6025E0,-5.3E-1,-1.269E1,7.9E-1,9.999884E-1,4.692E1,-6.1827356E-1,-4.0922663E-1,1.942E0,9.75E-1,9.6E-1,7.9E-1,3.171E1,2.8406391E1,5.8E-1,2.8698356E-4,1.05394E-1,2.765E1,-9.5E-1,-4.76E0,1.6090988E-1,3.153E1,-1.8713169E-1,3.098E1,-4.4333333E-1,3.606201E-1,-1.1178436E-1,3.312E1,-3.8E0,1.35E0,3.778E1,2.3759798E2,3.870032E1,3.9607546E-1,4.04E1,5.4580618E-2,-8E-1,5.370158E-1,-3.2736325E-1,-2.69633E-1,6.7689545E-2,-1.0766753E-1,-2.0992208E-1,-1.4274518E-1,-1.36964E-1,-6.7401774E-2,1.16373256E-1,2.175933E-1,-6.2642926E-3,3.3994187E-2,-8.11794E-2,-2.4009986E-2,-5.2030083E-2,-2.25855E-2,2.797788E-1,6.974677E-2,-7.8679144E-2,7.7224793E-3,-2.1658972E-1,4.1219044E-2,4.015563E-1,9.034483E-2,-7.133895E-3,-5.3875964E-2,6.7647174E-2,1.2798461E-1,-8.193661E-3,4.610603E-2,7.467953E-2,1.6282623E-1,2.188684E-1,3.0229846E-1,-5.4041203E-2,5.652893E-3,1.17324404E-1,2.4974162E-2,2.8012714E-1,3.5068285E-1,2.3152898E-1,1.0503656E-1,3.532376E-1,4.5082006E-1],"split_indices":[12,12,12,12,12,12,12,20,21,21,21,21,21,21,21,15,21,12,0,12,20,12,21,22,21,22,21,21,21,3,20,0,0,0,0,21,21,20,15,21,21,0,13,21,21,0,15,0,13,21,0,0,12,21,21,12,1,12,0,14,0,21,0,0,0,0,0,0,0,0,0,0,0,0,0,0,0,0,0,0,0,0,0,0,0,0,0,0,0,0,0,0,0,0,0,0,0,0,0,0,0,0,0,0,0,0,0],"split_type":[0,0,0,0,0,0,0,0,0,0,0,0,0,0,0,0,0,0,0,0,0,0,0,0,0,0,0,0,0,0,0,0,0,0,0,0,0,0,0,0,0,0,0,0,0,0,0,0,0,0,0,0,0,0,0,0,0,0,0,0,0,0,0,0,0,0,0,0,0,0,0,0,0,0,0,0,0,0,0,0,0,0,0,0,0,0,0,0,0,0,0,0,0,0,0,0,0,0,0,0,0,0,0,0,0,0,0],"sum_hessian":[7.310936E3,5.8790796E3,1.4318563E3,1.4976124E3,4.3814673E3,9.0206537E2,5.2979095E2,1.8044295E2,1.3171694E3,1.8933279E3,2.4881392E3,5.5116547E2,3.5089993E2,3.6162433E2,1.6816664E2,3.1747536E1,1.4869542E2,1.294922E3,2.2247446E1,1.8746558E3,1.867221E1,2.4682634E3,1.9875694E1,1.9827206E1,5.3133826E2,1.0951083E1,3.3994882E2,1.415818E1,3.4746616E2,1.0993295E1,1.5717334E2,2.1258972E1,1.0488563E1,1.4258958E2,6.1058207E0,6.0247974E2,6.924423E2,1.6928877E1,5.318569E0,7.8408325E2,1.0905725E3,6.8994446E0,1.1772766E1,1.3852534E3,1.0830101E3,1.0429899E1,9.445794E0,8.890795E0,1.093641E1,5.2050336E2,1.0834897E1,7.8339467E0,3.1171365E0,6.3934906E1,2.7601392E2,9.352367E0,4.8058124E0,2.9571332E2,5.1752842E1,9.163175E0,1.8301196E0,1.1090119E2,4.6272152E1,8.09554E1,6.163419E1,4.6098657E0,1.4959551E0,5.566062E2,4.5873512E1,6.1968445E2,7.275788E1,6.1508164E0,1.0778061E1,2.0766044E0,3.2419648E0,7.3466724E2,4.9416027E1,6.481562E2,4.424163E2,1.0409204E1,1.3635619E0,3.959339E1,1.3456599E3,7.056279E0,1.0759539E3,8.17787E0,1.2679245E0,7.941613E0,2.994797E0,8.4620605E1,4.3588278E2,1.0467657E0,2.0703707E0,5.7964983E0,5.813841E1,2.4537402E2,3.0639904E1,7.694512E0,1.6578561E0,2.5654082E0,2.2404044E0,2.0167236E2,9.404095E1,5.681792E0,3.4813828E0,2.7585587E1,8.3315605E1],"tree_param":{"num_deleted":"0","num_feature":"27","num_nodes":"107","size_leaf_vector":"1"}},{"base_weights":[2.8337596E-2,-9.0911424E-1,4.8691044E0,-3.244825E0,4.0274723E-3,3.757289E0,7.51465E0,-5.911295E0,-2.6999476E0,-7.1251214E-1,7.2834414E-1,2.8105314E0,4.77004E0,6.7182026E0,9.092274E0,-1.0630596E1,-5.176575E0,-3.4952264E0,-2.0077717E0,-1.118523E0,-2.8477782E-1,4.8137918E-1,1.7283688E0,1.4928848E0,3.007069E0,5.007906E0,6.9531894E-1,2.0638595E0,6.9126835E0,9.176473E0,1.8362509E-1,-6.017937E-1,-4.1975912E-1,-3.1189355E-1,-4.781333E0,-3.7730484E0,-3.0522544E0,-2.131405E0,2.3468459E0,-1.3357702E0,-9.430176E-1,-3.4439996E-1,4.2006164E0,-2.1141257E0,5.0813645E-1,1.5815045E0,4.7997613E0,4.131854E-1,2.3291962E0,2.5521908E0,3.426606E0,4.465749E0,5.389492E0,-1.3292917E0,1.7537278E-1,2.6460276E0,7.81524E-1,3.039318E-1,3.6595792E-1,4.288171E-1,5.308084E-1,-1.3623488E-1,-2.4445975E-1,-1.8905757E-1,-2.9416924E-2,-1.5622294E-1,-1.1065494E-1,-1.3246137E-1,-9.567534E-2,-1.0315682E-1,1.9817139E-1,-6.835713E-2,-1.798849E-2,-4.848774E-2,-6.3612848E-3,-2.6316458E-2,-6.0387896E-3,1.5194535E-2,2.8297076E-1,7.870024E-2,-2.8150067E-1,1.8362844E-2,4.471175E-2,4.2107437E-2,8.600246E-2,3.9141586E-1,6.7068845E-2,-1.5101348E-1,7.7361844E-2,7.621537E-2,1.4157932E-1,1.224971E-1,3.0196926E-1,1.5720542E-1,1.8367402E-1,2.2483741E-1,5.2118678E-2,2.6352018E-1,3.7058702E-1,-8.32096E-2,-8.078163E-3,5.570179E-2,1.4819631E-1,-1.9268877E-3,5.922847E-2],"categories":[],"categories_nodes":[],"categories_segments":[],"categories_sizes":[],"default_left":[0,0,0,0,0,0,0,0,0,0,0,0,0,0,0,0,0,0,0,0,0,0,0,0,0,0,0,0,0,0,0,0,0,0,0,0,0,0,0,0,0,0,0,0,0,0,0,0,0,0,0,0,0,0,0,0,0,0,0,0,0,0,0,0,0,0,0,0,0,0,0,0,0,0,0,0,0,0,0,0,0,0,0,0,0,0,0,0,0,0,0,0,0,0,0,0,0,0,0,0,0,0,0,0,0],"id":14,"left_children":[1,3,5,7,9,11,13,15,17,19,21,23,25,27,29,31,33,35,37,39,41,43,45,47,49,51,53,55,57,59,-1,-1,-1,-1,61,63,65,67,69,71,73,75,77,79,81,83,85,87,89,91,93,95,97,99,-1,101,103,-1,-1,-1,-1,-1,-1,-1,-1,-1,-1,-1,-1,-1,-1,-1,-1,-1,-1,-1,-1,-1,-1,-1,-1,-1,-1,-1,-1,-1,-1,-1,-1,-1,-1,-1,-1,-1,-1,-1,-1,-1,-1,-1,-1,-1,-1,-1,-1],"loss_changes":[3.325828E4,1.3095324E4,3.4691152E3,2.4913184E3,2.2919915E3,7.912334E2,3.7974023E2,9.573154E2,7.8276953E2,3.8521692E2,5.4155493E2,1.08461914E2,3.881172E2,2.002334E2,1.8717773E1,1.952832E1,7.696387E1,7.048291E1,4.1925342E2,4.215222E1,2.909167E2,1.2348425E2,1.8842957E2,5.1950043E1,6.349878E1,5.4873047E1,1.3815154E2,6.0918236E0,3.2479492E1,6.104492E0,0E0,0E0,0E0,0E0,2.8778809E1,8.23291E0,8.962891E0,7.941138E1,1.630101E2,1.5013306E1,1.3687866E1,4.3433235E1,7.9427444E1,2.445913E2,9.461075E1,4.1186646E1,1.9206079E2,1.089977E2,8.949295E0,5.136377E1,1.9807129E0,1.2659912E1,1.3708008E1,5.3457127E0,0E0,1.5504074E-1,1.6427243E0,0E0,0E0,0E0,0E0,0E0,0E0,0E0,0E0,0E0,0E0,0E0,0E0,0E0,0E0,0E0,0E0,0E0,0E0,0E0,0E0,0E0,0E0,0E0,0E0,0E0,0E0,0E0,0E0,0E0,0E0,0E0,0E0,0E0,0E0,0E0,0E0,0E0,0E0,0E0,0E0,0E0,0E0,0E0,0E0,0E0,0E0,0E0,0E0],"parents":[2147483647,0,0,1,1,2,2,3,3,4,4,5,5,6,6,7,7,8,8,9,9,10,10,11,11,12,12,13,13,14,14,15,15,16,16,17,17,18,18,19,19,20,20,21,21,22,22,23,23,24,24,25,25,26,26,27,27,28,28,29,29,34,34,35,35,36,36,37,37,38,38,39,39,40,40,41,41,42,42,43,43,44,44,45,45,46,46,47,47,48,48,49,49,50,50,51,51,52,52,53,53,55,55,56,56],"right_children":[2,4,6,8,10,12,14,16,18,20,22,24,26,28,30,32,34,36,38,40,42,44,46,48,50,52,54,56,58,60,-1,-1,-1,-1,62,64,66,68,70,72,74,76,78,80,82,84,86,88,90,92,94,96,98,100,-1,102,104,-1,-1,-1,-1,-1,-1,-1,-1,-1,-1,-1,-1,-1,-1,-1,-1,-1,-1,-1,-1,-1,-1,-1,-1,-1,-1,-1,-1,-1,-1,-1,-1,-1,-1,-1,-1,-1,-1,-1,-1,-1,-1,-1,-1,-1,-1,-1,-1],"split_conditions":[3E1,2.227E1,3.778E1,1.675E1,2.5616625E1,3.3435238E1,4.1252E1,1.2188872E1,2.0005238E1,2.3982E1,2.765E1,-2.03E0,1.2174875E0,4.0644183E0,9.83E-1,1.496E1,1.403E1,1.86E1,3.4574666E0,2.3096E1,4.0644183E0,-7.6025E0,7.63E0,1.8658147E0,3.124E1,3.541E1,-7.6025E0,1.3164604E0,3.9135162E1,4.559E1,1.8362509E-1,-6.017937E-1,-4.1975912E-1,-3.1189355E-1,9.81E-1,3.06E0,7.3E-1,2.066E1,9.43E-1,7.3E-1,1.52E0,2.501E1,3.056E1,9.98E-1,2.689657E1,2.782E1,2.931E1,-7.6025E0,3.161E1,4.47E0,3.212E1,3.954E1,3.95E0,-1.293E1,1.7537278E-1,7.0319E-1,3.870032E1,3.039318E-1,3.6595792E-1,4.288171E-1,5.308084E-1,-1.3623488E-1,-2.4445975E-1,-1.8905757E-1,-2.9416924E-2,-1.5622294E-1,-1.1065494E-1,-1.3246137E-1,-9.567534E-2,-1.0315682E-1,1.9817139E-1,-6.835713E-2,-1.798849E-2,-4.848774E-2,-6.3612848E-3,-2.6316458E-2,-6.0387896E-3,1.5194535E-2,2.8297076E-1,7.870024E-2,-2.8150067E-1,1.8362844E-2,4.471175E-2,4.2107437E-2,8.600246E-2,3.9141586E-1,6.7068845E-2,-1.5101348E-1,7.7361844E-2,7.621537E-2,1.4157932E-1,1.224971E-1,3.0196926E-1,1.5720542E-1,1.8367402E-1,2.2483741E-1,5.2118678E-2,2.6352018E-1,3.7058702E-1,-8.32096E-2,-8.078163E-3,5.570179E-2,1.4819631E-1,-1.9268877E-3,5.922847E-2],"split_indices":[12,12,12,12,12,12,17,20,17,17,17,22,0,2,0,16,12,12,2,17,2,22,22,2,12,12,22,0,12,12,0,0,0,0,0,22,22,12,0,22,22,12,20,0,12,12,13,22,12,22,12,13,22,22,0,4,12,0,0,0,0,0,0,0,0,0,0,0,0,0,0,0,0,0,0,0,0,0,0,0,0,0,0,0,0,0,0,0,0,0,0,0,0,0,0,0,0,0,0,0,0,0,0,0,0],"split_type":[0,0,0,0,0,0,0,0,0,0,0,0,0,0,0,0,0,0,0,0,0,0,0,0,0,0,0,0,0,0,0,0,0,0,0,0,0,0,0,0,0,0,0,0,0,0,0,0,0,0,0,0,0,0,0,0,0,0,0,0,0,0,0,0,0,0,0,0,0,0,0,0,0,0,0,0,0,0,0,0,0,0,0,0,0,0,0,0,0,0,0,0,0,0,0,0,0,0,0,0,0,0,0,0,0],"sum_hessian":[7.326888E3,6.1388623E3,1.1880258E3,1.7247074E3,4.414155E3,8.381891E2,3.4983673E2,2.9096426E2,1.433743E3,2.2189983E3,2.1951565E3,4.3516022E2,4.0302884E2,2.3596878E2,1.1386796E2,3.7381832E1,2.5358244E2,6.6529724E2,7.684458E2,1.137579E3,1.0814193E3,1.7615962E3,4.335604E2,5.759855E1,3.7756168E2,3.805829E2,2.2445951E1,9.930186E0,2.2603859E2,1.11443474E2,2.4244838E0,2.026082E1,1.7121012E1,6.4800125E1,1.8878232E2,4.0424582E2,2.6105142E2,7.4772736E2,2.0718454E1,5.0538416E2,6.321948E2,1.0681442E3,1.3275093E1,1.7179123E1,1.744417E3,4.1522076E2,1.8339622E1,2.5793085E1,3.1805466E1,1.8454929E2,1.9301239E2,1.6246112E2,2.1812178E2,1.3356895E1,9.089056E0,6.098213E0,3.8319733E0,7.9292534E1,1.4674605E2,8.356624E1,2.7877232E1,1.0716136E1,1.7806618E2,4.0303308E2,1.2127506E0,2.3786151E2,2.3189919E1,2.1814987E2,5.295775E2,5.483477E0,1.5234977E1,4.8925684E2,1.6127321E1,6.119497E2,2.0245106E1,5.8823364E2,4.7991055E2,3.9451547E0,9.329938E0,8.653747E0,8.525376E0,1.2795032E3,4.6491385E2,6.6644585E1,3.4857617E2,9.103758E0,9.235865E0,5.9911175E0,1.9801968E1,1.3773227E1,1.8032238E1,1.8094626E2,3.60302E0,9.641765E1,9.659475E1,1.6069247E2,1.7686471E0,2.0939676E2,8.72501E0,1.0049564E1,3.307331E0,1.8220261E0,4.276187E0,1.5607517E0,2.2712216E0],"tree_param":{"num_deleted":"0","num_feature":"27","num_nodes":"105","size_leaf_vector":"1"}},{"base_weights":[1.9290373E-3,-8.075564E-1,4.2325206E0,-3.020545E0,-7.372424E-2,4.7191663E0,-6.6932044E0,-3.7957478E0,-2.023348E0,-1.0162117E0,4.237046E-1,3.7283351E0,6.7460427E0,-4.2816812E-1,-3.7241085E0,-3.6668062E0,-6.0732275E-1,-2.1430688E0,-9.80687E-1,-2.2901576E0,-8.6184245E-1,4.8347216E-2,1.1740794E0,2.452671E0,4.6521955E0,6.2177505E0,8.6922E0,-2.1836114E-1,-1.203981E-1,-4.9835525E0,-3.4376001E0,-2.6870725E0,-1.9174064E0,-1.3427969E0,-5.5848956E-1,1.2127304E-1,-2.562719E0,-1.0606803E0,-4.137246E-1,-5.475776E-1,2.981262E-1,1.0565553E0,2.75145E0,2.0651736E0,3.2585132E0,4.020375E0,5.7985377E0,5.888493E0,3.6646095E-1,8.861989E0,2.1131568E-1,-2.5544152E-1,1.306445E-1,-1.7987572E-1,-1.2555106E-1,-1.5857501E-1,-1.2730579E-1,-9.809529E-2,-1.9188216E-2,-2.5125144E-2,-7.80512E-2,1.1772225E-2,-3.7425976E-2,-7.3996775E-2,-1.7597729E-1,-5.483186E-2,9.537113E-4,-7.313669E-2,-1.7229643E-2,-6.9717825E-3,-5.062964E-2,4.688507E-3,2.2471458E-2,3.2455478E-2,7.0877634E-2,5.729321E-3,1.4636122E-1,8.630776E-2,1.4360999E-1,1.45208E-1,2.0683081E-1,1.2530908E-1,2.1832299E-1,2.4799371E-1,3.759381E-1,2.7836332E-1,3.235371E-1,1.5585959E-1,4.476788E-1],"categories":[],"categories_nodes":[],"categories_segments":[],"categories_sizes":[],"default_left":[0,0,0,0,0,0,0,0,0,0,0,0,0,0,0,0,0,0,0,0,0,0,0,0,0,0,0,0,0,0,0,0,0,0,0,0,0,0,0,0,0,0,0,0,0,0,0,0,0,0,0,0,0,0,0,0,0,0,0,0,0,0,0,0,0,0,0,0,0,0,0,0,0,0,0,0,0,0,0,0,0,0,0,0,0,0,0,0,0],"id":15,"left_children":[1,3,5,7,9,11,13,15,17,19,21,23,25,-1,27,29,-1,31,33,35,37,39,41,43,45,47,49,-1,-1,51,53,55,57,59,61,-1,63,65,67,69,71,73,75,77,79,81,83,85,-1,87,-1,-1,-1,-1,-1,-1,-1,-1,-1,-1,-1,-1,-1,-1,-1,-1,-1,-1,-1,-1,-1,-1,-1,-1,-1,-1,-1,-1,-1,-1,-1,-1,-1,-1,-1,-1,-1,-1,-1],"loss_changes":[2.5094744E4,9.9885625E3,6.2891797E3,1.1763672E3,2.1664634E3,2.2388223E3,2.4907104E2,8.821465E2,8.179126E1,3.119646E2,8.519076E2,8.835781E2,3.2524023E2,0E0,7.533203E0,2.3909375E2,0E0,6.8750244E1,1.0114433E1,2.2719452E2,1.26571655E2,3.0043417E2,1.8405371E2,9.353369E1,2.9488086E2,6.430762E1,2.0362793E1,0E0,0E0,1.3102026E2,9.858887E1,3.807129E0,2.8523804E1,6.0998535E0,5.3845844E0,0E0,1.6368616E2,3.832898E1,3.1385742E1,1.13004684E2,4.3929405E1,1.3737427E2,3.1788452E1,5.5111816E1,1.989038E1,1.3918408E2,1.8465039E2,7.298828E0,0E0,1.0258789E1,0E0,0E0,0E0,0E0,0E0,0E0,0E0,0E0,0E0,0E0,0E0,0E0,0E0,0E0,0E0,0E0,0E0,0E0,0E0,0E0,0E0,0E0,0E0,0E0,0E0,0E0,0E0,0E0,0E0,0E0,0E0,0E0,0E0,0E0,0E0,0E0,0E0,0E0,0E0],"parents":[2147483647,0,0,1,1,2,2,3,3,4,4,5,5,6,6,7,7,8,8,9,9,10,10,11,11,12,